<?xml version="1.0"?>
<opencv_storage>
<my_svm type_id="opencv-ml-svm">
  <svm_type>C_SVC</svm_type>
  <kernel><type>LINEAR</type></kernel>
  <C>1.</C>
  <term_criteria><epsilon>2.2204460492503131e-16</epsilon>
    <iterations>500</iterations></term_criteria>
  <var_all>200</var_all>
  <var_count>200</var_count>
  <class_count>2</class_count>
  <class_labels type_id="opencv-matrix">
    <rows>1</rows>
    <cols>2</cols>
    <dt>i</dt>
    <data>
      0 1</data></class_labels>
  <sv_total>1</sv_total>
  <support_vectors>
    <_>
      1.63952148e+00 -1.68109998e-01 1.85784686e+00 1.72712910e+00
      2.13978457e+00 -2.55320573e+00 -1.90143538e+00 -2.18260765e+00
      -2.45576549e+00 -2.47870818e-01 -1.18047845e+00 -2.55863643e+00
      1.98133969e+00 5.19641161e-01 1.08291864e+00 -1.80995214e+00
      -3.91674638e-01 -3.25677013e+00 -1.99825358e+00 3.55306220e+00
      1.94607651e+00 1.82205737e+00 -2.48779893e-01 1.86165071e+00
      2.32904291e+00 1.54492819e+00 -1.92775118e+00 -2.47107649e+00
      -2.54952145e+00 1.22294259e+00 1.75430670e-01 4.43660319e-01
      1.36358845e+00 -1.66937792e+00 -4.90909070e-01 1.93373203e+00
      -1.79050231e+00 -9.25717652e-01 -1.15102863e+00 -1.33155501e+00
      -1.28150713e+00 1.46947360e+00 6.23732090e-01 -1.34906697e+00
      -2.41363621e+00 -1.46476066e+00 -5.01129150e+00 3.07727247e-01
      5.15502334e-01 -8.04019094e-01 1.16705751e+00 -9.71769989e-02
      1.08619618e+00 7.32966483e-01 -3.38696170e+00 -1.68349251e-01
      -2.35653114e+00 -1.73086119e+00 -2.15143538e+00 1.10232055e+00
      2.06645942e+00 -8.97272706e-01 1.20220101e+00 1.17244017e+00
      -1.43255973e+00 -3.61865997e-01 1.46177030e+00 1.00760770e+00
      -2.19129181e+00 1.94973683e+00 -1.48877990e+00 -7.40837276e-01
      1.84559810e+00 9.05981436e-02 1.39636362e+00 1.31653106e+00
      -9.22631562e-01 -8.37320387e-02 -2.68928218e+00 3.79473686e-01
      1.67205739e+00 -1.59114826e+00 -1.46404302e+00 5.80622017e-01
      1.55995214e+00 1.85887563e+00 -6.60574138e-01 1.56559801e+00
      -1.50858843e+00 -4.50406700e-01 -1.46744013e+00 4.49306250e-01
      -9.57176909e-02 -1.07487977e-01 3.85215312e-01 1.09820569e+00
      -1.86380374e+00 -3.07490420e+00 1.51607656e+00 -2.75476074e+00
      7.95956910e-01 -4.64234412e-01 1.62877989e+00 1.18813396e+00
      1.34358847e+00 -1.73940182e+00 -2.70334929e-01 1.99832535e+00
      -5.94665051e-01 2.41665077e+00 6.40263200e-01 1.66002393e+00
      -5.69569349e-01 -1.00129187e+00 -2.19423437e+00 2.10311007e+00
      -6.54305592e-02 6.40909076e-01 -2.32198548e+00 -1.18899512e+00
      -1.29145932e+00 5.43684185e-01 -2.63899517e+00 1.47820568e+00
      1.21944976e+00 -7.60095596e-01 2.72086120e+00 1.53078949e+00
      -1.45959330e+00 -1.27418649e+00 1.62837327e+00 -6.32368445e-01
      2.78736854e+00 1.02806222e+00 2.76729655e+00 1.90748799e+00
      -2.48870802e+00 -1.46105254e+00 1.46021533e+00 -9.15741563e-01
      -2.30464101e+00 9.92799044e-01 1.30921054e+00 6.08373582e-02
      1.46748793e+00 1.31177032e+00 -1.52734447e+00 8.80861163e-01
      -1.03588521e-01 1.49234474e-01 8.04545954e-02 -1.40827751e+00
      -1.31909084e+00 3.80119681e-01 4.97679442e-01 -1.36918652e+00
      3.89521569e-01 -1.65691388e+00 6.50789440e-01 1.21937799e+00
      3.09002399e+00 1.46076548e+00 2.01868415e+00 1.44545466e-01
      -3.13995153e-01 2.07210517e+00 1.44241631e+00 -9.37153101e-01
      -2.33038259e+00 4.28947389e-01 -1.70775115e+00 4.59808648e-01
      1.21155500e+00 1.81217694e+00 -2.54090905e-01 -2.25751185e+00
      1.55533493e+00 1.14842105e+00 -1.94545448e+00 -8.18421006e-01
      -1.16124347e-01 -6.78803802e-01 2.24076557e+00 1.83325362e+00
      -4.26626742e-01 1.99533486e+00 2.19007182e+00 5.58038235e-01
      -1.33736837e+00 -5.42344153e-02 2.27851677e+00 -2.59401894e+00
      -1.50418651e+00 2.37511992e-01 -1.78210521e+00 1.56851673e+00
      -4.81339470e-02 9.87368405e-01 1.31110048e+00 -1.95502356e-01</_></support_vectors>
  <decision_functions>
    <_>
      <sv_count>1</sv_count>
      <rho>-1.7604814484548115e-01</rho>
      <alpha>
        1.</alpha>
      <index>
        0</index></_></decision_functions></my_svm>
</opencv_storage>
