<?xml version="1.0"?>
<opencv_storage>
<my_svm type_id="opencv-ml-svm">
  <svm_type>C_SVC</svm_type>
  <kernel><type>RBF</type>
    <gamma>1.0000000000000001e-09</gamma></kernel>
  <C>1.</C>
  <term_criteria><epsilon>2.2204460492503131e-16</epsilon>
    <iterations>500</iterations></term_criteria>
  <var_all>256</var_all>
  <var_count>256</var_count>
  <class_count>2</class_count>
  <class_labels type_id="opencv-matrix">
    <rows>1</rows>
    <cols>2</cols>
    <dt>i</dt>
    <data>
      0 1</data></class_labels>
  <sv_total>1000</sv_total>
  <support_vectors>
    <_>
      2761. 3. 29. 19. 8. 0. 19. 7. 214. 0. 3. 2. 100. 0. 192. 8. 13. 0.
      0. 0. 0. 0. 0. 0. 129. 0. 1. 0. 87. 0. 57. 3. 64. 0. 0. 0. 0. 0.
      0. 0. 4. 0. 0. 0. 0. 0. 5. 0. 44. 0. 0. 0. 1. 0. 5. 0. 330. 0. 1.
      1. 85. 0. 54. 1. 6. 0. 0. 0. 0. 0. 0. 0. 0. 0. 0. 0. 0. 0. 0. 0.
      0. 0. 0. 0. 0. 0. 0. 0. 0. 0. 0. 0. 0. 0. 0. 0. 37. 1. 0. 3. 0. 0.
      0. 0. 4. 0. 0. 0. 0. 0. 2. 0. 13. 0. 0. 0. 0. 0. 0. 0. 11. 0. 0.
      0. 3. 0. 3. 1. 37. 32. 1. 103. 0. 0. 0. 4. 2. 0. 0. 1. 1. 3. 3.
      21. 0. 0. 0. 0. 0. 0. 0. 0. 0. 0. 0. 1. 0. 0. 0. 3. 1. 0. 0. 5. 0.
      0. 0. 0. 0. 0. 0. 0. 0. 0. 0. 0. 0. 0. 0. 0. 0. 0. 0. 0. 2. 0. 0.
      0. 0. 0. 0. 3. 26. 9. 0. 7. 0. 0. 2. 0. 1. 0. 0. 0. 0. 1. 0. 2. 0.
      0. 0. 0. 0. 0. 0. 0. 4. 0. 0. 0. 0. 0. 0. 0. 171. 7. 2. 19. 0. 0.
      0. 2. 6. 0. 0. 1. 4. 0. 7. 1. 12. 1. 0. 4. 0. 0. 0. 0. 25. 2. 0.
      1. 7. 0. 5. 2.</_>
    <_>
      2436. 3. 23. 15. 11. 0. 15. 2. 396. 0. 5. 3. 196. 0. 218. 7. 32.
      0. 0. 0. 0. 0. 0. 0. 202. 0. 1. 0. 175. 1. 124. 4. 35. 0. 1. 1. 1.
      0. 0. 0. 7. 0. 0. 0. 1. 0. 7. 0. 35. 0. 0. 0. 1. 0. 7. 0. 284. 0.
      1. 0. 138. 0. 80. 2. 1. 0. 0. 0. 0. 0. 0. 0. 0. 0. 0. 0. 0. 0. 0.
      0. 0. 0. 0. 0. 0. 0. 0. 0. 0. 0. 0. 0. 0. 0. 0. 0. 29. 1. 1. 5. 0.
      0. 0. 0. 8. 0. 0. 0. 2. 0. 4. 0. 2. 0. 0. 0. 0. 0. 0. 0. 12. 0. 0.
      0. 5. 0. 4. 1. 19. 13. 1. 46. 0. 0. 0. 3. 2. 1. 0. 3. 1. 1. 1. 18.
      0. 0. 0. 0. 0. 0. 0. 0. 0. 0. 0. 0. 1. 1. 0. 7. 0. 0. 0. 0. 0. 0.
      0. 0. 0. 0. 0. 0. 0. 0. 0. 0. 0. 0. 0. 0. 0. 0. 0. 0. 1. 0. 0. 0.
      0. 0. 0. 0. 14. 2. 0. 4. 0. 0. 2. 0. 2. 0. 0. 0. 0. 1. 0. 0. 0. 0.
      0. 0. 0. 0. 0. 0. 3. 0. 0. 0. 1. 0. 0. 0. 84. 7. 1. 12. 0. 0. 0.
      1. 12. 0. 0. 2. 6. 0. 12. 1. 4. 0. 0. 0. 0. 0. 0. 0. 26. 0. 0. 0.
      15. 0. 9. 3.</_>
    <_>
      195. 18. 9. 24. 23. 0. 22. 33. 12. 2. 1. 1. 25. 1. 57. 28. 17. 2.
      0. 0. 0. 0. 2. 0. 19. 0. 0. 1. 103. 0. 110. 21. 53. 0. 1. 1. 1. 0.
      1. 0. 2. 0. 0. 0. 0. 0. 2. 0. 63. 0. 1. 0. 5. 0. 1. 0. 174. 0. 3.
      2. 203. 1. 44. 7. 37. 0. 1. 3. 2. 0. 0. 0. 0. 0. 0. 0. 0. 0. 0. 1.
      0. 0. 0. 0. 0. 0. 0. 0. 1. 0. 0. 0. 1. 0. 0. 0. 115. 6. 1. 2. 0.
      0. 0. 1. 0. 0. 0. 0. 2. 0. 2. 1. 152. 0. 0. 0. 1. 0. 1. 0. 140. 2.
      1. 0. 28. 0. 6. 0. 44. 90. 0. 158. 1. 0. 3. 65. 0. 4. 0. 2. 0. 1.
      2. 31. 2. 1. 0. 0. 0. 0. 0. 0. 1. 0. 0. 2. 0. 0. 1. 12. 7. 4. 0.
      2. 0. 0. 0. 1. 0. 0. 0. 0. 0. 1. 0. 0. 6. 2. 0. 0. 0. 0. 0. 1. 4.
      1. 0. 4. 0. 0. 2. 11. 123. 442. 2. 412. 1. 0. 1. 28. 1. 0. 0. 1.
      0. 1. 2. 11. 1. 0. 0. 1. 0. 0. 0. 0. 1. 1. 0. 0. 2. 0. 0. 3. 392.
      503. 0. 176. 0. 2. 0. 11. 2. 2. 1. 2. 1. 1. 3. 8. 202. 76. 1. 18.
      0. 1. 1. 4. 97. 34. 1. 13. 10. 0. 13. 15.</_>
    <_>
      226. 19. 15. 23. 17. 0. 24. 25. 15. 1. 3. 2. 44. 2. 138. 76. 14.
      0. 0. 0. 0. 0. 1. 0. 30. 0. 0. 0. 128. 0. 188. 19. 56. 2. 0. 1. 2.
      0. 1. 0. 2. 0. 0. 0. 3. 0. 2. 0. 71. 1. 0. 0. 1. 0. 4. 0. 203. 0.
      2. 2. 178. 0. 65. 4. 38. 0. 0. 0. 0. 0. 0. 0. 0. 0. 0. 0. 0. 0. 2.
      0. 0. 0. 0. 0. 0. 0. 0. 0. 1. 0. 0. 0. 0. 0. 1. 0. 86. 4. 2. 6. 1.
      0. 1. 1. 0. 0. 0. 0. 4. 0. 1. 0. 118. 0. 1. 0. 1. 0. 1. 0. 107. 1.
      2. 1. 16. 0. 8. 1. 40. 87. 5. 127. 2. 0. 4. 36. 2. 1. 0. 4. 0. 0.
      4. 14. 2. 3. 0. 0. 0. 0. 0. 0. 1. 1. 0. 1. 0. 0. 0. 4. 5. 2. 0. 2.
      0. 0. 0. 0. 0. 0. 0. 0. 0. 1. 0. 0. 3. 1. 0. 0. 0. 0. 0. 1. 5. 2.
      0. 2. 0. 1. 3. 7. 114. 382. 3. 333. 0. 1. 2. 24. 1. 0. 0. 2. 1. 3.
      2. 9. 1. 0. 0. 1. 0. 0. 0. 1. 2. 1. 0. 0. 1. 0. 2. 0. 456. 630. 0.
      139. 0. 1. 0. 5. 6. 1. 0. 1. 1. 1. 4. 8. 160. 44. 1. 14. 0. 0. 0.
      3. 83. 18. 0. 11. 9. 1. 6. 11.</_>
    <_>
      148. 23. 10. 30. 31. 0. 37. 41. 20. 2. 1. 2. 57. 4. 159. 71. 22.
      0. 1. 0. 0. 0. 3. 0. 51. 0. 0. 2. 202. 0. 260. 32. 28. 1. 1. 3. 1.
      0. 0. 0. 1. 0. 0. 0. 2. 0. 2. 1. 38. 1. 2. 0. 4. 0. 3. 0. 196. 0.
      4. 3. 331. 1. 106. 11. 27. 1. 1. 2. 4. 0. 1. 0. 0. 0. 0. 0. 0. 0.
      1. 1. 0. 0. 0. 0. 0. 0. 0. 0. 1. 0. 0. 0. 1. 0. 1. 0. 57. 4. 0. 4.
      3. 0. 0. 2. 0. 0. 0. 0. 4. 0. 3. 0. 85. 0. 0. 0. 2. 0. 1. 0. 83.
      2. 2. 1. 30. 0. 7. 1. 24. 70. 2. 180. 1. 0. 3. 73. 4. 5. 0. 3. 1.
      2. 2. 44. 3. 2. 0. 0. 0. 0. 0. 0. 4. 0. 0. 3. 0. 0. 1. 14. 3. 1.
      0. 1. 0. 0. 0. 0. 0. 0. 0. 0. 0. 1. 0. 0. 2. 3. 0. 0. 0. 0. 0. 1.
      4. 2. 0. 5. 1. 0. 3. 14. 75. 363. 3. 383. 2. 0. 1. 30. 1. 1. 0. 2.
      0. 2. 2. 11. 0. 1. 0. 1. 0. 0. 0. 0. 1. 1. 0. 0. 2. 0. 3. 4. 255.
      473. 0. 137. 0. 2. 0. 11. 7. 1. 0. 2. 1. 0. 5. 12. 121. 55. 2. 11.
      0. 1. 0. 4. 61. 19. 1. 12. 11. 0. 14. 18.</_>
    <_>
      323. 12. 30. 51. 63. 1. 52. 52. 23. 0. 1. 5. 44. 1. 30. 30. 11. 0.
      0. 1. 2. 0. 1. 0. 47. 0. 1. 1. 77. 0. 17. 13. 31. 0. 3. 0. 2. 0.
      1. 0. 3. 0. 0. 1. 3. 0. 1. 0. 60. 0. 2. 0. 5. 0. 0. 0. 439. 0. 6.
      10. 353. 2. 51. 17. 84. 1. 3. 8. 3. 0. 5. 0. 1. 0. 1. 0. 2. 0. 0.
      0. 0. 0. 0. 0. 0. 0. 0. 0. 6. 0. 0. 0. 0. 0. 0. 0. 75. 1. 3. 0. 2.
      0. 0. 3. 2. 0. 0. 0. 2. 0. 0. 0. 75. 0. 0. 0. 1. 0. 1. 0. 253. 2.
      1. 3. 43. 0. 3. 0. 31. 71. 2. 472. 3. 2. 2. 189. 1. 2. 0. 12. 0.
      3. 2. 36. 2. 2. 0. 3. 0. 0. 0. 0. 7. 2. 0. 8. 1. 1. 0. 21. 3. 6.
      0. 13. 2. 0. 0. 6. 0. 0. 0. 1. 0. 0. 0. 2. 1. 3. 0. 8. 0. 1. 0. 3.
      13. 16. 0. 42. 3. 2. 0. 40. 92. 138. 6. 541. 0. 0. 0. 27. 0. 2. 1.
      1. 0. 0. 3. 4. 0. 2. 0. 1. 0. 0. 0. 0. 0. 0. 0. 6. 0. 0. 0. 3. 81.
      74. 2. 89. 1. 0. 1. 9. 2. 3. 0. 1. 1. 0. 1. 7. 34. 34. 1. 32. 0.
      0. 0. 5. 72. 19. 0. 52. 9. 4. 7. 17.</_>
    <_>
      134. 18. 11. 23. 25. 0. 29. 46. 11. 0. 1. 1. 27. 0. 80. 64. 20. 1.
      0. 0. 3. 0. 3. 0. 34. 1. 0. 0. 125. 0. 118. 19. 36. 2. 0. 0. 5. 0.
      0. 0. 4. 0. 0. 0. 1. 0. 2. 1. 63. 0. 0. 1. 1. 0. 0. 0. 192. 2. 2.
      1. 236. 1. 73. 7. 45. 3. 3. 1. 1. 0. 2. 0. 3. 0. 0. 0. 0. 0. 0. 1.
      0. 0. 0. 0. 0. 0. 0. 0. 3. 0. 1. 0. 1. 0. 0. 0. 101. 2. 2. 1. 1.
      0. 2. 0. 1. 0. 0. 0. 1. 0. 1. 1. 142. 0. 0. 1. 1. 0. 0. 0. 122. 0.
      0. 1. 31. 0. 9. 0. 34. 71. 3. 121. 2. 0. 0. 40. 1. 4. 1. 5. 1. 0.
      3. 35. 2. 0. 0. 0. 0. 0. 0. 0. 5. 2. 0. 4. 3. 1. 2. 13. 4. 2. 0.
      4. 0. 1. 0. 0. 0. 0. 0. 0. 1. 0. 0. 1. 3. 3. 0. 3. 0. 0. 0. 0. 10.
      6. 0. 3. 4. 3. 3. 14. 86. 444. 1. 431. 0. 2. 3. 30. 1. 5. 0. 2. 1.
      1. 1. 12. 4. 0. 0. 1. 0. 0. 0. 1. 4. 2. 0. 1. 0. 0. 0. 0. 300.
      526. 2. 182. 0. 1. 0. 14. 1. 4. 0. 1. 2. 2. 4. 10. 169. 61. 1. 30.
      0. 2. 1. 5. 103. 42. 1. 21. 15. 1. 8. 20.</_>
    <_>
      221. 15. 21. 24. 13. 0. 26. 30. 34. 0. 2. 0. 33. 1. 105. 57. 19.
      1. 0. 0. 1. 0. 0. 0. 56. 0. 1. 0. 107. 0. 127. 14. 70. 3. 1. 1. 1.
      0. 2. 0. 1. 0. 0. 0. 0. 0. 0. 0. 71. 0. 1. 0. 3. 0. 1. 1. 210. 0.
      2. 1. 217. 0. 50. 5. 38. 0. 2. 2. 0. 0. 0. 1. 1. 0. 0. 0. 0. 0. 0.
      0. 0. 0. 0. 0. 0. 0. 0. 0. 0. 0. 0. 0. 0. 0. 0. 0. 103. 3. 0. 0.
      0. 0. 0. 0. 3. 0. 0. 1. 2. 0. 2. 0. 134. 1. 0. 1. 0. 0. 0. 0. 134.
      0. 2. 0. 17. 0. 4. 1. 55. 90. 2. 109. 0. 0. 0. 25. 0. 0. 0. 2. 1.
      0. 2. 31. 1. 0. 0. 0. 0. 0. 0. 0. 3. 0. 0. 1. 2. 0. 2. 4. 4. 2. 0.
      2. 0. 0. 0. 1. 0. 0. 0. 1. 0. 0. 0. 0. 1. 3. 0. 1. 0. 0. 1. 0. 6.
      3. 0. 3. 4. 0. 0. 6. 130. 358. 1. 252. 0. 1. 5. 14. 3. 3. 0. 1. 1.
      0. 1. 9. 0. 0. 0. 0. 0. 0. 0. 0. 1. 0. 0. 0. 1. 0. 0. 0. 490. 610.
      1. 168. 0. 0. 0. 7. 3. 4. 0. 0. 6. 1. 15. 9. 196. 48. 1. 13. 1. 0.
      1. 1. 97. 26. 0. 12. 11. 0. 12. 5.</_>
    <_>
      185. 16. 20. 34. 26. 1. 34. 29. 31. 1. 4. 1. 43. 0. 177. 80. 15.
      0. 0. 0. 1. 0. 1. 1. 46. 0. 3. 0. 179. 0. 258. 23. 46. 1. 1. 1. 3.
      0. 0. 0. 1. 0. 0. 0. 1. 0. 1. 0. 71. 0. 1. 0. 3. 0. 1. 2. 178. 1.
      2. 2. 248. 1. 83. 5. 33. 1. 3. 2. 1. 0. 1. 1. 2. 0. 0. 0. 0. 0. 0.
      0. 1. 0. 0. 0. 0. 0. 0. 0. 0. 0. 0. 0. 1. 0. 1. 0. 84. 0. 2. 1. 0.
      0. 1. 0. 3. 0. 0. 0. 1. 0. 1. 1. 80. 2. 0. 0. 0. 0. 0. 0. 93. 0.
      1. 1. 19. 0. 2. 0. 35. 89. 1. 128. 2. 0. 0. 20. 0. 1. 0. 1. 2. 0.
      4. 40. 0. 0. 0. 0. 0. 0. 0. 0. 5. 2. 0. 4. 4. 0. 2. 8. 3. 3. 0. 3.
      0. 1. 0. 0. 0. 0. 0. 0. 1. 0. 0. 0. 4. 2. 0. 1. 0. 0. 0. 0. 4. 2.
      0. 2. 2. 2. 1. 10. 94. 340. 0. 381. 0. 1. 3. 28. 3. 4. 0. 3. 1. 1.
      2. 11. 0. 1. 0. 1. 0. 0. 0. 1. 1. 1. 0. 0. 0. 0. 1. 2. 399. 512.
      1. 142. 0. 0. 0. 11. 8. 6. 0. 1. 6. 1. 17. 8. 119. 36. 0. 14. 0.
      1. 0. 1. 66. 19. 0. 10. 17. 1. 10. 12.</_>
    <_>
      145. 17. 34. 46. 37. 1. 55. 56. 28. 1. 4. 2. 56. 0. 171. 74. 21.
      1. 0. 0. 3. 0. 2. 0. 52. 1. 1. 0. 256. 0. 282. 25. 24. 2. 4. 1. 6.
      0. 1. 0. 0. 0. 0. 0. 2. 0. 3. 1. 54. 0. 1. 0. 2. 0. 2. 1. 191. 2.
      2. 1. 373. 1. 133. 9. 30. 3. 3. 1. 1. 0. 3. 0. 2. 0. 0. 0. 1. 0.
      0. 1. 1. 0. 0. 0. 0. 0. 0. 0. 1. 0. 1. 0. 1. 0. 1. 0. 62. 3. 4. 1.
      0. 0. 2. 0. 1. 0. 0. 0. 0. 0. 2. 1. 71. 1. 1. 0. 0. 0. 0. 0. 99.
      0. 0. 1. 27. 0. 7. 0. 22. 58. 1. 150. 2. 1. 0. 61. 4. 4. 1. 7. 3.
      1. 4. 58. 0. 0. 0. 0. 0. 0. 0. 0. 3. 3. 0. 7. 5. 1. 3. 18. 3. 2.
      0. 2. 0. 1. 0. 0. 1. 0. 0. 0. 1. 0. 0. 1. 5. 1. 0. 0. 0. 0. 0. 0.
      8. 2. 0. 2. 3. 3. 2. 17. 65. 300. 2. 381. 0. 1. 2. 32. 4. 3. 0. 3.
      0. 1. 2. 11. 1. 3. 0. 2. 0. 0. 0. 1. 2. 2. 0. 1. 0. 0. 1. 2. 210.
      359. 1. 132. 0. 0. 0. 13. 10. 3. 0. 2. 3. 2. 5. 8. 100. 50. 1. 16.
      0. 1. 0. 2. 67. 24. 0. 18. 17. 1. 7. 23.</_>
    <_>
      152. 18. 30. 53. 36. 0. 64. 85. 29. 0. 1. 4. 78. 0. 143. 82. 19.
      1. 0. 0. 5. 0. 2. 0. 61. 1. 2. 1. 316. 0. 242. 28. 25. 2. 3. 0. 7.
      0. 3. 1. 1. 0. 0. 0. 3. 0. 4. 1. 43. 0. 0. 1. 0. 0. 4. 0. 183. 2.
      3. 0. 376. 1. 167. 16. 38. 2. 4. 3. 1. 0. 2. 0. 0. 0. 0. 0. 2. 0.
      0. 1. 0. 0. 0. 0. 0. 0. 0. 0. 1. 0. 2. 0. 1. 0. 1. 0. 62. 3. 3. 3.
      1. 0. 2. 0. 1. 0. 0. 0. 0. 0. 1. 0. 82. 0. 1. 0. 0. 0. 0. 0. 79.
      0. 0. 0. 36. 0. 8. 1. 21. 42. 0. 154. 0. 1. 0. 77. 5. 4. 1. 10. 4.
      3. 2. 64. 0. 0. 0. 0. 0. 0. 0. 0. 4. 2. 0. 6. 4. 3. 3. 24. 2. 2.
      0. 0. 0. 0. 0. 0. 1. 0. 0. 0. 0. 0. 0. 2. 6. 2. 1. 1. 0. 0. 0. 1.
      8. 2. 0. 4. 3. 1. 2. 16. 55. 261. 3. 438. 1. 0. 0. 21. 1. 3. 0. 4.
      1. 0. 1. 9. 1. 2. 0. 3. 0. 0. 0. 0. 1. 2. 1. 2. 0. 0. 1. 0. 171.
      315. 1. 107. 1. 0. 1. 8. 5. 5. 0. 1. 1. 2. 1. 3. 101. 51. 1. 22.
      0. 0. 0. 1. 72. 26. 0. 21. 9. 1. 3. 19.</_>
    <_>
      197. 9. 39. 65. 67. 0. 75. 133. 35. 2. 2. 3. 81. 1. 177. 99. 8. 0.
      2. 1. 2. 0. 1. 0. 78. 0. 5. 3. 264. 0. 204. 35. 25. 1. 4. 1. 4. 0.
      2. 1. 1. 0. 0. 1. 2. 0. 2. 2. 41. 0. 0. 2. 3. 0. 0. 0. 253. 0. 3.
      3. 527. 0. 98. 26. 57. 0. 4. 4. 2. 0. 2. 0. 1. 0. 0. 0. 0. 0. 2.
      0. 0. 0. 0. 0. 0. 0. 0. 0. 4. 0. 0. 0. 0. 0. 0. 1. 57. 0. 0. 1. 0.
      0. 1. 1. 0. 0. 0. 0. 1. 0. 0. 1. 69. 0. 2. 1. 1. 0. 1. 0. 130. 0.
      4. 2. 22. 0. 5. 3. 16. 43. 2. 266. 0. 0. 2. 162. 2. 3. 0. 13. 1.
      1. 7. 68. 0. 2. 1. 0. 0. 0. 0. 1. 4. 1. 0. 9. 1. 5. 1. 26. 3. 2.
      0. 4. 0. 0. 0. 0. 0. 0. 0. 0. 0. 0. 1. 0. 2. 1. 0. 1. 0. 0. 0. 1.
      7. 4. 0. 10. 1. 3. 2. 31. 54. 177. 0. 344. 0. 0. 2. 33. 1. 1. 1.
      1. 2. 0. 1. 16. 2. 0. 0. 0. 0. 0. 0. 0. 4. 1. 0. 1. 1. 0. 1. 1.
      92. 143. 0. 95. 0. 0. 1. 4. 3. 2. 0. 3. 0. 0. 0. 5. 46. 28. 0. 17.
      1. 1. 0. 1. 38. 26. 0. 25. 11. 2. 2. 19.</_>
    <_>
      238. 20. 36. 46. 56. 1. 55. 60. 32. 0. 2. 4. 61. 1. 71. 38. 19. 1.
      2. 0. 1. 0. 1. 2. 57. 1. 2. 2. 124. 1. 77. 20. 28. 0. 4. 0. 1. 0.
      1. 2. 0. 1. 0. 0. 3. 0. 1. 1. 69. 0. 1. 0. 5. 0. 2. 0. 314. 2. 4.
      7. 390. 1. 80. 11. 64. 2. 1. 4. 3. 0. 1. 0. 1. 0. 0. 0. 0. 0. 1.
      0. 1. 0. 0. 0. 0. 0. 0. 0. 1. 0. 0. 0. 3. 0. 2. 0. 73. 1. 1. 2. 3.
      0. 1. 0. 1. 0. 0. 0. 2. 0. 0. 1. 89. 0. 0. 0. 1. 0. 0. 0. 165. 0.
      1. 4. 42. 0. 7. 5. 28. 54. 2. 290. 1. 6. 0. 124. 2. 3. 0. 0. 2. 3.
      2. 41. 1. 0. 0. 1. 0. 0. 0. 0. 7. 3. 0. 7. 2. 4. 0. 15. 3. 3. 0.
      3. 0. 0. 0. 1. 0. 0. 0. 0. 0. 0. 0. 1. 0. 4. 0. 8. 0. 1. 0. 3. 14.
      8. 0. 22. 4. 6. 3. 37. 93. 252. 4. 539. 2. 1. 1. 55. 2. 3. 0. 6.
      0. 1. 0. 9. 2. 0. 0. 3. 0. 0. 0. 1. 1. 2. 0. 5. 0. 0. 0. 3. 125.
      139. 5. 117. 4. 0. 1. 13. 3. 1. 0. 6. 1. 2. 1. 3. 68. 39. 3. 29.
      0. 2. 1. 3. 56. 29. 1. 45. 11. 2. 5. 27.</_>
    <_>
      260. 14. 33. 31. 67. 0. 48. 53. 24. 1. 1. 2. 47. 2. 56. 35. 12. 1.
      1. 0. 1. 0. 2. 1. 43. 0. 1. 3. 101. 1. 53. 9. 37. 1. 5. 0. 2. 0.
      1. 2. 2. 1. 0. 0. 2. 0. 0. 1. 55. 1. 0. 0. 8. 0. 2. 0. 404. 1. 7.
      11. 385. 0. 60. 14. 96. 6. 2. 4. 2. 0. 0. 1. 3. 0. 0. 0. 1. 0. 0.
      0. 0. 0. 0. 0. 0. 0. 0. 0. 0. 0. 0. 0. 5. 0. 1. 0. 84. 1. 0. 3. 3.
      0. 2. 0. 1. 0. 0. 0. 2. 0. 0. 0. 81. 0. 1. 0. 1. 0. 1. 0. 219. 0.
      1. 4. 38. 0. 5. 3. 36. 52. 1. 287. 3. 5. 0. 137. 2. 2. 1. 9. 1. 0.
      2. 28. 1. 1. 0. 0. 0. 0. 0. 0. 1. 4. 0. 8. 3. 5. 0. 21. 3. 2. 0.
      7. 0. 0. 0. 0. 0. 0. 0. 0. 0. 0. 0. 1. 5. 5. 0. 6. 1. 1. 0. 2. 15.
      13. 0. 22. 4. 0. 3. 48. 110. 250. 3. 488. 2. 1. 3. 37. 1. 2. 0. 8.
      1. 1. 0. 7. 1. 0. 0. 3. 0. 0. 0. 0. 2. 2. 0. 3. 1. 0. 1. 2. 97.
      134. 3. 116. 1. 1. 0. 11. 2. 1. 0. 4. 1. 1. 1. 4. 62. 38. 3. 39.
      0. 2. 0. 3. 70. 40. 4. 61. 11. 1. 5. 19.</_>
    <_>
      290. 20. 40. 66. 117. 1. 98. 106. 22. 1. 4. 3. 94. 6. 101. 51. 18.
      0. 1. 1. 2. 0. 2. 1. 49. 2. 2. 2. 171. 0. 88. 36. 29. 0. 2. 5. 5.
      0. 1. 1. 2. 0. 0. 0. 4. 0. 2. 1. 33. 0. 2. 3. 7. 0. 2. 0. 263. 2.
      6. 5. 442. 3. 103. 32. 82. 6. 4. 2. 7. 0. 2. 0. 2. 0. 0. 0. 1. 0.
      0. 0. 0. 0. 0. 0. 0. 0. 0. 0. 4. 0. 0. 0. 1. 0. 0. 0. 32. 1. 2. 3.
      3. 0. 2. 0. 1. 0. 0. 0. 1. 0. 1. 0. 44. 0. 0. 3. 2. 0. 3. 0. 109.
      0. 2. 3. 43. 0. 7. 2. 23. 44. 1. 356. 2. 4. 3. 201. 1. 5. 1. 14.
      2. 2. 1. 97. 0. 1. 0. 2. 0. 0. 0. 1. 6. 5. 1. 14. 1. 1. 2. 46. 1.
      3. 0. 4. 0. 0. 0. 5. 0. 1. 0. 2. 0. 0. 0. 0. 1. 2. 0. 5. 0. 0. 1.
      1. 17. 17. 2. 30. 6. 2. 3. 70. 52. 105. 7. 510. 2. 1. 2. 52. 1. 2.
      0. 9. 2. 0. 0. 9. 0. 0. 1. 1. 0. 0. 0. 0. 1. 0. 0. 6. 1. 0. 0. 10.
      25. 31. 0. 68. 0. 1. 2. 12. 1. 1. 0. 4. 0. 0. 0. 5. 14. 14. 2. 13.
      0. 1. 0. 4. 48. 24. 2. 54. 9. 4. 4. 36.</_>
    <_>
      108. 12. 16. 10. 27. 0. 24. 60. 14. 1. 2. 0. 35. 3. 70. 56. 14. 2.
      1. 0. 2. 0. 1. 0. 49. 0. 0. 1. 156. 1. 194. 27. 39. 1. 1. 1. 4. 0.
      0. 1. 4. 0. 0. 0. 2. 0. 1. 0. 68. 1. 1. 0. 5. 0. 1. 0. 229. 0. 1.
      1. 318. 1. 65. 9. 53. 1. 0. 5. 1. 0. 2. 0. 0. 0. 0. 0. 3. 0. 1. 0.
      0. 0. 0. 0. 0. 0. 0. 0. 1. 0. 0. 0. 0. 0. 1. 0. 112. 2. 3. 3. 2.
      0. 2. 0. 1. 0. 0. 0. 1. 0. 1. 0. 119. 0. 1. 0. 0. 0. 0. 0. 128. 1.
      0. 1. 37. 0. 12. 1. 24. 60. 1. 101. 2. 2. 4. 52. 2. 0. 0. 7. 1. 4.
      3. 28. 3. 0. 0. 1. 0. 0. 0. 1. 3. 0. 0. 2. 0. 1. 1. 19. 3. 3. 0.
      2. 0. 0. 0. 1. 0. 0. 0. 0. 0. 0. 0. 0. 2. 5. 0. 2. 0. 0. 1. 0. 7.
      5. 0. 7. 4. 3. 1. 18. 99. 371. 1. 348. 0. 0. 2. 16. 0. 3. 0. 4. 1.
      1. 1. 5. 1. 1. 0. 3. 0. 0. 0. 0. 0. 1. 0. 0. 1. 0. 2. 3. 284. 485.
      3. 215. 2. 1. 1. 7. 4. 5. 1. 3. 0. 1. 1. 8. 171. 73. 0. 17. 0. 0.
      0. 3. 112. 37. 0. 20. 20. 3. 6. 20.</_>
    <_>
      148. 12. 33. 41. 38. 1. 62. 94. 21. 1. 4. 1. 56. 2. 207. 123. 10.
      2. 0. 0. 0. 0. 2. 0. 45. 1. 0. 1. 252. 1. 341. 50. 25. 1. 0. 1. 4.
      0. 0. 1. 1. 0. 0. 0. 1. 0. 4. 0. 45. 0. 1. 2. 5. 0. 1. 0. 142. 0.
      3. 0. 271. 1. 102. 17. 43. 1. 0. 5. 0. 0. 3. 1. 1. 0. 1. 0. 1. 0.
      1. 0. 0. 0. 0. 0. 0. 0. 0. 0. 0. 0. 0. 0. 1. 0. 1. 0. 91. 1. 3. 4.
      1. 0. 1. 0. 0. 0. 0. 0. 1. 0. 1. 0. 105. 0. 2. 0. 1. 0. 0. 0. 97.
      1. 0. 1. 15. 0. 14. 3. 18. 36. 0. 140. 0. 2. 2. 71. 2. 1. 0. 9. 3.
      5. 4. 56. 1. 0. 0. 1. 0. 0. 0. 0. 2. 1. 0. 4. 1. 1. 2. 20. 1. 2.
      0. 5. 0. 0. 0. 1. 0. 0. 0. 1. 0. 0. 0. 1. 1. 2. 0. 2. 0. 0. 1. 0.
      8. 9. 0. 8. 4. 0. 2. 19. 75. 331. 2. 378. 0. 0. 0. 12. 0. 4. 0. 2.
      1. 0. 2. 11. 1. 2. 0. 2. 0. 0. 0. 0. 1. 0. 0. 3. 1. 0. 1. 4. 161.
      333. 4. 149. 1. 2. 1. 15. 3. 3. 1. 2. 0. 0. 1. 11. 106. 53. 1. 16.
      0. 0. 0. 4. 76. 20. 1. 21. 12. 4. 8. 19.</_>
    <_>
      180. 15. 34. 37. 43. 1. 65. 46. 29. 1. 4. 1. 58. 1. 105. 59. 17.
      1. 0. 0. 0. 0. 2. 0. 65. 1. 1. 3. 317. 1. 242. 36. 30. 3. 0. 1. 3.
      0. 0. 0. 3. 0. 0. 0. 1. 0. 4. 0. 52. 1. 0. 2. 4. 0. 1. 1. 171. 1.
      3. 2. 454. 1. 125. 19. 53. 2. 1. 5. 1. 0. 1. 1. 0. 0. 0. 0. 2. 0.
      0. 0. 0. 0. 0. 0. 0. 0. 0. 0. 1. 0. 0. 0. 0. 0. 1. 0. 73. 1. 2. 4.
      1. 0. 1. 0. 3. 0. 0. 0. 0. 0. 1. 0. 76. 0. 2. 1. 2. 0. 0. 0. 82.
      1. 1. 1. 29. 0. 11. 4. 17. 41. 2. 169. 1. 1. 2. 72. 4. 4. 0. 7. 3.
      4. 2. 41. 0. 1. 0. 1. 0. 0. 0. 0. 3. 1. 0. 4. 1. 1. 3. 19. 2. 0.
      0. 4. 0. 0. 0. 1. 0. 0. 0. 0. 0. 0. 0. 0. 2. 0. 0. 2. 0. 0. 1. 0.
      9. 8. 0. 5. 4. 0. 2. 26. 65. 291. 5. 434. 0. 0. 0. 14. 0. 4. 0. 6.
      2. 0. 1. 7. 1. 1. 0. 1. 0. 0. 0. 0. 2. 0. 0. 2. 1. 0. 1. 2. 188.
      293. 1. 134. 1. 1. 1. 9. 2. 2. 0. 1. 0. 0. 0. 11. 101. 54. 2. 20.
      0. 0. 0. 2. 67. 20. 2. 20. 6. 1. 8. 20.</_>
    <_>
      260. 13. 51. 78. 54. 0. 101. 99. 36. 2. 3. 3. 90. 1. 142. 63. 12.
      0. 1. 1. 0. 0. 2. 1. 68. 2. 6. 5. 309. 1. 169. 39. 22. 0. 1. 0. 0.
      0. 1. 1. 1. 0. 0. 0. 0. 0. 2. 2. 41. 1. 0. 3. 2. 0. 1. 0. 221. 1.
      5. 6. 523. 1. 121. 13. 39. 0. 0. 1. 1. 0. 1. 2. 2. 0. 0. 0. 0. 0.
      0. 0. 1. 0. 0. 0. 0. 0. 0. 0. 1. 0. 0. 0. 0. 0. 0. 0. 44. 3. 3. 2.
      0. 0. 0. 0. 0. 0. 0. 0. 2. 0. 0. 2. 44. 0. 0. 0. 1. 0. 1. 0. 72.
      0. 0. 0. 17. 0. 9. 1. 20. 49. 2. 430. 1. 2. 0. 209. 6. 3. 0. 7. 2.
      3. 1. 85. 0. 0. 0. 1. 0. 0. 0. 0. 6. 0. 0. 7. 1. 1. 3. 28. 3. 5.
      0. 4. 0. 0. 0. 0. 0. 0. 0. 1. 0. 0. 0. 1. 0. 2. 0. 5. 0. 0. 0. 0.
      4. 5. 1. 16. 6. 5. 1. 31. 58. 106. 0. 295. 0. 1. 2. 29. 4. 2. 0.
      2. 0. 1. 1. 8. 0. 0. 1. 2. 0. 0. 0. 0. 5. 0. 0. 2. 0. 0. 1. 4. 93.
      212. 0. 72. 0. 1. 2. 5. 1. 1. 0. 2. 2. 0. 1. 6. 38. 22. 2. 11. 0.
      0. 0. 2. 42. 15. 0. 21. 4. 1. 5. 16.</_>
    <_>
      213. 22. 36. 58. 47. 0. 77. 63. 40. 1. 3. 2. 77. 0. 148. 67. 27.
      0. 0. 1. 1. 0. 2. 0. 70. 2. 5. 2. 288. 1. 190. 36. 29. 1. 1. 0. 0.
      0. 2. 1. 2. 0. 0. 0. 4. 0. 1. 1. 44. 1. 0. 2. 3. 0. 4. 0. 276. 0.
      6. 6. 531. 1. 124. 14. 44. 1. 0. 1. 3. 0. 0. 2. 1. 0. 0. 0. 0. 0.
      1. 1. 0. 0. 0. 0. 0. 0. 0. 0. 1. 0. 0. 0. 0. 0. 0. 0. 64. 2. 5. 2.
      1. 0. 0. 1. 0. 0. 0. 0. 0. 0. 3. 0. 72. 0. 0. 0. 1. 0. 1. 0. 137.
      0. 1. 0. 31. 0. 13. 2. 17. 41. 2. 283. 2. 2. 0. 145. 3. 5. 0. 5.
      2. 3. 2. 63. 1. 1. 0. 1. 0. 0. 0. 0. 7. 3. 0. 4. 2. 0. 1. 19. 2.
      4. 0. 2. 0. 0. 0. 2. 0. 0. 0. 1. 0. 0. 1. 1. 0. 2. 0. 4. 0. 0. 0.
      0. 6. 5. 0. 18. 3. 4. 3. 24. 61. 176. 0. 336. 0. 1. 3. 24. 4. 2.
      0. 4. 1. 1. 1. 15. 1. 0. 1. 2. 0. 0. 0. 0. 6. 1. 0. 1. 1. 0. 0. 4.
      97. 163. 2. 91. 1. 2. 0. 8. 3. 3. 0. 2. 2. 1. 2. 7. 46. 41. 1. 11.
      0. 0. 0. 2. 61. 19. 2. 24. 8. 2. 9. 12.</_>
    <_>
      210. 15. 26. 58. 91. 0. 57. 80. 24. 0. 2. 2. 52. 1. 68. 44. 15. 0.
      0. 1. 1. 0. 1. 0. 50. 2. 2. 3. 115. 0. 78. 22. 31. 0. 2. 3. 6. 0.
      3. 2. 1. 0. 1. 0. 0. 0. 3. 0. 57. 1. 3. 0. 4. 0. 1. 1. 404. 3. 9.
      2. 422. 2. 85. 27. 81. 1. 6. 4. 1. 0. 1. 1. 0. 0. 0. 0. 1. 0. 2.
      0. 0. 0. 0. 0. 0. 0. 0. 0. 1. 0. 1. 0. 0. 0. 0. 0. 74. 0. 2. 4. 3.
      0. 1. 0. 1. 0. 0. 0. 0. 0. 1. 0. 84. 0. 0. 0. 1. 0. 0. 1. 213. 0.
      2. 1. 29. 0. 3. 1. 26. 55. 1. 361. 4. 2. 1. 181. 4. 4. 0. 5. 1. 2.
      1. 75. 0. 3. 0. 2. 0. 0. 0. 0. 2. 1. 0. 8. 2. 0. 0. 19. 4. 6. 0.
      4. 0. 1. 0. 0. 0. 0. 0. 0. 0. 0. 0. 0. 2. 5. 0. 6. 0. 1. 0. 3. 8.
      8. 2. 26. 6. 3. 1. 32. 76. 190. 0. 437. 2. 0. 1. 41. 3. 3. 0. 5.
      0. 2. 0. 8. 0. 0. 0. 1. 0. 0. 0. 0. 3. 0. 0. 3. 1. 0. 0. 3. 78.
      115. 3. 111. 0. 0. 0. 5. 1. 1. 0. 2. 0. 0. 0. 3. 40. 46. 0. 21. 1.
      0. 1. 0. 65. 32. 0. 40. 13. 4. 5. 30.</_>
    <_>
      711. 13. 48. 87. 42. 1. 48. 47. 70. 1. 2. 0. 75. 0. 58. 51. 20. 0.
      1. 0. 1. 0. 0. 0. 110. 1. 2. 5. 184. 0. 89. 9. 65. 0. 1. 1. 3. 0.
      1. 0. 0. 0. 0. 0. 2. 0. 3. 0. 84. 1. 0. 1. 4. 0. 3. 0. 453. 1. 8.
      2. 349. 0. 118. 18. 43. 0. 2. 2. 3. 0. 2. 0. 1. 0. 0. 0. 0. 0. 0.
      0. 1. 0. 0. 0. 0. 0. 0. 0. 2. 0. 0. 0. 0. 0. 1. 1. 31. 1. 1. 2. 1.
      0. 1. 1. 0. 0. 0. 1. 1. 0. 1. 0. 46. 0. 0. 1. 0. 0. 3. 0. 146. 1.
      1. 2. 23. 0. 9. 4. 70. 98. 6. 561. 0. 1. 1. 136. 3. 2. 0. 8. 2. 2.
      5. 48. 1. 0. 0. 1. 0. 0. 0. 0. 2. 1. 0. 6. 1. 0. 1. 16. 5. 2. 0.
      8. 0. 0. 0. 2. 0. 0. 0. 2. 0. 0. 0. 2. 5. 4. 0. 4. 0. 0. 0. 3. 12.
      10. 0. 14. 0. 2. 2. 22. 31. 78. 2. 275. 0. 0. 1. 24. 0. 0. 0. 1.
      0. 2. 0. 11. 0. 0. 0. 1. 0. 0. 0. 0. 4. 0. 1. 2. 0. 0. 0. 1. 29.
      20. 4. 50. 1. 0. 0. 5. 2. 1. 0. 0. 1. 0. 0. 4. 13. 8. 0. 10. 0. 0.
      0. 0. 40. 12. 1. 25. 3. 1. 5. 19.</_>
    <_>
      319. 9. 44. 80. 122. 3. 82. 83. 32. 2. 6. 3. 79. 1. 82. 63. 19. 2.
      1. 0. 3. 0. 1. 1. 65. 0. 4. 8. 154. 0. 81. 31. 27. 1. 1. 6. 2. 0.
      2. 3. 1. 0. 1. 0. 5. 0. 2. 0. 39. 0. 5. 1. 6. 0. 3. 2. 299. 6. 8.
      5. 398. 1. 85. 32. 97. 2. 3. 9. 6. 0. 2. 3. 4. 0. 0. 1. 1. 0. 0.
      1. 1. 1. 0. 0. 1. 0. 0. 0. 1. 0. 0. 1. 2. 0. 1. 0. 42. 1. 2. 2. 2.
      0. 1. 1. 0. 0. 1. 0. 2. 0. 0. 1. 48. 0. 1. 0. 0. 0. 1. 0. 113. 1.
      2. 5. 44. 0. 9. 6. 28. 50. 2. 386. 3. 4. 3. 188. 2. 3. 1. 18. 1.
      3. 0. 77. 2. 2. 0. 3. 0. 1. 0. 1. 5. 4. 1. 17. 1. 2. 2. 35. 2. 2.
      0. 5. 0. 0. 0. 3. 0. 0. 0. 2. 0. 0. 0. 0. 2. 1. 0. 8. 0. 0. 0. 2.
      11. 8. 0. 37. 8. 4. 6. 54. 48. 109. 3. 477. 1. 1. 4. 40. 1. 4. 0.
      3. 0. 1. 1. 11. 0. 0. 0. 3. 0. 0. 0. 0. 3. 3. 1. 5. 2. 0. 0. 3.
      35. 38. 0. 75. 0. 0. 1. 5. 0. 3. 0. 2. 0. 1. 0. 15. 14. 14. 0. 22.
      0. 0. 0. 3. 39. 25. 2. 63. 9. 5. 8. 42.</_>
    <_>
      340. 16. 40. 65. 102. 2. 54. 82. 35. 0. 3. 2. 69. 1. 66. 36. 23.
      1. 0. 0. 4. 0. 0. 2. 64. 1. 2. 4. 198. 1. 78. 30. 46. 1. 4. 5. 2.
      0. 2. 4. 1. 0. 1. 0. 3. 1. 5. 1. 56. 1. 5. 1. 6. 0. 2. 2. 279. 5.
      7. 3. 428. 1. 113. 25. 84. 1. 4. 8. 1. 0. 0. 2. 4. 0. 0. 0. 3. 0.
      1. 0. 1. 0. 0. 0. 0. 0. 0. 0. 3. 0. 0. 1. 2. 0. 1. 0. 77. 2. 2. 1.
      2. 0. 1. 0. 0. 0. 1. 0. 0. 0. 1. 1. 73. 0. 1. 2. 0. 0. 1. 0. 122.
      1. 0. 2. 32. 0. 11. 6. 36. 51. 3. 367. 4. 0. 4. 120. 3. 3. 1. 17.
      2. 2. 0. 62. 1. 2. 0. 2. 0. 0. 0. 0. 4. 1. 1. 14. 0. 4. 2. 27. 2.
      4. 0. 5. 0. 0. 0. 3. 0. 0. 0. 2. 0. 0. 0. 1. 3. 4. 0. 7. 0. 0. 0.
      3. 18. 15. 0. 25. 9. 3. 3. 45. 75. 104. 3. 429. 0. 1. 2. 36. 3. 2.
      0. 1. 0. 0. 0. 11. 1. 0. 0. 3. 0. 0. 0. 0. 2. 2. 0. 6. 2. 0. 0. 5.
      83. 79. 0. 70. 0. 0. 1. 3. 1. 1. 0. 1. 0. 1. 0. 7. 35. 16. 0. 25.
      1. 0. 0. 3. 62. 24. 2. 59. 7. 4. 4. 40.</_>
    <_>
      2555. 5. 59. 37. 19. 0. 36. 18. 249. 0. 7. 1. 143. 0. 288. 11. 21.
      0. 1. 0. 0. 0. 2. 0. 139. 0. 0. 0. 88. 0. 90. 8. 80. 0. 0. 2. 1.
      0. 1. 0. 7. 0. 0. 0. 4. 0. 2. 0. 48. 0. 0. 0. 2. 0. 1. 0. 280. 0.
      4. 1. 73. 0. 74. 3. 11. 0. 1. 0. 0. 0. 0. 0. 0. 0. 0. 0. 1. 0. 0.
      0. 0. 0. 0. 0. 0. 0. 0. 0. 1. 0. 0. 0. 0. 0. 0. 0. 47. 0. 0. 3. 1.
      0. 0. 0. 2. 0. 0. 0. 1. 0. 1. 0. 21. 0. 1. 2. 0. 0. 0. 0. 20. 0.
      0. 0. 5. 0. 5. 0. 23. 14. 0. 76. 0. 0. 0. 11. 1. 0. 0. 4. 0. 1. 2.
      31. 0. 0. 0. 0. 0. 0. 0. 0. 0. 0. 0. 0. 0. 1. 0. 5. 2. 0. 0. 3. 0.
      0. 0. 0. 0. 0. 0. 0. 0. 0. 0. 0. 0. 0. 0. 0. 0. 0. 0. 0. 0. 0. 0.
      4. 0. 3. 0. 2. 13. 7. 0. 1. 0. 0. 0. 0. 0. 0. 0. 0. 0. 0. 0. 1. 0.
      0. 0. 0. 0. 0. 0. 0. 2. 0. 0. 0. 0. 0. 2. 0. 104. 1. 0. 11. 0. 0.
      0. 0. 9. 0. 0. 0. 0. 0. 1. 0. 20. 2. 1. 1. 0. 0. 0. 0. 29. 0. 0.
      4. 11. 0. 0. 2.</_>
    <_>
      131. 10. 12. 30. 35. 0. 38. 56. 13. 1. 0. 1. 37. 1. 116. 73. 12.
      0. 2. 0. 3. 0. 0. 1. 36. 0. 2. 2. 174. 0. 237. 30. 16. 2. 2. 2. 1.
      0. 2. 1. 2. 0. 0. 0. 3. 0. 0. 1. 48. 0. 1. 1. 5. 0. 0. 0. 213. 3.
      3. 2. 370. 0. 89. 9. 40. 0. 2. 2. 2. 0. 1. 1. 1. 0. 0. 0. 0. 0. 1.
      0. 0. 0. 0. 0. 0. 0. 0. 0. 1. 0. 0. 0. 0. 0. 0. 0. 87. 4. 2. 2. 1.
      0. 1. 0. 1. 0. 0. 0. 4. 0. 1. 0. 139. 1. 1. 0. 2. 0. 0. 0. 153. 0.
      1. 0. 40. 0. 7. 2. 15. 43. 3. 115. 0. 0. 1. 66. 3. 1. 0. 4. 1. 1.
      3. 49. 0. 0. 1. 0. 0. 0. 0. 0. 1. 0. 0. 5. 1. 0. 2. 23. 2. 5. 1.
      1. 0. 0. 0. 0. 0. 0. 1. 0. 0. 0. 0. 1. 4. 3. 0. 1. 0. 1. 0. 0. 6.
      11. 1. 10. 5. 2. 2. 10. 64. 338. 3. 393. 1. 1. 2. 25. 0. 3. 0. 1.
      1. 0. 2. 12. 3. 0. 0. 0. 0. 0. 0. 0. 0. 0. 0. 3. 0. 0. 1. 0. 218.
      499. 4. 150. 2. 1. 2. 7. 5. 1. 0. 4. 1. 0. 3. 6. 149. 60. 2. 13.
      0. 0. 0. 1. 78. 28. 0. 17. 14. 0. 12. 24.</_>
    <_>
      158. 15. 21. 51. 47. 1. 65. 84. 18. 1. 0. 3. 65. 1. 221. 113. 13.
      0. 3. 0. 2. 0. 0. 0. 48. 0. 2. 4. 245. 0. 368. 40. 16. 3. 0. 1. 3.
      0. 1. 2. 1. 0. 0. 0. 2. 0. 1. 1. 34. 1. 0. 2. 5. 0. 0. 0. 142. 2.
      7. 2. 355. 1. 113. 8. 36. 2. 3. 5. 2. 0. 0. 0. 0. 0. 0. 0. 0. 0.
      1. 2. 1. 0. 0. 0. 0. 0. 0. 0. 1. 0. 0. 0. 0. 0. 0. 0. 64. 3. 1. 0.
      0. 0. 2. 1. 2. 0. 0. 0. 2. 0. 2. 0. 100. 0. 1. 0. 1. 0. 0. 0. 64.
      0. 0. 0. 20. 0. 6. 2. 21. 51. 3. 189. 2. 1. 1. 100. 2. 3. 0. 2. 3.
      1. 5. 67. 1. 0. 0. 0. 0. 0. 0. 1. 2. 0. 0. 3. 2. 1. 4. 27. 2. 3.
      1. 1. 0. 0. 0. 1. 1. 0. 1. 0. 0. 0. 1. 1. 6. 2. 0. 0. 0. 1. 0. 0.
      7. 8. 1. 9. 3. 1. 3. 17. 61. 261. 3. 398. 2. 2. 1. 32. 1. 4. 0. 2.
      0. 0. 3. 13. 1. 1. 0. 0. 0. 0. 0. 0. 0. 0. 0. 2. 2. 0. 1. 3. 148.
      319. 1. 118. 0. 0. 2. 8. 5. 1. 0. 2. 1. 2. 3. 11. 96. 45. 4. 9. 1.
      0. 0. 1. 53. 24. 1. 10. 10. 0. 15. 27.</_>
    <_>
      170. 10. 24. 19. 24. 0. 27. 28. 27. 2. 3. 0. 48. 2. 175. 107. 24.
      0. 0. 1. 1. 0. 1. 0. 48. 0. 2. 0. 158. 1. 238. 22. 54. 1. 1. 2. 1.
      0. 0. 1. 3. 0. 0. 0. 2. 0. 3. 1. 67. 0. 1. 0. 2. 0. 0. 0. 210. 0.
      1. 1. 250. 2. 63. 6. 32. 0. 1. 1. 0. 0. 0. 0. 0. 0. 0. 0. 0. 1. 0.
      0. 0. 0. 0. 0. 0. 0. 0. 0. 1. 0. 0. 0. 0. 0. 1. 1. 70. 0. 0. 1. 2.
      0. 0. 0. 1. 0. 0. 0. 3. 0. 0. 1. 136. 0. 1. 0. 0. 0. 0. 0. 136. 0.
      1. 0. 23. 0. 11. 1. 34. 65. 0. 112. 0. 0. 2. 38. 5. 2. 0. 3. 1. 0.
      3. 29. 3. 0. 0. 0. 0. 0. 0. 0. 2. 0. 0. 0. 0. 0. 3. 7. 5. 0. 0. 1.
      0. 0. 0. 0. 0. 0. 0. 0. 0. 0. 0. 0. 5. 5. 0. 0. 0. 0. 0. 1. 2. 0.
      0. 4. 0. 0. 3. 4. 81. 365. 1. 292. 1. 0. 1. 15. 0. 1. 0. 0. 2. 0.
      1. 10. 1. 0. 0. 0. 0. 0. 1. 0. 2. 0. 0. 0. 1. 0. 0. 0. 358. 650.
      2. 136. 0. 0. 1. 5. 5. 4. 0. 2. 1. 0. 2. 9. 152. 38. 2. 4. 0. 0.
      0. 2. 82. 13. 0. 9. 18. 2. 8. 10.</_>
    <_>
      204. 26. 24. 53. 21. 0. 45. 31. 37. 0. 1. 1. 77. 1. 109. 28. 17.
      0. 3. 0. 1. 0. 3. 0. 85. 0. 3. 1. 299. 1. 225. 12. 32. 3. 2. 3. 0.
      0. 2. 1. 3. 0. 0. 0. 2. 0. 2. 0. 50. 0. 0. 1. 1. 0. 6. 0. 196. 1.
      1. 2. 331. 1. 99. 5. 42. 1. 1. 2. 0. 0. 1. 0. 1. 0. 0. 1. 1. 0. 1.
      0. 0. 0. 0. 0. 0. 0. 0. 0. 0. 0. 0. 1. 2. 0. 1. 2. 51. 0. 2. 4. 1.
      0. 1. 0. 1. 0. 0. 0. 0. 0. 1. 1. 58. 0. 0. 1. 2. 0. 0. 0. 66. 0.
      0. 1. 26. 0. 10. 2. 33. 77. 6. 177. 0. 2. 2. 70. 4. 10. 0. 5. 3.
      2. 4. 29. 2. 0. 0. 0. 0. 0. 0. 1. 3. 2. 0. 2. 9. 2. 0. 13. 1. 1.
      1. 6. 0. 1. 0. 0. 0. 1. 0. 1. 1. 0. 1. 1. 0. 1. 0. 3. 0. 0. 0. 1.
      8. 5. 0. 1. 0. 1. 1. 13. 96. 371. 1. 449. 1. 0. 2. 30. 1. 3. 0. 4.
      1. 2. 2. 11. 0. 1. 0. 1. 0. 0. 0. 0. 3. 1. 0. 2. 0. 0. 0. 1. 217.
      443. 1. 155. 0. 0. 2. 7. 3. 1. 0. 2. 0. 1. 2. 8. 61. 38. 3. 20. 0.
      0. 0. 2. 37. 12. 0. 17. 9. 4. 4. 12.</_>
    <_>
      2602. 2. 38. 34. 12. 0. 30. 9. 280. 3. 3. 3. 144. 0. 302. 7. 6. 0.
      0. 0. 0. 0. 1. 0. 176. 0. 2. 0. 110. 0. 88. 5. 43. 0. 0. 0. 0. 0.
      0. 0. 4. 0. 0. 0. 0. 0. 2. 0. 35. 0. 0. 0. 0. 0. 2. 0. 328. 1. 6.
      2. 132. 0. 79. 6. 3. 0. 0. 0. 0. 0. 0. 0. 0. 0. 0. 0. 1. 0. 0. 0.
      0. 0. 0. 0. 0. 0. 0. 0. 2. 0. 0. 0. 0. 0. 0. 0. 23. 0. 0. 4. 0. 0.
      0. 0. 0. 0. 0. 0. 0. 0. 0. 0. 10. 0. 0. 0. 0. 0. 0. 0. 16. 0. 0.
      0. 3. 0. 2. 0. 15. 11. 1. 85. 0. 0. 0. 11. 0. 0. 0. 5. 0. 7. 1.
      26. 0. 0. 0. 0. 0. 0. 0. 0. 1. 0. 0. 2. 1. 0. 1. 7. 0. 0. 0. 3. 0.
      0. 0. 0. 0. 0. 0. 0. 0. 0. 0. 0. 0. 0. 0. 0. 0. 0. 0. 0. 2. 0. 0.
      4. 0. 1. 0. 4. 10. 3. 0. 2. 0. 0. 0. 1. 1. 0. 0. 0. 0. 0. 0. 1. 0.
      0. 0. 0. 0. 0. 0. 0. 6. 0. 0. 0. 0. 0. 0. 0. 64. 0. 0. 10. 0. 0.
      0. 0. 6. 0. 0. 1. 0. 0. 0. 0. 3. 0. 0. 3. 0. 0. 0. 0. 18. 1. 0. 1.
      7. 0. 0. 1.</_>
    <_>
      151. 17. 24. 52. 28. 1. 58. 105. 18. 1. 1. 2. 56. 1. 198. 126. 8.
      0. 2. 1. 0. 0. 0. 0. 24. 1. 1. 2. 177. 0. 295. 55. 16. 0. 3. 1. 2.
      0. 0. 0. 0. 0. 0. 0. 1. 0. 2. 1. 44. 0. 1. 0. 1. 0. 0. 0. 129. 0.
      0. 4. 195. 0. 81. 11. 31. 0. 1. 2. 0. 0. 1. 2. 1. 0. 0. 0. 0. 0.
      1. 0. 1. 0. 0. 0. 0. 0. 0. 0. 0. 0. 0. 0. 0. 0. 0. 0. 63. 2. 0. 1.
      1. 0. 0. 0. 0. 0. 0. 0. 0. 0. 0. 0. 140. 0. 1. 0. 0. 0. 0. 0. 146.
      0. 0. 1. 19. 0. 6. 1. 15. 36. 2. 169. 3. 2. 0. 119. 4. 0. 0. 5. 0.
      3. 4. 51. 1. 0. 0. 0. 0. 0. 0. 0. 0. 2. 0. 4. 1. 0. 1. 18. 4. 5.
      0. 5. 0. 0. 0. 1. 0. 0. 0. 0. 0. 0. 0. 1. 1. 2. 0. 7. 0. 0. 0. 4.
      6. 6. 0. 7. 3. 0. 5. 16. 74. 273. 2. 450. 0. 1. 0. 33. 1. 1. 0. 2.
      0. 0. 1. 15. 1. 1. 0. 2. 0. 0. 0. 0. 3. 2. 0. 2. 0. 1. 0. 3. 202.
      405. 3. 155. 0. 1. 1. 3. 2. 1. 0. 2. 2. 1. 1. 5. 151. 59. 0. 23.
      0. 0. 0. 4. 82. 28. 0. 25. 7. 3. 4. 19.</_>
    <_>
      132. 8. 20. 23. 32. 0. 43. 54. 17. 0. 0. 1. 51. 1. 137. 112. 12.
      0. 0. 1. 0. 0. 0. 0. 31. 2. 1. 1. 168. 0. 226. 50. 30. 3. 0. 1. 4.
      0. 0. 0. 1. 0. 0. 0. 1. 0. 2. 1. 48. 0. 1. 0. 0. 0. 1. 0. 240. 0.
      4. 7. 259. 0. 91. 15. 42. 0. 1. 1. 1. 0. 0. 2. 0. 0. 0. 0. 1. 1.
      0. 0. 3. 0. 0. 0. 0. 0. 0. 0. 0. 0. 0. 0. 1. 0. 1. 0. 77. 2. 1. 2.
      1. 0. 0. 0. 2. 0. 0. 0. 1. 0. 2. 0. 131. 0. 3. 1. 0. 0. 0. 0. 233.
      0. 0. 1. 36. 0. 6. 4. 23. 59. 1. 150. 2. 2. 0. 95. 1. 0. 0. 6. 2.
      1. 2. 41. 1. 2. 0. 1. 0. 0. 0. 0. 1. 1. 0. 7. 0. 1. 3. 21. 5. 4.
      0. 5. 0. 0. 0. 1. 0. 0. 0. 0. 0. 0. 0. 0. 2. 2. 0. 5. 0. 0. 1. 2.
      2. 3. 0. 8. 2. 1. 5. 13. 60. 301. 0. 397. 0. 0. 0. 26. 1. 1. 0. 4.
      1. 0. 1. 15. 3. 0. 0. 2. 0. 0. 0. 0. 0. 2. 0. 1. 0. 0. 0. 1. 224.
      419. 1. 160. 0. 0. 2. 8. 4. 2. 0. 2. 1. 0. 4. 6. 107. 57. 1. 17.
      3. 0. 1. 3. 110. 20. 0. 9. 13. 2. 9. 14.</_>
    <_>
      166. 10. 27. 50. 42. 1. 69. 102. 18. 1. 2. 1. 84. 1. 189. 142. 8.
      0. 1. 1. 1. 0. 2. 0. 43. 3. 2. 5. 234. 1. 317. 62. 23. 1. 0. 1. 1.
      0. 1. 0. 1. 0. 0. 0. 0. 0. 2. 1. 34. 1. 1. 0. 1. 0. 1. 0. 180. 0.
      4. 8. 285. 0. 108. 21. 47. 0. 1. 3. 0. 0. 2. 2. 0. 0. 0. 0. 0. 0.
      0. 0. 1. 0. 0. 0. 0. 0. 0. 0. 3. 0. 0. 0. 0. 0. 0. 0. 56. 3. 0. 1.
      1. 0. 0. 0. 0. 0. 0. 0. 1. 0. 0. 1. 99. 0. 2. 1. 0. 0. 0. 0. 112.
      0. 1. 2. 14. 0. 8. 2. 26. 57. 2. 220. 1. 2. 1. 145. 2. 1. 0. 9. 0.
      3. 3. 62. 0. 0. 0. 1. 0. 0. 0. 0. 1. 2. 0. 8. 0. 0. 1. 25. 5. 5.
      0. 6. 0. 0. 0. 2. 0. 0. 0. 0. 0. 0. 0. 0. 1. 3. 0. 9. 0. 0. 1. 2.
      4. 2. 0. 13. 2. 3. 3. 22. 65. 199. 2. 386. 1. 0. 1. 41. 1. 0. 0.
      5. 0. 0. 0. 14. 3. 1. 0. 2. 1. 0. 0. 0. 3. 0. 0. 3. 0. 0. 0. 2.
      149. 281. 0. 119. 0. 1. 0. 3. 3. 0. 0. 0. 1. 0. 2. 5. 108. 49. 0.
      22. 2. 0. 1. 3. 76. 11. 0. 17. 3. 3. 7. 14.</_>
    <_>
      193. 14. 42. 65. 58. 1. 88. 134. 49. 3. 6. 5. 126. 0. 199. 109.
      15. 0. 3. 0. 0. 0. 1. 0. 79. 2. 2. 1. 266. 1. 222. 43. 20. 0. 0.
      1. 4. 0. 1. 3. 3. 0. 0. 0. 4. 0. 1. 1. 46. 1. 2. 1. 0. 0. 3. 1.
      279. 2. 5. 4. 467. 1. 125. 25. 38. 0. 3. 2. 2. 0. 1. 0. 1. 0. 0.
      0. 1. 0. 1. 0. 1. 0. 0. 0. 0. 0. 0. 0. 0. 0. 0. 0. 1. 0. 0. 1. 66.
      2. 1. 1. 0. 0. 0. 1. 3. 0. 0. 0. 0. 0. 1. 0. 79. 0. 3. 0. 2. 0. 0.
      0. 123. 0. 1. 1. 26. 0. 5. 2. 22. 32. 3. 271. 1. 1. 3. 209. 2. 1.
      0. 12. 1. 1. 5. 73. 1. 0. 0. 3. 0. 0. 0. 1. 1. 0. 1. 7. 2. 1. 2.
      36. 3. 0. 0. 5. 0. 1. 0. 1. 1. 0. 0. 2. 0. 0. 0. 1. 2. 3. 0. 2. 0.
      0. 0. 1. 4. 7. 3. 11. 4. 1. 4. 21. 55. 138. 1. 274. 0. 0. 3. 33.
      2. 0. 0. 3. 1. 1. 1. 11. 1. 0. 0. 0. 0. 0. 0. 0. 0. 1. 0. 2. 0. 0.
      0. 2. 85. 130. 0. 59. 0. 0. 0. 3. 1. 0. 0. 2. 1. 0. 0. 6. 59. 32.
      0. 15. 1. 0. 0. 3. 42. 13. 1. 11. 4. 2. 7. 17.</_>
    <_>
      205. 7. 16. 23. 31. 1. 38. 73. 10. 1. 1. 3. 55. 1. 116. 75. 9. 0.
      0. 1. 0. 0. 0. 2. 34. 1. 1. 0. 132. 0. 170. 45. 46. 4. 0. 0. 1. 0.
      1. 0. 0. 0. 0. 0. 3. 0. 2. 0. 55. 1. 1. 0. 1. 0. 0. 1. 151. 0. 2.
      2. 117. 0. 72. 17. 33. 0. 0. 1. 2. 0. 0. 0. 0. 0. 0. 0. 0. 0. 2.
      1. 1. 0. 0. 0. 0. 0. 0. 0. 0. 0. 0. 0. 1. 0. 1. 0. 83. 2. 1. 1. 2.
      0. 0. 0. 1. 0. 0. 0. 1. 0. 0. 0. 150. 1. 1. 0. 0. 0. 1. 0. 166. 2.
      1. 2. 18. 2. 5. 3. 27. 54. 2. 192. 0. 0. 2. 93. 2. 0. 1. 5. 0. 1.
      0. 35. 0. 1. 0. 0. 0. 0. 0. 0. 0. 1. 0. 4. 2. 0. 1. 13. 4. 3. 0.
      4. 0. 0. 0. 1. 0. 0. 1. 0. 0. 0. 0. 1. 2. 3. 0. 1. 0. 0. 0. 1. 3.
      4. 0. 6. 0. 0. 0. 11. 115. 331. 3. 358. 1. 4. 0. 28. 0. 0. 0. 0.
      1. 1. 0. 7. 4. 1. 0. 1. 0. 0. 0. 0. 0. 0. 0. 0. 0. 0. 1. 1. 355.
      495. 3. 154. 0. 0. 0. 13. 2. 2. 0. 2. 1. 0. 2. 5. 249. 75. 2. 24.
      0. 4. 0. 1. 82. 21. 2. 18. 7. 1. 4. 13.</_>
    <_>
      152. 19. 26. 36. 29. 0. 54. 130. 6. 1. 2. 2. 72. 1. 230. 130. 9.
      0. 0. 0. 0. 0. 1. 2. 29. 2. 2. 1. 199. 1. 290. 48. 24. 3. 0. 0. 1.
      0. 1. 0. 1. 0. 0. 0. 1. 0. 2. 1. 42. 1. 2. 0. 1. 0. 0. 1. 123. 0.
      4. 4. 171. 0. 80. 24. 29. 0. 0. 3. 1. 0. 0. 0. 1. 0. 0. 0. 0. 0.
      2. 1. 0. 0. 0. 0. 0. 0. 0. 0. 0. 0. 0. 0. 1. 0. 0. 0. 51. 0. 2. 1.
      2. 0. 0. 0. 2. 0. 0. 0. 2. 0. 0. 0. 107. 2. 0. 0. 0. 0. 0. 0. 162.
      1. 0. 2. 16. 1. 5. 4. 24. 54. 4. 233. 4. 1. 2. 169. 3. 0. 0. 11.
      2. 1. 2. 51. 0. 1. 0. 0. 0. 0. 0. 1. 0. 1. 0. 5. 2. 0. 2. 18. 1.
      0. 0. 2. 0. 0. 0. 0. 0. 0. 0. 1. 0. 0. 0. 1. 3. 1. 0. 4. 0. 0. 0.
      3. 3. 1. 0. 9. 2. 0. 0. 13. 91. 252. 0. 369. 1. 2. 3. 45. 4. 2. 0.
      1. 1. 0. 0. 11. 1. 0. 0. 0. 0. 0. 0. 0. 0. 0. 0. 1. 0. 0. 1. 2.
      210. 348. 3. 148. 0. 0. 1. 7. 1. 1. 0. 2. 3. 0. 2. 8. 178. 50. 1.
      13. 0. 2. 0. 1. 73. 15. 3. 8. 4. 0. 6. 19.</_>
    <_>
      225. 20. 19. 19. 24. 1. 21. 24. 15. 1. 1. 1. 34. 0. 91. 44. 12. 0.
      1. 1. 2. 0. 0. 0. 31. 0. 1. 0. 127. 0. 134. 20. 36. 4. 0. 0. 1. 0.
      2. 0. 1. 0. 0. 0. 2. 0. 2. 0. 41. 3. 1. 0. 2. 0. 0. 0. 160. 1. 0.
      3. 119. 0. 57. 4. 35. 3. 0. 2. 2. 0. 2. 0. 0. 0. 0. 0. 0. 0. 1. 0.
      0. 0. 0. 0. 0. 0. 0. 0. 1. 0. 0. 0. 0. 0. 1. 0. 80. 0. 2. 1. 0. 0.
      0. 0. 3. 1. 0. 0. 0. 0. 0. 0. 139. 1. 0. 1. 0. 0. 0. 0. 177. 1. 3.
      0. 13. 0. 3. 0. 64. 130. 3. 196. 1. 1. 0. 59. 1. 1. 1. 1. 0. 0. 4.
      20. 0. 0. 0. 0. 0. 0. 0. 0. 2. 1. 0. 3. 2. 1. 1. 12. 5. 5. 1. 4.
      0. 0. 0. 1. 0. 0. 1. 0. 0. 0. 0. 1. 4. 1. 0. 5. 0. 0. 0. 2. 3. 3.
      0. 5. 1. 0. 3. 7. 137. 399. 5. 338. 2. 0. 0. 31. 1. 0. 0. 2. 1. 2.
      2. 8. 2. 0. 0. 0. 0. 0. 0. 0. 1. 0. 0. 0. 1. 0. 1. 1. 397. 625. 2.
      170. 0. 1. 0. 16. 2. 3. 0. 2. 3. 0. 3. 8. 158. 79. 1. 11. 0. 0. 1.
      1. 68. 23. 1. 15. 7. 1. 7. 13.</_>
    <_>
      222. 13. 18. 28. 16. 2. 28. 43. 25. 0. 0. 0. 38. 1. 70. 60. 15. 0.
      2. 1. 0. 0. 1. 0. 18. 0. 1. 1. 51. 1. 89. 17. 41. 0. 1. 3. 1. 0.
      3. 1. 2. 0. 0. 0. 2. 0. 2. 2. 50. 0. 2. 0. 1. 0. 1. 0. 123. 0. 2.
      1. 50. 0. 23. 5. 31. 0. 1. 0. 3. 0. 1. 0. 0. 0. 0. 0. 0. 0. 0. 1.
      2. 0. 0. 0. 0. 0. 0. 0. 1. 0. 0. 0. 1. 0. 0. 0. 107. 2. 0. 1. 1.
      0. 2. 0. 2. 1. 1. 0. 1. 0. 3. 0. 182. 1. 4. 1. 1. 0. 0. 0. 191. 1.
      0. 0. 14. 0. 4. 1. 55. 63. 1. 212. 0. 2. 0. 103. 0. 1. 0. 3. 0. 1.
      1. 28. 1. 1. 0. 0. 0. 0. 0. 0. 2. 1. 1. 1. 1. 0. 0. 8. 5. 4. 0. 6.
      0. 0. 0. 1. 0. 0. 0. 1. 0. 0. 0. 1. 2. 3. 0. 4. 0. 0. 0. 0. 7. 2.
      0. 8. 0. 0. 0. 10. 123. 358. 0. 428. 1. 0. 2. 18. 0. 1. 0. 2. 1.
      0. 0. 5. 1. 0. 0. 0. 0. 0. 0. 0. 0. 0. 0. 1. 1. 0. 1. 0. 425. 556.
      1. 205. 0. 0. 1. 7. 1. 1. 0. 1. 2. 0. 3. 10. 267. 86. 1. 23. 0. 1.
      1. 3. 95. 24. 1. 20. 12. 0. 9. 10.</_>
    <_>
      187. 13. 15. 23. 18. 0. 41. 73. 14. 1. 1. 0. 50. 0. 138. 94. 11.
      0. 1. 0. 0. 0. 1. 0. 32. 0. 4. 1. 137. 0. 136. 36. 41. 1. 0. 0. 1.
      0. 0. 1. 3. 0. 0. 0. 3. 0. 1. 0. 55. 0. 0. 0. 1. 0. 0. 0. 133. 0.
      1. 0. 154. 0. 64. 17. 14. 1. 0. 0. 2. 0. 1. 0. 0. 0. 0. 0. 2. 0.
      1. 1. 1. 0. 0. 0. 0. 0. 0. 0. 0. 0. 0. 0. 0. 0. 0. 0. 92. 2. 2. 0.
      0. 0. 0. 0. 0. 0. 0. 0. 2. 0. 1. 1. 160. 1. 0. 0. 1. 0. 0. 0. 183.
      0. 1. 1. 22. 0. 9. 1. 34. 58. 2. 180. 0. 0. 1. 85. 1. 1. 0. 2. 0.
      1. 3. 41. 0. 0. 0. 0. 0. 0. 0. 0. 2. 0. 0. 0. 0. 0. 0. 12. 6. 3.
      0. 1. 0. 0. 0. 0. 1. 0. 0. 0. 0. 0. 0. 0. 0. 1. 0. 2. 0. 0. 0. 0.
      1. 0. 0. 2. 1. 0. 0. 12. 97. 355. 1. 375. 0. 0. 0. 29. 0. 0. 0. 0.
      0. 0. 0. 6. 2. 0. 0. 0. 0. 0. 0. 0. 2. 0. 0. 0. 0. 0. 0. 1. 389.
      497. 1. 138. 1. 0. 1. 8. 1. 2. 0. 1. 0. 0. 3. 3. 270. 85. 3. 18.
      0. 1. 1. 1. 94. 11. 0. 13. 7. 4. 5. 4.</_>
    <_>
      144. 17. 24. 44. 26. 2. 66. 106. 21. 1. 3. 0. 76. 2. 204. 144. 20.
      0. 2. 2. 0. 0. 2. 0. 29. 0. 4. 4. 211. 0. 290. 60. 15. 0. 0. 0. 0.
      0. 2. 2. 2. 0. 0. 0. 4. 0. 3. 2. 28. 0. 0. 1. 0. 0. 0. 0. 137. 0.
      2. 0. 196. 0. 85. 20. 23. 0. 1. 1. 3. 0. 3. 1. 0. 0. 0. 0. 2. 0.
      1. 2. 0. 0. 0. 0. 0. 0. 0. 0. 1. 0. 0. 0. 1. 0. 1. 0. 52. 1. 0. 0.
      1. 0. 1. 0. 2. 0. 1. 0. 2. 0. 2. 1. 115. 1. 2. 0. 1. 0. 2. 0. 155.
      0. 1. 0. 23. 0. 7. 1. 27. 38. 2. 261. 1. 0. 2. 167. 1. 1. 0. 5. 0.
      1. 3. 61. 0. 1. 0. 1. 0. 0. 0. 0. 3. 1. 1. 1. 2. 0. 0. 20. 1. 1.
      1. 5. 0. 0. 0. 1. 0. 1. 0. 0. 0. 0. 0. 2. 0. 1. 0. 5. 0. 0. 0. 0.
      6. 1. 0. 10. 0. 0. 0. 15. 75. 236. 1. 380. 2. 0. 2. 35. 0. 0. 0.
      2. 0. 0. 0. 11. 0. 0. 0. 0. 0. 0. 0. 0. 0. 0. 0. 0. 1. 0. 1. 1.
      258. 318. 1. 121. 0. 0. 2. 10. 0. 1. 0. 2. 1. 0. 3. 13. 146. 59.
      1. 13. 0. 0. 0. 2. 61. 17. 1. 16. 5. 0. 13. 13.</_>
    <_>
      213. 13. 16. 25. 11. 0. 26. 24. 19. 0. 1. 2. 39. 0. 104. 47. 12.
      0. 1. 0. 0. 0. 0. 0. 35. 0. 4. 0. 114. 0. 131. 15. 42. 1. 0. 1. 2.
      0. 0. 0. 0. 0. 0. 1. 0. 0. 1. 0. 74. 0. 2. 0. 2. 0. 1. 0. 134. 0.
      0. 1. 135. 0. 43. 5. 35. 1. 1. 0. 2. 0. 0. 0. 0. 0. 0. 0. 0. 0. 0.
      0. 1. 0. 0. 0. 0. 0. 0. 0. 0. 0. 0. 0. 0. 0. 0. 0. 79. 2. 3. 0. 0.
      0. 1. 0. 1. 0. 0. 0. 2. 0. 0. 0. 137. 0. 0. 0. 1. 0. 0. 0. 154. 1.
      0. 1. 29. 0. 1. 0. 87. 126. 1. 213. 0. 0. 2. 83. 1. 1. 0. 0. 0. 1.
      1. 25. 1. 0. 0. 0. 0. 0. 0. 0. 1. 0. 0. 1. 1. 0. 2. 6. 6. 3. 0. 2.
      0. 0. 1. 0. 1. 0. 0. 0. 0. 0. 0. 1. 3. 4. 0. 1. 0. 0. 0. 0. 2. 0.
      0. 3. 1. 0. 0. 9. 123. 429. 2. 391. 0. 0. 0. 22. 0. 1. 0. 0. 1. 1.
      1. 6. 1. 0. 0. 0. 0. 0. 0. 0. 2. 0. 0. 0. 0. 0. 1. 1. 409. 590. 1.
      157. 0. 1. 0. 9. 1. 3. 0. 0. 2. 0. 1. 6. 189. 54. 2. 13. 0. 0. 1.
      1. 78. 11. 0. 13. 11. 3. 8. 3.</_>
    <_>
      178. 15. 26. 40. 20. 0. 29. 58. 19. 2. 1. 2. 19. 1. 92. 65. 13. 0.
      1. 0. 0. 0. 0. 0. 14. 0. 0. 0. 71. 0. 105. 16. 53. 1. 2. 2. 0. 0.
      0. 1. 2. 0. 0. 0. 3. 0. 2. 0. 49. 1. 1. 1. 2. 0. 1. 0. 77. 0. 2.
      0. 75. 0. 24. 4. 28. 0. 0. 0. 1. 0. 0. 0. 0. 0. 0. 0. 0. 0. 3. 0.
      1. 0. 0. 0. 0. 0. 0. 0. 0. 0. 0. 0. 0. 0. 0. 0. 106. 2. 1. 1. 1.
      0. 1. 0. 1. 0. 0. 0. 0. 0. 1. 0. 164. 0. 0. 0. 0. 0. 0. 0. 187. 1.
      2. 0. 12. 0. 7. 0. 46. 69. 5. 206. 1. 1. 2. 116. 1. 0. 0. 0. 0. 0.
      1. 30. 0. 1. 0. 0. 0. 0. 0. 0. 0. 0. 0. 1. 0. 0. 1. 8. 1. 3. 0. 2.
      0. 0. 0. 2. 0. 0. 0. 1. 0. 0. 0. 0. 1. 2. 0. 2. 0. 0. 0. 1. 5. 0.
      0. 0. 1. 0. 0. 3. 134. 404. 4. 450. 3. 1. 0. 29. 0. 0. 0. 2. 1. 1.
      1. 2. 0. 1. 0. 0. 0. 0. 0. 0. 1. 4. 0. 1. 0. 0. 0. 2. 432. 548. 4.
      191. 0. 0. 0. 12. 2. 0. 0. 3. 0. 0. 0. 5. 274. 83. 2. 16. 0. 0. 0.
      0. 89. 15. 0. 11. 11. 5. 6. 15.</_>
    <_>
      166. 9. 13. 30. 16. 1. 42. 58. 10. 3. 1. 3. 47. 2. 100. 59. 9. 0.
      2. 1. 0. 0. 3. 0. 23. 0. 3. 1. 127. 1. 154. 25. 30. 0. 0. 2. 1. 0.
      0. 0. 1. 0. 0. 0. 2. 0. 0. 3. 52. 0. 3. 2. 0. 0. 0. 0. 135. 1. 3.
      2. 176. 0. 55. 11. 25. 0. 0. 0. 0. 0. 0. 1. 0. 0. 0. 0. 2. 0. 1.
      0. 2. 0. 0. 0. 0. 0. 0. 0. 0. 0. 0. 0. 0. 0. 0. 0. 116. 3. 2. 1.
      0. 0. 1. 0. 0. 0. 0. 0. 3. 0. 1. 0. 139. 0. 0. 0. 0. 0. 0. 0. 152.
      0. 1. 1. 22. 0. 3. 3. 32. 69. 2. 161. 0. 0. 3. 107. 1. 1. 0. 2. 0.
      0. 2. 37. 0. 0. 0. 0. 0. 0. 0. 0. 2. 1. 0. 2. 0. 0. 1. 12. 1. 7.
      0. 6. 0. 0. 0. 2. 0. 0. 0. 0. 0. 0. 0. 2. 3. 1. 0. 1. 0. 0. 0. 3.
      7. 0. 0. 3. 1. 0. 0. 18. 135. 358. 0. 365. 0. 1. 0. 24. 1. 0. 0.
      1. 1. 1. 1. 5. 2. 0. 0. 0. 0. 0. 0. 0. 0. 1. 0. 2. 1. 0. 0. 4.
      440. 485. 3. 163. 1. 0. 3. 9. 3. 1. 0. 0. 1. 0. 1. 2. 263. 79. 0.
      18. 0. 0. 0. 3. 86. 21. 1. 12. 12. 1. 3. 17.</_>
    <_>
      141. 18. 27. 59. 31. 0. 61. 102. 28. 3. 2. 4. 68. 2. 208. 126. 12.
      0. 2. 1. 0. 0. 2. 0. 39. 0. 1. 1. 192. 2. 269. 47. 17. 2. 2. 0. 1.
      0. 0. 2. 2. 0. 0. 0. 2. 0. 3. 2. 27. 1. 0. 3. 0. 0. 1. 0. 142. 0.
      5. 4. 222. 0. 100. 15. 19. 0. 1. 1. 1. 0. 1. 1. 0. 0. 0. 0. 1. 0.
      3. 0. 1. 0. 0. 0. 0. 0. 0. 0. 0. 0. 0. 0. 0. 0. 1. 0. 59. 1. 0. 0.
      1. 0. 2. 0. 1. 0. 0. 0. 1. 0. 2. 0. 119. 0. 0. 0. 0. 0. 0. 0. 153.
      0. 2. 1. 29. 0. 8. 3. 25. 58. 6. 249. 0. 0. 3. 188. 2. 0. 1. 4. 0.
      0. 3. 69. 0. 0. 0. 0. 0. 0. 0. 1. 1. 0. 0. 3. 0. 0. 2. 19. 0. 2.
      0. 5. 0. 0. 0. 2. 0. 0. 0. 0. 0. 0. 0. 4. 1. 0. 0. 2. 0. 0. 0. 3.
      4. 0. 0. 12. 1. 1. 0. 18. 80. 250. 3. 413. 1. 2. 1. 32. 0. 1. 0.
      2. 2. 1. 0. 6. 0. 1. 0. 0. 0. 0. 0. 1. 2. 1. 0. 3. 0. 0. 0. 3.
      205. 296. 1. 114. 0. 0. 1. 6. 1. 0. 0. 1. 0. 0. 1. 3. 162. 48. 2.
      21. 0. 0. 0. 1. 61. 15. 1. 12. 5. 3. 6. 15.</_>
    <_>
      213. 14. 21. 34. 18. 1. 27. 67. 15. 0. 2. 1. 35. 0. 86. 67. 7. 0.
      0. 0. 0. 0. 0. 2. 19. 0. 2. 0. 67. 0. 76. 22. 61. 3. 0. 1. 1. 0.
      1. 1. 0. 0. 0. 0. 0. 0. 0. 0. 48. 2. 3. 1. 2. 0. 1. 0. 76. 1. 3.
      2. 71. 0. 50. 6. 37. 0. 2. 2. 0. 0. 1. 1. 0. 0. 1. 0. 0. 0. 0. 0.
      1. 0. 0. 0. 0. 0. 0. 0. 2. 0. 0. 1. 0. 0. 0. 0. 95. 1. 2. 2. 0. 0.
      1. 2. 1. 0. 0. 0. 1. 0. 0. 0. 191. 1. 1. 1. 0. 0. 0. 0. 187. 0. 2.
      0. 12. 0. 0. 1. 46. 61. 2. 217. 6. 1. 0. 125. 0. 0. 0. 0. 4. 3. 0.
      31. 1. 1. 0. 1. 0. 0. 0. 0. 0. 1. 0. 0. 0. 1. 1. 8. 5. 4. 0. 5. 0.
      0. 0. 1. 0. 0. 0. 0. 1. 0. 0. 0. 1. 0. 0. 2. 0. 0. 0. 2. 5. 2. 0.
      2. 1. 1. 1. 5. 129. 361. 1. 443. 0. 1. 1. 30. 5. 1. 0. 3. 0. 0. 0.
      5. 1. 0. 1. 1. 0. 0. 0. 0. 0. 0. 0. 0. 0. 0. 0. 1. 400. 535. 4.
      211. 0. 1. 0. 7. 1. 2. 0. 3. 0. 0. 0. 3. 267. 64. 1. 27. 1. 0. 2.
      4. 99. 12. 1. 11. 7. 3. 1. 10.</_>
    <_>
      192. 8. 9. 19. 14. 0. 31. 55. 16. 0. 1. 0. 39. 2. 105. 86. 7. 1.
      1. 0. 0. 0. 1. 0. 30. 0. 2. 2. 125. 0. 128. 21. 49. 3. 1. 0. 2. 0.
      1. 0. 3. 0. 0. 0. 2. 0. 0. 1. 48. 1. 0. 0. 0. 0. 1. 0. 143. 0. 3.
      1. 149. 0. 42. 7. 28. 0. 3. 0. 0. 0. 0. 0. 0. 0. 0. 0. 0. 0. 1. 0.
      0. 0. 0. 0. 0. 0. 0. 0. 2. 0. 0. 0. 1. 0. 0. 1. 90. 1. 1. 0. 0. 0.
      0. 0. 2. 0. 0. 0. 0. 0. 0. 0. 179. 0. 1. 0. 0. 0. 0. 0. 157. 0. 1.
      1. 11. 0. 4. 1. 49. 54. 0. 178. 0. 0. 0. 77. 1. 1. 0. 6. 4. 1. 2.
      22. 1. 0. 0. 0. 0. 0. 0. 0. 3. 0. 0. 3. 0. 0. 0. 8. 5. 2. 0. 5. 0.
      1. 0. 2. 0. 0. 0. 0. 0. 1. 0. 0. 2. 1. 0. 3. 0. 0. 0. 1. 2. 3. 0.
      6. 0. 0. 1. 13. 123. 357. 0. 397. 3. 0. 0. 19. 2. 2. 0. 0. 2. 0.
      0. 6. 3. 0. 0. 0. 0. 0. 0. 0. 0. 0. 0. 0. 0. 0. 0. 0. 462. 535. 0.
      149. 0. 0. 1. 2. 4. 0. 0. 1. 0. 0. 2. 4. 338. 64. 2. 22. 0. 1. 0.
      0. 62. 5. 0. 9. 4. 1. 2. 9.</_>
    <_>
      155. 16. 25. 52. 40. 1. 61. 120. 23. 0. 3. 1. 76. 2. 191. 157. 12.
      1. 2. 0. 1. 0. 2. 1. 40. 0. 4. 3. 188. 0. 261. 50. 16. 0. 0. 2. 2.
      0. 0. 1. 0. 0. 0. 0. 2. 0. 0. 2. 24. 2. 2. 1. 2. 0. 1. 0. 144. 0.
      6. 3. 198. 0. 92. 12. 26. 0. 2. 3. 0. 0. 0. 2. 0. 0. 0. 0. 0. 0.
      1. 0. 0. 0. 0. 0. 0. 0. 0. 0. 3. 0. 0. 1. 0. 0. 0. 1. 47. 0. 0. 0.
      0. 0. 1. 1. 2. 0. 0. 0. 1. 0. 0. 1. 108. 1. 0. 0. 0. 0. 0. 0. 145.
      1. 1. 1. 16. 0. 3. 1. 21. 48. 0. 303. 2. 2. 2. 167. 2. 1. 0. 6. 3.
      5. 2. 66. 0. 1. 0. 0. 1. 0. 0. 0. 0. 2. 0. 3. 1. 0. 1. 23. 4. 1.
      0. 6. 0. 0. 0. 1. 0. 0. 0. 0. 1. 0. 0. 0. 1. 0. 0. 1. 1. 0. 0. 1.
      2. 1. 0. 7. 1. 0. 0. 16. 83. 238. 2. 423. 1. 0. 1. 27. 5. 0. 0. 3.
      2. 0. 2. 5. 1. 0. 0. 0. 0. 0. 0. 0. 1. 0. 0. 0. 0. 0. 0. 4. 213.
      299. 1. 126. 0. 0. 0. 6. 4. 0. 0. 3. 0. 0. 0. 5. 197. 47. 0. 20.
      1. 0. 0. 2. 54. 5. 1. 9. 5. 1. 4. 12.</_>
    <_>
      134. 9. 28. 43. 22. 1. 53. 97. 20. 0. 2. 0. 53. 5. 183. 126. 15.
      1. 1. 0. 0. 0. 2. 0. 47. 0. 2. 4. 138. 0. 145. 24. 24. 1. 0. 0. 3.
      0. 2. 0. 2. 0. 0. 0. 2. 0. 2. 1. 54. 1. 0. 0. 1. 0. 0. 0. 263. 0.
      6. 4. 239. 0. 63. 8. 28. 0. 3. 0. 1. 0. 0. 0. 2. 0. 0. 0. 0. 0. 1.
      0. 0. 0. 0. 0. 0. 0. 0. 0. 1. 0. 0. 0. 1. 0. 0. 1. 81. 1. 1. 0. 0.
      0. 0. 1. 4. 0. 0. 0. 1. 0. 0. 0. 179. 0. 0. 0. 1. 0. 0. 0. 239. 0.
      1. 2. 28. 1. 7. 4. 24. 50. 1. 171. 2. 0. 0. 148. 0. 3. 0. 8. 1. 0.
      1. 37. 0. 0. 0. 0. 0. 0. 0. 0. 3. 0. 0. 3. 2. 0. 0. 10. 1. 0. 0.
      3. 0. 0. 1. 2. 0. 0. 0. 0. 0. 0. 1. 0. 2. 0. 0. 2. 0. 0. 0. 1. 2.
      1. 0. 6. 0. 0. 1. 20. 88. 279. 1. 248. 4. 0. 0. 17. 1. 1. 0. 0. 1.
      0. 0. 8. 2. 0. 0. 0. 0. 0. 0. 0. 1. 0. 0. 0. 0. 0. 1. 1. 359. 368.
      3. 110. 0. 0. 1. 5. 5. 0. 0. 1. 2. 0. 2. 5. 242. 75. 1. 10. 0. 0.
      0. 1. 68. 11. 0. 12. 9. 1. 4. 13.</_>
    <_>
      218. 10. 21. 31. 14. 0. 36. 56. 17. 0. 0. 0. 37. 1. 101. 52. 6. 1.
      0. 0. 0. 0. 1. 0. 15. 0. 1. 2. 94. 0. 142. 22. 51. 1. 2. 0. 1. 0.
      0. 1. 0. 0. 0. 0. 0. 0. 4. 0. 48. 0. 1. 1. 0. 0. 0. 0. 106. 0. 1.
      0. 69. 1. 33. 6. 34. 0. 1. 1. 0. 0. 0. 0. 0. 0. 0. 0. 0. 0. 1. 0.
      0. 0. 0. 0. 0. 0. 0. 0. 1. 0. 0. 0. 0. 0. 0. 1. 93. 0. 1. 1. 0. 0.
      0. 0. 2. 0. 0. 0. 0. 0. 0. 0. 166. 0. 0. 0. 0. 0. 0. 0. 188. 0. 0.
      0. 17. 1. 6. 1. 46. 81. 1. 229. 1. 2. 1. 120. 1. 0. 0. 2. 3. 3. 3.
      27. 1. 1. 0. 0. 0. 0. 0. 0. 0. 1. 0. 0. 0. 0. 0. 5. 4. 2. 0. 5. 0.
      0. 0. 1. 0. 0. 0. 0. 0. 0. 0. 1. 3. 0. 0. 1. 0. 0. 0. 0. 3. 1. 0.
      2. 2. 1. 0. 5. 112. 355. 1. 504. 0. 1. 1. 30. 3. 0. 0. 2. 2. 1. 1.
      4. 0. 2. 0. 0. 0. 0. 0. 0. 1. 1. 0. 1. 1. 0. 1. 2. 412. 505. 3.
      183. 0. 1. 0. 7. 0. 1. 0. 1. 1. 0. 0. 4. 241. 67. 1. 24. 0. 0. 0.
      5. 91. 11. 1. 6. 3. 5. 2. 9.</_>
    <_>
      179. 12. 12. 19. 19. 0. 34. 48. 16. 0. 2. 1. 39. 0. 96. 69. 9. 0.
      1. 0. 0. 0. 0. 0. 26. 0. 1. 3. 134. 0. 129. 25. 54. 1. 0. 0. 0. 0.
      0. 0. 0. 0. 0. 0. 1. 0. 1. 0. 48. 0. 0. 0. 1. 0. 0. 0. 125. 0. 1.
      3. 155. 0. 52. 9. 24. 0. 0. 0. 0. 0. 1. 0. 0. 0. 0. 0. 2. 0. 0. 0.
      0. 0. 0. 0. 0. 0. 0. 0. 1. 0. 0. 0. 0. 0. 0. 0. 77. 2. 0. 2. 0. 0.
      0. 0. 2. 0. 0. 0. 1. 0. 1. 0. 167. 1. 0. 1. 0. 0. 2. 0. 126. 0. 0.
      1. 15. 0. 2. 0. 39. 62. 0. 172. 2. 0. 1. 99. 0. 0. 0. 4. 0. 1. 4.
      33. 1. 1. 0. 0. 0. 0. 0. 0. 0. 0. 0. 2. 0. 0. 0. 7. 1. 0. 0. 5. 0.
      0. 0. 0. 0. 0. 1. 0. 0. 1. 0. 0. 2. 2. 0. 0. 0. 0. 0. 0. 5. 2. 0.
      7. 1. 0. 1. 10. 119. 375. 2. 386. 0. 0. 2. 24. 2. 0. 0. 0. 2. 0.
      0. 3. 0. 0. 0. 0. 0. 0. 0. 0. 0. 0. 0. 0. 0. 0. 0. 1. 528. 547. 1.
      168. 0. 0. 3. 3. 3. 1. 0. 0. 1. 1. 1. 4. 319. 49. 0. 16. 1. 0. 0.
      1. 69. 12. 1. 6. 8. 1. 4. 5.</_>
    <_>
      165. 10. 12. 19. 7. 0. 23. 35. 18. 0. 1. 0. 38. 1. 187. 111. 13.
      0. 0. 0. 0. 0. 0. 0. 53. 0. 2. 0. 142. 0. 193. 17. 60. 0. 1. 0. 0.
      0. 0. 0. 2. 0. 0. 0. 1. 0. 2. 0. 63. 0. 0. 0. 0. 0. 0. 0. 138. 0.
      0. 2. 148. 0. 55. 1. 34. 0. 1. 0. 1. 0. 1. 0. 0. 0. 0. 0. 0. 0. 0.
      0. 1. 0. 0. 0. 0. 0. 0. 0. 0. 0. 0. 0. 1. 0. 1. 0. 95. 1. 0. 1. 1.
      0. 0. 0. 1. 0. 0. 0. 1. 0. 1. 0. 185. 0. 0. 1. 0. 0. 0. 0. 138. 0.
      0. 0. 18. 0. 6. 0. 50. 77. 3. 125. 0. 0. 1. 38. 2. 2. 0. 2. 3. 0.
      0. 24. 2. 0. 0. 0. 0. 0. 0. 0. 0. 1. 0. 1. 0. 0. 1. 1. 8. 4. 0. 3.
      0. 0. 0. 0. 0. 0. 0. 0. 0. 1. 0. 0. 1. 2. 0. 2. 0. 0. 0. 1. 4. 1.
      1. 3. 1. 1. 0. 1. 117. 427. 2. 341. 0. 0. 1. 8. 3. 1. 0. 0. 0. 0.
      2. 4. 1. 0. 0. 1. 0. 0. 0. 0. 0. 0. 0. 1. 0. 0. 0. 0. 422. 652. 5.
      129. 2. 2. 0. 4. 3. 0. 0. 0. 1. 1. 3. 4. 231. 46. 0. 9. 0. 0. 0.
      3. 63. 8. 0. 4. 1. 0. 5. 5.</_>
    <_>
      263. 24. 24. 42. 45. 3. 49. 94. 25. 1. 2. 0. 50. 1. 55. 41. 16. 0.
      1. 2. 0. 0. 1. 2. 39. 0. 2. 2. 49. 2. 42. 15. 40. 2. 6. 8. 3. 0.
      3. 1. 0. 0. 0. 0. 1. 0. 1. 1. 65. 0. 6. 3. 5. 0. 1. 1. 223. 0. 10.
      6. 90. 2. 35. 24. 82. 0. 4. 0. 1. 0. 0. 0. 5. 0. 0. 0. 0. 0. 0. 0.
      4. 0. 0. 0. 0. 0. 0. 0. 8. 0. 0. 0. 0. 0. 0. 0. 73. 0. 1. 4. 2. 0.
      0. 1. 5. 1. 0. 1. 2. 0. 0. 0. 224. 0. 6. 2. 2. 0. 1. 0. 471. 3. 5.
      2. 35. 1. 9. 3. 44. 76. 0. 358. 5. 6. 5. 480. 2. 0. 0. 2. 3. 2. 0.
      67. 2. 0. 0. 0. 0. 0. 0. 1. 3. 0. 0. 1. 1. 0. 1. 9. 3. 6. 0. 11.
      0. 1. 0. 5. 0. 1. 0. 0. 0. 0. 2. 3. 2. 6. 0. 4. 1. 1. 0. 3. 5. 3.
      2. 6. 1. 1. 2. 30. 88. 136. 3. 291. 4. 2. 1. 53. 3. 0. 0. 1. 3. 0.
      1. 10. 4. 2. 0. 0. 0. 0. 0. 0. 5. 1. 0. 0. 0. 0. 0. 2. 89. 62. 1.
      105. 1. 1. 1. 12. 5. 2. 0. 1. 1. 2. 0. 7. 108. 36. 3. 49. 1. 0. 0.
      3. 114. 28. 4. 45. 8. 3. 10. 22.</_>
    <_>
      182. 17. 23. 45. 21. 0. 37. 67. 13. 1. 1. 0. 34. 0. 147. 83. 11.
      1. 0. 0. 0. 0. 2. 0. 27. 0. 0. 2. 103. 2. 179. 29. 33. 1. 3. 0. 1.
      0. 2. 2. 3. 1. 0. 0. 0. 0. 1. 0. 51. 1. 2. 1. 0. 0. 0. 0. 79. 0.
      4. 1. 84. 0. 54. 7. 25. 1. 0. 1. 0. 0. 1. 0. 0. 0. 0. 0. 2. 0. 1.
      0. 1. 0. 0. 0. 0. 0. 0. 0. 2. 0. 0. 0. 0. 0. 0. 0. 76. 0. 4. 0. 1.
      0. 0. 0. 1. 0. 0. 0. 1. 0. 0. 0. 165. 0. 3. 0. 0. 0. 0. 0. 143. 0.
      0. 0. 10. 0. 0. 0. 33. 64. 2. 271. 0. 3. 2. 109. 0. 0. 0. 2. 1. 2.
      2. 36. 0. 0. 0. 0. 0. 0. 0. 0. 0. 0. 0. 0. 0. 0. 2. 4. 4. 6. 0. 0.
      0. 0. 0. 0. 0. 0. 0. 0. 0. 0. 0. 1. 4. 1. 0. 1. 0. 0. 0. 0. 3. 1.
      0. 3. 1. 0. 0. 8. 82. 352. 2. 480. 2. 0. 1. 46. 3. 0. 0. 1. 0. 0.
      0. 6. 0. 2. 0. 0. 0. 0. 0. 0. 4. 0. 0. 1. 0. 1. 0. 1. 377. 470. 3.
      149. 1. 1. 1. 9. 3. 0. 0. 2. 0. 0. 2. 7. 281. 72. 1. 19. 0. 0. 1.
      1. 102. 11. 2. 3. 4. 4. 5. 11.</_>
    <_>
      160. 16. 14. 25. 17. 0. 46. 78. 12. 0. 2. 1. 47. 1. 104. 65. 9. 0.
      0. 0. 0. 0. 0. 1. 30. 0. 0. 3. 122. 0. 112. 24. 32. 2. 1. 1. 0. 0.
      0. 1. 1. 0. 0. 0. 0. 0. 0. 0. 41. 0. 1. 0. 0. 0. 1. 0. 161. 0. 2.
      0. 152. 0. 61. 7. 35. 0. 0. 1. 0. 0. 1. 0. 1. 0. 0. 0. 0. 0. 0. 1.
      0. 0. 0. 0. 0. 0. 0. 0. 0. 0. 0. 0. 1. 0. 0. 0. 75. 2. 0. 1. 0. 0.
      0. 0. 1. 0. 0. 0. 0. 0. 0. 0. 134. 0. 2. 0. 1. 0. 0. 0. 108. 0. 0.
      0. 16. 0. 3. 1. 46. 44. 3. 143. 0. 1. 1. 100. 1. 0. 0. 4. 0. 0. 1.
      48. 0. 0. 0. 1. 0. 0. 0. 0. 1. 0. 0. 1. 0. 1. 0. 6. 3. 5. 1. 1. 0.
      0. 0. 0. 0. 0. 0. 0. 0. 0. 0. 1. 3. 0. 0. 2. 0. 0. 0. 1. 2. 1. 0.
      0. 0. 1. 0. 11. 98. 401. 1. 326. 0. 1. 0. 25. 2. 0. 0. 0. 0. 0. 0.
      3. 0. 1. 0. 0. 0. 0. 0. 0. 2. 1. 0. 1. 0. 0. 0. 0. 550. 609. 3.
      144. 1. 0. 3. 6. 2. 2. 0. 0. 1. 1. 3. 6. 331. 66. 1. 17. 0. 0. 0.
      0. 77. 9. 0. 3. 7. 1. 4. 8.</_>
    <_>
      195. 24. 13. 14. 18. 0. 16. 35. 24. 1. 1. 1. 49. 0. 175. 100. 17.
      1. 2. 0. 1. 0. 1. 0. 45. 0. 2. 1. 168. 0. 177. 19. 56. 3. 0. 0. 0.
      0. 1. 0. 4. 0. 0. 0. 0. 0. 3. 1. 62. 0. 0. 0. 0. 0. 0. 0. 184. 0.
      1. 2. 147. 0. 54. 4. 18. 1. 0. 1. 0. 0. 1. 0. 0. 0. 0. 0. 0. 0. 0.
      1. 1. 0. 0. 0. 0. 0. 0. 0. 0. 0. 0. 0. 0. 0. 0. 0. 100. 1. 0. 1.
      0. 0. 1. 0. 1. 0. 0. 0. 1. 0. 1. 0. 169. 0. 1. 0. 0. 0. 0. 0. 102.
      0. 1. 0. 17. 0. 10. 1. 57. 82. 4. 113. 0. 1. 0. 19. 2. 1. 1. 1. 0.
      0. 6. 22. 0. 0. 0. 0. 0. 0. 0. 0. 1. 1. 0. 1. 1. 0. 2. 3. 4. 1. 0.
      4. 0. 1. 0. 0. 0. 1. 0. 0. 0. 0. 0. 1. 2. 0. 0. 0. 0. 0. 0. 1. 2.
      0. 1. 0. 0. 1. 0. 3. 124. 425. 1. 269. 0. 1. 3. 15. 0. 0. 0. 0. 0.
      2. 1. 8. 0. 0. 0. 1. 0. 0. 0. 1. 1. 1. 0. 0. 1. 0. 0. 1. 408. 641.
      2. 151. 0. 0. 1. 6. 4. 0. 0. 0. 1. 2. 5. 11. 249. 38. 1. 11. 0. 1.
      1. 1. 75. 6. 0. 5. 4. 1. 10. 6.</_>
    <_>
      236. 20. 23. 59. 61. 2. 49. 134. 26. 0. 1. 3. 42. 0. 49. 69. 16.
      0. 1. 2. 1. 0. 0. 0. 56. 1. 4. 1. 61. 0. 40. 18. 18. 1. 8. 4. 0.
      0. 1. 4. 2. 0. 1. 0. 1. 0. 6. 1. 60. 0. 7. 2. 2. 0. 2. 1. 158. 1.
      6. 7. 98. 0. 49. 18. 65. 1. 4. 3. 3. 0. 1. 1. 4. 0. 0. 0. 2. 0. 0.
      0. 2. 0. 0. 0. 0. 0. 1. 0. 7. 0. 0. 0. 0. 0. 0. 0. 71. 0. 2. 5. 0.
      1. 1. 1. 4. 0. 0. 0. 1. 0. 1. 1. 207. 0. 2. 3. 2. 0. 1. 0. 419. 2.
      5. 3. 21. 0. 13. 3. 51. 66. 3. 346. 7. 5. 3. 495. 2. 3. 0. 2. 3.
      1. 2. 94. 0. 1. 0. 0. 0. 0. 0. 0. 5. 1. 0. 3. 2. 3. 4. 19. 3. 3.
      0. 16. 0. 0. 1. 5. 1. 1. 0. 0. 0. 0. 0. 1. 8. 5. 0. 4. 0. 0. 0. 4.
      7. 5. 0. 14. 0. 2. 1. 24. 103. 150. 3. 314. 2. 1. 3. 45. 3. 5. 0.
      1. 3. 0. 1. 14. 1. 0. 0. 0. 0. 0. 0. 0. 4. 0. 0. 2. 0. 0. 0. 1.
      87. 64. 2. 120. 1. 0. 1. 14. 2. 1. 1. 1. 3. 1. 1. 7. 125. 38. 1.
      42. 0. 0. 0. 4. 94. 22. 4. 31. 13. 2. 8. 20.</_>
    <_>
      146. 16. 27. 49. 26. 0. 66. 138. 28. 1. 3. 1. 98. 0. 162. 106. 13.
      1. 2. 0. 0. 0. 0. 1. 81. 0. 4. 1. 150. 1. 146. 27. 36. 1. 4. 1. 0.
      0. 2. 0. 1. 0. 1. 0. 3. 0. 4. 2. 65. 0. 2. 1. 1. 0. 2. 0. 315. 0.
      5. 4. 357. 1. 60. 14. 38. 0. 0. 4. 0. 0. 0. 0. 0. 0. 0. 0. 0. 0.
      0. 0. 1. 0. 0. 0. 0. 0. 0. 0. 0. 0. 0. 0. 0. 0. 0. 0. 77. 2. 2. 1.
      0. 0. 1. 0. 2. 0. 0. 0. 0. 0. 2. 0. 188. 0. 1. 0. 0. 0. 1. 0. 300.
      1. 0. 0. 30. 0. 10. 1. 32. 63. 1. 265. 1. 2. 1. 257. 1. 3. 1. 3.
      1. 0. 0. 41. 1. 0. 0. 0. 0. 0. 0. 0. 2. 2. 1. 4. 0. 2. 1. 7. 3. 0.
      1. 6. 0. 0. 0. 0. 0. 0. 0. 0. 0. 0. 0. 1. 2. 3. 0. 3. 0. 0. 0. 1.
      4. 0. 0. 7. 0. 1. 2. 10. 79. 176. 1. 280. 0. 0. 0. 26. 1. 1. 0. 0.
      1. 0. 2. 4. 2. 0. 0. 1. 0. 0. 0. 0. 1. 2. 0. 0. 1. 0. 0. 0. 206.
      100. 1. 105. 0. 0. 1. 6. 1. 0. 0. 1. 0. 1. 0. 1. 152. 21. 3. 15.
      0. 0. 0. 1. 67. 18. 1. 14. 2. 2. 4. 13.</_>
    <_>
      170. 20. 13. 28. 12. 0. 29. 70. 14. 0. 1. 0. 37. 0. 81. 57. 5. 0.
      0. 0. 0. 0. 1. 0. 32. 0. 1. 0. 100. 0. 100. 14. 37. 0. 0. 0. 0. 0.
      0. 0. 2. 0. 1. 0. 0. 0. 0. 0. 48. 0. 1. 0. 0. 0. 0. 1. 159. 0. 4.
      3. 152. 0. 43. 14. 33. 1. 0. 2. 0. 0. 0. 0. 0. 0. 0. 0. 0. 0. 0.
      0. 0. 0. 0. 0. 0. 0. 0. 0. 0. 0. 0. 0. 0. 0. 0. 0. 85. 0. 0. 0. 0.
      0. 0. 0. 1. 0. 0. 0. 2. 0. 1. 0. 184. 0. 0. 1. 1. 0. 0. 0. 145. 0.
      0. 0. 12. 0. 4. 1. 39. 54. 1. 174. 0. 0. 2. 125. 3. 0. 0. 2. 0. 2.
      1. 26. 1. 0. 0. 0. 0. 0. 0. 0. 1. 1. 0. 1. 0. 0. 0. 7. 3. 1. 0. 2.
      0. 0. 0. 0. 0. 0. 0. 0. 0. 0. 0. 0. 1. 2. 0. 1. 0. 0. 0. 1. 2. 0.
      1. 1. 0. 1. 0. 6. 124. 371. 2. 262. 1. 0. 1. 19. 0. 1. 0. 0. 0. 0.
      1. 4. 2. 0. 0. 1. 0. 0. 0. 1. 1. 0. 0. 0. 0. 0. 1. 3. 542. 611. 6.
      142. 0. 1. 5. 5. 3. 1. 0. 1. 1. 0. 6. 9. 383. 65. 1. 13. 1. 0. 0.
      1. 70. 11. 0. 4. 7. 0. 6. 13.</_>
    <_>
      213. 11. 23. 26. 15. 0. 35. 48. 47. 1. 1. 2. 58. 0. 247. 142. 10.
      0. 0. 1. 0. 0. 1. 0. 40. 0. 1. 0. 125. 0. 109. 7. 39. 1. 1. 1. 1.
      0. 0. 0. 5. 0. 0. 0. 2. 0. 0. 0. 62. 0. 1. 0. 1. 0. 1. 0. 118. 0.
      3. 1. 173. 0. 36. 6. 30. 0. 1. 1. 0. 0. 0. 0. 0. 0. 1. 0. 0. 0. 0.
      0. 0. 0. 0. 0. 0. 0. 0. 0. 1. 0. 0. 0. 0. 0. 0. 1. 92. 1. 0. 1. 0.
      0. 0. 0. 1. 0. 0. 0. 0. 0. 0. 0. 132. 0. 0. 0. 0. 0. 0. 0. 86. 0.
      0. 0. 14. 1. 2. 0. 75. 83. 2. 110. 0. 0. 0. 30. 1. 0. 0. 1. 0. 3.
      2. 31. 0. 0. 1. 0. 0. 0. 0. 0. 1. 0. 0. 0. 0. 0. 0. 2. 3. 3. 0. 3.
      0. 0. 0. 0. 0. 0. 0. 0. 0. 0. 0. 0. 2. 2. 0. 2. 0. 0. 0. 0. 3. 2.
      0. 4. 0. 0. 0. 8. 131. 412. 5. 223. 0. 1. 0. 11. 0. 0. 0. 0. 1. 0.
      1. 0. 0. 0. 0. 0. 0. 0. 0. 0. 1. 1. 0. 1. 0. 0. 0. 1. 477. 693. 4.
      123. 1. 2. 0. 8. 1. 3. 0. 0. 0. 2. 2. 2. 277. 44. 0. 13. 0. 0. 1.
      0. 63. 7. 0. 13. 4. 0. 1. 4.</_>
    <_>
      235. 22. 23. 37. 18. 0. 35. 61. 32. 1. 1. 4. 37. 0. 91. 42. 21. 0.
      1. 1. 0. 0. 1. 0. 28. 0. 3. 0. 48. 0. 78. 10. 43. 4. 1. 1. 0. 0.
      1. 1. 1. 0. 0. 0. 3. 0. 2. 2. 48. 2. 1. 0. 0. 0. 1. 1. 111. 0. 2.
      2. 58. 0. 32. 3. 35. 0. 1. 2. 0. 0. 1. 0. 1. 0. 0. 0. 0. 0. 0. 0.
      1. 0. 0. 0. 0. 0. 0. 0. 1. 0. 0. 0. 0. 0. 0. 0. 93. 2. 0. 2. 0. 0.
      1. 0. 0. 0. 0. 0. 0. 0. 1. 0. 109. 1. 3. 1. 0. 0. 2. 0. 124. 0. 0.
      1. 8. 0. 5. 1. 41. 88. 1. 261. 1. 4. 0. 208. 2. 1. 0. 2. 2. 1. 1.
      41. 1. 1. 0. 2. 0. 0. 0. 2. 3. 1. 0. 2. 1. 0. 0. 7. 5. 4. 0. 4. 0.
      0. 0. 2. 0. 0. 0. 1. 0. 1. 0. 1. 3. 2. 0. 0. 0. 0. 0. 0. 3. 3. 0.
      5. 0. 0. 0. 10. 139. 372. 2. 445. 1. 1. 0. 38. 0. 1. 0. 0. 0. 0.
      0. 6. 1. 2. 0. 1. 0. 0. 0. 0. 0. 0. 0. 0. 0. 0. 0. 1. 430. 515. 2.
      199. 0. 1. 0. 14. 2. 2. 0. 1. 1. 0. 2. 8. 230. 67. 3. 22. 0. 0. 1.
      3. 65. 11. 0. 10. 10. 0. 8. 7.</_>
    <_>
      753. 21. 22. 36. 10. 0. 12. 15. 28. 0. 0. 0. 17. 0. 22. 4. 17. 1.
      0. 2. 0. 0. 0. 0. 31. 0. 0. 0. 14. 0. 1. 0. 157. 2. 4. 0. 0. 0. 3.
      0. 5. 0. 0. 0. 2. 0. 1. 1. 153. 0. 2. 0. 2. 0. 0. 0. 252. 0. 1. 3.
      29. 0. 14. 2. 52. 0. 0. 0. 1. 0. 1. 0. 2. 0. 0. 0. 0. 0. 0. 0. 1.
      0. 0. 0. 0. 0. 0. 0. 2. 0. 0. 0. 0. 0. 0. 0. 179. 2. 3. 0. 0. 0.
      0. 0. 3. 0. 0. 0. 1. 0. 1. 0. 253. 1. 0. 0. 0. 0. 0. 0. 260. 1. 2.
      0. 7. 0. 5. 0. 163. 146. 4. 232. 0. 1. 1. 36. 1. 0. 0. 1. 0. 0. 0.
      11. 0. 0. 0. 0. 0. 0. 0. 0. 0. 0. 0. 0. 0. 0. 0. 2. 20. 5. 0. 8.
      0. 0. 0. 2. 0. 0. 0. 0. 0. 0. 0. 1. 6. 1. 0. 3. 0. 0. 0. 1. 4. 2.
      0. 3. 1. 0. 0. 2. 148. 179. 1. 194. 0. 0. 1. 12. 0. 0. 0. 0. 1. 1.
      0. 1. 3. 0. 0. 0. 0. 0. 0. 0. 0. 0. 0. 0. 0. 0. 0. 0. 469. 218. 5.
      103. 0. 1. 2. 8. 1. 0. 1. 0. 1. 0. 3. 6. 270. 35. 1. 18. 0. 0. 1.
      0. 88. 8. 2. 11. 6. 0. 5. 11.</_>
    <_>
      562. 21. 24. 41. 9. 0. 13. 23. 23. 0. 1. 0. 14. 0. 29. 10. 10. 0.
      0. 0. 0. 0. 0. 0. 29. 0. 2. 0. 27. 0. 28. 3. 77. 1. 2. 0. 0. 0. 3.
      0. 3. 0. 0. 0. 1. 0. 0. 0. 91. 1. 1. 1. 1. 0. 1. 0. 112. 0. 3. 1.
      20. 0. 14. 2. 47. 0. 0. 0. 1. 0. 0. 0. 0. 0. 0. 0. 0. 0. 0. 0. 0.
      0. 0. 0. 0. 0. 0. 0. 2. 0. 0. 0. 0. 0. 0. 0. 123. 1. 2. 1. 0. 0.
      0. 0. 3. 0. 0. 0. 0. 0. 1. 0. 190. 0. 0. 0. 0. 0. 0. 0. 102. 1. 1.
      0. 7. 0. 0. 0. 108. 111. 2. 230. 0. 3. 1. 58. 3. 0. 0. 1. 0. 0. 0.
      10. 0. 0. 0. 0. 0. 0. 0. 0. 0. 0. 0. 0. 0. 0. 0. 3. 8. 3. 1. 6. 0.
      0. 0. 0. 0. 0. 0. 0. 0. 0. 0. 0. 5. 1. 0. 1. 0. 0. 0. 0. 1. 1. 0.
      1. 0. 0. 1. 4. 148. 328. 2. 300. 0. 1. 1. 24. 1. 0. 0. 0. 2. 1. 0.
      2. 3. 1. 0. 1. 0. 0. 0. 0. 1. 1. 0. 1. 0. 0. 0. 0. 611. 504. 3.
      151. 0. 1. 2. 4. 1. 0. 0. 0. 1. 0. 1. 5. 320. 70. 0. 24. 0. 0. 2.
      1. 89. 9. 0. 11. 1. 2. 3. 5.</_>
    <_>
      192. 17. 10. 32. 19. 1. 16. 68. 20. 0. 3. 1. 33. 1. 46. 23. 10. 0.
      1. 0. 1. 0. 1. 1. 28. 0. 3. 2. 72. 0. 61. 12. 36. 2. 2. 0. 0. 0.
      1. 0. 0. 0. 0. 0. 1. 0. 0. 1. 64. 0. 1. 0. 0. 0. 1. 0. 152. 0. 3.
      2. 118. 1. 25. 10. 32. 0. 1. 1. 0. 0. 0. 0. 2. 0. 0. 0. 0. 0. 0.
      0. 1. 0. 0. 0. 0. 0. 0. 0. 3. 0. 0. 0. 0. 0. 0. 0. 92. 0. 1. 0. 1.
      0. 1. 0. 3. 0. 0. 0. 1. 0. 0. 0. 172. 1. 0. 0. 1. 0. 0. 0. 173. 2.
      0. 0. 30. 0. 2. 0. 47. 85. 1. 219. 2. 1. 1. 105. 2. 0. 0. 1. 1. 1.
      1. 23. 0. 0. 0. 1. 0. 0. 0. 0. 1. 0. 0. 1. 0. 0. 1. 5. 3. 3. 0. 7.
      0. 0. 0. 0. 0. 1. 0. 1. 0. 0. 0. 0. 4. 1. 0. 3. 0. 0. 0. 0. 1. 1.
      0. 9. 0. 0. 1. 15. 119. 344. 4. 402. 0. 1. 1. 19. 3. 0. 0. 1. 2.
      3. 0. 5. 2. 1. 0. 3. 0. 0. 0. 0. 0. 0. 0. 1. 0. 0. 0. 0. 493. 619.
      1. 167. 1. 0. 1. 11. 5. 0. 0. 1. 1. 0. 1. 6. 281. 69. 1. 22. 0. 0.
      3. 0. 74. 16. 0. 14. 8. 3. 7. 9.</_>
    <_>
      2783. 4. 42. 40. 13. 0. 21. 6. 136. 0. 1. 1. 61. 0. 161. 11. 9. 0.
      0. 0. 0. 0. 0. 0. 108. 0. 0. 0. 35. 0. 26. 1. 87. 0. 3. 1. 0. 0.
      0. 0. 4. 0. 0. 0. 0. 0. 2. 0. 80. 0. 1. 0. 0. 0. 1. 0. 457. 0. 2.
      0. 60. 0. 52. 1. 7. 1. 0. 0. 0. 0. 0. 0. 1. 0. 0. 0. 0. 0. 0. 0.
      0. 0. 0. 0. 0. 0. 0. 0. 1. 0. 0. 0. 0. 0. 0. 0. 47. 0. 0. 2. 0. 0.
      0. 0. 3. 0. 0. 1. 1. 0. 1. 0. 18. 0. 0. 0. 1. 0. 0. 0. 37. 0. 0.
      0. 2. 0. 1. 0. 21. 19. 1. 185. 0. 1. 1. 14. 1. 2. 0. 4. 0. 2. 1.
      18. 1. 0. 0. 0. 0. 0. 0. 0. 1. 0. 0. 0. 1. 0. 0. 6. 0. 0. 0. 4. 0.
      0. 0. 0. 0. 0. 0. 0. 0. 0. 0. 0. 1. 0. 0. 0. 0. 0. 0. 0. 1. 1. 0.
      0. 0. 1. 0. 8. 14. 4. 0. 2. 1. 0. 0. 0. 0. 0. 0. 0. 0. 0. 0. 2. 0.
      0. 0. 0. 0. 0. 0. 0. 3. 0. 0. 0. 0. 0. 0. 0. 128. 2. 1. 15. 0. 0.
      0. 1. 3. 0. 0. 0. 0. 0. 9. 0. 15. 0. 0. 4. 0. 0. 0. 0. 36. 2. 0.
      6. 6. 0. 3. 2.</_>
    <_>
      2775. 7. 51. 31. 20. 0. 17. 16. 90. 0. 0. 1. 36. 0. 107. 5. 12. 0.
      0. 0. 0. 0. 0. 0. 68. 0. 0. 1. 32. 0. 15. 1. 115. 0. 1. 0. 0. 0.
      0. 0. 2. 0. 0. 0. 0. 0. 1. 0. 110. 0. 0. 0. 0. 0. 0. 0. 390. 0. 1.
      0. 45. 0. 26. 2. 18. 0. 0. 0. 0. 0. 0. 1. 2. 0. 0. 0. 0. 0. 0. 0.
      1. 0. 0. 0. 0. 0. 0. 0. 0. 0. 0. 0. 0. 0. 0. 0. 46. 0. 0. 1. 0. 0.
      0. 0. 3. 0. 0. 0. 1. 0. 0. 0. 31. 0. 0. 0. 1. 0. 0. 0. 49. 0. 0.
      0. 1. 0. 1. 1. 46. 43. 1. 184. 1. 0. 3. 12. 3. 2. 0. 8. 0. 4. 1.
      14. 0. 0. 0. 0. 0. 0. 0. 0. 1. 0. 0. 4. 1. 0. 0. 6. 2. 0. 0. 1. 0.
      0. 0. 0. 0. 0. 0. 0. 0. 0. 0. 0. 1. 0. 0. 1. 0. 0. 0. 1. 6. 3. 0.
      24. 0. 0. 0. 11. 25. 10. 0. 17. 0. 0. 0. 1. 0. 0. 0. 0. 0. 0. 1.
      2. 0. 0. 0. 0. 0. 0. 0. 0. 3. 0. 0. 0. 0. 0. 0. 0. 154. 9. 1. 32.
      0. 0. 0. 1. 4. 0. 0. 1. 1. 0. 6. 2. 16. 2. 0. 1. 0. 0. 0. 0. 48.
      4. 0. 15. 8. 0. 2. 3.</_>
    <_>
      284. 14. 35. 36. 13. 0. 18. 58. 12. 0. 1. 0. 16. 0. 89. 39. 7. 0.
      0. 0. 0. 0. 0. 0. 15. 0. 1. 0. 26. 0. 50. 1. 51. 0. 0. 1. 1. 0. 0.
      1. 2. 0. 0. 0. 0. 0. 0. 0. 42. 0. 0. 0. 0. 0. 1. 0. 87. 0. 2. 1.
      34. 0. 21. 3. 49. 1. 1. 2. 1. 0. 0. 0. 0. 0. 0. 0. 1. 0. 0. 0. 0.
      0. 0. 0. 0. 0. 0. 0. 0. 0. 0. 0. 0. 0. 0. 0. 89. 0. 1. 3. 0. 0. 1.
      0. 1. 0. 0. 0. 1. 0. 0. 0. 148. 0. 1. 0. 0. 0. 0. 0. 149. 1. 0. 0.
      10. 0. 0. 0. 73. 88. 1. 308. 1. 2. 3. 137. 0. 3. 0. 3. 1. 1. 3.
      25. 2. 0. 0. 2. 0. 0. 0. 0. 2. 1. 0. 1. 0. 0. 0. 3. 4. 2. 0. 9. 0.
      0. 0. 2. 0. 0. 0. 1. 0. 0. 0. 0. 0. 2. 0. 1. 0. 0. 1. 1. 5. 3. 0.
      2. 0. 1. 1. 3. 147. 433. 1. 487. 1. 0. 1. 21. 0. 1. 0. 1. 0. 1. 1.
      9. 5. 1. 0. 1. 0. 0. 0. 0. 1. 0. 0. 0. 0. 0. 0. 0. 426. 556. 4.
      207. 1. 2. 1. 5. 2. 0. 0. 0. 2. 0. 0. 8. 250. 57. 0. 24. 0. 0. 2.
      1. 77. 10. 0. 9. 1. 1. 3. 7.</_>
    <_>
      628. 23. 19. 35. 5. 0. 16. 10. 14. 0. 0. 0. 16. 0. 15. 5. 21. 0.
      0. 0. 0. 0. 0. 0. 27. 0. 1. 1. 8. 0. 5. 0. 139. 4. 1. 0. 1. 0. 0.
      2. 2. 0. 1. 0. 2. 0. 0. 0. 115. 0. 0. 2. 1. 0. 1. 1. 158. 0. 3. 0.
      29. 0. 12. 2. 52. 0. 0. 0. 0. 0. 0. 0. 4. 0. 0. 0. 0. 0. 0. 0. 0.
      0. 0. 0. 0. 0. 0. 0. 1. 0. 0. 0. 0. 0. 0. 0. 161. 5. 2. 1. 0. 0.
      0. 0. 1. 0. 0. 0. 0. 0. 0. 0. 201. 0. 1. 0. 1. 0. 0. 0. 149. 0. 0.
      2. 9. 0. 6. 1. 126. 165. 2. 273. 1. 1. 0. 34. 0. 4. 0. 1. 3. 0. 1.
      10. 4. 1. 0. 0. 0. 0. 0. 0. 0. 0. 0. 0. 1. 1. 0. 1. 13. 8. 0. 10.
      0. 0. 0. 0. 0. 0. 0. 0. 0. 0. 0. 1. 6. 2. 1. 7. 0. 0. 0. 0. 1. 1.
      0. 6. 1. 0. 0. 3. 181. 236. 3. 303. 0. 1. 0. 17. 2. 1. 0. 1. 0. 0.
      1. 3. 2. 1. 0. 1. 0. 0. 0. 0. 0. 0. 0. 0. 0. 0. 0. 0. 576. 325. 8.
      143. 1. 2. 0. 22. 6. 1. 0. 0. 0. 0. 4. 2. 246. 47. 2. 15. 2. 0. 0.
      2. 81. 13. 1. 12. 4. 1. 1. 7.</_>
    <_>
      312. 15. 8. 32. 16. 2. 15. 30. 17. 0. 1. 1. 19. 0. 37. 10. 9. 0.
      1. 0. 0. 0. 1. 0. 21. 0. 1. 0. 47. 0. 34. 4. 56. 4. 0. 0. 1. 0. 0.
      2. 1. 0. 0. 0. 0. 0. 0. 0. 58. 0. 0. 0. 1. 0. 1. 0. 169. 0. 1. 3.
      49. 0. 17. 1. 39. 1. 0. 0. 0. 0. 0. 0. 0. 0. 0. 0. 0. 0. 0. 0. 0.
      0. 0. 0. 0. 0. 0. 0. 0. 0. 0. 0. 0. 0. 0. 1. 108. 0. 2. 0. 0. 0.
      0. 0. 1. 0. 0. 0. 0. 0. 0. 0. 149. 0. 1. 0. 0. 0. 0. 0. 105. 1. 0.
      1. 10. 0. 2. 0. 73. 114. 1. 262. 2. 0. 0. 91. 0. 3. 0. 2. 0. 2. 0.
      17. 2. 2. 0. 0. 0. 0. 0. 0. 1. 0. 0. 0. 0. 0. 0. 4. 3. 4. 0. 6. 0.
      0. 0. 1. 1. 0. 0. 0. 0. 0. 0. 0. 3. 2. 0. 3. 0. 0. 0. 1. 3. 2. 0.
      9. 0. 1. 0. 7. 174. 388. 2. 336. 0. 1. 0. 15. 2. 1. 0. 1. 1. 0. 0.
      3. 4. 1. 0. 0. 0. 0. 0. 0. 1. 1. 0. 1. 0. 0. 0. 0. 610. 644. 8.
      174. 2. 3. 0. 17. 6. 0. 0. 0. 0. 0. 4. 2. 277. 59. 2. 14. 0. 0. 0.
      1. 58. 7. 0. 11. 6. 1. 3. 7.</_>
    <_>
      306. 12. 28. 72. 21. 0. 49. 92. 19. 0. 1. 2. 23. 0. 70. 26. 13. 0.
      1. 1. 0. 0. 1. 0. 23. 0. 1. 1. 8. 0. 9. 5. 42. 0. 2. 3. 0. 0. 0.
      2. 2. 0. 1. 1. 1. 1. 2. 0. 77. 0. 2. 1. 2. 0. 3. 0. 136. 0. 3. 1.
      10. 0. 16. 8. 39. 0. 2. 0. 0. 0. 0. 1. 0. 0. 0. 0. 0. 0. 0. 1. 0.
      0. 0. 0. 0. 0. 1. 0. 1. 0. 0. 0. 0. 0. 0. 0. 100. 2. 0. 1. 0. 1.
      0. 0. 1. 0. 0. 0. 1. 0. 0. 0. 264. 0. 3. 0. 1. 0. 1. 0. 373. 1. 1.
      2. 13. 0. 6. 1. 53. 116. 7. 581. 2. 1. 0. 447. 2. 0. 0. 6. 0. 2.
      2. 55. 1. 1. 0. 2. 0. 0. 0. 1. 2. 0. 0. 5. 2. 1. 0. 8. 3. 4. 0.
      11. 0. 1. 0. 4. 0. 0. 0. 0. 0. 0. 0. 1. 3. 5. 1. 6. 0. 0. 0. 1. 3.
      1. 0. 10. 0. 1. 1. 15. 103. 210. 1. 266. 0. 0. 0. 42. 3. 1. 0. 2.
      1. 2. 1. 0. 3. 1. 0. 0. 0. 0. 0. 0. 2. 0. 0. 0. 0. 0. 0. 4. 202.
      145. 0. 117. 0. 0. 0. 13. 1. 2. 0. 0. 0. 0. 0. 1. 244. 41. 0. 16.
      1. 1. 0. 2. 121. 13. 1. 23. 5. 0. 2. 10.</_>
    <_>
      1345. 20. 79. 86. 23. 1. 27. 29. 40. 0. 3. 1. 18. 0. 36. 11. 16.
      2. 0. 0. 0. 0. 1. 0. 44. 0. 1. 3. 18. 0. 6. 1. 172. 3. 4. 0. 1. 0.
      2. 0. 3. 0. 0. 0. 1. 0. 2. 0. 182. 0. 2. 0. 6. 0. 1. 0. 353. 0. 3.
      2. 32. 0. 11. 4. 55. 1. 0. 1. 0. 0. 0. 0. 0. 0. 0. 0. 0. 0. 0. 0.
      1. 0. 0. 0. 0. 0. 0. 0. 4. 0. 0. 0. 0. 0. 0. 0. 137. 4. 1. 3. 0.
      0. 0. 1. 0. 1. 0. 0. 1. 0. 0. 0. 202. 0. 1. 1. 2. 0. 1. 0. 288. 1.
      2. 1. 9. 1. 6. 1. 116. 74. 7. 254. 0. 3. 3. 78. 0. 1. 0. 4. 0. 1.
      1. 22. 1. 1. 0. 1. 0. 0. 0. 0. 1. 0. 0. 3. 2. 1. 0. 0. 7. 8. 0. 9.
      0. 0. 0. 0. 1. 1. 0. 0. 0. 1. 0. 1. 6. 5. 0. 2. 0. 0. 0. 2. 4. 2.
      0. 17. 2. 1. 1. 10. 66. 60. 1. 49. 0. 0. 3. 9. 2. 1. 0. 0. 0. 0.
      2. 5. 1. 0. 0. 0. 0. 0. 0. 0. 1. 0. 0. 2. 0. 0. 0. 0. 277. 60. 0.
      38. 0. 0. 2. 1. 5. 0. 0. 1. 2. 0. 0. 10. 134. 9. 0. 18. 0. 1. 0.
      0. 105. 10. 1. 17. 7. 0. 6. 7.</_>
    <_>
      1135. 25. 44. 45. 9. 0. 11. 18. 26. 0. 0. 0. 8. 0. 11. 4. 20. 1.
      1. 0. 0. 0. 0. 0. 21. 0. 0. 0. 4. 0. 4. 0. 169. 1. 0. 3. 1. 0. 1.
      0. 5. 0. 0. 0. 3. 0. 3. 0. 190. 0. 1. 0. 2. 0. 2. 1. 302. 0. 1. 1.
      15. 0. 8. 1. 58. 1. 0. 0. 1. 0. 0. 0. 0. 0. 0. 0. 0. 0. 0. 0. 1.
      0. 0. 0. 0. 0. 0. 0. 4. 0. 0. 0. 0. 0. 0. 0. 155. 4. 1. 5. 0. 0.
      0. 0. 0. 0. 0. 0. 0. 0. 0. 0. 222. 1. 1. 0. 2. 0. 1. 0. 247. 0. 0.
      0. 8. 0. 7. 0. 166. 144. 8. 303. 1. 1. 1. 30. 1. 1. 0. 2. 0. 5. 3.
      12. 1. 0. 1. 2. 0. 0. 0. 0. 1. 0. 0. 1. 1. 0. 0. 1. 11. 9. 1. 10.
      0. 0. 0. 0. 1. 0. 0. 0. 0. 1. 0. 0. 5. 3. 0. 2. 0. 0. 0. 0. 4. 0.
      1. 3. 0. 0. 0. 3. 114. 111. 0. 140. 0. 1. 2. 13. 1. 2. 0. 0. 0. 1.
      0. 3. 2. 0. 0. 0. 0. 0. 0. 0. 4. 0. 0. 0. 0. 1. 1. 0. 359. 90. 3.
      85. 1. 0. 1. 3. 7. 0. 0. 2. 5. 0. 0. 7. 163. 21. 0. 21. 0. 1. 1.
      1. 127. 10. 1. 9. 6. 2. 3. 7.</_>
    <_>
      1077. 27. 38. 49. 10. 0. 14. 13. 24. 1. 1. 0. 14. 0. 22. 7. 23. 2.
      1. 0. 1. 0. 0. 0. 24. 0. 0. 0. 3. 0. 8. 1. 139. 0. 0. 4. 2. 0. 2.
      1. 7. 0. 0. 0. 2. 0. 3. 0. 93. 0. 0. 0. 2. 0. 2. 1. 132. 0. 1. 0.
      11. 0. 13. 1. 61. 1. 1. 1. 1. 0. 0. 0. 0. 0. 0. 1. 0. 0. 0. 0. 0.
      0. 0. 0. 0. 0. 0. 0. 2. 0. 0. 0. 1. 0. 0. 0. 130. 3. 4. 3. 0. 0.
      0. 0. 0. 0. 0. 0. 1. 0. 0. 0. 138. 1. 2. 0. 1. 0. 1. 0. 66. 0. 0.
      1. 6. 0. 5. 0. 170. 186. 5. 312. 2. 1. 2. 29. 1. 2. 0. 1. 0. 5. 3.
      15. 3. 1. 1. 1. 0. 0. 0. 0. 1. 0. 0. 0. 2. 0. 0. 1. 8. 6. 0. 11.
      1. 0. 0. 1. 0. 0. 0. 0. 0. 1. 0. 0. 5. 3. 0. 4. 0. 0. 0. 0. 2. 0.
      1. 1. 0. 0. 0. 2. 163. 263. 3. 180. 0. 0. 0. 16. 1. 3. 0. 0. 0. 1.
      0. 6. 2. 0. 0. 1. 0. 0. 0. 0. 3. 0. 0. 1. 0. 0. 1. 0. 446. 265. 5.
      157. 2. 1. 1. 7. 7. 0. 0. 1. 4. 0. 0. 9. 170. 37. 0. 23. 0. 0. 1.
      2. 75. 9. 0. 8. 4. 1. 8. 4.</_>
    <_>
      1157. 23. 83. 110. 44. 0. 46. 41. 89. 1. 3. 0. 55. 0. 121. 15. 21.
      1. 0. 0. 0. 0. 0. 0. 74. 0. 3. 2. 39. 0. 20. 9. 131. 0. 7. 5. 1.
      0. 1. 5. 3. 1. 0. 0. 2. 1. 4. 0. 165. 0. 8. 0. 0. 0. 6. 0. 367. 1.
      6. 8. 71. 1. 38. 7. 48. 0. 1. 1. 0. 0. 0. 0. 2. 0. 0. 0. 0. 0. 0.
      0. 0. 0. 0. 0. 0. 0. 0. 0. 4. 0. 0. 0. 0. 0. 0. 0. 84. 2. 3. 6. 1.
      0. 2. 1. 1. 0. 0. 0. 2. 1. 0. 0. 132. 0. 3. 0. 1. 0. 0. 0. 493. 0.
      4. 2. 8. 0. 8. 1. 85. 77. 1. 256. 5. 3. 3. 96. 4. 3. 0. 4. 0. 9.
      2. 46. 2. 0. 0. 0. 0. 0. 0. 1. 1. 0. 0. 2. 0. 0. 1. 2. 6. 3. 0.
      12. 0. 0. 0. 3. 0. 0. 0. 0. 0. 0. 0. 2. 2. 3. 0. 8. 0. 0. 0. 3. 9.
      7. 0. 18. 0. 1. 1. 24. 40. 36. 1. 53. 0. 0. 0. 3. 1. 1. 0. 0. 0.
      0. 0. 13. 0. 0. 0. 0. 0. 0. 0. 0. 11. 0. 0. 0. 1. 0. 0. 0. 112.
      18. 1. 43. 0. 0. 0. 4. 1. 0. 1. 0. 0. 1. 0. 4. 40. 6. 1. 15. 0. 1.
      0. 0. 100. 7. 1. 28. 5. 1. 8. 18.</_>
    <_>
      419. 33. 25. 25. 8. 0. 17. 21. 16. 1. 1. 1. 16. 0. 18. 8. 20. 1.
      0. 0. 0. 0. 0. 0. 25. 0. 0. 0. 21. 0. 19. 3. 97. 1. 0. 3. 1. 0. 1.
      1. 6. 0. 0. 0. 2. 0. 0. 0. 60. 0. 2. 1. 1. 0. 3. 0. 65. 0. 2. 0.
      33. 0. 16. 4. 45. 1. 2. 0. 1. 0. 0. 0. 0. 0. 0. 0. 0. 0. 0. 0. 1.
      0. 0. 0. 0. 0. 0. 0. 2. 0. 0. 0. 0. 0. 0. 0. 142. 3. 2. 1. 0. 0.
      0. 1. 1. 0. 0. 0. 0. 0. 0. 0. 153. 1. 3. 0. 1. 0. 0. 0. 52. 0. 0.
      0. 9. 0. 3. 0. 146. 185. 5. 189. 1. 2. 1. 28. 1. 1. 0. 2. 1. 2. 4.
      14. 1. 1. 1. 1. 0. 0. 0. 0. 1. 0. 0. 1. 0. 2. 0. 2. 7. 12. 1. 5.
      1. 0. 0. 2. 0. 0. 0. 0. 0. 1. 0. 0. 3. 2. 0. 1. 0. 0. 0. 0. 3. 0.
      0. 0. 0. 0. 0. 3. 199. 402. 3. 311. 1. 1. 0. 20. 2. 1. 0. 0. 0. 2.
      0. 5. 1. 0. 0. 1. 0. 0. 0. 0. 1. 0. 1. 1. 1. 0. 1. 1. 602. 530. 7.
      210. 4. 2. 3. 11. 10. 0. 1. 3. 4. 0. 2. 12. 254. 59. 1. 30. 1. 0.
      1. 2. 81. 12. 0. 10. 8. 1. 6. 12.</_>
    <_>
      418. 12. 45. 102. 39. 0. 68. 113. 56. 0. 7. 2. 78. 2. 128. 61. 21.
      0. 0. 2. 0. 0. 1. 0. 85. 0. 3. 1. 136. 0. 107. 15. 61. 1. 3. 0. 0.
      0. 2. 1. 4. 0. 0. 0. 3. 0. 2. 2. 93. 1. 2. 0. 0. 0. 2. 0. 173. 0.
      3. 1. 160. 0. 76. 13. 51. 0. 3. 1. 0. 0. 0. 1. 0. 0. 0. 0. 0. 0.
      1. 0. 0. 0. 0. 0. 1. 0. 0. 0. 0. 0. 0. 0. 0. 0. 0. 0. 79. 1. 2. 3.
      1. 0. 1. 1. 0. 0. 0. 0. 1. 0. 0. 1. 94. 1. 0. 0. 1. 0. 0. 0. 147.
      1. 1. 0. 24. 0. 8. 2. 80. 132. 3. 563. 3. 1. 3. 235. 1. 3. 0. 6.
      1. 2. 1. 67. 1. 1. 0. 0. 0. 0. 0. 1. 0. 0. 1. 6. 0. 1. 0. 14. 8.
      1. 0. 8. 0. 0. 0. 2. 0. 0. 0. 1. 0. 0. 0. 1. 3. 3. 1. 8. 0. 0. 1.
      2. 4. 3. 0. 13. 1. 0. 2. 13. 96. 125. 2. 235. 0. 1. 1. 33. 2. 0.
      1. 2. 1. 2. 1. 6. 3. 1. 0. 0. 0. 0. 0. 0. 3. 1. 0. 1. 0. 0. 0. 1.
      162. 87. 1. 107. 0. 0. 1. 7. 1. 0. 0. 2. 0. 1. 1. 4. 85. 33. 0.
      12. 0. 0. 1. 1. 72. 13. 0. 21. 7. 0. 3. 15.</_>
    <_>
      606. 11. 45. 75. 48. 0. 62. 60. 83. 0. 5. 0. 66. 0. 146. 47. 19.
      0. 0. 1. 1. 0. 0. 0. 83. 0. 6. 3. 76. 0. 51. 14. 93. 0. 2. 1. 0.
      0. 1. 1. 4. 0. 0. 0. 4. 0. 2. 1. 114. 2. 3. 0. 0. 0. 2. 0. 423. 1.
      7. 6. 153. 0. 48. 18. 59. 0. 2. 0. 1. 0. 0. 1. 0. 0. 0. 0. 0. 0.
      1. 0. 0. 0. 0. 0. 0. 0. 0. 0. 2. 0. 0. 0. 0. 0. 0. 0. 83. 2. 1. 3.
      1. 0. 1. 0. 0. 0. 0. 0. 1. 0. 0. 0. 127. 1. 0. 0. 2. 0. 0. 0. 460.
      0. 3. 0. 25. 0. 10. 1. 70. 89. 2. 340. 0. 1. 3. 111. 2. 4. 1. 4.
      1. 3. 2. 46. 0. 1. 0. 0. 0. 0. 0. 0. 2. 0. 0. 3. 1. 1. 0. 5. 6. 1.
      1. 10. 0. 0. 0. 2. 0. 0. 0. 1. 0. 0. 0. 1. 2. 6. 1. 9. 0. 0. 1. 1.
      7. 5. 0. 19. 1. 2. 1. 18. 73. 98. 1. 141. 0. 1. 2. 11. 1. 1. 1. 1.
      1. 1. 1. 5. 1. 1. 0. 0. 0. 0. 0. 0. 4. 0. 0. 1. 0. 0. 0. 0. 162.
      67. 2. 68. 0. 0. 1. 4. 3. 0. 0. 0. 1. 1. 1. 2. 76. 22. 0. 13. 0.
      1. 1. 0. 83. 11. 0. 32. 4. 0. 1. 18.</_>
    <_>
      2889. 4. 49. 37. 12. 0. 27. 7. 121. 0. 0. 0. 52. 0. 186. 10. 3. 0.
      0. 0. 0. 0. 0. 0. 105. 0. 1. 0. 38. 0. 18. 0. 58. 0. 0. 1. 0. 0.
      1. 0. 1. 0. 0. 0. 2. 0. 3. 0. 61. 0. 0. 0. 0. 0. 2. 0. 526. 0. 4.
      1. 52. 0. 55. 4. 2. 0. 0. 0. 0. 0. 0. 0. 0. 0. 0. 0. 0. 0. 0. 0.
      0. 0. 0. 0. 0. 0. 0. 0. 1. 0. 0. 0. 0. 0. 0. 0. 34. 0. 1. 2. 0. 0.
      0. 0. 1. 0. 0. 0. 0. 0. 3. 0. 17. 0. 0. 0. 0. 0. 0. 0. 25. 0. 0.
      0. 2. 0. 2. 0. 20. 15. 0. 169. 0. 0. 0. 14. 1. 0. 0. 2. 1. 5. 0.
      23. 0. 0. 0. 0. 0. 0. 0. 0. 0. 0. 0. 1. 0. 0. 0. 1. 1. 0. 0. 4. 0.
      0. 0. 0. 0. 0. 0. 0. 0. 0. 0. 0. 0. 1. 0. 0. 0. 0. 0. 0. 0. 0. 0.
      16. 0. 0. 0. 6. 10. 4. 0. 6. 0. 0. 0. 0. 1. 0. 0. 0. 0. 0. 0. 0.
      0. 0. 0. 0. 0. 0. 0. 0. 6. 0. 0. 1. 0. 0. 0. 0. 87. 1. 2. 11. 0.
      0. 0. 2. 2. 0. 0. 0. 0. 0. 2. 0. 7. 0. 0. 4. 0. 0. 0. 0. 28. 1. 0.
      4. 4. 0. 2. 3.</_>
    <_>
      2839. 6. 38. 27. 10. 0. 26. 6. 89. 0. 1. 0. 47. 0. 128. 8. 12. 0.
      0. 0. 0. 0. 0. 0. 71. 0. 1. 0. 28. 0. 11. 1. 98. 0. 0. 0. 0. 0. 1.
      0. 1. 0. 0. 0. 2. 0. 2. 0. 84. 0. 1. 0. 1. 0. 6. 0. 519. 0. 3. 1.
      30. 0. 49. 3. 11. 0. 0. 1. 0. 0. 0. 0. 0. 0. 0. 0. 0. 0. 0. 0. 0.
      0. 0. 0. 0. 0. 0. 0. 1. 0. 0. 0. 0. 0. 0. 0. 45. 0. 1. 4. 0. 0. 0.
      0. 1. 0. 0. 0. 0. 0. 0. 0. 25. 0. 0. 0. 0. 0. 0. 0. 47. 0. 0. 0.
      2. 0. 4. 0. 29. 26. 1. 205. 0. 0. 0. 9. 0. 1. 0. 0. 1. 4. 0. 23.
      1. 0. 0. 0. 0. 0. 0. 0. 0. 0. 0. 0. 0. 0. 0. 0. 2. 0. 0. 5. 0. 0.
      0. 0. 0. 0. 0. 0. 0. 0. 0. 0. 0. 1. 0. 1. 0. 0. 0. 1. 1. 0. 0. 18.
      0. 1. 0. 5. 19. 6. 1. 2. 0. 0. 0. 1. 1. 0. 0. 0. 0. 0. 0. 0. 1. 0.
      0. 0. 0. 0. 0. 0. 3. 0. 0. 1. 0. 0. 0. 1. 105. 3. 1. 27. 0. 0. 0.
      2. 0. 0. 0. 0. 1. 0. 0. 1. 12. 1. 0. 4. 0. 0. 0. 0. 55. 1. 0. 8.
      1. 0. 2. 1.</_>
    <_>
      2733. 5. 36. 43. 6. 0. 24. 4. 69. 0. 1. 0. 40. 0. 108. 4. 12. 0.
      0. 0. 0. 0. 0. 0. 59. 0. 0. 0. 15. 0. 11. 1. 115. 0. 2. 0. 0. 0.
      0. 0. 0. 0. 0. 0. 1. 0. 1. 0. 98. 1. 0. 0. 2. 0. 5. 0. 468. 0. 3.
      1. 27. 0. 30. 1. 11. 0. 0. 1. 0. 0. 0. 0. 0. 0. 0. 0. 0. 0. 0. 0.
      0. 0. 0. 0. 0. 0. 0. 0. 1. 0. 0. 0. 0. 0. 0. 0. 59. 1. 0. 4. 0. 0.
      0. 0. 1. 0. 0. 0. 0. 0. 0. 0. 28. 0. 0. 0. 0. 0. 0. 0. 55. 0. 0.
      1. 1. 0. 3. 0. 42. 41. 1. 272. 0. 1. 0. 18. 3. 1. 0. 0. 1. 4. 2.
      20. 1. 0. 0. 0. 0. 0. 0. 0. 0. 0. 0. 0. 0. 0. 0. 0. 3. 0. 0. 5. 0.
      0. 0. 0. 0. 0. 0. 0. 0. 0. 0. 1. 0. 0. 0. 3. 0. 0. 0. 1. 0. 0. 0.
      8. 0. 1. 0. 6. 34. 6. 1. 9. 0. 0. 0. 1. 1. 0. 0. 0. 0. 0. 1. 1. 1.
      0. 0. 0. 0. 0. 0. 0. 2. 0. 0. 1. 0. 0. 0. 1. 155. 4. 0. 32. 0. 0.
      0. 1. 3. 0. 0. 0. 3. 0. 6. 3. 12. 1. 0. 3. 0. 0. 0. 0. 58. 2. 0.
      9. 2. 0. 5. 3.</_>
    <_>
      1367. 12. 84. 59. 15. 0. 34. 48. 52. 1. 2. 1. 22. 0. 66. 22. 42.
      1. 0. 0. 0. 0. 1. 0. 55. 0. 2. 1. 32. 0. 7. 1. 243. 0. 4. 1. 0. 0.
      0. 0. 7. 0. 0. 0. 4. 0. 3. 0. 223. 0. 0. 0. 3. 0. 1. 0. 384. 2. 4.
      0. 51. 0. 28. 3. 34. 0. 0. 0. 0. 0. 0. 0. 1. 0. 0. 0. 1. 0. 0. 0.
      0. 0. 0. 0. 0. 0. 0. 0. 0. 0. 0. 0. 0. 0. 0. 0. 160. 2. 0. 2. 2.
      0. 0. 0. 5. 0. 0. 0. 2. 0. 3. 0. 250. 0. 0. 0. 0. 0. 1. 0. 274. 1.
      0. 0. 11. 0. 7. 1. 81. 36. 1. 161. 0. 0. 1. 75. 3. 1. 0. 1. 0. 4.
      2. 19. 1. 0. 0. 1. 0. 0. 0. 0. 2. 0. 0. 0. 1. 0. 0. 3. 9. 4. 0. 4.
      0. 0. 0. 0. 0. 1. 0. 0. 0. 0. 3. 0. 1. 0. 0. 1. 0. 0. 0. 0. 6. 2.
      0. 15. 1. 0. 0. 8. 51. 44. 2. 15. 0. 0. 1. 2. 1. 0. 0. 0. 0. 0. 1.
      4. 0. 0. 0. 0. 0. 0. 0. 0. 3. 0. 0. 0. 0. 0. 1. 0. 282. 45. 3. 29.
      0. 0. 0. 5. 2. 0. 0. 1. 2. 0. 2. 4. 133. 15. 1. 8. 0. 0. 1. 0.
      103. 2. 0. 10. 10. 0. 7. 5.</_>
    <_>
      1865. 16. 102. 95. 16. 0. 44. 66. 48. 0. 1. 1. 22. 1. 74. 25. 12.
      0. 1. 1. 0. 0. 1. 0. 44. 0. 0. 0. 15. 0. 8. 1. 145. 1. 2. 1. 0. 0.
      1. 3. 3. 0. 0. 0. 1. 0. 0. 0. 156. 0. 1. 2. 1. 0. 4. 0. 283. 0. 5.
      0. 21. 0. 24. 6. 24. 0. 0. 2. 0. 0. 0. 0. 0. 0. 0. 0. 0. 0. 0. 0.
      0. 0. 0. 0. 0. 0. 0. 0. 1. 0. 0. 0. 1. 0. 0. 0. 67. 0. 2. 5. 0. 0.
      0. 0. 2. 0. 0. 0. 0. 0. 0. 0. 70. 0. 1. 2. 0. 0. 0. 0. 136. 0. 1.
      1. 4. 0. 3. 0. 117. 119. 3. 471. 0. 1. 4. 79. 0. 0. 0. 0. 0. 5. 2.
      36. 0. 0. 0. 0. 0. 0. 0. 0. 0. 0. 0. 0. 0. 1. 0. 0. 3. 2. 0. 11.
      0. 0. 0. 0. 0. 0. 0. 0. 0. 0. 0. 0. 6. 0. 0. 1. 1. 0. 0. 0. 3. 1.
      0. 10. 0. 0. 0. 7. 59. 35. 1. 65. 1. 0. 1. 2. 1. 0. 0. 0. 0. 0. 1.
      5. 1. 0. 0. 0. 0. 0. 0. 0. 7. 1. 0. 0. 1. 0. 0. 2. 158. 19. 2. 54.
      0. 0. 0. 7. 1. 0. 0. 0. 1. 0. 4. 5. 30. 3. 1. 9. 0. 0. 1. 0. 55.
      8. 0. 7. 3. 2. 5. 6.</_>
    <_>
      1397. 20. 55. 33. 5. 0. 28. 24. 23. 1. 0. 0. 18. 1. 34. 9. 25. 0.
      1. 0. 0. 0. 1. 0. 14. 0. 0. 0. 4. 0. 5. 0. 194. 3. 2. 1. 0. 0. 1.
      1. 4. 0. 0. 0. 2. 0. 1. 0. 179. 0. 2. 1. 0. 0. 1. 0. 178. 0. 0. 0.
      7. 0. 12. 0. 30. 0. 1. 1. 0. 0. 0. 0. 1. 0. 0. 0. 0. 0. 0. 0. 0.
      0. 0. 0. 0. 0. 0. 0. 1. 0. 0. 0. 0. 0. 0. 0. 165. 1. 0. 3. 1. 0.
      0. 0. 3. 0. 0. 0. 2. 0. 1. 0. 222. 0. 1. 0. 0. 0. 0. 0. 235. 0. 1.
      0. 8. 0. 2. 0. 187. 132. 3. 280. 0. 0. 3. 25. 2. 1. 0. 0. 0. 1. 4.
      17. 3. 0. 0. 0. 0. 0. 0. 0. 0. 0. 0. 0. 0. 0. 0. 0. 13. 3. 0. 5.
      0. 0. 0. 1. 0. 0. 0. 0. 0. 0. 0. 0. 7. 1. 0. 3. 0. 0. 0. 0. 9. 5.
      0. 4. 0. 0. 0. 5. 139. 91. 1. 93. 0. 1. 2. 4. 0. 0. 0. 0. 1. 0. 3.
      4. 1. 0. 0. 0. 0. 0. 0. 0. 1. 0. 0. 0. 0. 0. 0. 0. 332. 103. 3.
      63. 0. 0. 3. 7. 5. 1. 0. 0. 3. 0. 9. 15. 149. 18. 1. 10. 0. 0. 1.
      1. 95. 11. 0. 15. 9. 0. 11. 2.</_>
    <_>
      1611. 25. 67. 50. 7. 0. 28. 22. 26. 0. 0. 0. 15. 1. 33. 10. 24. 0.
      0. 0. 0. 0. 1. 0. 25. 0. 0. 0. 6. 0. 4. 0. 164. 2. 2. 3. 0. 0. 2.
      2. 2. 0. 0. 0. 2. 0. 1. 0. 115. 0. 2. 2. 0. 0. 3. 0. 149. 0. 3. 1.
      15. 0. 14. 2. 28. 0. 1. 1. 0. 0. 0. 0. 0. 0. 0. 0. 0. 0. 0. 0. 1.
      0. 0. 0. 0. 0. 0. 0. 1. 0. 0. 0. 0. 0. 0. 0. 124. 2. 1. 2. 0. 0.
      1. 1. 0. 0. 0. 0. 1. 0. 0. 0. 131. 0. 1. 1. 1. 0. 1. 0. 76. 0. 2.
      0. 4. 0. 2. 1. 169. 155. 3. 405. 0. 0. 2. 40. 0. 1. 0. 0. 0. 2. 4.
      19. 3. 0. 0. 0. 0. 0. 0. 0. 0. 0. 0. 0. 0. 1. 0. 0. 7. 4. 0. 8. 0.
      0. 0. 1. 0. 0. 0. 0. 0. 1. 0. 0. 5. 1. 0. 1. 0. 0. 1. 0. 7. 3. 0.
      7. 0. 0. 0. 6. 162. 109. 3. 105. 0. 1. 2. 6. 0. 0. 0. 0. 2. 0. 2.
      4. 1. 0. 0. 0. 0. 0. 0. 0. 4. 0. 0. 1. 0. 0. 0. 0. 319. 121. 6.
      88. 0. 0. 4. 9. 4. 2. 0. 0. 4. 1. 4. 10. 99. 13. 1. 12. 0. 0. 2.
      1. 57. 12. 0. 11. 7. 3. 8. 7.</_>
    <_>
      2696. 3. 55. 42. 15. 0. 28. 16. 149. 1. 0. 1. 68. 2. 171. 7. 9. 0.
      0. 0. 0. 0. 0. 0. 122. 0. 0. 0. 38. 0. 28. 1. 83. 0. 1. 0. 0. 0.
      0. 0. 2. 0. 0. 0. 1. 0. 2. 0. 68. 0. 0. 0. 0. 0. 7. 0. 468. 0. 4.
      1. 73. 1. 52. 2. 16. 0. 0. 0. 0. 0. 0. 0. 0. 0. 0. 0. 0. 0. 1. 0.
      0. 0. 0. 0. 0. 0. 0. 0. 0. 0. 0. 0. 0. 0. 0. 0. 45. 0. 0. 7. 0. 0.
      0. 0. 2. 0. 0. 0. 0. 0. 1. 0. 19. 0. 0. 0. 0. 0. 0. 0. 29. 0. 0.
      1. 2. 0. 1. 0. 16. 20. 0. 174. 0. 0. 0. 19. 2. 2. 0. 6. 1. 5. 2.
      21. 0. 0. 0. 0. 0. 0. 0. 0. 3. 0. 0. 0. 0. 0. 0. 8. 0. 2. 0. 4. 0.
      0. 0. 0. 0. 0. 0. 0. 0. 0. 0. 0. 0. 0. 0. 1. 0. 0. 0. 0. 1. 1. 0.
      11. 0. 1. 0. 8. 9. 6. 0. 2. 0. 0. 0. 0. 1. 0. 0. 0. 0. 0. 0. 1. 0.
      0. 0. 0. 0. 0. 0. 0. 7. 0. 0. 2. 0. 0. 0. 0. 109. 2. 2. 13. 0. 0.
      0. 4. 3. 0. 1. 1. 0. 0. 0. 0. 16. 0. 0. 5. 0. 0. 0. 0. 39. 0. 0.
      6. 6. 0. 1. 3.</_>
    <_>
      2725. 1. 37. 38. 16. 0. 16. 9. 120. 1. 0. 1. 59. 2. 140. 2. 7. 0.
      1. 0. 0. 0. 0. 0. 103. 0. 0. 0. 33. 0. 23. 1. 101. 0. 1. 1. 0. 0.
      2. 1. 1. 0. 0. 0. 0. 0. 2. 0. 80. 0. 0. 0. 0. 0. 3. 0. 481. 0. 3.
      2. 56. 0. 46. 1. 12. 0. 0. 0. 0. 0. 0. 0. 0. 0. 0. 0. 0. 0. 0. 0.
      0. 0. 0. 0. 0. 0. 0. 0. 0. 0. 0. 0. 0. 0. 0. 0. 51. 0. 2. 4. 0. 0.
      0. 0. 0. 0. 0. 0. 1. 0. 0. 0. 26. 0. 1. 0. 0. 0. 0. 0. 44. 0. 0.
      1. 2. 0. 3. 0. 26. 25. 0. 195. 0. 0. 0. 14. 3. 3. 0. 6. 1. 4. 0.
      18. 2. 0. 0. 0. 0. 0. 0. 0. 3. 0. 0. 0. 0. 0. 0. 8. 1. 1. 0. 6. 0.
      0. 0. 0. 0. 1. 0. 0. 0. 0. 0. 1. 0. 1. 0. 3. 0. 0. 0. 0. 5. 3. 0.
      20. 0. 0. 0. 6. 18. 6. 0. 9. 0. 0. 0. 0. 1. 0. 0. 0. 0. 0. 0. 0.
      0. 0. 0. 0. 0. 0. 0. 0. 4. 0. 0. 2. 0. 0. 0. 0. 113. 2. 1. 16. 0.
      0. 0. 3. 5. 0. 1. 1. 0. 0. 2. 1. 15. 0. 0. 6. 0. 0. 0. 0. 41. 2.
      0. 10. 7. 0. 2. 1.</_>
    <_>
      2759. 2. 40. 47. 7. 0. 20. 5. 64. 0. 0. 1. 43. 0. 166. 5. 9. 0. 1.
      0. 0. 0. 0. 0. 64. 0. 0. 0. 9. 0. 9. 0. 121. 0. 1. 3. 0. 0. 2. 1.
      0. 0. 0. 0. 2. 0. 3. 0. 92. 0. 2. 0. 0. 0. 3. 0. 451. 0. 2. 1. 23.
      0. 41. 1. 8. 0. 0. 0. 0. 0. 0. 0. 0. 0. 0. 0. 0. 0. 0. 0. 0. 0. 0.
      0. 0. 0. 0. 0. 1. 0. 0. 0. 0. 0. 0. 0. 55. 0. 3. 3. 0. 0. 0. 0. 0.
      0. 0. 0. 1. 0. 0. 0. 27. 0. 1. 0. 0. 0. 0. 0. 58. 0. 0. 1. 1. 0.
      6. 0. 41. 36. 0. 247. 0. 0. 0. 19. 1. 2. 0. 1. 0. 3. 0. 27. 3. 0.
      0. 0. 0. 0. 0. 0. 0. 0. 0. 1. 0. 0. 0. 1. 2. 0. 0. 5. 0. 0. 0. 1.
      0. 1. 0. 0. 0. 0. 0. 1. 0. 2. 0. 3. 0. 0. 0. 0. 7. 4. 0. 14. 0. 0.
      0. 3. 27. 6. 0. 14. 0. 0. 0. 0. 0. 0. 0. 0. 0. 0. 0. 0. 0. 0. 0.
      0. 0. 0. 0. 0. 2. 0. 0. 0. 0. 0. 0. 1. 135. 2. 3. 19. 0. 0. 1. 2.
      3. 0. 0. 0. 1. 0. 2. 1. 19. 0. 0. 5. 0. 0. 0. 0. 38. 3. 0. 10. 2.
      0. 2. 0.</_>
    <_>
      2727. 10. 50. 58. 18. 0. 25. 18. 44. 0. 4. 1. 37. 1. 145. 6. 8. 0.
      0. 0. 0. 0. 0. 0. 43. 1. 0. 0. 10. 1. 8. 2. 93. 0. 1. 3. 0. 0. 1.
      0. 2. 0. 0. 0. 3. 0. 2. 0. 80. 0. 2. 0. 0. 0. 2. 0. 433. 0. 3. 4.
      11. 0. 42. 3. 16. 0. 0. 0. 1. 0. 0. 0. 0. 0. 0. 0. 0. 0. 0. 0. 1.
      0. 0. 0. 0. 0. 0. 0. 2. 0. 0. 0. 0. 0. 0. 0. 49. 0. 1. 2. 0. 0. 0.
      0. 0. 0. 0. 0. 0. 1. 0. 0. 20. 0. 0. 0. 0. 0. 0. 0. 62. 0. 1. 0.
      3. 0. 7. 1. 51. 43. 1. 264. 0. 0. 0. 55. 0. 2. 0. 2. 0. 2. 4. 34.
      1. 0. 0. 0. 0. 0. 0. 0. 2. 0. 0. 1. 0. 0. 0. 2. 3. 0. 0. 3. 0. 0.
      0. 1. 0. 0. 0. 0. 0. 0. 0. 1. 1. 2. 0. 2. 0. 0. 0. 1. 7. 4. 0. 8.
      0. 0. 0. 8. 25. 13. 0. 23. 0. 0. 0. 1. 0. 1. 0. 0. 0. 0. 2. 2. 0.
      0. 0. 0. 0. 0. 0. 0. 3. 0. 0. 0. 0. 0. 0. 1. 116. 4. 3. 24. 0. 0.
      1. 3. 3. 0. 0. 1. 1. 0. 2. 2. 15. 2. 0. 3. 0. 0. 0. 0. 41. 4. 1.
      10. 3. 0. 1. 3.</_>
    <_>
      2740. 15. 48. 39. 23. 0. 23. 22. 68. 0. 5. 0. 45. 1. 137. 7. 9. 0.
      0. 0. 0. 0. 0. 0. 56. 1. 1. 0. 20. 1. 10. 3. 61. 0. 2. 1. 0. 0. 1.
      0. 3. 0. 0. 0. 0. 0. 1. 0. 49. 0. 0. 0. 0. 0. 5. 0. 507. 1. 4. 4.
      23. 0. 37. 4. 22. 0. 0. 0. 1. 0. 0. 0. 0. 0. 0. 0. 0. 0. 0. 0. 1.
      0. 0. 0. 0. 0. 0. 0. 2. 0. 0. 0. 0. 0. 0. 0. 33. 0. 0. 4. 0. 0. 0.
      0. 0. 0. 0. 0. 1. 1. 0. 0. 21. 0. 0. 0. 0. 0. 0. 0. 46. 0. 1. 0.
      3. 0. 3. 1. 49. 31. 1. 276. 0. 1. 1. 44. 1. 1. 0. 3. 0. 1. 3. 26.
      0. 0. 0. 0. 0. 0. 0. 0. 2. 0. 0. 1. 0. 0. 0. 3. 1. 0. 0. 3. 0. 0.
      0. 0. 0. 0. 0. 0. 0. 0. 0. 1. 1. 0. 0. 1. 0. 0. 0. 1. 5. 2. 0. 17.
      0. 0. 0. 7. 18. 23. 0. 28. 0. 0. 0. 2. 0. 1. 0. 0. 0. 0. 1. 3. 0.
      0. 0. 0. 0. 0. 0. 0. 3. 0. 0. 0. 0. 0. 0. 0. 100. 10. 1. 15. 0. 0.
      0. 2. 4. 0. 0. 1. 1. 0. 6. 3. 8. 2. 0. 3. 0. 0. 0. 0. 31. 5. 1. 5.
      4. 0. 3. 4.</_>
    <_>
      685. 18. 96. 163. 22. 0. 113. 333. 97. 0. 3. 4. 109. 0. 329. 200.
      17. 1. 0. 1. 0. 0. 0. 1. 105. 1. 0. 0. 117. 0. 141. 22. 19. 0. 1.
      1. 0. 0. 2. 0. 6. 0. 0. 0. 0. 0. 2. 0. 35. 0. 2. 0. 1. 0. 4. 1.
      247. 1. 3. 1. 89. 0. 61. 4. 7. 0. 1. 0. 0. 0. 0. 0. 0. 0. 0. 0. 0.
      0. 0. 0. 0. 0. 0. 0. 0. 0. 0. 0. 0. 0. 0. 1. 0. 0. 0. 0. 24. 0. 0.
      1. 1. 0. 0. 1. 1. 0. 1. 1. 2. 0. 1. 1. 8. 0. 0. 0. 0. 0. 0. 0. 67.
      0. 0. 0. 15. 0. 3. 0. 26. 31. 6. 421. 0. 1. 1. 695. 2. 1. 0. 7. 1.
      3. 0. 138. 0. 0. 1. 0. 0. 0. 0. 0. 1. 0. 0. 2. 0. 0. 1. 24. 0. 0.
      0. 3. 0. 0. 0. 0. 0. 0. 0. 1. 0. 0. 0. 1. 0. 0. 0. 2. 0. 0. 0. 0.
      1. 0. 0. 10. 0. 0. 1. 6. 24. 9. 1. 28. 1. 0. 2. 16. 0. 2. 0. 2. 0.
      0. 1. 6. 0. 0. 0. 0. 0. 0. 0. 0. 1. 0. 0. 1. 0. 0. 0. 1. 78. 19.
      0. 19. 0. 0. 0. 6. 1. 0. 0. 0. 2. 0. 1. 7. 17. 6. 0. 4. 0. 0. 0.
      0. 22. 1. 2. 4. 3. 2. 11. 7.</_>
    <_>
      884. 15. 65. 137. 32. 0. 71. 145. 42. 2. 3. 1. 40. 1. 79. 50. 13.
      1. 2. 1. 0. 0. 0. 0. 59. 0. 3. 4. 22. 0. 22. 18. 113. 0. 3. 2. 0.
      0. 1. 1. 4. 0. 0. 0. 0. 0. 1. 0. 114. 0. 1. 1. 0. 0. 1. 1. 248. 1.
      6. 1. 51. 0. 33. 8. 45. 0. 2. 0. 0. 0. 0. 0. 0. 0. 0. 0. 0. 0. 0.
      1. 0. 0. 0. 0. 0. 0. 0. 0. 1. 0. 0. 0. 0. 0. 0. 0. 74. 0. 0. 2. 0.
      0. 0. 0. 2. 0. 0. 0. 0. 0. 1. 0. 113. 0. 2. 2. 1. 0. 0. 0. 138. 0.
      0. 0. 8. 0. 2. 0. 91. 101. 1. 672. 1. 3. 1. 505. 0. 3. 1. 3. 1. 3.
      2. 87. 1. 0. 0. 0. 0. 0. 0. 0. 3. 0. 0. 3. 1. 1. 1. 12. 7. 3. 0.
      11. 0. 0. 0. 1. 0. 0. 0. 1. 0. 0. 0. 1. 2. 4. 0. 2. 0. 0. 0. 3. 5.
      2. 0. 21. 0. 2. 0. 13. 59. 60. 2. 110. 0. 0. 0. 23. 1. 3. 0. 0. 0.
      0. 1. 5. 4. 0. 0. 0. 0. 0. 0. 0. 3. 0. 1. 1. 1. 0. 0. 2. 99. 28.
      1. 42. 0. 0. 0. 8. 2. 0. 0. 0. 0. 1. 1. 2. 43. 7. 0. 15. 0. 0. 0.
      0. 49. 5. 1. 18. 5. 1. 3. 9.</_>
    <_>
      2025. 15. 53. 59. 10. 0. 33. 26. 47. 0. 3. 1. 31. 1. 78. 12. 18.
      1. 0. 0. 0. 0. 0. 0. 35. 0. 0. 3. 13. 0. 14. 5. 131. 0. 2. 0. 0.
      0. 1. 0. 5. 0. 1. 0. 1. 0. 1. 0. 135. 0. 1. 1. 3. 0. 1. 0. 198. 0.
      3. 0. 30. 0. 16. 2. 37. 0. 1. 0. 0. 0. 0. 0. 0. 0. 0. 0. 0. 0. 1.
      0. 1. 0. 0. 0. 0. 0. 0. 0. 1. 0. 0. 0. 0. 0. 0. 0. 75. 1. 0. 3. 0.
      0. 0. 0. 3. 0. 0. 0. 1. 0. 0. 0. 87. 0. 0. 1. 0. 0. 0. 0. 101. 0.
      0. 1. 10. 0. 2. 0. 153. 131. 3. 299. 1. 2. 3. 54. 2. 1. 0. 1. 2.
      2. 0. 28. 0. 0. 0. 0. 0. 0. 0. 0. 1. 2. 0. 1. 0. 0. 0. 1. 4. 5. 0.
      8. 0. 0. 0. 0. 0. 0. 0. 1. 0. 0. 0. 0. 9. 2. 0. 4. 0. 0. 0. 3. 5.
      3. 0. 12. 0. 1. 1. 7. 70. 73. 1. 96. 0. 0. 0. 9. 2. 1. 0. 0. 0. 0.
      0. 3. 2. 0. 0. 0. 0. 0. 0. 0. 3. 0. 0. 2. 0. 0. 0. 1. 270. 38. 1.
      52. 0. 0. 0. 5. 0. 0. 0. 0. 0. 1. 6. 1. 42. 5. 0. 10. 0. 0. 0. 0.
      60. 11. 1. 16. 3. 2. 3. 5.</_>
    <_>
      766. 17. 61. 85. 30. 2. 59. 354. 31. 0. 3. 4. 31. 0. 169. 376. 16.
      0. 0. 0. 0. 0. 2. 0. 38. 0. 1. 4. 33. 0. 40. 30. 112. 0. 2. 0. 2.
      0. 0. 2. 6. 0. 0. 0. 1. 0. 1. 2. 106. 1. 1. 1. 2. 0. 2. 0. 160. 2.
      5. 1. 44. 0. 34. 15. 28. 1. 0. 2. 1. 0. 0. 0. 2. 0. 0. 0. 1. 0. 0.
      1. 1. 0. 0. 0. 0. 0. 0. 0. 0. 0. 0. 0. 1. 0. 0. 0. 73. 1. 0. 2. 0.
      0. 0. 0. 5. 0. 1. 0. 2. 0. 2. 1. 278. 1. 0. 0. 0. 0. 0. 0. 322. 0.
      4. 0. 15. 1. 12. 2. 51. 48. 1. 265. 1. 3. 0. 304. 2. 4. 0. 2. 2.
      3. 3. 151. 0. 0. 0. 0. 0. 0. 0. 0. 2. 0. 0. 2. 0. 1. 1. 10. 3. 0.
      0. 4. 0. 0. 0. 1. 0. 0. 0. 0. 0. 0. 0. 2. 1. 2. 0. 4. 0. 0. 0. 1.
      7. 3. 0. 7. 0. 0. 2. 13. 23. 18. 1. 45. 0. 1. 0. 6. 1. 0. 0. 0. 2.
      1. 2. 5. 3. 0. 0. 0. 0. 0. 1. 0. 4. 0. 0. 2. 0. 0. 1. 1. 71. 15.
      2. 27. 1. 0. 0. 11. 2. 0. 1. 1. 1. 0. 1. 5. 161. 9. 1. 6. 0. 0. 1.
      0. 87. 10. 1. 10. 8. 0. 5. 14.</_>
    <_>
      569. 23. 76. 145. 34. 1. 74. 221. 44. 0. 4. 4. 23. 2. 91. 89. 28.
      0. 0. 0. 0. 0. 0. 0. 27. 0. 2. 1. 21. 0. 17. 10. 46. 1. 2. 3. 3.
      0. 0. 2. 5. 0. 0. 0. 1. 0. 2. 0. 70. 1. 3. 2. 0. 0. 1. 0. 169. 1.
      11. 3. 34. 0. 17. 9. 37. 0. 3. 1. 0. 0. 0. 1. 0. 0. 0. 0. 2. 0. 0.
      0. 0. 0. 0. 0. 0. 0. 0. 0. 4. 0. 0. 0. 0. 0. 0. 0. 31. 0. 1. 1. 2.
      0. 0. 0. 4. 0. 0. 0. 1. 0. 0. 0. 113. 0. 0. 1. 0. 0. 0. 0. 307. 1.
      4. 1. 12. 0. 4. 0. 61. 69. 5. 718. 0. 4. 2. 740. 0. 1. 0. 8. 1. 0.
      3. 95. 2. 1. 0. 0. 0. 0. 0. 0. 1. 0. 0. 7. 0. 0. 0. 13. 5. 1. 0.
      11. 0. 0. 0. 3. 0. 0. 0. 0. 0. 0. 0. 1. 3. 1. 1. 7. 0. 0. 1. 4. 4.
      2. 0. 10. 0. 1. 0. 17. 39. 52. 2. 168. 1. 0. 1. 38. 0. 0. 0. 0. 0.
      1. 0. 9. 1. 1. 0. 1. 0. 0. 0. 0. 1. 0. 0. 0. 0. 0. 0. 1. 63. 30.
      1. 43. 0. 0. 0. 10. 2. 0. 0. 1. 1. 0. 4. 3. 52. 15. 0. 14. 0. 0.
      0. 0. 48. 10. 2. 20. 9. 1. 3. 14.</_>
    <_>
      2679. 6. 38. 35. 11. 0. 26. 5. 136. 1. 0. 1. 87. 0. 215. 9. 28. 0.
      3. 0. 0. 0. 0. 0. 118. 0. 1. 0. 27. 0. 37. 0. 50. 0. 2. 4. 0. 0.
      1. 1. 8. 0. 0. 0. 1. 0. 4. 1. 51. 0. 3. 0. 0. 0. 7. 0. 515. 0. 5.
      1. 48. 0. 66. 5. 4. 0. 0. 1. 0. 0. 0. 0. 1. 0. 0. 0. 0. 0. 0. 0.
      0. 0. 0. 0. 0. 0. 0. 0. 1. 0. 0. 0. 0. 0. 0. 0. 43. 0. 3. 6. 1. 0.
      0. 0. 6. 0. 0. 0. 4. 0. 5. 0. 18. 0. 0. 0. 0. 0. 0. 0. 11. 0. 0.
      2. 8. 0. 4. 0. 20. 19. 1. 134. 1. 0. 0. 9. 0. 1. 0. 3. 3. 8. 1.
      21. 0. 0. 0. 0. 0. 0. 0. 0. 1. 1. 0. 0. 0. 0. 1. 3. 0. 1. 0. 2. 0.
      0. 0. 0. 0. 0. 0. 0. 0. 0. 0. 0. 0. 0. 0. 2. 0. 0. 0. 1. 2. 2. 0.
      5. 0. 0. 0. 6. 10. 4. 0. 1. 0. 0. 1. 0. 3. 0. 0. 0. 1. 0. 0. 1. 0.
      0. 0. 0. 0. 0. 0. 0. 2. 0. 0. 0. 0. 0. 2. 0. 118. 3. 4. 12. 0. 0.
      1. 2. 8. 0. 0. 0. 3. 0. 17. 4. 15. 0. 0. 0. 0. 0. 0. 0. 40. 1. 0.
      6. 12. 0. 12. 3.</_>
    <_>
      2776. 6. 49. 37. 6. 0. 27. 8. 105. 0. 1. 0. 67. 1. 160. 6. 20. 0.
      2. 0. 0. 0. 0. 0. 74. 0. 0. 1. 27. 0. 30. 0. 87. 0. 0. 2. 0. 0. 0.
      0. 3. 0. 0. 0. 4. 0. 2. 1. 45. 0. 0. 0. 1. 0. 2. 0. 521. 0. 3. 1.
      35. 0. 50. 2. 4. 0. 0. 1. 0. 0. 0. 0. 1. 0. 0. 0. 0. 0. 0. 0. 0.
      0. 0. 0. 0. 0. 0. 0. 1. 0. 0. 0. 0. 0. 0. 0. 47. 1. 1. 4. 0. 0. 0.
      0. 1. 0. 0. 1. 0. 0. 3. 0. 20. 0. 0. 0. 0. 0. 0. 0. 34. 0. 0. 0.
      4. 0. 4. 0. 22. 12. 1. 238. 0. 0. 0. 17. 0. 3. 0. 1. 1. 5. 1. 32.
      1. 0. 0. 0. 0. 0. 0. 0. 4. 0. 0. 2. 0. 0. 1. 0. 1. 0. 0. 5. 0. 0.
      0. 0. 0. 0. 0. 0. 0. 0. 0. 0. 0. 0. 0. 4. 0. 0. 0. 0. 3. 0. 0. 9.
      0. 0. 0. 5. 20. 4. 0. 5. 0. 0. 0. 1. 0. 0. 0. 0. 1. 0. 0. 1. 0. 0.
      0. 0. 0. 0. 0. 0. 4. 0. 0. 0. 0. 0. 1. 0. 85. 6. 0. 18. 0. 0. 0.
      0. 3. 0. 0. 0. 0. 0. 10. 0. 21. 1. 0. 1. 0. 0. 0. 0. 31. 4. 0. 5.
      4. 0. 3. 2.</_>
    <_>
      2749. 5. 57. 38. 14. 0. 27. 11. 104. 0. 2. 1. 58. 2. 176. 11. 18.
      0. 0. 0. 0. 0. 0. 0. 75. 0. 0. 0. 31. 0. 22. 2. 93. 0. 3. 0. 0. 0.
      1. 1. 4. 0. 0. 0. 3. 0. 3. 0. 64. 0. 1. 0. 0. 0. 5. 0. 467. 0. 4.
      1. 43. 0. 42. 3. 5. 0. 0. 0. 0. 0. 0. 0. 1. 0. 0. 0. 0. 0. 0. 0.
      0. 0. 0. 0. 0. 0. 0. 0. 0. 0. 0. 0. 0. 0. 0. 0. 47. 1. 3. 5. 0. 0.
      0. 0. 0. 0. 0. 1. 0. 0. 0. 0. 24. 0. 0. 1. 0. 0. 0. 0. 42. 0. 0.
      0. 5. 0. 7. 0. 27. 16. 0. 196. 0. 1. 0. 20. 0. 1. 0. 2. 1. 5. 4.
      23. 0. 0. 0. 0. 0. 0. 0. 0. 1. 0. 0. 3. 0. 0. 0. 1. 0. 0. 0. 3. 0.
      0. 0. 0. 0. 0. 0. 0. 0. 0. 0. 0. 0. 0. 0. 2. 0. 0. 0. 0. 4. 0. 0.
      7. 0. 0. 0. 4. 20. 6. 0. 5. 0. 0. 0. 0. 0. 0. 0. 0. 0. 0. 0. 4. 0.
      0. 0. 0. 0. 0. 0. 0. 7. 0. 0. 0. 0. 0. 0. 0. 151. 4. 1. 14. 0. 0.
      0. 1. 3. 0. 0. 0. 0. 0. 0. 0. 22. 0. 0. 1. 0. 0. 0. 0. 32. 4. 0.
      2. 5. 0. 0. 2.</_>
    <_>
      2802. 6. 76. 51. 18. 0. 32. 17. 87. 1. 4. 1. 45. 1. 137. 14. 12.
      0. 0. 0. 0. 0. 0. 0. 76. 0. 0. 0. 21. 0. 9. 4. 78. 0. 3. 0. 1. 0.
      1. 1. 5. 0. 0. 0. 0. 0. 2. 0. 82. 0. 1. 0. 0. 0. 6. 0. 383. 0. 4.
      1. 44. 0. 36. 3. 10. 0. 0. 0. 0. 0. 0. 0. 0. 0. 0. 0. 0. 0. 0. 0.
      0. 0. 0. 0. 0. 0. 0. 0. 0. 0. 0. 0. 0. 0. 0. 0. 43. 1. 3. 5. 0. 0.
      0. 0. 0. 0. 0. 0. 1. 0. 0. 0. 19. 0. 0. 1. 0. 0. 0. 0. 41. 0. 0.
      0. 4. 0. 4. 0. 40. 32. 0. 185. 0. 1. 0. 25. 0. 1. 0. 2. 0. 4. 3.
      17. 0. 0. 0. 0. 0. 0. 0. 0. 2. 0. 0. 4. 0. 0. 0. 1. 1. 0. 0. 2. 0.
      0. 0. 0. 0. 0. 0. 0. 0. 0. 0. 1. 1. 0. 0. 1. 0. 0. 0. 1. 1. 1. 0.
      16. 0. 1. 0. 3. 25. 8. 0. 5. 0. 0. 0. 0. 0. 0. 0. 0. 0. 0. 0. 3.
      0. 0. 0. 0. 0. 0. 0. 0. 5. 0. 0. 0. 0. 0. 1. 0. 197. 2. 2. 20. 0.
      0. 0. 2. 2. 0. 0. 1. 1. 0. 8. 0. 15. 1. 0. 1. 0. 0. 0. 0. 38. 1.
      0. 3. 3. 0. 1. 0.</_>
    <_>
      2753. 4. 57. 50. 22. 0. 26. 28. 83. 0. 3. 0. 49. 0. 117. 8. 3. 0.
      0. 0. 0. 0. 0. 0. 66. 0. 1. 1. 32. 0. 15. 2. 50. 0. 0. 0. 1. 0. 1.
      1. 5. 0. 0. 0. 0. 0. 3. 0. 75. 0. 1. 0. 0. 0. 2. 0. 448. 0. 3. 2.
      31. 0. 34. 2. 9. 0. 0. 0. 0. 0. 0. 0. 0. 0. 0. 0. 0. 0. 0. 0. 0.
      0. 0. 0. 0. 0. 0. 0. 0. 0. 0. 0. 0. 0. 0. 0. 32. 0. 3. 5. 0. 0. 0.
      0. 2. 0. 0. 0. 3. 0. 0. 0. 9. 0. 0. 0. 0. 0. 1. 0. 45. 0. 0. 1. 2.
      0. 2. 0. 37. 35. 1. 328. 0. 1. 0. 37. 0. 2. 0. 3. 0. 2. 1. 21. 0.
      0. 0. 1. 0. 0. 0. 0. 2. 0. 0. 5. 0. 0. 0. 1. 2. 0. 0. 5. 0. 0. 0.
      0. 0. 0. 0. 0. 0. 0. 0. 0. 1. 0. 0. 2. 0. 0. 0. 1. 2. 3. 0. 28. 0.
      1. 0. 9. 24. 6. 0. 11. 0. 0. 0. 1. 0. 0. 0. 0. 0. 0. 1. 0. 0. 0.
      0. 0. 0. 0. 0. 0. 3. 0. 0. 0. 1. 0. 1. 0. 108. 3. 2. 20. 0. 0. 0.
      2. 2. 0. 0. 2. 2. 0. 14. 1. 4. 2. 0. 3. 1. 0. 0. 0. 34. 0. 0. 5.
      5. 0. 4. 2.</_>
    <_>
      2768. 5. 39. 47. 8. 0. 20. 7. 73. 1. 0. 1. 44. 0. 78. 2. 7. 0. 0.
      0. 0. 0. 0. 0. 52. 0. 0. 0. 21. 0. 17. 1. 95. 0. 1. 4. 1. 0. 1. 0.
      0. 0. 0. 0. 0. 0. 2. 0. 83. 0. 4. 0. 0. 0. 4. 0. 445. 0. 3. 1. 34.
      0. 25. 3. 13. 0. 0. 0. 0. 0. 0. 0. 0. 0. 0. 0. 0. 0. 0. 0. 0. 0.
      0. 0. 0. 0. 0. 0. 1. 0. 0. 0. 0. 0. 0. 0. 50. 0. 2. 2. 0. 0. 0. 0.
      0. 0. 0. 0. 0. 0. 0. 1. 19. 0. 0. 0. 0. 0. 0. 0. 46. 0. 0. 0. 2.
      0. 2. 0. 49. 47. 0. 291. 0. 0. 0. 34. 2. 2. 0. 3. 2. 6. 0. 14. 2.
      0. 0. 0. 0. 0. 0. 0. 3. 0. 0. 2. 0. 0. 0. 1. 0. 0. 0. 8. 0. 0. 0.
      0. 0. 0. 0. 0. 0. 0. 0. 0. 0. 0. 0. 1. 0. 0. 0. 0. 5. 4. 1. 25. 0.
      0. 0. 7. 34. 10. 0. 20. 0. 0. 1. 0. 1. 1. 0. 0. 0. 0. 0. 0. 0. 0.
      0. 0. 0. 0. 0. 0. 6. 0. 0. 1. 0. 0. 0. 0. 155. 7. 0. 28. 0. 0. 0.
      0. 3. 0. 0. 0. 1. 1. 0. 0. 16. 0. 0. 6. 0. 0. 0. 0. 38. 3. 0. 7.
      2. 0. 2. 1.</_>
    <_>
      2763. 3. 39. 31. 6. 0. 19. 13. 70. 0. 0. 0. 35. 0. 63. 4. 9. 0. 0.
      0. 0. 0. 0. 0. 39. 0. 0. 0. 22. 0. 16. 0. 135. 0. 3. 3. 2. 0. 1.
      0. 1. 0. 0. 0. 0. 0. 4. 0. 101. 0. 2. 0. 0. 0. 4. 0. 358. 0. 0. 0.
      15. 0. 28. 0. 15. 0. 0. 0. 0. 0. 0. 0. 0. 0. 0. 0. 0. 0. 0. 0. 0.
      0. 0. 0. 0. 0. 0. 0. 1. 0. 0. 0. 0. 0. 0. 0. 69. 0. 2. 2. 0. 0. 0.
      0. 1. 0. 0. 0. 1. 0. 1. 0. 36. 0. 1. 0. 0. 0. 0. 0. 60. 0. 0. 0.
      0. 0. 3. 0. 66. 48. 1. 209. 0. 1. 0. 10. 1. 1. 0. 2. 0. 4. 3. 18.
      0. 0. 0. 0. 0. 0. 0. 0. 1. 0. 0. 0. 0. 0. 0. 2. 2. 1. 0. 6. 0. 0.
      0. 0. 0. 0. 0. 0. 0. 0. 0. 0. 2. 0. 0. 0. 0. 0. 0. 0. 6. 4. 0. 12.
      0. 0. 0. 7. 43. 19. 0. 18. 0. 0. 1. 2. 0. 0. 0. 0. 0. 0. 0. 3. 0.
      0. 0. 0. 0. 0. 0. 0. 5. 0. 0. 0. 0. 0. 0. 0. 224. 17. 3. 35. 0. 0.
      0. 3. 2. 0. 0. 1. 2. 0. 1. 0. 34. 2. 0. 7. 0. 0. 0. 0. 54. 4. 0.
      11. 3. 0. 3. 3.</_>
    <_>
      344. 18. 37. 48. 11. 0. 45. 128. 64. 0. 2. 1. 77. 1. 99. 69. 12.
      1. 0. 0. 2. 0. 0. 1. 59. 0. 1. 2. 149. 0. 103. 11. 38. 0. 0. 1. 0.
      0. 1. 0. 3. 0. 0. 0. 0. 0. 1. 1. 46. 0. 0. 0. 0. 0. 0. 0. 121. 0.
      2. 2. 103. 0. 35. 2. 13. 0. 0. 0. 0. 0. 0. 0. 0. 0. 0. 0. 0. 0. 1.
      0. 0. 0. 0. 0. 0. 0. 0. 0. 2. 0. 0. 0. 1. 0. 0. 1. 52. 1. 1. 0. 0.
      0. 0. 1. 1. 1. 0. 0. 1. 0. 0. 1. 94. 0. 1. 1. 0. 0. 0. 0. 41. 0.
      0. 0. 18. 0. 6. 2. 41. 41. 3. 104. 1. 0. 1. 201. 0. 0. 0. 2. 0. 3.
      4. 62. 0. 1. 0. 0. 0. 0. 0. 0. 1. 1. 0. 1. 0. 0. 1. 7. 3. 2. 0. 0.
      0. 0. 0. 1. 0. 0. 0. 0. 0. 0. 0. 0. 1. 1. 0. 0. 0. 0. 0. 0. 1. 0.
      0. 3. 0. 0. 1. 8. 72. 95. 2. 33. 0. 1. 0. 7. 0. 0. 1. 1. 1. 1. 2.
      3. 2. 1. 0. 0. 0. 0. 0. 0. 0. 0. 0. 0. 0. 0. 0. 3. 1068. 386. 3.
      61. 0. 2. 0. 8. 0. 0. 0. 0. 1. 0. 0. 4. 620. 64. 0. 6. 0. 0. 0. 3.
      38. 5. 0. 2. 6. 2. 6. 1.</_>
    <_>
      1153. 13. 77. 108. 32. 0. 45. 104. 66. 0. 9. 1. 40. 0. 63. 33. 9.
      0. 0. 0. 0. 0. 0. 2. 65. 0. 3. 0. 46. 0. 21. 16. 123. 0. 7. 2. 1.
      0. 0. 0. 4. 1. 1. 0. 0. 0. 3. 0. 146. 0. 2. 1. 0. 0. 0. 1. 223. 0.
      2. 2. 55. 0. 29. 3. 49. 0. 1. 1. 0. 0. 0. 0. 0. 0. 0. 0. 0. 0. 2.
      0. 0. 0. 0. 0. 0. 0. 0. 0. 0. 0. 0. 0. 0. 0. 0. 0. 63. 0. 2. 3. 0.
      0. 0. 0. 1. 0. 0. 0. 3. 0. 1. 0. 102. 0. 0. 0. 0. 0. 1. 0. 132. 0.
      0. 1. 7. 0. 0. 0. 119. 126. 4. 574. 2. 3. 3. 264. 2. 3. 0. 5. 0.
      1. 5. 48. 1. 0. 0. 0. 0. 0. 0. 0. 4. 0. 0. 2. 0. 0. 0. 7. 13. 3.
      1. 7. 0. 0. 1. 1. 0. 0. 0. 0. 0. 0. 0. 1. 2. 2. 0. 3. 0. 1. 0. 2.
      4. 3. 0. 24. 1. 0. 0. 16. 73. 68. 3. 112. 1. 0. 1. 15. 2. 1. 0. 0.
      0. 1. 2. 7. 0. 0. 0. 1. 0. 0. 0. 0. 2. 1. 0. 3. 0. 0. 1. 0. 172.
      42. 4. 53. 1. 0. 1. 9. 1. 0. 0. 2. 0. 0. 0. 3. 47. 19. 2. 8. 0. 0.
      0. 0. 57. 5. 0. 17. 5. 0. 1. 6.</_>
    <_>
      2618. 15. 144. 118. 23. 0. 83. 43. 57. 1. 1. 1. 37. 0. 256. 39. 3.
      0. 0. 0. 0. 0. 0. 0. 54. 0. 0. 0. 8. 0. 10. 2. 27. 0. 3. 1. 0. 0.
      1. 0. 1. 0. 0. 0. 0. 0. 0. 1. 31. 0. 2. 0. 1. 0. 4. 0. 211. 0. 7.
      5. 12. 0. 36. 7. 7. 0. 1. 1. 0. 0. 0. 0. 1. 0. 0. 0. 0. 0. 0. 0.
      0. 0. 0. 0. 0. 0. 0. 0. 1. 0. 0. 0. 0. 0. 0. 0. 18. 0. 0. 7. 1. 0.
      0. 0. 0. 0. 0. 0. 1. 0. 1. 0. 4. 0. 0. 0. 0. 0. 0. 0. 5. 0. 0. 0.
      1. 0. 1. 0. 47. 52. 2. 418. 2. 0. 0. 56. 0. 3. 0. 3. 0. 3. 3. 73.
      0. 0. 0. 0. 0. 0. 0. 0. 4. 0. 0. 1. 0. 0. 0. 5. 1. 0. 0. 0. 0. 0.
      0. 1. 0. 0. 0. 1. 0. 1. 0. 0. 0. 0. 0. 2. 0. 0. 0. 1. 1. 0. 0. 25.
      0. 0. 0. 11. 29. 7. 1. 22. 0. 0. 0. 2. 1. 0. 0. 0. 0. 0. 2. 1. 1.
      0. 0. 0. 0. 0. 0. 0. 2. 0. 0. 0. 0. 0. 0. 0. 97. 4. 6. 23. 0. 0.
      1. 7. 1. 0. 0. 0. 0. 0. 12. 3. 4. 1. 0. 1. 0. 0. 0. 0. 14. 1. 1.
      6. 1. 0. 2. 6.</_>
    <_>
      2838. 7. 61. 32. 19. 0. 30. 19. 154. 0. 4. 3. 74. 1. 168. 17. 12.
      0. 0. 0. 0. 0. 0. 0. 94. 0. 0. 0. 52. 0. 40. 5. 73. 0. 0. 0. 0. 0.
      1. 0. 3. 0. 0. 0. 0. 0. 4. 0. 50. 0. 0. 0. 1. 0. 4. 0. 449. 0. 4.
      2. 56. 0. 47. 3. 7. 0. 0. 1. 0. 0. 0. 0. 0. 0. 0. 0. 0. 0. 1. 0.
      0. 0. 0. 0. 0. 0. 0. 0. 0. 0. 0. 0. 0. 0. 0. 0. 30. 1. 1. 3. 0. 0.
      0. 0. 0. 0. 0. 0. 1. 0. 2. 0. 21. 0. 0. 0. 0. 0. 0. 0. 27. 0. 0.
      0. 3. 0. 3. 0. 23. 18. 0. 160. 0. 0. 1. 15. 1. 0. 0. 4. 0. 4. 2.
      16. 0. 0. 0. 0. 0. 0. 0. 0. 0. 0. 0. 2. 0. 0. 0. 6. 0. 1. 0. 3. 0.
      0. 0. 0. 0. 0. 0. 0. 0. 0. 0. 1. 0. 0. 0. 1. 0. 0. 0. 0. 2. 0. 0.
      2. 0. 0. 0. 7. 11. 6. 0. 4. 0. 0. 0. 0. 0. 0. 0. 0. 0. 0. 1. 1. 0.
      0. 0. 0. 0. 0. 0. 0. 4. 0. 0. 0. 0. 0. 0. 0. 76. 3. 3. 5. 0. 0. 0.
      4. 3. 0. 0. 1. 1. 0. 11. 2. 9. 0. 0. 4. 0. 0. 0. 0. 25. 2. 1. 3.
      2. 0. 5. 4.</_>
    <_>
      2678. 5. 74. 65. 22. 0. 47. 24. 156. 0. 4. 3. 80. 1. 210. 27. 11.
      1. 1. 0. 0. 0. 0. 0. 77. 0. 0. 0. 53. 0. 67. 4. 77. 0. 3. 2. 0. 0.
      1. 0. 4. 0. 0. 0. 1. 0. 7. 0. 74. 0. 0. 0. 0. 0. 4. 0. 378. 0. 3.
      3. 37. 0. 33. 1. 13. 0. 0. 0. 0. 0. 0. 0. 0. 0. 0. 0. 0. 0. 0. 0.
      0. 0. 0. 0. 0. 0. 0. 0. 0. 0. 0. 0. 1. 0. 0. 0. 27. 0. 1. 4. 0. 0.
      0. 0. 0. 0. 0. 0. 0. 0. 3. 0. 21. 0. 0. 0. 0. 0. 0. 0. 41. 0. 0.
      0. 3. 0. 5. 0. 36. 27. 1. 152. 0. 0. 0. 46. 0. 1. 0. 5. 0. 6. 2.
      29. 0. 0. 0. 0. 0. 0. 0. 0. 1. 0. 0. 1. 0. 0. 0. 7. 2. 0. 0. 3. 0.
      0. 0. 0. 0. 0. 0. 0. 0. 0. 0. 0. 0. 0. 1. 0. 0. 0. 0. 0. 0. 1. 0.
      2. 0. 0. 1. 10. 12. 6. 0. 12. 0. 0. 1. 1. 0. 0. 0. 0. 0. 0. 2. 1.
      0. 0. 0. 0. 0. 0. 0. 0. 6. 0. 0. 0. 0. 0. 0. 0. 63. 5. 3. 7. 0. 0.
      0. 4. 3. 0. 0. 0. 1. 0. 12. 2. 6. 2. 0. 3. 0. 0. 0. 0. 26. 1. 1.
      7. 3. 0. 5. 2.</_>
    <_>
      2809. 2. 42. 28. 15. 0. 21. 14. 113. 0. 1. 2. 52. 0. 172. 5. 11.
      0. 0. 0. 0. 0. 0. 0. 93. 0. 0. 1. 32. 0. 19. 0. 90. 0. 0. 0. 0. 0.
      1. 0. 4. 0. 0. 0. 0. 0. 4. 0. 65. 0. 0. 0. 0. 0. 4. 0. 462. 2. 6.
      0. 53. 0. 54. 4. 13. 0. 0. 1. 0. 0. 0. 0. 1. 0. 0. 0. 0. 0. 1. 0.
      0. 0. 0. 0. 0. 0. 0. 0. 0. 0. 0. 0. 0. 0. 0. 0. 39. 1. 1. 3. 0. 0.
      0. 0. 0. 0. 0. 0. 1. 0. 2. 0. 23. 0. 0. 0. 0. 0. 0. 0. 42. 0. 0.
      0. 3. 0. 3. 0. 38. 31. 0. 167. 2. 0. 0. 5. 0. 1. 0. 3. 0. 7. 3.
      19. 0. 0. 0. 0. 0. 0. 0. 0. 1. 0. 0. 1. 0. 0. 0. 5. 1. 2. 0. 5. 0.
      0. 0. 0. 0. 0. 0. 0. 0. 0. 0. 1. 2. 0. 0. 3. 0. 0. 0. 0. 9. 2. 0.
      13. 0. 0. 0. 3. 17. 10. 0. 13. 0. 0. 0. 0. 0. 0. 0. 0. 0. 0. 0. 2.
      0. 0. 0. 0. 0. 0. 0. 0. 7. 0. 0. 0. 0. 0. 0. 0. 102. 5. 2. 14. 0.
      0. 1. 1. 3. 0. 0. 0. 1. 0. 3. 0. 10. 1. 0. 5. 0. 0. 0. 0. 31. 7.
      0. 5. 2. 0. 3. 4.</_>
    <_>
      2919. 5. 33. 33. 11. 0. 21. 6. 108. 0. 1. 1. 56. 0. 156. 2. 7. 0.
      0. 0. 0. 0. 0. 0. 74. 0. 0. 1. 30. 0. 28. 0. 87. 0. 2. 1. 0. 0. 1.
      0. 1. 0. 0. 0. 2. 0. 5. 0. 78. 0. 1. 0. 1. 0. 6. 0. 400. 1. 3. 1.
      33. 0. 36. 1. 14. 0. 0. 0. 0. 0. 0. 0. 1. 0. 0. 0. 0. 0. 0. 0. 0.
      0. 0. 0. 0. 0. 0. 0. 0. 0. 0. 0. 0. 0. 0. 0. 41. 0. 1. 6. 0. 0. 0.
      0. 0. 0. 0. 0. 0. 0. 2. 0. 19. 0. 0. 0. 0. 0. 0. 0. 39. 0. 0. 0.
      1. 0. 5. 0. 39. 35. 0. 168. 1. 0. 0. 10. 1. 1. 0. 6. 0. 5. 1. 22.
      0. 0. 0. 0. 0. 0. 0. 0. 1. 0. 0. 1. 0. 0. 0. 7. 1. 1. 0. 3. 0. 0.
      0. 0. 0. 0. 0. 0. 0. 0. 0. 0. 1. 0. 0. 2. 0. 0. 0. 0. 4. 2. 0. 13.
      0. 0. 0. 5. 18. 5. 0. 11. 0. 0. 0. 0. 0. 0. 0. 0. 0. 0. 0. 1. 0.
      0. 0. 0. 0. 0. 0. 0. 5. 0. 0. 0. 0. 0. 0. 0. 142. 2. 2. 21. 0. 0.
      1. 1. 3. 0. 0. 0. 1. 0. 4. 1. 8. 1. 0. 2. 0. 0. 0. 0. 37. 2. 0. 6.
      2. 0. 1. 0.</_>
    <_>
      2772. 1. 50. 40. 16. 0. 27. 11. 84. 0. 1. 0. 34. 1. 133. 3. 9. 0.
      0. 0. 0. 0. 0. 0. 72. 0. 0. 1. 31. 0. 8. 0. 108. 0. 1. 0. 0. 0. 0.
      0. 4. 0. 0. 0. 2. 0. 3. 0. 86. 0. 0. 0. 1. 0. 2. 0. 481. 1. 3. 1.
      48. 0. 34. 1. 14. 0. 0. 0. 0. 0. 0. 0. 1. 0. 0. 0. 0. 0. 0. 0. 0.
      0. 0. 0. 0. 0. 0. 0. 1. 0. 0. 0. 0. 0. 0. 0. 41. 0. 0. 3. 0. 0. 0.
      0. 0. 0. 0. 0. 0. 0. 1. 0. 35. 0. 0. 0. 0. 0. 0. 0. 63. 0. 0. 0.
      5. 0. 4. 0. 40. 35. 0. 205. 2. 0. 0. 15. 0. 2. 0. 7. 0. 6. 4. 22.
      0. 0. 0. 0. 0. 0. 0. 0. 2. 0. 0. 1. 0. 1. 0. 5. 1. 1. 0. 6. 0. 0.
      0. 0. 0. 0. 0. 0. 0. 0. 0. 0. 2. 0. 0. 2. 0. 0. 0. 0. 9. 2. 0. 12.
      0. 0. 0. 4. 22. 11. 0. 11. 0. 0. 0. 0. 0. 0. 0. 0. 0. 0. 0. 4. 0.
      0. 0. 0. 0. 0. 0. 0. 7. 0. 0. 0. 0. 0. 0. 0. 122. 2. 1. 21. 0. 0.
      0. 1. 2. 0. 0. 0. 0. 0. 0. 0. 8. 1. 0. 5. 0. 0. 0. 0. 31. 7. 0. 3.
      2. 0. 1. 2.</_>
    <_>
      2876. 4. 55. 45. 21. 0. 26. 15. 80. 0. 0. 0. 44. 1. 118. 3. 13. 0.
      0. 0. 0. 0. 1. 0. 64. 0. 0. 0. 25. 0. 11. 0. 87. 0. 2. 1. 1. 0. 0.
      0. 3. 0. 0. 0. 2. 0. 2. 0. 85. 0. 1. 0. 1. 0. 3. 0. 473. 0. 0. 0.
      39. 0. 34. 1. 14. 0. 0. 0. 0. 0. 0. 0. 0. 0. 0. 0. 0. 0. 0. 0. 0.
      0. 0. 0. 0. 0. 0. 0. 1. 0. 0. 0. 0. 0. 0. 0. 46. 0. 1. 4. 1. 0. 0.
      0. 0. 0. 0. 0. 1. 0. 0. 0. 27. 0. 0. 0. 0. 0. 0. 0. 62. 0. 0. 0.
      5. 0. 4. 0. 33. 29. 0. 187. 0. 0. 0. 20. 1. 2. 0. 8. 0. 3. 3. 24.
      0. 0. 0. 0. 0. 0. 0. 0. 1. 0. 0. 1. 0. 1. 0. 7. 0. 0. 0. 4. 0. 0.
      0. 0. 0. 0. 0. 0. 0. 0. 0. 0. 1. 0. 0. 0. 0. 0. 0. 0. 2. 1. 0. 7.
      0. 0. 0. 6. 23. 8. 0. 3. 0. 0. 0. 0. 0. 0. 0. 0. 0. 0. 0. 3. 0. 0.
