<?xml version="1.0"?>
<opencv_storage>
<my_svm type_id="opencv-ml-svm">
  <svm_type>C_SVC</svm_type>
  <kernel><type>RBF</type>
    <gamma>1.0000000000000001e-09</gamma></kernel>
  <C>1.</C>
  <term_criteria><epsilon>2.2204460492503131e-16</epsilon>
    <iterations>500</iterations></term_criteria>
  <var_all>256</var_all>
  <var_count>256</var_count>
  <class_count>2</class_count>
  <class_labels type_id="opencv-matrix">
    <rows>1</rows>
    <cols>2</cols>
    <dt>i</dt>
    <data>
      0 1</data></class_labels>
  <sv_total>946</sv_total>
  <support_vectors>
    <_>
      2761. 3. 29. 19. 8. 0. 19. 7. 214. 0. 3. 2. 100. 0. 192. 8. 13. 0.
      0. 0. 0. 0. 0. 0. 129. 0. 1. 0. 87. 0. 57. 3. 64. 0. 0. 0. 0. 0.
      0. 0. 4. 0. 0. 0. 0. 0. 5. 0. 44. 0. 0. 0. 1. 0. 5. 0. 330. 0. 1.
      1. 85. 0. 54. 1. 6. 0. 0. 0. 0. 0. 0. 0. 0. 0. 0. 0. 0. 0. 0. 0.
      0. 0. 0. 0. 0. 0. 0. 0. 0. 0. 0. 0. 0. 0. 0. 0. 37. 1. 0. 3. 0. 0.
      0. 0. 4. 0. 0. 0. 0. 0. 2. 0. 13. 0. 0. 0. 0. 0. 0. 0. 11. 0. 0.
      0. 3. 0. 3. 1. 37. 32. 1. 103. 0. 0. 0. 4. 2. 0. 0. 1. 1. 3. 3.
      21. 0. 0. 0. 0. 0. 0. 0. 0. 0. 0. 0. 1. 0. 0. 0. 3. 1. 0. 0. 5. 0.
      0. 0. 0. 0. 0. 0. 0. 0. 0. 0. 0. 0. 0. 0. 0. 0. 0. 0. 0. 2. 0. 0.
      0. 0. 0. 0. 3. 26. 9. 0. 7. 0. 0. 2. 0. 1. 0. 0. 0. 0. 1. 0. 2. 0.
      0. 0. 0. 0. 0. 0. 0. 4. 0. 0. 0. 0. 0. 0. 0. 171. 7. 2. 19. 0. 0.
      0. 2. 6. 0. 0. 1. 4. 0. 7. 1. 12. 1. 0. 4. 0. 0. 0. 0. 25. 2. 0.
      1. 7. 0. 5. 2.</_>
    <_>
      1906. 34. 161. 99. 27. 0. 138. 100. 59. 1. 4. 3. 66. 1. 299. 118.
      16. 0. 0. 0. 0. 0. 3. 0. 43. 1. 0. 1. 36. 0. 41. 6. 47. 0. 1. 2.
      0. 0. 5. 4. 1. 0. 0. 0. 1. 0. 1. 0. 41. 0. 3. 0. 0. 0. 10. 1. 91.
      0. 3. 2. 18. 0. 25. 7. 18. 0. 1. 2. 0. 0. 0. 0. 0. 0. 0. 0. 1. 0.
      0. 0. 1. 0. 0. 0. 0. 0. 0. 0. 0. 0. 1. 0. 1. 0. 1. 0. 47. 1. 0.
      10. 0. 0. 1. 0. 2. 0. 0. 0. 0. 0. 0. 2. 23. 1. 1. 0. 0. 0. 0. 0.
      12. 0. 4. 0. 1. 0. 1. 0. 98. 84. 4. 276. 0. 1. 5. 55. 0. 1. 0. 4.
      3. 14. 7. 74. 0. 0. 0. 0. 0. 0. 0. 0. 1. 2. 0. 1. 0. 0. 1. 7. 3.
      0. 0. 1. 0. 0. 0. 0. 0. 0. 0. 0. 0. 0. 0. 1. 1. 1. 0. 1. 0. 0. 0.
      4. 4. 3. 0. 8. 1. 1. 2. 14. 58. 41. 1. 51. 0. 0. 1. 9. 4. 0. 0. 0.
      1. 0. 1. 13. 0. 0. 0. 0. 1. 0. 1. 0. 6. 1. 0. 3. 0. 0. 2. 0. 236.
      33. 4. 47. 0. 0. 1. 5. 4. 0. 0. 1. 0. 0. 5. 13. 30. 2. 0. 2. 0. 0.
      0. 0. 24. 4. 2. 14. 8. 0. 7. 11.</_>
    <_>
      1618. 28. 84. 63. 18. 0. 75. 33. 67. 0. 2. 1. 68. 2. 349. 38. 28.
      0. 2. 0. 0. 0. 2. 0. 46. 0. 0. 2. 31. 0. 51. 1. 121. 0. 2. 1. 0.
      0. 4. 0. 6. 0. 0. 0. 4. 0. 8. 1. 68. 0. 0. 0. 0. 0. 3. 0. 123. 0.
      1. 1. 20. 0. 34. 0. 13. 0. 0. 3. 0. 0. 0. 0. 0. 0. 0. 0. 0. 0. 0.
      0. 1. 0. 0. 0. 0. 0. 1. 0. 0. 0. 0. 0. 0. 0. 0. 0. 118. 1. 4. 5.
      0. 0. 0. 1. 5. 0. 0. 0. 2. 0. 6. 0. 60. 0. 0. 0. 0. 0. 1. 0. 35.
      0. 0. 1. 16. 0. 6. 0. 106. 81. 4. 177. 1. 0. 1. 56. 2. 1. 0. 5. 4.
      5. 8. 39. 1. 0. 0. 0. 0. 0. 0. 0. 0. 0. 0. 0. 0. 0. 1. 7. 0. 2. 0.
      3. 0. 0. 0. 0. 0. 0. 0. 1. 0. 0. 1. 2. 5. 0. 0. 2. 0. 0. 0. 1. 4.
      1. 0. 10. 0. 2. 0. 5. 108. 90. 1. 73. 1. 0. 2. 9. 4. 1. 0. 0. 1.
      1. 4. 8. 0. 0. 0. 0. 0. 0. 0. 0. 4. 4. 0. 0. 0. 0. 2. 0. 315. 87.
      3. 62. 1. 0. 1. 1. 8. 0. 0. 0. 3. 2. 40. 16. 114. 4. 0. 7. 0. 1.
      2. 0. 43. 6. 0. 7. 8. 0. 16. 5.</_>
    <_>
      2010. 2. 33. 22. 22. 0. 19. 3. 538. 0. 8. 6. 222. 0. 210. 6. 38.
      0. 1. 0. 0. 0. 0. 0. 299. 0. 2. 0. 226. 1. 155. 8. 33. 1. 1. 1. 1.
      0. 0. 0. 14. 0. 0. 0. 2. 0. 5. 0. 38. 0. 0. 0. 0. 0. 6. 0. 293. 0.
      0. 0. 235. 0. 93. 2. 3. 0. 0. 0. 1. 0. 0. 0. 0. 0. 0. 0. 0. 0. 0.
      0. 0. 0. 0. 0. 0. 0. 0. 0. 0. 0. 0. 0. 0. 0. 0. 0. 34. 0. 1. 4. 0.
      0. 0. 0. 9. 0. 0. 2. 3. 0. 3. 1. 3. 0. 0. 0. 0. 0. 0. 0. 10. 0. 0.
      0. 12. 0. 4. 0. 7. 6. 1. 14. 0. 0. 0. 5. 1. 1. 0. 6. 0. 1. 0. 22.
      0. 0. 0. 0. 0. 0. 0. 0. 0. 0. 0. 2. 1. 1. 0. 14. 0. 0. 0. 0. 0. 0.
      0. 0. 0. 0. 0. 0. 0. 0. 0. 0. 0. 0. 0. 0. 0. 0. 0. 0. 0. 0. 0. 1.
      0. 1. 0. 1. 5. 0. 0. 0. 0. 0. 0. 0. 1. 0. 0. 0. 0. 0. 0. 0. 0. 0.
      0. 0. 0. 0. 0. 0. 2. 0. 0. 0. 2. 0. 0. 0. 52. 0. 0. 6. 0. 0. 0. 0.
      14. 0. 0. 2. 3. 0. 6. 0. 4. 0. 0. 0. 0. 0. 0. 0. 26. 0. 0. 0. 22.
      0. 11. 1.</_>
    <_>
      1984. 34. 189. 136. 25. 2. 109. 88. 72. 1. 5. 3. 55. 1. 277. 82.
      17. 0. 2. 0. 0. 0. 1. 0. 43. 0. 5. 1. 21. 0. 37. 7. 55. 1. 2. 3.
      0. 0. 2. 3. 1. 0. 0. 0. 2. 0. 3. 1. 33. 0. 3. 1. 0. 0. 9. 0. 99.
      0. 4. 3. 15. 0. 33. 6. 16. 0. 1. 1. 0. 0. 0. 0. 0. 0. 0. 0. 0. 0.
      1. 0. 0. 0. 0. 0. 0. 0. 0. 0. 0. 0. 0. 0. 0. 0. 0. 0. 42. 1. 3. 7.
      0. 0. 1. 2. 1. 0. 0. 0. 1. 0. 2. 0. 18. 0. 1. 0. 1. 0. 0. 0. 17.
      0. 0. 1. 4. 0. 3. 0. 98. 75. 8. 334. 3. 2. 3. 96. 3. 2. 0. 6. 0.
      7. 3. 68. 1. 0. 0. 0. 0. 0. 0. 0. 5. 2. 0. 2. 0. 0. 0. 8. 2. 0. 0.
      3. 0. 0. 0. 0. 0. 0. 0. 1. 0. 0. 0. 0. 0. 2. 0. 2. 0. 0. 0. 2. 1.
      0. 0. 14. 0. 0. 2. 10. 55. 27. 0. 49. 0. 0. 3. 11. 2. 1. 0. 0. 0.
      0. 1. 8. 1. 0. 1. 0. 0. 0. 0. 0. 6. 0. 0. 2. 0. 0. 2. 0. 152. 21.
      4. 35. 0. 0. 3. 4. 2. 1. 2. 1. 3. 1. 7. 18. 33. 1. 1. 3. 0. 0. 1.
      0. 25. 2. 0. 5. 4. 0. 10. 15.</_>
    <_>
      1344. 25. 119. 82. 39. 1. 109. 97. 135. 1. 8. 1. 122. 3. 417. 151.
      23. 0. 2. 0. 0. 0. 1. 0. 75. 0. 5. 1. 142. 0. 151. 24. 60. 0. 4.
      2. 0. 0. 3. 2. 2. 0. 0. 0. 4. 0. 8. 0. 47. 0. 1. 0. 0. 0. 2. 1.
      119. 0. 4. 3. 63. 1. 73. 10. 17. 0. 3. 1. 0. 0. 0. 1. 0. 0. 0. 0.
      0. 0. 0. 0. 0. 0. 0. 0. 0. 0. 0. 0. 2. 0. 0. 0. 1. 0. 0. 0. 68. 3.
      2. 4. 0. 0. 0. 0. 1. 0. 0. 0. 1. 0. 2. 1. 33. 0. 0. 0. 0. 0. 3. 0.
      26. 0. 1. 0. 2. 0. 11. 1. 107. 59. 7. 138. 0. 2. 3. 77. 5. 2. 0.
      3. 2. 6. 3. 62. 4. 0. 0. 0. 0. 0. 0. 1. 1. 0. 0. 1. 1. 0. 1. 7. 2.
      1. 0. 1. 0. 0. 0. 0. 0. 0. 0. 0. 0. 1. 0. 1. 0. 0. 0. 1. 0. 0. 0.
      0. 1. 1. 0. 1. 0. 1. 1. 7. 81. 68. 3. 31. 0. 0. 1. 13. 0. 1. 0. 2.
      0. 0. 2. 11. 2. 0. 0. 0. 0. 0. 0. 0. 6. 0. 2. 0. 1. 0. 2. 1. 181.
      78. 3. 47. 0. 0. 2. 8. 6. 1. 0. 1. 4. 1. 7. 10. 63. 3. 1. 4. 0. 0.
      0. 2. 20. 2. 1. 6. 7. 0. 12. 9.</_>
    <_>
      1709. 5. 37. 30. 31. 0. 37. 19. 463. 1. 9. 5. 205. 0. 196. 35. 39.
      0. 2. 0. 1. 0. 0. 0. 348. 0. 4. 1. 198. 0. 124. 9. 55. 0. 1. 0. 1.
      0. 0. 2. 11. 0. 0. 0. 4. 0. 2. 0. 43. 0. 1. 1. 2. 0. 7. 0. 398. 0.
      10. 3. 247. 0. 120. 13. 6. 0. 0. 0. 0. 0. 0. 0. 0. 0. 0. 0. 0. 0.
      0. 0. 0. 0. 0. 0. 0. 0. 0. 0. 1. 0. 0. 0. 0. 0. 0. 0. 42. 0. 2. 3.
      0. 0. 0. 1. 0. 1. 1. 0. 1. 0. 2. 1. 33. 0. 0. 0. 0. 0. 0. 0. 18.
      0. 1. 3. 12. 0. 8. 2. 10. 12. 0. 43. 0. 0. 0. 22. 1. 0. 0. 5. 0.
      2. 0. 18. 0. 0. 0. 0. 0. 0. 0. 0. 1. 0. 0. 4. 2. 2. 0. 8. 0. 0. 0.
      3. 0. 0. 0. 0. 0. 0. 0. 1. 0. 0. 1. 0. 0. 1. 0. 1. 0. 0. 0. 0. 1.
      1. 0. 4. 0. 1. 1. 7. 6. 4. 0. 7. 0. 0. 1. 1. 2. 0. 0. 0. 0. 0. 0.
      3. 0. 0. 0. 0. 0. 0. 0. 0. 2. 0. 0. 0. 0. 0. 0. 0. 28. 5. 2. 9. 0.
      0. 0. 3. 6. 1. 1. 0. 3. 0. 3. 5. 19. 1. 0. 3. 0. 0. 0. 0. 30. 1.
      1. 2. 7. 0. 7. 6.</_>
    <_>
      1993. 32. 218. 107. 30. 1. 127. 109. 81. 2. 4. 0. 56. 1. 431. 126.
      22. 0. 0. 0. 0. 0. 1. 0. 44. 0. 2. 0. 30. 0. 40. 9. 46. 1. 2. 2.
      0. 0. 1. 1. 2. 0. 0. 0. 0. 0. 3. 0. 32. 0. 1. 0. 1. 0. 3. 0. 76.
      0. 2. 0. 18. 0. 35. 6. 12. 0. 0. 1. 0. 0. 0. 0. 1. 0. 0. 0. 0. 0.
      0. 0. 0. 0. 0. 0. 0. 0. 0. 0. 2. 0. 0. 0. 0. 0. 0. 0. 40. 0. 2. 2.
      0. 0. 0. 0. 0. 0. 0. 0. 0. 0. 1. 1. 31. 0. 1. 0. 0. 0. 0. 0. 22.
      1. 0. 0. 2. 0. 3. 0. 91. 64. 7. 163. 1. 1. 1. 75. 1. 0. 1. 1. 3.
      3. 3. 66. 1. 0. 0. 0. 0. 0. 0. 0. 1. 0. 0. 1. 1. 0. 1. 2. 3. 1. 0.
      2. 0. 0. 0. 1. 0. 0. 0. 0. 0. 0. 0. 1. 1. 0. 0. 0. 0. 0. 0. 0. 4.
      1. 1. 1. 0. 0. 0. 7. 62. 58. 2. 32. 0. 0. 1. 11. 2. 2. 1. 0. 0. 0.
      1. 6. 0. 0. 0. 0. 0. 0. 0. 0. 3. 1. 0. 0. 0. 0. 0. 0. 163. 32. 3.
      47. 1. 0. 1. 6. 2. 0. 1. 0. 1. 0. 20. 8. 26. 4. 0. 7. 0. 0. 0. 1.
      24. 4. 0. 7. 2. 0. 6. 9.</_>
    <_>
      1568. 61. 123. 81. 24. 1. 106. 73. 63. 1. 6. 2. 65. 5. 217. 88.
      32. 1. 2. 0. 0. 0. 1. 1. 46. 0. 3. 3. 35. 0. 61. 9. 70. 2. 1. 1.
      0. 0. 5. 3. 6. 0. 0. 0. 3. 0. 3. 1. 53. 0. 2. 2. 0. 0. 2. 2. 95.
      1. 7. 2. 20. 0. 42. 13. 30. 0. 1. 1. 0. 0. 0. 0. 1. 0. 0. 0. 0. 0.
      0. 0. 0. 0. 0. 0. 0. 0. 0. 0. 1. 0. 0. 0. 1. 0. 1. 0. 86. 1. 4. 5.
      0. 0. 1. 1. 1. 0. 0. 0. 1. 0. 1. 2. 49. 0. 3. 1. 0. 0. 2. 0. 33.
      0. 1. 0. 12. 0. 4. 0. 114. 66. 6. 192. 3. 1. 7. 66. 5. 3. 0. 5. 4.
      4. 7. 68. 3. 1. 0. 2. 0. 0. 0. 0. 3. 0. 0. 1. 2. 1. 1. 4. 5. 3. 0.
      5. 0. 0. 0. 2. 0. 0. 1. 0. 0. 0. 0. 1. 1. 1. 1. 4. 0. 0. 0. 1. 6.
      5. 1. 8. 1. 0. 0. 5. 120. 64. 2. 66. 0. 0. 0. 17. 6. 1. 1. 0. 0.
      1. 5. 11. 2. 0. 0. 0. 0. 0. 0. 0. 4. 0. 0. 1. 1. 0. 1. 1. 267.
      123. 4. 65. 0. 0. 3. 12. 5. 3. 0. 1. 5. 1. 11. 13. 67. 11. 1. 5.
      0. 0. 1. 0. 45. 14. 3. 9. 7. 0. 15. 15.</_>
    <_>
      1073. 20. 94. 96. 43. 0. 68. 55. 125. 1. 4. 2. 83. 1. 142. 42. 29.
      0. 0. 0. 0. 0. 1. 0. 126. 1. 5. 1. 153. 0. 80. 8. 85. 1. 0. 2. 3.
      0. 1. 0. 5. 0. 0. 0. 1. 0. 2. 0. 107. 0. 1. 0. 3. 0. 2. 0. 350. 0.
      5. 7. 186. 0. 54. 5. 22. 0. 3. 1. 0. 0. 0. 0. 2. 0. 0. 0. 0. 0. 0.
      0. 0. 0. 0. 0. 0. 0. 0. 0. 1. 0. 0. 0. 1. 0. 0. 0. 75. 2. 0. 2. 1.
      0. 1. 0. 2. 0. 0. 0. 0. 0. 1. 1. 100. 0. 1. 0. 0. 0. 0. 0. 133. 0.
      0. 2. 12. 0. 1. 0. 92. 96. 5. 275. 1. 2. 0. 83. 3. 1. 1. 6. 1. 2.
      4. 55. 0. 0. 0. 0. 0. 0. 0. 0. 3. 0. 0. 5. 1. 0. 0. 10. 4. 2. 0.
      5. 0. 0. 0. 1. 0. 0. 0. 0. 0. 0. 0. 0. 3. 1. 0. 4. 0. 1. 0. 1. 10.
      5. 0. 9. 1. 0. 0. 12. 71. 82. 1. 131. 2. 0. 0. 15. 1. 1. 0. 1. 0.
      0. 1. 3. 1. 0. 0. 0. 0. 0. 0. 0. 3. 0. 0. 1. 0. 0. 0. 1. 131. 61.
      5. 50. 1. 0. 1. 4. 4. 1. 0. 1. 3. 0. 2. 4. 44. 8. 1. 5. 0. 0. 0.
      0. 61. 14. 1. 9. 5. 0. 6. 9.</_>
    <_>
      621. 21. 53. 57. 16. 0. 43. 25. 57. 0. 2. 1. 49. 1. 107. 35. 34.
      0. 1. 0. 0. 0. 0. 0. 78. 0. 2. 2. 117. 1. 49. 2. 101. 1. 2. 2. 0.
      0. 1. 1. 10. 0. 0. 0. 1. 0. 4. 0. 96. 0. 1. 0. 1. 0. 1. 0. 321. 2.
      5. 2. 208. 0. 59. 7. 32. 0. 2. 1. 0. 0. 0. 0. 0. 0. 0. 0. 1. 0. 0.
      0. 2. 0. 0. 0. 0. 0. 0. 0. 1. 0. 0. 0. 0. 0. 0. 0. 127. 1. 1. 2.
      1. 0. 0. 0. 3. 0. 0. 0. 2. 0. 0. 1. 150. 0. 1. 1. 0. 0. 0. 0. 147.
      0. 1. 1. 31. 0. 8. 0. 99. 132. 4. 207. 0. 0. 0. 36. 4. 1. 0. 2. 2.
      1. 4. 23. 1. 0. 0. 0. 0. 0. 0. 0. 5. 0. 0. 0. 1. 1. 0. 3. 9. 4. 0.
      2. 0. 1. 0. 0. 0. 0. 0. 0. 1. 0. 0. 0. 4. 4. 0. 2. 0. 0. 0. 0. 5.
      2. 0. 6. 0. 1. 0. 8. 107. 223. 4. 186. 0. 0. 2. 12. 3. 3. 0. 0. 0.
      0. 1. 2. 2. 0. 0. 0. 0. 0. 0. 0. 3. 0. 0. 1. 0. 0. 0. 1. 366. 231.
      5. 80. 1. 1. 3. 10. 1. 3. 0. 0. 1. 1. 5. 7. 161. 34. 1. 9. 0. 0.
      0. 3. 66. 6. 1. 13. 14. 2. 6. 15.</_>
    <_>
      260. 18. 20. 28. 21. 2. 27. 27. 16. 0. 1. 1. 31. 0. 81. 43. 14. 0.
      1. 0. 0. 0. 1. 0. 38. 0. 1. 1. 81. 0. 75. 3. 70. 2. 2. 2. 2. 0. 1.
      1. 3. 0. 0. 0. 2. 0. 2. 0. 104. 0. 2. 2. 2. 0. 1. 0. 291. 3. 3. 2.
      159. 0. 38. 3. 50. 1. 0. 0. 0. 0. 0. 0. 2. 0. 0. 0. 1. 0. 1. 0. 0.
      0. 0. 0. 0. 0. 0. 0. 2. 0. 0. 0. 0. 0. 1. 0. 117. 1. 2. 5. 0. 0.
      1. 0. 0. 0. 0. 1. 1. 0. 0. 0. 196. 0. 1. 0. 1. 0. 0. 0. 220. 0. 2.
      1. 20. 0. 8. 0. 58. 92. 5. 130. 2. 0. 2. 43. 3. 3. 0. 7. 1. 0. 5.
      17. 1. 1. 0. 1. 0. 0. 0. 0. 1. 1. 0. 3. 1. 1. 1. 8. 5. 3. 0. 1. 0.
      0. 0. 2. 0. 0. 0. 0. 0. 0. 0. 0. 4. 2. 0. 1. 0. 0. 1. 2. 6. 1. 2.
      6. 1. 1. 2. 9. 106. 345. 0. 218. 0. 2. 1. 18. 0. 1. 0. 2. 1. 1. 1.
      12. 2. 0. 0. 0. 0. 0. 0. 1. 2. 1. 0. 1. 0. 0. 0. 0. 428. 588. 1.
      139. 1. 0. 0. 4. 2. 1. 0. 0. 0. 1. 1. 4. 209. 52. 1. 12. 0. 0. 0.
      1. 110. 28. 0. 11. 3. 2. 4. 11.</_>
    <_>
      148. 23. 10. 30. 31. 0. 37. 41. 20. 2. 1. 2. 57. 4. 159. 71. 22.
      0. 1. 0. 0. 0. 3. 0. 51. 0. 0. 2. 202. 0. 260. 32. 28. 1. 1. 3. 1.
      0. 0. 0. 1. 0. 0. 0. 2. 0. 2. 1. 38. 1. 2. 0. 4. 0. 3. 0. 196. 0.
      4. 3. 331. 1. 106. 11. 27. 1. 1. 2. 4. 0. 1. 0. 0. 0. 0. 0. 0. 0.
      1. 1. 0. 0. 0. 0. 0. 0. 0. 0. 1. 0. 0. 0. 1. 0. 1. 0. 57. 4. 0. 4.
      3. 0. 0. 2. 0. 0. 0. 0. 4. 0. 3. 0. 85. 0. 0. 0. 2. 0. 1. 0. 83.
      2. 2. 1. 30. 0. 7. 1. 24. 70. 2. 180. 1. 0. 3. 73. 4. 5. 0. 3. 1.
      2. 2. 44. 3. 2. 0. 0. 0. 0. 0. 0. 4. 0. 0. 3. 0. 0. 1. 14. 3. 1.
      0. 1. 0. 0. 0. 0. 0. 0. 0. 0. 0. 1. 0. 0. 2. 3. 0. 0. 0. 0. 0. 1.
      4. 2. 0. 5. 1. 0. 3. 14. 75. 363. 3. 383. 2. 0. 1. 30. 1. 1. 0. 2.
      0. 2. 2. 11. 0. 1. 0. 1. 0. 0. 0. 0. 1. 1. 0. 0. 2. 0. 3. 4. 255.
      473. 0. 137. 0. 2. 0. 11. 7. 1. 0. 2. 1. 0. 5. 12. 121. 55. 2. 11.
      0. 1. 0. 4. 61. 19. 1. 12. 11. 0. 14. 18.</_>
    <_>
      316. 14. 49. 82. 17. 1. 109. 93. 36. 1. 5. 4. 86. 2. 336. 148. 24.
      0. 3. 1. 1. 0. 1. 0. 97. 0. 2. 2. 283. 2. 407. 32. 33. 0. 0. 2. 1.
      0. 1. 0. 1. 0. 0. 0. 0. 0. 9. 2. 63. 1. 1. 0. 0. 0. 0. 0. 236. 0.
      4. 0. 384. 2. 114. 9. 21. 0. 0. 0. 0. 0. 0. 0. 1. 0. 0. 0. 0. 0.
      2. 0. 0. 0. 0. 0. 0. 0. 0. 0. 1. 0. 0. 0. 0. 0. 0. 0. 48. 0. 2. 2.
      0. 0. 2. 0. 3. 0. 0. 0. 1. 0. 1. 3. 51. 0. 1. 1. 0. 0. 3. 0. 97.
      0. 0. 2. 32. 0. 11. 2. 34. 76. 4. 216. 0. 0. 0. 107. 2. 3. 0. 5.
      2. 4. 7. 47. 0. 1. 0. 0. 0. 0. 0. 1. 2. 1. 0. 3. 2. 0. 1. 17. 1.
      4. 0. 4. 0. 0. 0. 1. 0. 0. 0. 0. 0. 0. 0. 1. 0. 1. 0. 4. 0. 0. 0.
      0. 4. 5. 2. 3. 2. 0. 1. 5. 46. 139. 2. 222. 1. 0. 2. 23. 4. 1. 0.
      1. 0. 1. 2. 6. 2. 0. 0. 1. 0. 0. 0. 0. 5. 1. 0. 2. 1. 0. 1. 4.
      116. 121. 2. 85. 0. 0. 2. 7. 7. 2. 0. 0. 2. 2. 11. 8. 67. 9. 0.
      11. 0. 0. 0. 0. 45. 8. 0. 8. 15. 0. 7. 9.</_>
    <_>
      264. 23. 45. 56. 32. 3. 72. 134. 29. 0. 8. 4. 83. 3. 213. 159. 26.
      0. 0. 0. 0. 0. 3. 0. 54. 1. 5. 1. 201. 0. 233. 49. 44. 1. 0. 0. 2.
      0. 1. 1. 2. 0. 0. 0. 3. 0. 2. 1. 62. 1. 0. 0. 2. 0. 1. 0. 187. 2.
      2. 3. 214. 0. 76. 8. 36. 0. 2. 2. 1. 0. 2. 2. 0. 0. 0. 0. 0. 0. 2.
      0. 1. 0. 0. 0. 1. 0. 0. 0. 0. 0. 0. 0. 1. 0. 1. 0. 61. 1. 1. 2. 3.
      0. 0. 1. 2. 0. 0. 0. 0. 0. 1. 0. 75. 1. 0. 0. 1. 0. 1. 0. 78. 0.
      0. 0. 21. 2. 6. 0. 28. 60. 2. 162. 0. 1. 1. 111. 3. 6. 0. 3. 2. 3.
      3. 60. 0. 0. 0. 1. 0. 0. 0. 0. 3. 3. 0. 3. 5. 1. 5. 21. 4. 2. 0.
      1. 0. 0. 0. 0. 1. 0. 0. 0. 0. 0. 0. 0. 3. 2. 0. 0. 0. 0. 0. 2. 8.
      1. 0. 1. 2. 2. 4. 11. 76. 235. 3. 318. 0. 0. 0. 27. 5. 3. 0. 3. 1.
      1. 1. 7. 1. 0. 0. 0. 1. 0. 0. 0. 3. 1. 0. 2. 0. 0. 4. 3. 238. 348.
      2. 114. 1. 1. 2. 10. 4. 2. 0. 1. 2. 1. 2. 8. 135. 49. 0. 6. 1. 1.
      0. 3. 51. 20. 2. 7. 8. 0. 4. 15.</_>
    <_>
      293. 14. 37. 83. 56. 2. 110. 115. 49. 2. 6. 8. 99. 0. 174. 116.
      27. 0. 0. 0. 0. 0. 0. 1. 60. 1. 5. 1. 267. 0. 170. 45. 32. 0. 0.
      1. 4. 0. 1. 1. 2. 0. 0. 0. 2. 0. 3. 0. 44. 0. 1. 1. 1. 0. 1. 1.
      176. 2. 4. 2. 366. 0. 116. 12. 31. 1. 6. 3. 0. 0. 1. 2. 1. 0. 0.
      0. 0. 0. 0. 0. 0. 0. 0. 0. 0. 0. 0. 0. 3. 0. 0. 0. 2. 0. 0. 0. 62.
      2. 2. 0. 0. 0. 1. 1. 3. 0. 0. 0. 1. 0. 1. 1. 58. 0. 0. 0. 1. 0. 1.
      0. 42. 0. 0. 0. 9. 0. 9. 1. 30. 49. 6. 330. 1. 3. 0. 205. 4. 5. 0.
      14. 2. 1. 5. 68. 3. 1. 0. 1. 0. 0. 0. 2. 6. 2. 0. 8. 3. 0. 2. 25.
      2. 1. 0. 6. 0. 0. 0. 1. 0. 0. 0. 0. 0. 0. 0. 3. 3. 3. 0. 7. 0. 0.
      0. 0. 7. 1. 1. 11. 1. 2. 2. 21. 62. 161. 0. 280. 0. 0. 2. 15. 2.
      2. 0. 2. 1. 0. 2. 12. 1. 1. 0. 0. 0. 0. 0. 0. 0. 2. 0. 1. 1. 0. 1.
      0. 167. 246. 4. 62. 0. 0. 2. 5. 2. 2. 0. 0. 2. 0. 0. 15. 67. 32.
      1. 11. 1. 0. 1. 3. 29. 13. 2. 21. 11. 2. 11. 21.</_>
    <_>
      217. 22. 32. 50. 28. 0. 53. 52. 42. 0. 4. 1. 71. 1. 131. 49. 22.
      0. 1. 0. 1. 0. 3. 0. 75. 0. 2. 2. 257. 2. 157. 11. 35. 2. 0. 1. 0.
      0. 3. 0. 3. 0. 0. 1. 1. 0. 3. 2. 58. 0. 5. 0. 3. 0. 2. 0. 238. 2.
      5. 1. 330. 0. 92. 12. 30. 0. 0. 4. 0. 0. 1. 1. 0. 0. 0. 0. 0. 0.
      0. 0. 0. 0. 0. 0. 0. 0. 0. 0. 1. 0. 0. 0. 1. 0. 0. 0. 59. 2. 3. 2.
      1. 1. 1. 1. 1. 0. 0. 0. 0. 0. 1. 0. 77. 0. 0. 0. 0. 0. 0. 0. 73.
      0. 0. 0. 28. 0. 9. 0. 42. 72. 0. 250. 2. 2. 1. 96. 1. 0. 1. 6. 0.
      2. 2. 42. 0. 0. 0. 1. 0. 0. 0. 0. 0. 3. 0. 2. 1. 1. 0. 9. 9. 2. 0.
      3. 0. 0. 0. 0. 0. 0. 0. 0. 0. 0. 0. 0. 2. 3. 0. 1. 0. 0. 0. 1. 7.
      2. 0. 3. 1. 2. 1. 13. 91. 332. 5. 390. 0. 0. 0. 29. 1. 0. 0. 2. 1.
      0. 2. 10. 0. 3. 0. 0. 0. 0. 0. 0. 2. 2. 0. 1. 0. 0. 1. 1. 218.
      422. 1. 127. 2. 0. 1. 9. 2. 1. 0. 2. 1. 0. 7. 4. 88. 37. 1. 11. 0.
      0. 0. 1. 54. 22. 0. 15. 6. 1. 3. 11.</_>
    <_>
      241. 20. 33. 44. 46. 0. 76. 133. 57. 3. 4. 1. 86. 2. 231. 108. 22.
      0. 3. 0. 1. 0. 0. 1. 79. 0. 6. 2. 342. 0. 383. 39. 22. 0. 4. 3. 3.
      0. 1. 1. 3. 0. 0. 0. 4. 0. 7. 1. 42. 1. 0. 2. 4. 0. 3. 0. 213. 3.
      3. 4. 388. 0. 137. 14. 35. 0. 1. 3. 2. 0. 0. 0. 0. 0. 0. 0. 0. 0.
      0. 0. 0. 0. 0. 0. 0. 0. 0. 0. 1. 0. 0. 0. 0. 0. 3. 0. 36. 2. 0. 3.
      1. 0. 1. 3. 1. 0. 0. 0. 0. 0. 1. 3. 58. 0. 0. 0. 1. 0. 2. 0. 90.
      0. 1. 0. 26. 0. 20. 2. 18. 37. 1. 175. 0. 0. 1. 133. 2. 2. 0. 6.
      4. 2. 1. 64. 0. 2. 0. 2. 0. 0. 0. 0. 0. 0. 2. 8. 4. 1. 2. 14. 0.
      1. 0. 2. 0. 0. 0. 0. 0. 0. 0. 0. 0. 0. 0. 1. 3. 1. 0. 0. 0. 0. 0.
      1. 5. 4. 0. 6. 2. 1. 2. 9. 41. 176. 0. 312. 3. 1. 1. 24. 2. 4. 0.
      4. 0. 0. 2. 8. 1. 0. 0. 2. 0. 0. 0. 0. 0. 1. 0. 0. 0. 0. 1. 1.
      145. 207. 3. 71. 0. 1. 1. 8. 6. 1. 1. 1. 1. 2. 5. 15. 56. 17. 0.
      11. 0. 1. 0. 0. 41. 18. 2. 7. 6. 0. 10. 26.</_>
    <_>
      242. 11. 32. 45. 43. 0. 57. 77. 31. 1. 2. 2. 76. 2. 140. 86. 13.
      0. 1. 0. 1. 0. 1. 0. 60. 0. 5. 1. 189. 0. 142. 21. 39. 1. 1. 0. 0.
      0. 3. 0. 2. 0. 0. 0. 3. 0. 3. 1. 57. 1. 1. 0. 3. 0. 2. 0. 283. 3.
      6. 4. 418. 0. 88. 11. 33. 5. 1. 2. 1. 0. 1. 0. 3. 0. 0. 0. 1. 0.
      1. 0. 0. 0. 0. 0. 0. 0. 0. 0. 0. 0. 0. 0. 0. 0. 0. 1. 91. 1. 2. 0.
      0. 0. 0. 1. 1. 0. 0. 0. 1. 0. 1. 0. 84. 1. 0. 1. 1. 0. 2. 0. 135.
      1. 1. 0. 37. 0. 10. 2. 27. 42. 2. 213. 1. 2. 0. 122. 3. 2. 1. 3.
      2. 0. 3. 45. 0. 0. 0. 1. 0. 0. 0. 0. 3. 0. 0. 7. 5. 0. 0. 12. 4.
      1. 0. 3. 0. 0. 0. 1. 0. 0. 0. 0. 0. 0. 0. 4. 2. 0. 0. 1. 0. 1. 0.
      1. 11. 7. 0. 14. 4. 1. 3. 19. 81. 230. 0. 400. 2. 1. 1. 19. 1. 3.
      0. 4. 0. 0. 3. 4. 1. 1. 0. 0. 0. 0. 0. 0. 1. 0. 0. 1. 2. 0. 1. 1.
      232. 243. 0. 108. 0. 0. 1. 3. 0. 3. 0. 4. 1. 0. 2. 4. 113. 41. 0.
      13. 1. 0. 0. 2. 66. 32. 1. 22. 11. 4. 4. 14.</_>
    <_>
      275. 23. 34. 46. 20. 0. 53. 50. 53. 0. 4. 0. 93. 1. 220. 60. 23.
      1. 0. 0. 0. 0. 0. 0. 59. 0. 3. 0. 190. 0. 186. 13. 50. 2. 0. 0. 0.
      0. 1. 0. 1. 0. 0. 0. 2. 0. 3. 0. 56. 0. 1. 2. 1. 0. 1. 0. 199. 0.
      1. 1. 237. 0. 94. 5. 33. 0. 2. 0. 0. 0. 1. 0. 1. 0. 0. 0. 0. 0. 0.
      0. 0. 0. 0. 0. 0. 0. 0. 0. 1. 0. 0. 0. 0. 0. 0. 0. 69. 1. 1. 1. 1.
      0. 0. 0. 1. 0. 0. 0. 1. 0. 0. 0. 54. 0. 0. 0. 0. 0. 1. 0. 63. 0.
      1. 0. 18. 0. 8. 0. 50. 103. 2. 175. 0. 0. 0. 51. 6. 0. 0. 7. 1. 3.
      1. 32. 0. 0. 0. 0. 0. 0. 0. 1. 1. 1. 0. 2. 1. 0. 0. 10. 2. 4. 0.
      5. 0. 0. 0. 2. 0. 0. 0. 0. 0. 0. 0. 1. 1. 0. 0. 2. 0. 0. 0. 0. 13.
      5. 0. 6. 3. 1. 0. 3. 105. 450. 2. 390. 0. 0. 1. 13. 0. 1. 0. 2. 0.
      0. 0. 4. 3. 0. 0. 2. 0. 0. 0. 0. 1. 0. 0. 0. 0. 0. 0. 1. 351. 334.
      3. 157. 2. 1. 0. 7. 3. 0. 0. 0. 0. 1. 1. 4. 100. 31. 1. 14. 0. 0.
      0. 1. 39. 21. 1. 7. 4. 2. 4. 7.</_>
    <_>
      294. 17. 44. 55. 24. 0. 81. 52. 58. 0. 6. 3. 85. 0. 209. 93. 18.
      0. 0. 0. 0. 0. 0. 1. 70. 0. 0. 1. 206. 0. 149. 32. 50. 1. 3. 1. 1.
      0. 1. 0. 1. 0. 1. 0. 1. 0. 0. 0. 71. 0. 1. 1. 0. 0. 1. 0. 258. 0.
      2. 3. 280. 0. 75. 8. 39. 1. 1. 1. 1. 0. 3. 0. 0. 0. 0. 0. 1. 0. 1.
      0. 1. 0. 0. 0. 0. 0. 0. 0. 0. 0. 0. 0. 0. 0. 0. 0. 86. 1. 1. 0. 1.
      0. 0. 0. 0. 0. 0. 0. 1. 0. 0. 0. 120. 0. 0. 0. 0. 0. 0. 0. 168. 0.
      0. 0. 12. 0. 3. 0. 53. 70. 2. 287. 0. 1. 3. 89. 4. 6. 0. 4. 1. 1.
      6. 38. 2. 0. 0. 1. 0. 0. 0. 0. 2. 0. 0. 2. 2. 0. 4. 8. 2. 4. 0. 1.
      0. 0. 0. 0. 0. 0. 0. 0. 0. 0. 0. 0. 4. 0. 0. 2. 0. 0. 0. 0. 10. 5.
      1. 1. 1. 1. 0. 7. 80. 212. 2. 369. 1. 0. 1. 22. 1. 2. 0. 3. 0. 1.
      3. 10. 0. 1. 0. 1. 0. 0. 0. 0. 2. 0. 0. 0. 0. 0. 0. 1. 242. 196.
      3. 104. 0. 0. 2. 9. 3. 4. 0. 0. 0. 3. 0. 9. 106. 36. 0. 3. 1. 0.
      2. 2. 71. 21. 0. 10. 5. 0. 7. 12.</_>
    <_>
      366. 15. 46. 63. 63. 0. 71. 57. 43. 1. 0. 3. 67. 2. 183. 63. 25.
      0. 0. 1. 0. 0. 1. 0. 81. 1. 2. 2. 264. 0. 198. 22. 42. 0. 1. 1. 3.
      0. 5. 2. 3. 0. 0. 0. 6. 0. 3. 2. 60. 0. 1. 1. 6. 0. 0. 2. 400. 0.
      3. 5. 534. 2. 127. 23. 62. 2. 1. 4. 3. 0. 3. 1. 1. 0. 0. 0. 0. 0.
      2. 0. 0. 0. 0. 0. 0. 0. 0. 0. 3. 0. 1. 0. 0. 0. 2. 0. 52. 2. 3. 2.
      0. 0. 1. 0. 2. 0. 0. 1. 0. 0. 2. 0. 82. 0. 2. 0. 1. 0. 0. 0. 135.
      0. 4. 1. 41. 0. 12. 0. 30. 48. 3. 297. 1. 1. 1. 128. 3. 1. 0. 9.
      1. 2. 4. 69. 0. 1. 0. 1. 0. 0. 0. 1. 1. 1. 0. 6. 1. 1. 0. 22. 3.
      2. 0. 4. 0. 0. 0. 2. 0. 1. 0. 1. 0. 0. 0. 0. 3. 1. 0. 5. 0. 0. 0.
      0. 8. 11. 0. 19. 4. 1. 3. 30. 51. 81. 0. 296. 0. 0. 2. 18. 0. 0.
      0. 3. 0. 0. 2. 7. 1. 0. 0. 0. 0. 0. 0. 0. 1. 2. 0. 2. 1. 0. 0. 2.
      70. 50. 0. 41. 0. 1. 0. 4. 1. 0. 0. 0. 0. 0. 0. 9. 40. 12. 0. 14.
      0. 0. 1. 2. 48. 20. 1. 49. 6. 1. 4. 14.</_>
    <_>
      259. 14. 25. 38. 58. 1. 60. 60. 22. 0. 2. 1. 53. 0. 55. 20. 15. 0.
      2. 0. 0. 0. 1. 0. 53. 0. 3. 4. 105. 0. 42. 17. 28. 3. 2. 3. 6. 0.
      2. 1. 2. 0. 0. 1. 1. 0. 4. 0. 66. 1. 3. 2. 3. 0. 2. 0. 389. 1. 11.
      2. 283. 0. 59. 18. 92. 1. 3. 2. 3. 0. 0. 0. 0. 0. 0. 1. 0. 0. 0.
      1. 1. 0. 0. 0. 0. 0. 0. 0. 2. 0. 0. 0. 1. 0. 0. 0. 83. 2. 3. 0. 0.
      0. 0. 0. 0. 0. 0. 0. 2. 0. 1. 0. 105. 0. 0. 0. 1. 0. 0. 0. 247. 0.
      4. 2. 46. 0. 9. 0. 35. 55. 1. 293. 1. 3. 2. 113. 0. 2. 0. 8. 4. 3.
      0. 44. 0. 0. 0. 2. 0. 0. 0. 0. 2. 3. 0. 5. 0. 2. 1. 27. 3. 4. 0.
      15. 0. 0. 0. 1. 1. 0. 0. 0. 0. 0. 0. 1. 0. 4. 0. 5. 0. 0. 0. 1.
      16. 13. 1. 26. 4. 1. 2. 37. 106. 262. 1. 473. 0. 3. 2. 33. 3. 1.
      0. 5. 0. 0. 0. 4. 2. 2. 0. 0. 0. 0. 0. 1. 1. 1. 0. 4. 0. 0. 0. 2.
      140. 150. 3. 139. 1. 0. 0. 8. 4. 0. 0. 5. 0. 1. 1. 4. 81. 42. 0.
      35. 0. 0. 0. 0. 81. 32. 1. 53. 14. 3. 5. 23.</_>
    <_>
      679. 26. 59. 47. 30. 1. 53. 46. 109. 1. 9. 2. 134. 0. 169. 35. 31.
      0. 0. 0. 0. 0. 0. 0. 173. 0. 1. 2. 259. 0. 166. 19. 86. 1. 2. 1.
      0. 0. 1. 0. 5. 0. 0. 0. 5. 0. 4. 0. 88. 1. 1. 0. 0. 0. 3. 0. 293.
      1. 6. 2. 303. 1. 109. 8. 28. 0. 1. 0. 0. 0. 0. 0. 0. 0. 0. 0. 1.
      0. 0. 0. 0. 0. 0. 0. 0. 0. 0. 0. 0. 0. 0. 0. 0. 0. 0. 0. 86. 1. 0.
      2. 2. 0. 0. 1. 0. 0. 0. 0. 0. 0. 3. 1. 67. 0. 0. 0. 0. 0. 0. 0.
      79. 0. 2. 1. 14. 0. 14. 1. 103. 91. 2. 112. 0. 1. 1. 34. 1. 1. 0.
      3. 0. 1. 1. 24. 1. 1. 0. 0. 0. 0. 0. 1. 2. 0. 0. 3. 1. 0. 0. 4. 6.
      1. 0. 1. 0. 0. 0. 2. 0. 0. 0. 0. 0. 0. 0. 1. 5. 4. 0. 2. 0. 0. 0.
      0. 3. 2. 0. 9. 0. 1. 1. 8. 112. 201. 3. 124. 0. 0. 1. 6. 1. 0. 0.
      0. 0. 1. 0. 5. 1. 0. 0. 1. 0. 0. 0. 0. 4. 0. 0. 2. 0. 0. 1. 1.
      254. 187. 2. 79. 0. 0. 0. 2. 3. 0. 0. 0. 0. 1. 3. 4. 79. 20. 0. 4.
      0. 0. 1. 1. 43. 7. 0. 6. 5. 0. 7. 6.</_>
    <_>
      375. 13. 29. 37. 37. 0. 26. 54. 50. 0. 2. 0. 57. 0. 59. 28. 21. 0.
      3. 0. 2. 0. 1. 0. 89. 0. 3. 2. 256. 1. 107. 10. 65. 1. 2. 3. 2. 0.
      0. 0. 6. 0. 0. 0. 1. 0. 1. 1. 88. 1. 2. 1. 0. 0. 1. 0. 370. 0. 5.
      3. 441. 0. 103. 6. 49. 1. 0. 0. 0. 0. 0. 0. 5. 0. 0. 0. 1. 0. 0.
      1. 1. 0. 0. 0. 0. 0. 0. 0. 3. 0. 0. 0. 0. 0. 1. 0. 80. 0. 1. 0. 3.
      0. 1. 0. 4. 0. 0. 0. 1. 0. 0. 0. 104. 0. 1. 0. 0. 0. 0. 0. 181. 0.
      0. 0. 32. 0. 7. 0. 53. 84. 1. 192. 1. 0. 2. 53. 8. 3. 0. 6. 0. 4.
      1. 37. 2. 0. 0. 0. 0. 0. 0. 0. 4. 2. 0. 1. 4. 1. 1. 16. 5. 9. 0.
      5. 0. 0. 0. 0. 0. 0. 0. 0. 1. 0. 0. 0. 5. 4. 1. 1. 0. 0. 0. 0. 10.
      6. 1. 7. 2. 2. 1. 13. 89. 217. 2. 345. 1. 0. 1. 12. 1. 2. 0. 2. 0.
      1. 0. 4. 0. 1. 0. 2. 0. 0. 0. 0. 2. 1. 0. 0. 1. 0. 0. 0. 202. 195.
      4. 105. 0. 1. 0. 7. 3. 3. 0. 1. 2. 0. 6. 7. 89. 25. 1. 19. 0. 0.
      0. 3. 71. 17. 0. 17. 11. 2. 11. 11.</_>
    <_>
      781. 23. 67. 81. 44. 0. 45. 71. 68. 1. 2. 6. 41. 1. 78. 38. 24. 0.
      1. 0. 1. 0. 1. 0. 101. 0. 3. 3. 70. 0. 46. 15. 78. 1. 1. 3. 4. 0.
      3. 2. 6. 1. 0. 0. 1. 0. 2. 0. 117. 3. 2. 0. 3. 0. 4. 1. 502. 1.
      13. 5. 233. 3. 60. 15. 62. 3. 5. 3. 1. 0. 1. 0. 0. 0. 0. 0. 1. 0.
      0. 0. 0. 0. 0. 0. 0. 0. 0. 0. 1. 0. 0. 0. 2. 0. 1. 0. 83. 0. 1. 4.
      1. 0. 1. 0. 3. 0. 0. 0. 2. 0. 0. 0. 87. 1. 2. 0. 0. 0. 0. 0. 224.
      0. 2. 1. 18. 0. 4. 1. 71. 77. 3. 398. 0. 3. 1. 134. 3. 3. 1. 5. 2.
      2. 4. 54. 4. 2. 0. 0. 0. 0. 0. 0. 3. 1. 0. 3. 1. 1. 0. 10. 6. 2.
      2. 10. 0. 0. 0. 0. 0. 0. 0. 0. 0. 0. 0. 1. 4. 2. 2. 3. 0. 0. 1. 1.
      8. 6. 1. 14. 1. 1. 0. 26. 59. 84. 1. 240. 2. 1. 0. 22. 1. 1. 0. 2.
      0. 2. 1. 6. 0. 1. 0. 2. 0. 0. 0. 0. 3. 1. 0. 1. 0. 0. 0. 2. 70.
      38. 1. 56. 0. 0. 1. 3. 5. 2. 0. 0. 0. 2. 1. 2. 23. 22. 0. 15. 0.
      0. 0. 0. 68. 21. 0. 28. 9. 0. 2. 19.</_>
    <_>
      274. 21. 44. 79. 110. 1. 114. 123. 25. 1. 7. 5. 90. 2. 143. 72.
      12. 1. 2. 6. 1. 0. 2. 1. 46. 0. 1. 3. 161. 1. 122. 37. 24. 1. 0.
      4. 2. 0. 2. 2. 1. 0. 0. 0. 2. 0. 1. 4. 38. 1. 2. 1. 9. 0. 2. 0.
      242. 4. 10. 7. 364. 2. 96. 29. 90. 4. 2. 8. 4. 0. 3. 2. 2. 0. 0.
      0. 1. 0. 2. 0. 0. 0. 0. 0. 0. 0. 0. 0. 4. 0. 1. 0. 1. 0. 1. 1. 47.
      2. 2. 1. 3. 0. 2. 0. 2. 0. 0. 0. 1. 0. 1. 1. 21. 0. 0. 1. 3. 0. 1.
      0. 122. 1. 2. 4. 62. 0. 9. 2. 24. 51. 4. 363. 5. 5. 0. 268. 5. 2.
      0. 13. 1. 2. 1. 97. 0. 1. 1. 7. 0. 0. 0. 4. 6. 2. 0. 10. 3. 3. 1.
      42. 1. 3. 0. 11. 0. 0. 0. 4. 1. 0. 0. 2. 0. 0. 0. 1. 0. 2. 0. 6.
      0. 0. 0. 2. 9. 12. 0. 24. 7. 1. 6. 49. 60. 125. 3. 371. 1. 2. 1.
      58. 0. 4. 0. 9. 1. 0. 3. 12. 1. 0. 0. 2. 0. 0. 1. 0. 2. 3. 0. 2.
      0. 0. 3. 4. 21. 36. 0. 80. 0. 0. 1. 3. 3. 0. 0. 0. 2. 1. 0. 10.
      14. 21. 0. 19. 0. 1. 1. 2. 43. 29. 1. 36. 10. 5. 8. 38.</_>
    <_>
      511. 22. 65. 65. 28. 0. 70. 73. 123. 1. 5. 2. 175. 1. 325. 70. 20.
      1. 3. 1. 0. 0. 1. 0. 120. 0. 3. 1. 391. 0. 330. 21. 58. 1. 0. 3.
      0. 0. 0. 1. 8. 0. 0. 0. 3. 0. 3. 0. 68. 0. 1. 1. 0. 0. 3. 0. 161.
      0. 2. 0. 245. 0. 138. 12. 8. 0. 1. 1. 0. 0. 1. 0. 1. 0. 0. 0. 0.
      0. 0. 0. 0. 0. 0. 0. 0. 0. 0. 0. 0. 0. 0. 0. 0. 0. 0. 0. 59. 1. 0.
      2. 0. 0. 0. 0. 0. 0. 0. 0. 2. 0. 2. 0. 83. 0. 0. 0. 0. 0. 1. 0.
      82. 0. 1. 1. 11. 0. 6. 1. 56. 66. 2. 281. 1. 1. 1. 99. 4. 1. 0. 1.
      1. 0. 4. 35. 0. 0. 0. 0. 0. 0. 0. 0. 0. 0. 0. 2. 1. 0. 2. 4. 2. 0.
      0. 3. 0. 0. 0. 0. 0. 0. 1. 0. 0. 0. 1. 1. 1. 1. 0. 0. 0. 0. 0. 0.
      3. 1. 0. 1. 0. 0. 1. 6. 64. 157. 1. 271. 0. 0. 1. 23. 1. 0. 0. 1.
      0. 1. 2. 5. 0. 0. 0. 0. 0. 0. 0. 1. 2. 0. 0. 1. 0. 0. 1. 0. 73.
      123. 1. 52. 0. 0. 1. 4. 0. 1. 0. 0. 2. 0. 9. 3. 22. 4. 1. 5. 0. 0.
      0. 0. 44. 5. 0. 8. 1. 0. 4. 9.</_>
    <_>
      620. 17. 107. 121. 59. 0. 75. 92. 91. 1. 6. 2. 84. 2. 193. 85. 17.
      1. 1. 0. 1. 0. 1. 0. 92. 0. 1. 2. 175. 0. 81. 11. 34. 0. 4. 2. 2.
      0. 1. 1. 5. 0. 0. 1. 3. 0. 4. 0. 31. 0. 2. 0. 2. 0. 5. 0. 295. 2.
      4. 2. 616. 0. 91. 12. 16. 0. 3. 3. 0. 0. 0. 2. 1. 0. 0. 0. 0. 0.
      2. 0. 0. 0. 0. 1. 0. 0. 0. 0. 1. 0. 0. 0. 0. 0. 0. 0. 28. 0. 5. 3.
      0. 0. 2. 1. 1. 0. 0. 0. 2. 0. 1. 0. 30. 0. 0. 0. 0. 0. 0. 0. 89.
      1. 0. 2. 24. 0. 6. 1. 45. 62. 4. 465. 0. 3. 2. 162. 2. 1. 1. 8. 3.
      2. 4. 54. 0. 0. 0. 1. 0. 0. 0. 1. 1. 3. 0. 4. 2. 1. 3. 9. 1. 2. 0.
      2. 0. 0. 0. 1. 0. 0. 0. 0. 0. 0. 0. 0. 0. 2. 0. 1. 0. 0. 0. 0. 7.
      3. 2. 17. 2. 2. 2. 20. 42. 111. 2. 245. 0. 0. 2. 27. 0. 3. 0. 5.
      0. 1. 1. 8. 1. 0. 0. 1. 0. 0. 0. 0. 0. 1. 1. 2. 0. 0. 1. 0. 43.
      45. 2. 57. 1. 0. 2. 6. 1. 0. 0. 0. 2. 0. 0. 2. 10. 8. 0. 5. 0. 1.
      0. 1. 20. 5. 1. 11. 7. 0. 1. 14.</_>
    <_>
      841. 16. 62. 80. 43. 0. 79. 53. 107. 2. 5. 3. 94. 1. 121. 35. 20.
      1. 0. 0. 1. 0. 1. 0. 111. 0. 1. 3. 120. 0. 68. 6. 61. 1. 0. 3. 1.
      0. 0. 1. 2. 0. 0. 0. 2. 0. 1. 0. 90. 0. 3. 1. 2. 0. 1. 1. 478. 0.
      10. 8. 240. 0. 59. 10. 39. 3. 1. 2. 0. 0. 0. 0. 1. 0. 0. 0. 1. 0.
      0. 0. 1. 0. 0. 0. 0. 0. 0. 0. 2. 0. 0. 1. 0. 0. 0. 0. 61. 0. 1. 2.
      2. 0. 0. 1. 4. 0. 0. 0. 5. 0. 0. 0. 71. 0. 2. 1. 1. 0. 0. 0. 153.
      0. 1. 3. 22. 0. 9. 1. 53. 82. 3. 510. 1. 1. 1. 188. 1. 2. 0. 13.
      1. 2. 0. 48. 1. 1. 0. 0. 0. 0. 0. 0. 4. 0. 0. 3. 1. 2. 1. 17. 3.
      1. 0. 10. 0. 0. 0. 1. 1. 0. 0. 0. 0. 0. 0. 1. 2. 3. 0. 4. 0. 0. 0.
      2. 3. 5. 0. 19. 1. 2. 0. 25. 34. 58. 1. 196. 1. 0. 1. 28. 2. 1. 0.
      0. 0. 0. 1. 1. 1. 0. 0. 0. 0. 0. 0. 0. 2. 0. 1. 4. 0. 0. 1. 0. 65.
      26. 1. 36. 0. 0. 1. 11. 3. 0. 1. 1. 2. 1. 1. 2. 15. 5. 0. 11. 0.
      0. 2. 1. 53. 6. 1. 19. 9. 2. 3. 18.</_>
    <_>
      346. 13. 33. 57. 68. 2. 62. 56. 35. 1. 4. 4. 69. 1. 83. 41. 19. 0.
      1. 1. 1. 0. 3. 0. 73. 1. 1. 4. 192. 0. 110. 27. 50. 1. 3. 4. 1. 0.
      0. 2. 2. 0. 1. 0. 1. 0. 2. 0. 78. 1. 4. 1. 2. 0. 2. 2. 338. 3. 7.
      3. 456. 0. 85. 22. 72. 1. 4. 5. 3. 0. 3. 1. 1. 0. 0. 0. 2. 0. 0.
      1. 1. 0. 0. 0. 0. 0. 0. 0. 2. 2. 0. 0. 2. 0. 0. 0. 83. 3. 1. 5. 3.
      0. 3. 1. 1. 0. 0. 0. 0. 0. 2. 0. 75. 1. 3. 0. 1. 0. 0. 0. 154. 1.
      1. 1. 38. 0. 5. 1. 30. 53. 3. 319. 3. 1. 0. 126. 2. 3. 0. 14. 2.
      3. 2. 46. 0. 0. 0. 2. 0. 0. 0. 0. 4. 1. 0. 17. 3. 0. 0. 26. 3. 3.
      0. 12. 1. 1. 0. 3. 0. 0. 0. 0. 0. 0. 1. 1. 4. 5. 0. 5. 0. 0. 0. 3.
      22. 14. 0. 29. 6. 6. 1. 47. 63. 124. 3. 358. 0. 1. 1. 36. 6. 4. 0.
      7. 1. 0. 2. 12. 2. 1. 0. 1. 0. 0. 0. 0. 1. 2. 0. 4. 1. 0. 1. 7.
      99. 67. 1. 62. 0. 0. 0. 5. 3. 1. 1. 3. 2. 0. 1. 3. 48. 22. 0. 22.
      0. 0. 0. 1. 62. 36. 2. 73. 10. 5. 5. 27.</_>
    <_>
      759. 17. 60. 86. 65. 0. 77. 60. 86. 3. 7. 1. 135. 1. 136. 53. 15.
      0. 2. 0. 1. 0. 2. 0. 100. 0. 7. 2. 147. 1. 86. 20. 42. 0. 2. 3. 5.
      0. 3. 2. 4. 0. 0. 1. 2. 0. 2. 0. 55. 0. 4. 1. 2. 0. 2. 0. 445. 3.
      13. 7. 402. 2. 115. 21. 45. 0. 4. 2. 2. 0. 0. 0. 1. 0. 0. 0. 1. 0.
      0. 0. 0. 0. 0. 0. 0. 0. 0. 0. 2. 0. 0. 0. 0. 0. 0. 0. 37. 0. 2. 2.
      0. 0. 0. 1. 3. 0. 0. 0. 2. 0. 2. 1. 34. 0. 0. 0. 0. 0. 0. 0. 130.
      0. 0. 1. 28. 0. 4. 2. 37. 70. 5. 334. 2. 0. 0. 180. 1. 4. 0. 10.
      1. 3. 0. 47. 0. 0. 0. 2. 0. 0. 0. 0. 6. 1. 0. 8. 2. 1. 0. 31. 1.
      4. 0. 8. 0. 0. 0. 1. 0. 0. 0. 0. 0. 0. 0. 0. 1. 1. 0. 5. 0. 0. 0.
      1. 6. 7. 0. 17. 1. 1. 0. 35. 43. 47. 1. 274. 0. 0. 1. 32. 3. 0. 0.
      1. 0. 1. 1. 2. 1. 0. 0. 0. 0. 0. 0. 0. 1. 0. 0. 2. 4. 0. 1. 3. 53.
      9. 0. 44. 0. 0. 3. 1. 0. 0. 0. 2. 0. 0. 1. 9. 16. 4. 0. 15. 0. 0.
      2. 0. 37. 10. 0. 22. 10. 0. 6. 19.</_>
    <_>
      2397. 12. 44. 31. 19. 0. 25. 13. 268. 1. 5. 1. 127. 0. 218. 4. 17.
      0. 1. 0. 0. 0. 0. 0. 142. 0. 0. 0. 120. 0. 79. 8. 58. 0. 0. 0. 0.
      0. 0. 0. 3. 0. 0. 1. 1. 0. 2. 0. 44. 0. 0. 0. 1. 0. 4. 0. 316. 0.
      5. 2. 101. 0. 58. 3. 16. 1. 0. 1. 0. 0. 0. 0. 0. 0. 0. 0. 0. 0. 0.
      0. 0. 0. 0. 0. 0. 0. 0. 0. 0. 0. 0. 0. 0. 0. 0. 0. 26. 1. 0. 3. 0.
      0. 0. 0. 1. 0. 0. 1. 0. 0. 1. 0. 15. 0. 0. 0. 0. 0. 1. 0. 18. 0.
      0. 1. 4. 0. 2. 0. 55. 31. 0. 164. 0. 0. 0. 12. 2. 3. 0. 8. 0. 0.
      3. 24. 1. 0. 0. 0. 0. 0. 0. 0. 3. 0. 0. 0. 1. 0. 0. 11. 1. 0. 0.
      0. 0. 0. 0. 0. 0. 0. 0. 0. 0. 0. 1. 0. 0. 0. 0. 0. 0. 0. 0. 0. 6.
      0. 0. 2. 1. 1. 0. 7. 35. 22. 0. 19. 0. 0. 0. 0. 1. 1. 0. 0. 0. 0.
      0. 4. 1. 0. 0. 0. 0. 0. 0. 0. 1. 0. 0. 0. 0. 0. 0. 0. 120. 17. 1.
      13. 1. 0. 0. 3. 9. 0. 3. 0. 0. 0. 10. 3. 8. 2. 0. 0. 0. 0. 0. 0.
      20. 9. 0. 5. 13. 1. 4. 2.</_>
    <_>
      1854. 26. 190. 134. 21. 0. 147. 100. 61. 1. 5. 1. 59. 0. 326. 117.
      13. 1. 0. 0. 1. 0. 1. 0. 64. 0. 6. 1. 13. 0. 27. 4. 62. 1. 3. 1.
      0. 0. 0. 0. 0. 0. 0. 0. 0. 0. 1. 1. 63. 0. 2. 0. 0. 0. 7. 0. 123.
      0. 5. 3. 20. 0. 38. 14. 21. 0. 0. 0. 0. 1. 0. 0. 0. 0. 0. 0. 0. 0.
      0. 0. 0. 0. 0. 0. 0. 0. 0. 0. 1. 0. 0. 0. 0. 0. 0. 0. 63. 1. 0. 9.
      0. 0. 0. 0. 4. 0. 0. 0. 0. 0. 1. 0. 48. 0. 0. 0. 0. 0. 0. 0. 23.
      0. 0. 1. 2. 0. 5. 0. 97. 69. 7. 242. 2. 0. 2. 92. 4. 0. 0. 3. 4.
      7. 4. 70. 1. 0. 0. 0. 0. 0. 0. 0. 0. 0. 0. 3. 0. 1. 0. 3. 3. 0. 1.
      2. 0. 0. 0. 0. 0. 0. 0. 0. 0. 1. 1. 0. 0. 1. 0. 1. 0. 0. 0. 1. 8.
      3. 0. 7. 0. 0. 0. 12. 59. 47. 2. 38. 0. 0. 1. 10. 5. 0. 0. 1. 1.
      0. 1. 8. 2. 0. 0. 0. 0. 0. 0. 1. 4. 1. 0. 2. 0. 0. 1. 0. 151. 17.
      6. 32. 0. 0. 3. 11. 5. 0. 0. 0. 1. 0. 7. 9. 32. 6. 0. 3. 0. 0. 0.
      1. 41. 5. 2. 6. 7. 1. 4. 5.</_>
    <_>
      1809. 55. 190. 118. 22. 0. 125. 85. 79. 1. 4. 1. 43. 0. 250. 83.
      15. 0. 0. 0. 0. 0. 0. 1. 55. 0. 3. 1. 37. 0. 28. 9. 86. 1. 8. 0.
      0. 0. 1. 2. 5. 0. 0. 0. 1. 0. 3. 0. 44. 0. 3. 0. 0. 0. 4. 0. 97.
      0. 4. 2. 29. 0. 39. 5. 27. 0. 0. 1. 0. 0. 0. 0. 3. 0. 0. 0. 0. 0.
      0. 0. 1. 0. 0. 0. 0. 0. 0. 0. 0. 0. 0. 0. 0. 0. 0. 0. 46. 1. 2. 4.
      0. 0. 2. 2. 1. 0. 0. 0. 0. 0. 0. 1. 44. 0. 1. 0. 0. 0. 1. 0. 32.
      0. 0. 0. 5. 0. 3. 0. 124. 88. 10. 272. 2. 1. 3. 81. 4. 4. 0. 5. 3.
      3. 9. 74. 1. 0. 0. 1. 0. 0. 0. 0. 3. 0. 0. 0. 0. 0. 1. 7. 3. 4. 0.
      6. 0. 0. 0. 0. 0. 0. 0. 0. 0. 0. 0. 2. 1. 2. 0. 1. 0. 0. 0. 0. 2.
      2. 0. 5. 1. 0. 2. 5. 71. 79. 0. 55. 0. 0. 1. 16. 0. 2. 1. 0. 0. 2.
      2. 11. 0. 1. 0. 0. 0. 0. 0. 1. 4. 0. 0. 0. 1. 0. 0. 1. 160. 45. 6.
      61. 0. 0. 0. 8. 2. 0. 2. 0. 0. 0. 0. 3. 36. 4. 0. 12. 0. 0. 0. 1.
      22. 5. 1. 7. 4. 1. 1. 2.</_>
    <_>
      1711. 22. 82. 84. 17. 0. 64. 59. 76. 2. 10. 0. 67. 0. 311. 59. 18.
      0. 0. 1. 0. 0. 0. 0. 57. 0. 1. 0. 57. 0. 46. 15. 74. 1. 2. 0. 1.
      0. 0. 0. 3. 0. 0. 0. 4. 0. 8. 0. 57. 0. 0. 1. 1. 0. 4. 0. 169. 0.
      5. 2. 35. 0. 51. 4. 17. 0. 0. 1. 0. 0. 0. 1. 0. 0. 0. 0. 1. 0. 0.
      0. 0. 0. 0. 0. 0. 0. 0. 0. 0. 0. 0. 0. 0. 0. 0. 1. 72. 0. 1. 4. 0.
      0. 0. 0. 2. 0. 0. 0. 2. 0. 3. 0. 70. 0. 1. 0. 0. 0. 0. 0. 29. 0.
      0. 0. 6. 0. 11. 0. 129. 89. 3. 207. 0. 1. 1. 56. 2. 0. 0. 2. 2. 6.
      7. 45. 0. 0. 0. 0. 0. 0. 0. 0. 0. 0. 0. 1. 0. 0. 0. 4. 6. 2. 0. 6.
      0. 0. 0. 1. 1. 0. 0. 0. 0. 0. 1. 1. 1. 1. 0. 1. 0. 0. 0. 0. 4. 3.
      0. 4. 0. 1. 0. 2. 110. 77. 1. 52. 0. 0. 1. 3. 2. 0. 0. 0. 0. 0. 1.
      7. 1. 0. 0. 0. 0. 0. 0. 0. 4. 0. 0. 0. 1. 0. 1. 0. 309. 71. 7. 61.
      0. 0. 3. 7. 2. 0. 0. 1. 0. 0. 16. 11. 67. 8. 0. 8. 0. 0. 1. 0. 37.
      2. 0. 5. 4. 0. 9. 5.</_>
    <_>
      1988. 1. 31. 20. 34. 0. 23. 6. 400. 1. 6. 5. 217. 0. 280. 13. 39.
      0. 1. 0. 0. 0. 1. 0. 290. 0. 1. 1. 172. 0. 161. 5. 42. 0. 1. 0. 0.
      0. 2. 0. 11. 0. 0. 0. 9. 0. 1. 1. 43. 0. 1. 1. 1. 0. 4. 0. 370. 0.
      4. 2. 215. 0. 114. 5. 4. 0. 0. 0. 0. 0. 0. 0. 0. 0. 0. 0. 0. 0. 0.
      0. 0. 0. 0. 0. 0. 0. 0. 0. 0. 0. 0. 0. 1. 0. 0. 0. 41. 0. 1. 4. 0.
      0. 1. 0. 9. 0. 0. 0. 3. 0. 1. 0. 8. 0. 0. 0. 0. 0. 0. 0. 15. 0. 1.
      1. 10. 0. 12. 1. 8. 6. 0. 31. 0. 0. 0. 4. 1. 1. 0. 3. 1. 6. 1. 20.
      0. 0. 0. 0. 0. 0. 0. 0. 0. 0. 0. 2. 1. 1. 1. 6. 0. 0. 0. 0. 0. 0.
      0. 0. 0. 0. 0. 0. 0. 0. 0. 2. 0. 0. 0. 1. 0. 0. 0. 0. 1. 0. 0. 6.
      0. 0. 0. 7. 6. 2. 0. 2. 0. 0. 0. 0. 2. 0. 0. 0. 0. 0. 0. 1. 0. 0.
      0. 0. 0. 0. 0. 0. 6. 0. 0. 0. 0. 0. 0. 0. 32. 2. 0. 6. 0. 0. 0. 0.
      10. 0. 0. 0. 1. 0. 2. 1. 10. 0. 0. 0. 0. 0. 0. 0. 29. 1. 1. 3. 17.
      0. 6. 2.</_>
    <_>
      1516. 42. 206. 133. 24. 0. 172. 135. 73. 2. 4. 2. 66. 2. 308. 175.
      14. 0. 1. 0. 0. 0. 0. 1. 49. 1. 2. 0. 29. 0. 51. 13. 67. 0. 2. 3.
      2. 0. 0. 0. 2. 0. 0. 0. 2. 0. 1. 0. 57. 0. 2. 1. 0. 0. 5. 2. 105.
      0. 4. 0. 20. 0. 32. 6. 28. 0. 2. 0. 0. 0. 0. 0. 1. 0. 0. 0. 0. 0.
      0. 1. 0. 0. 0. 0. 0. 0. 0. 0. 1. 0. 0. 0. 1. 0. 0. 0. 59. 0. 1. 7.
      0. 0. 1. 0. 1. 0. 0. 1. 2. 0. 3. 3. 46. 0. 2. 0. 0. 0. 1. 0. 36.
      0. 0. 0. 5. 0. 3. 0. 99. 75. 8. 305. 2. 1. 4. 92. 3. 2. 1. 6. 3.
      2. 7. 92. 2. 0. 0. 0. 0. 0. 0. 0. 2. 0. 0. 3. 0. 0. 0. 9. 4. 4. 0.
      1. 0. 0. 0. 2. 0. 0. 0. 0. 0. 0. 1. 2. 1. 1. 0. 2. 0. 0. 0. 0. 6.
      2. 0. 6. 0. 0. 0. 9. 57. 42. 2. 62. 0. 1. 3. 13. 2. 2. 0. 0. 0. 0.
      2. 11. 1. 0. 0. 0. 0. 0. 0. 0. 0. 0. 0. 1. 0. 0. 2. 1. 147. 33. 4.
      27. 0. 0. 2. 7. 0. 0. 0. 0. 2. 0. 9. 11. 47. 10. 0. 9. 0. 0. 2. 1.
      38. 6. 3. 5. 4. 1. 11. 9.</_>
    <_>
      1317. 32. 120. 81. 22. 0. 111. 119. 127. 4. 4. 1. 126. 2. 489.
      146. 41. 0. 4. 0. 0. 0. 2. 0. 65. 1. 1. 0. 111. 2. 210. 9. 82. 1.
      3. 1. 0. 0. 4. 4. 9. 0. 0. 0. 2. 0. 6. 2. 29. 0. 3. 0. 1. 0. 2. 0.
      85. 1. 4. 0. 45. 0. 62. 6. 12. 0. 0. 0. 0. 0. 0. 0. 0. 0. 0. 0. 1.
      0. 1. 0. 0. 0. 0. 0. 0. 0. 0. 0. 2. 0. 0. 0. 0. 0. 0. 0. 61. 0. 5.
      3. 0. 0. 1. 1. 1. 0. 0. 0. 2. 0. 6. 0. 38. 0. 1. 0. 0. 0. 0. 0.
      17. 0. 0. 0. 9. 1. 4. 0. 76. 55. 4. 137. 1. 0. 3. 63. 1. 0. 0. 3.
      7. 2. 6. 66. 1. 0. 0. 0. 0. 0. 0. 0. 0. 0. 0. 2. 2. 0. 1. 9. 3. 1.
      1. 0. 0. 0. 0. 0. 0. 0. 0. 0. 0. 0. 0. 1. 0. 0. 0. 0. 0. 0. 0. 0.
      1. 0. 0. 0. 0. 0. 3. 5. 57. 46. 3. 35. 0. 0. 1. 8. 6. 0. 0. 1. 0.
      0. 8. 5. 5. 0. 0. 1. 0. 0. 0. 0. 2. 0. 0. 0. 0. 0. 0. 2. 275. 71.
      6. 39. 0. 1. 4. 7. 8. 0. 0. 3. 1. 0. 34. 16. 43. 8. 0. 5. 0. 0. 0.
      1. 30. 2. 0. 3. 13. 1. 10. 8.</_>
    <_>
      1566. 5. 25. 33. 34. 0. 26. 8. 491. 0. 5. 7. 220. 4. 197. 26. 42.
      1. 0. 0. 0. 0. 1. 0. 316. 0. 1. 2. 250. 0. 183. 7. 58. 0. 4. 2. 0.
      0. 1. 0. 13. 0. 0. 2. 3. 0. 4. 0. 60. 0. 4. 0. 0. 0. 5. 0. 392. 0.
      3. 2. 237. 0. 108. 7. 8. 0. 0. 0. 0. 0. 1. 0. 1. 0. 0. 0. 0. 0. 0.
      0. 0. 0. 0. 0. 0. 0. 0. 0. 2. 0. 0. 0. 0. 0. 1. 0. 39. 0. 0. 3. 0.
      0. 0. 0. 11. 0. 0. 3. 0. 0. 0. 1. 48. 0. 0. 0. 0. 0. 0. 0. 52. 0.
      1. 2. 16. 0. 5. 0. 10. 5. 2. 34. 0. 0. 0. 18. 1. 2. 0. 3. 0. 4. 1.
      23. 0. 1. 0. 0. 0. 0. 0. 0. 0. 0. 0. 1. 1. 0. 0. 16. 3. 1. 0. 2.
      0. 0. 0. 0. 0. 0. 0. 0. 0. 0. 0. 0. 0. 1. 0. 0. 0. 0. 0. 0. 0. 0.
      0. 11. 0. 0. 0. 15. 6. 1. 0. 11. 0. 0. 0. 3. 0. 0. 0. 0. 0. 0. 1.
      0. 0. 0. 0. 0. 0. 0. 0. 0. 4. 0. 0. 0. 1. 0. 0. 0. 28. 9. 0. 1. 0.
      0. 0. 1. 7. 0. 0. 2. 0. 0. 2. 6. 21. 3. 0. 3. 0. 0. 0. 0. 34. 0.
      0. 7. 24. 0. 6. 3.</_>
    <_>
      1773. 25. 129. 98. 29. 0. 98. 79. 96. 1. 5. 0. 62. 1. 303. 67. 22.
      0. 0. 0. 1. 0. 3. 1. 78. 0. 2. 2. 38. 0. 28. 5. 68. 0. 1. 2. 1. 0.
      0. 0. 2. 1. 0. 0. 0. 0. 2. 0. 56. 0. 2. 0. 1. 0. 4. 1. 141. 1. 5.
      5. 44. 0. 50. 4. 19. 0. 1. 0. 0. 0. 0. 1. 0. 0. 0. 0. 0. 0. 0. 0.
      0. 0. 0. 0. 0. 0. 0. 0. 2. 0. 0. 0. 0. 0. 0. 0. 55. 1. 2. 6. 0. 0.
      0. 2. 0. 0. 0. 0. 0. 0. 4. 0. 45. 2. 0. 0. 0. 0. 0. 0. 66. 0. 0.
      1. 6. 0. 2. 1. 103. 85. 6. 250. 1. 0. 0. 52. 1. 0. 0. 3. 1. 5. 6.
      74. 0. 0. 0. 0. 0. 0. 0. 0. 1. 0. 0. 1. 0. 1. 0. 1. 3. 1. 0. 2. 0.
      0. 0. 2. 0. 0. 0. 0. 1. 0. 0. 0. 2. 1. 0. 2. 0. 0. 0. 0. 5. 5. 1.
      9. 2. 1. 0. 8. 67. 50. 1. 47. 0. 0. 0. 8. 4. 0. 1. 0. 0. 0. 6. 1.
      0. 0. 0. 1. 0. 0. 0. 0. 3. 1. 0. 1. 1. 0. 0. 0. 224. 60. 7. 41. 0.
      0. 4. 9. 4. 1. 1. 0. 1. 1. 4. 10. 47. 7. 1. 2. 0. 0. 0. 1. 46. 4.
      1. 8. 5. 0. 6. 12.</_>
    <_>
      1688. 40. 183. 90. 35. 0. 137. 139. 117. 0. 12. 2. 96. 2. 372.
      114. 16. 0. 0. 0. 1. 0. 2. 0. 63. 0. 2. 2. 73. 0. 77. 17. 56. 0.
      5. 1. 2. 0. 3. 1. 3. 0. 0. 0. 1. 0. 7. 0. 48. 0. 1. 0. 1. 0. 7. 1.
      67. 0. 3. 0. 19. 0. 34. 11. 13. 1. 0. 3. 0. 0. 1. 1. 2. 0. 0. 0.
      0. 0. 0. 1. 0. 0. 0. 0. 0. 0. 0. 0. 0. 0. 0. 0. 1. 0. 0. 0. 44. 1.
      4. 4. 0. 0. 1. 2. 2. 0. 0. 0. 2. 0. 1. 1. 49. 0. 0. 0. 1. 0. 2. 0.
      20. 1. 1. 1. 4. 0. 6. 0. 83. 64. 7. 164. 3. 1. 3. 48. 9. 2. 0. 5.
      4. 3. 3. 72. 1. 0. 0. 1. 0. 0. 0. 0. 1. 0. 0. 1. 1. 0. 2. 12. 3.
      0. 0. 4. 0. 0. 0. 0. 0. 0. 0. 1. 0. 0. 0. 2. 2. 0. 0. 1. 0. 0. 0.
      1. 3. 1. 1. 3. 0. 0. 0. 4. 60. 46. 2. 35. 0. 0. 0. 11. 4. 2. 0. 0.
      0. 0. 0. 9. 2. 0. 0. 0. 0. 0. 0. 0. 2. 1. 0. 0. 1. 0. 0. 0. 202.
      48. 3. 42. 0. 0. 2. 8. 6. 0. 0. 2. 1. 1. 20. 12. 43. 5. 1. 7. 0.
      0. 1. 0. 28. 4. 4. 4. 9. 0. 11. 12.</_>
    <_>
      1402. 48. 141. 95. 22. 0. 122. 109. 68. 0. 3. 2. 50. 2. 215. 111.
      28. 0. 0. 2. 0. 0. 4. 0. 42. 0. 3. 1. 50. 0. 67. 7. 84. 1. 3. 1.
      1. 0. 1. 0. 3. 0. 0. 0. 1. 0. 5. 2. 52. 0. 2. 0. 2. 0. 5. 1. 55.
      0. 2. 2. 32. 0. 23. 7. 24. 0. 0. 1. 0. 0. 1. 1. 0. 0. 0. 0. 0. 0.
      1. 0. 1. 0. 0. 0. 0. 0. 0. 0. 1. 0. 0. 0. 0. 0. 0. 0. 72. 1. 1. 8.
      1. 1. 0. 0. 3. 0. 0. 0. 3. 0. 1. 2. 37. 0. 1. 1. 0. 0. 2. 0. 40.
      0. 0. 0. 11. 1. 6. 0. 132. 109. 4. 121. 1. 2. 9. 61. 6. 1. 0. 2.
      1. 5. 8. 65. 0. 0. 0. 0. 0. 0. 0. 1. 0. 1. 1. 1. 0. 2. 2. 7. 6. 2.
      0. 1. 0. 0. 0. 0. 0. 0. 0. 0. 0. 0. 0. 0. 0. 1. 0. 1. 0. 0. 0. 0.
      5. 0. 0. 3. 1. 0. 2. 9. 108. 96. 6. 60. 1. 0. 2. 11. 3. 0. 0. 0.
      0. 0. 5. 20. 6. 0. 0. 0. 0. 0. 1. 0. 5. 1. 1. 0. 1. 0. 0. 0. 353.
      125. 14. 80. 1. 0. 9. 21. 5. 1. 0. 2. 4. 1. 33. 19. 92. 12. 1. 2.
      0. 0. 1. 0. 46. 7. 2. 8. 12. 2. 17. 17.</_>
    <_>
      1378. 15. 111. 78. 34. 0. 67. 68. 128. 1. 7. 2. 94. 1. 154. 49.
      27. 1. 2. 0. 0. 0. 1. 0. 142. 0. 2. 1. 142. 0. 83. 10. 84. 1. 3.
      0. 0. 0. 0. 1. 2. 0. 0. 0. 2. 0. 3. 1. 75. 0. 2. 1. 3. 0. 3. 1.
      325. 0. 5. 1. 192. 0. 71. 4. 29. 0. 1. 1. 1. 0. 0. 0. 2. 0. 0. 0.
      0. 0. 0. 0. 0. 0. 0. 0. 0. 0. 0. 0. 2. 0. 0. 0. 0. 0. 0. 0. 51. 3.
      0. 4. 0. 0. 0. 1. 1. 0. 1. 0. 2. 1. 0. 0. 30. 0. 0. 0. 0. 0. 0. 0.
      73. 0. 0. 0. 9. 0. 6. 1. 95. 89. 5. 250. 0. 0. 1. 64. 6. 3. 0. 3.
      4. 2. 3. 49. 1. 1. 0. 1. 0. 0. 0. 0. 2. 0. 0. 2. 3. 0. 0. 8. 9. 1.
      0. 1. 1. 0. 0. 0. 0. 0. 0. 1. 0. 0. 0. 0. 1. 2. 0. 1. 0. 0. 0. 1.
      2. 1. 0. 6. 1. 0. 0. 8. 66. 70. 5. 85. 0. 0. 1. 15. 2. 3. 0. 2. 0.
      0. 0. 5. 1. 0. 0. 0. 0. 0. 0. 0. 4. 0. 0. 0. 0. 0. 0. 0. 134. 55.
      3. 49. 0. 0. 0. 7. 5. 0. 0. 1. 2. 1. 0. 6. 42. 8. 0. 1. 0. 0. 1.
      0. 46. 5. 0. 9. 10. 1. 9. 9.</_>
    <_>
      846. 11. 70. 53. 22. 1. 46. 27. 80. 0. 4. 1. 49. 0. 113. 18. 20.
      0. 1. 0. 1. 0. 0. 0. 100. 0. 2. 1. 92. 1. 30. 3. 118. 1. 1. 3. 1.
      0. 1. 1. 2. 0. 0. 0. 1. 0. 1. 1. 139. 0. 3. 0. 1. 0. 0. 1. 485. 0.
      4. 5. 170. 0. 50. 3. 31. 1. 0. 3. 1. 0. 0. 0. 1. 0. 0. 0. 0. 0. 1.
      0. 1. 0. 0. 0. 0. 0. 0. 0. 2. 0. 0. 0. 0. 0. 0. 0. 114. 1. 2. 1.
      0. 0. 0. 0. 4. 0. 0. 0. 0. 0. 3. 0. 141. 0. 1. 0. 0. 0. 1. 0. 199.
      0. 0. 0. 19. 0. 1. 0. 98. 117. 2. 187. 0. 1. 0. 36. 6. 4. 1. 2. 1.
      2. 2. 26. 2. 0. 0. 1. 0. 0. 0. 0. 5. 1. 0. 1. 1. 0. 0. 4. 8. 4. 0.
      2. 0. 0. 0. 0. 0. 0. 0. 0. 0. 1. 1. 0. 1. 2. 0. 1. 0. 0. 1. 0. 10.
      3. 0. 5. 3. 1. 0. 16. 84. 183. 0. 182. 0. 0. 1. 2. 1. 1. 0. 1. 1.
      0. 0. 3. 0. 0. 0. 0. 0. 0. 0. 1. 3. 1. 0. 0. 2. 0. 0. 0. 258. 135.
      1. 68. 0. 0. 0. 2. 4. 2. 0. 1. 0. 1. 2. 6. 109. 24. 0. 9. 0. 0. 1.
      0. 76. 11. 0. 15. 11. 2. 7. 6.</_>
    <_>
      457. 19. 34. 34. 16. 0. 25. 25. 48. 1. 2. 0. 38. 1. 85. 17. 28. 2.
      0. 0. 1. 0. 1. 0. 73. 0. 0. 0. 158. 0. 54. 4. 87. 2. 3. 1. 1. 0.
      2. 0. 2. 0. 0. 0. 1. 0. 1. 1. 93. 0. 3. 0. 4. 0. 1. 0. 285. 0. 1.
      1. 264. 0. 66. 2. 42. 1. 2. 1. 0. 0. 1. 0. 2. 0. 0. 0. 0. 0. 0. 0.
      0. 0. 0. 0. 0. 0. 0. 0. 0. 0. 0. 0. 0. 0. 0. 0. 116. 2. 0. 0. 0.
      0. 0. 1. 3. 0. 0. 0. 1. 0. 0. 0. 99. 1. 0. 0. 0. 0. 0. 0. 118. 0.
      1. 0. 15. 0. 7. 0. 74. 127. 2. 150. 1. 1. 1. 22. 0. 4. 0. 3. 1. 0.
      3. 21. 2. 0. 0. 0. 0. 0. 0. 0. 5. 0. 0. 1. 2. 1. 1. 4. 5. 2. 0. 3.
      0. 0. 0. 1. 0. 0. 0. 0. 0. 0. 0. 0. 3. 2. 0. 3. 0. 0. 1. 0. 4. 3.
      0. 3. 3. 1. 2. 6. 156. 322. 1. 256. 0. 0. 3. 9. 2. 3. 0. 1. 2. 1.
      1. 9. 1. 1. 0. 0. 0. 0. 0. 0. 3. 0. 0. 0. 1. 0. 1. 0. 456. 355. 2.
      138. 0. 0. 0. 4. 1. 5. 0. 1. 3. 0. 14. 15. 121. 26. 0. 11. 0. 0.
      0. 0. 72. 17. 0. 14. 8. 4. 13. 10.</_>
    <_>
      134. 18. 11. 23. 25. 0. 29. 46. 11. 0. 1. 1. 27. 0. 80. 64. 20. 1.
      0. 0. 3. 0. 3. 0. 34. 1. 0. 0. 125. 0. 118. 19. 36. 2. 0. 0. 5. 0.
      0. 0. 4. 0. 0. 0. 1. 0. 2. 1. 63. 0. 0. 1. 1. 0. 0. 0. 192. 2. 2.
      1. 236. 1. 73. 7. 45. 3. 3. 1. 1. 0. 2. 0. 3. 0. 0. 0. 0. 0. 0. 1.
      0. 0. 0. 0. 0. 0. 0. 0. 3. 0. 1. 0. 1. 0. 0. 0. 101. 2. 2. 1. 1.
      0. 2. 0. 1. 0. 0. 0. 1. 0. 1. 1. 142. 0. 0. 1. 1. 0. 0. 0. 122. 0.
      0. 1. 31. 0. 9. 0. 34. 71. 3. 121. 2. 0. 0. 40. 1. 4. 1. 5. 1. 0.
      3. 35. 2. 0. 0. 0. 0. 0. 0. 0. 5. 2. 0. 4. 3. 1. 2. 13. 4. 2. 0.
      4. 0. 1. 0. 0. 0. 0. 0. 0. 1. 0. 0. 1. 3. 3. 0. 3. 0. 0. 0. 0. 10.
      6. 0. 3. 4. 3. 3. 14. 86. 444. 1. 431. 0. 2. 3. 30. 1. 5. 0. 2. 1.
      1. 1. 12. 4. 0. 0. 1. 0. 0. 0. 1. 4. 2. 0. 1. 0. 0. 0. 0. 300.
      526. 2. 182. 0. 1. 0. 14. 1. 4. 0. 1. 2. 2. 4. 10. 169. 61. 1. 30.
      0. 2. 1. 5. 103. 42. 1. 21. 15. 1. 8. 20.</_>
    <_>
      162. 23. 24. 39. 25. 0. 46. 72. 21. 2. 2. 3. 46. 1. 238. 153. 18.
      2. 1. 0. 0. 0. 1. 0. 61. 0. 2. 0. 189. 0. 300. 31. 44. 2. 1. 0. 2.
      0. 2. 2. 1. 0. 1. 0. 2. 1. 3. 0. 53. 0. 1. 0. 3. 0. 2. 1. 202. 0.
      3. 2. 298. 0. 91. 9. 36. 0. 1. 1. 0. 0. 0. 1. 1. 0. 0. 0. 0. 0. 2.
      0. 0. 0. 0. 0. 0. 0. 0. 0. 1. 0. 0. 0. 1. 0. 0. 0. 71. 2. 2. 2. 0.
      0. 1. 1. 3. 0. 0. 1. 1. 0. 4. 0. 119. 1. 1. 2. 0. 0. 0. 0. 92. 0.
      2. 1. 24. 0. 7. 3. 28. 64. 3. 109. 2. 1. 1. 58. 3. 2. 0. 3. 0. 0.
      7. 53. 1. 0. 0. 0. 0. 0. 0. 0. 2. 1. 0. 3. 1. 1. 4. 11. 5. 3. 0.
      1. 0. 0. 0. 1. 2. 0. 0. 1. 0. 0. 1. 0. 1. 1. 0. 2. 0. 0. 0. 2. 9.
      5. 0. 6. 3. 2. 2. 9. 68. 283. 0. 236. 0. 1. 2. 30. 4. 1. 1. 0. 2.
      0. 2. 12. 0. 0. 0. 0. 0. 0. 0. 0. 2. 2. 0. 3. 2. 0. 1. 1. 296.
      427. 0. 135. 0. 0. 0. 7. 4. 1. 0. 1. 4. 4. 2. 9. 157. 44. 3. 10.
      1. 0. 2. 2. 78. 18. 1. 9. 10. 1. 13. 10.</_>
    <_>
      208. 14. 50. 80. 54. 1. 81. 97. 39. 3. 5. 4. 104. 1. 266. 107. 20.
      0. 0. 2. 1. 0. 1. 0. 68. 0. 3. 1. 305. 1. 383. 58. 29. 1. 7. 1. 1.
      0. 2. 0. 0. 0. 0. 0. 3. 0. 4. 1. 58. 0. 2. 0. 1. 0. 3. 1. 168. 2.
      3. 3. 240. 0. 149. 12. 16. 2. 2. 1. 2. 0. 1. 0. 1. 0. 0. 0. 0. 0.
      1. 0. 2. 0. 0. 0. 0. 0. 0. 0. 0. 0. 0. 0. 0. 0. 2. 0. 46. 4. 2. 0.
      0. 0. 0. 0. 1. 0. 0. 0. 0. 0. 3. 1. 55. 1. 1. 0. 0. 0. 0. 0. 84.
      1. 1. 0. 19. 0. 6. 0. 20. 46. 1. 226. 1. 1. 1. 139. 5. 1. 1. 8. 5.
      2. 4. 78. 0. 1. 0. 1. 0. 0. 0. 0. 2. 2. 0. 7. 4. 1. 4. 23. 2. 2.
      0. 1. 0. 0. 0. 0. 1. 0. 0. 0. 0. 0. 0. 0. 3. 0. 0. 0. 0. 0. 0. 0.
      5. 0. 0. 4. 2. 4. 1. 22. 52. 189. 2. 332. 0. 0. 2. 25. 5. 2. 0. 3.
      1. 0. 4. 9. 0. 4. 0. 1. 0. 0. 0. 0. 1. 2. 0. 3. 0. 0. 0. 5. 118.
      258. 1. 92. 1. 0. 0. 8. 5. 1. 0. 2. 1. 1. 3. 9. 62. 28. 1. 7. 0.
      1. 0. 2. 50. 11. 1. 10. 11. 2. 8. 18.</_>
    <_>
      346. 21. 57. 70. 36. 0. 82. 70. 42. 0. 3. 5. 76. 3. 134. 52. 16.
      0. 1. 0. 4. 0. 0. 0. 73. 2. 1. 2. 214. 0. 83. 20. 50. 0. 1. 0. 4.
      0. 2. 0. 1. 0. 0. 0. 4. 0. 3. 3. 68. 0. 1. 1. 3. 0. 4. 0. 225. 1.
      7. 2. 408. 2. 107. 14. 31. 1. 4. 4. 1. 0. 2. 0. 1. 0. 0. 0. 0. 0.
      0. 0. 1. 0. 0. 0. 0. 0. 0. 0. 0. 0. 0. 0. 1. 0. 1. 0. 81. 3. 1. 3.
      2. 0. 4. 0. 4. 0. 0. 0. 0. 0. 1. 0. 82. 1. 1. 0. 1. 0. 0. 0. 64.
      1. 0. 1. 32. 0. 7. 4. 40. 53. 2. 221. 1. 2. 1. 65. 2. 3. 1. 7. 2.
      3. 2. 59. 1. 1. 0. 0. 0. 0. 0. 0. 4. 0. 1. 5. 2. 3. 0. 18. 8. 1.
      1. 4. 0. 0. 0. 3. 1. 0. 0. 0. 0. 0. 0. 3. 3. 2. 1. 2. 0. 0. 0. 1.
      5. 1. 0. 10. 3. 1. 1. 11. 83. 240. 3. 351. 0. 0. 3. 35. 1. 2. 0.
      3. 1. 0. 1. 8. 0. 1. 0. 2. 0. 0. 0. 0. 3. 1. 1. 1. 2. 0. 1. 4.
      216. 303. 4. 106. 1. 0. 1. 5. 4. 3. 0. 0. 3. 1. 1. 7. 81. 50. 2.
      16. 1. 0. 0. 4. 46. 17. 1. 10. 6. 2. 3. 22.</_>
    <_>
      263. 23. 45. 69. 43. 0. 68. 79. 57. 0. 8. 0. 68. 2. 238. 82. 30.
      1. 0. 0. 0. 0. 1. 0. 107. 0. 4. 4. 315. 0. 246. 17. 35. 0. 6. 3.
      2. 0. 2. 0. 2. 0. 0. 0. 3. 0. 6. 1. 64. 0. 3. 2. 2. 0. 3. 0. 249.
      0. 3. 1. 326. 0. 117. 7. 34. 0. 2. 1. 0. 0. 3. 0. 0. 0. 0. 0. 0.
      0. 0. 0. 1. 0. 0. 0. 0. 0. 0. 0. 1. 0. 0. 0. 0. 0. 2. 0. 57. 1. 2.
      3. 1. 0. 0. 0. 0. 0. 0. 0. 3. 0. 2. 0. 60. 0. 0. 0. 0. 0. 0. 0.
      99. 0. 1. 0. 34. 1. 11. 1. 21. 76. 6. 210. 2. 1. 0. 79. 6. 4. 0.
      6. 0. 1. 3. 40. 2. 1. 0. 2. 0. 0. 0. 0. 0. 1. 1. 1. 0. 1. 1. 9. 3.
      3. 0. 3. 0. 0. 0. 0. 0. 0. 0. 0. 0. 0. 1. 1. 0. 1. 0. 2. 0. 0. 0.
      1. 4. 3. 1. 5. 0. 2. 1. 13. 50. 255. 2. 321. 0. 0. 0. 23. 2. 0. 0.
      0. 0. 1. 3. 4. 1. 0. 0. 1. 0. 0. 0. 0. 5. 0. 0. 1. 0. 0. 1. 0.
      127. 271. 4. 118. 0. 1. 3. 9. 3. 1. 0. 0. 1. 2. 3. 9. 65. 36. 1.
      8. 0. 0. 0. 2. 50. 7. 0. 17. 7. 2. 14. 12.</_>
    <_>
      229. 19. 48. 51. 31. 1. 62. 82. 43. 3. 5. 2. 65. 0. 155. 76. 23.
      1. 0. 0. 1. 0. 1. 2. 66. 0. 3. 2. 196. 0. 243. 12. 42. 0. 0. 1. 2.
      0. 5. 0. 3. 0. 0. 0. 1. 0. 0. 0. 68. 0. 0. 0. 2. 0. 0. 0. 251. 0.
      1. 0. 318. 1. 88. 14. 38. 2. 4. 1. 1. 0. 1. 0. 1. 0. 1. 0. 1. 0.
      1. 0. 1. 0. 0. 0. 0. 0. 0. 0. 1. 0. 1. 0. 0. 0. 0. 0. 70. 3. 1. 2.
      2. 0. 0. 1. 0. 0. 0. 0. 0. 0. 1. 0. 57. 0. 1. 0. 3. 0. 0. 0. 103.
      0. 2. 1. 26. 0. 2. 3. 33. 51. 2. 213. 1. 0. 5. 105. 3. 5. 0. 10.
      2. 3. 1. 41. 0. 1. 0. 1. 0. 0. 0. 0. 5. 3. 0. 2. 3. 0. 3. 15. 4.
      0. 0. 4. 1. 0. 1. 0. 1. 0. 0. 0. 0. 0. 0. 0. 2. 1. 0. 1. 1. 0. 0.
      0. 5. 2. 0. 6. 2. 1. 2. 10. 67. 205. 4. 261. 2. 0. 0. 24. 3. 4. 1.
      1. 1. 0. 0. 15. 2. 0. 0. 0. 0. 0. 0. 0. 0. 0. 0. 3. 0. 0. 0. 2.
      339. 454. 4. 83. 1. 0. 0. 7. 9. 0. 1. 0. 1. 0. 1. 6. 116. 38. 0.
      8. 0. 0. 2. 3. 54. 13. 0. 10. 12. 1. 7. 20.</_>
    <_>
      197. 9. 39. 65. 67. 0. 75. 133. 35. 2. 2. 3. 81. 1. 177. 99. 8. 0.
      2. 1. 2. 0. 1. 0. 78. 0. 5. 3. 264. 0. 204. 35. 25. 1. 4. 1. 4. 0.
      2. 1. 1. 0. 0. 1. 2. 0. 2. 2. 41. 0. 0. 2. 3. 0. 0. 0. 253. 0. 3.
      3. 527. 0. 98. 26. 57. 0. 4. 4. 2. 0. 2. 0. 1. 0. 0. 0. 0. 0. 2.
      0. 0. 0. 0. 0. 0. 0. 0. 0. 4. 0. 0. 0. 0. 0. 0. 1. 57. 0. 0. 1. 0.
      0. 1. 1. 0. 0. 0. 0. 1. 0. 0. 1. 69. 0. 2. 1. 1. 0. 1. 0. 130. 0.
      4. 2. 22. 0. 5. 3. 16. 43. 2. 266. 0. 0. 2. 162. 2. 3. 0. 13. 1.
      1. 7. 68. 0. 2. 1. 0. 0. 0. 0. 1. 4. 1. 0. 9. 1. 5. 1. 26. 3. 2.
      0. 4. 0. 0. 0. 0. 0. 0. 0. 0. 0. 0. 1. 0. 2. 1. 0. 1. 0. 0. 0. 1.
      7. 4. 0. 10. 1. 3. 2. 31. 54. 177. 0. 344. 0. 0. 2. 33. 1. 1. 1.
      1. 2. 0. 1. 16. 2. 0. 0. 0. 0. 0. 0. 0. 4. 1. 0. 1. 1. 0. 1. 1.
      92. 143. 0. 95. 0. 0. 1. 4. 3. 2. 0. 3. 0. 0. 0. 5. 46. 28. 0. 17.
      1. 1. 0. 1. 38. 26. 0. 25. 11. 2. 2. 19.</_>
    <_>
      266. 19. 23. 43. 25. 0. 41. 34. 42. 0. 2. 2. 61. 0. 96. 33. 17. 0.
      0. 0. 0. 0. 1. 0. 69. 1. 0. 2. 247. 0. 221. 21. 34. 1. 0. 1. 2. 0.
      0. 2. 0. 0. 0. 0. 1. 0. 2. 1. 58. 0. 2. 0. 0. 0. 2. 1. 205. 0. 4.
      0. 341. 2. 105. 9. 41. 0. 0. 1. 0. 0. 1. 0. 1. 0. 0. 0. 0. 0. 1.
      0. 0. 0. 0. 0. 0. 0. 0. 0. 0. 0. 0. 0. 1. 0. 1. 0. 58. 2. 4. 1. 1.
      0. 0. 0. 1. 0. 0. 0. 0. 0. 0. 0. 61. 0. 0. 0. 1. 0. 0. 0. 85. 1.
      0. 2. 25. 0. 10. 1. 42. 76. 3. 168. 0. 2. 1. 41. 3. 1. 1. 4. 1. 1.
      3. 25. 0. 1. 0. 2. 0. 0. 0. 0. 2. 2. 0. 1. 1. 1. 3. 11. 8. 2. 0.
      3. 0. 0. 0. 0. 0. 0. 0. 0. 0. 0. 1. 0. 0. 4. 0. 4. 0. 0. 0. 0. 9.
      2. 0. 5. 3. 1. 1. 6. 86. 496. 1. 353. 2. 1. 0. 19. 2. 2. 0. 1. 1.
      1. 1. 11. 1. 0. 0. 0. 0. 0. 0. 1. 5. 1. 0. 0. 0. 0. 0. 2. 217.
      504. 4. 181. 1. 0. 1. 4. 1. 3. 0. 3. 0. 0. 0. 4. 43. 39. 0. 9. 0.
      0. 0. 0. 46. 16. 0. 16. 9. 3. 3. 10.</_>
    <_>
      250. 23. 29. 44. 40. 0. 39. 41. 37. 3. 5. 3. 87. 1. 139. 29. 25.
      1. 1. 2. 1. 0. 1. 0. 60. 0. 6. 2. 219. 0. 160. 34. 59. 1. 1. 3. 4.
      0. 0. 0. 0. 0. 0. 0. 1. 0. 5. 1. 90. 1. 2. 1. 5. 0. 1. 0. 245. 0.
      1. 2. 317. 1. 86. 12. 49. 0. 1. 3. 2. 0. 1. 1. 0. 0. 0. 2. 1. 0.
      1. 0. 0. 0. 0. 0. 0. 0. 0. 0. 0. 0. 0. 0. 0. 0. 0. 1. 100. 2. 2.
      2. 1. 0. 4. 1. 2. 0. 0. 0. 2. 0. 0. 0. 128. 0. 0. 2. 1. 0. 0. 0.
      152. 0. 0. 0. 30. 0. 6. 3. 48. 70. 3. 183. 0. 2. 1. 69. 4. 4. 0.
      2. 1. 3. 2. 35. 0. 2. 0. 1. 0. 0. 0. 0. 2. 1. 0. 3. 2. 0. 3. 10.
      5. 6. 0. 9. 1. 0. 0. 0. 1. 0. 0. 0. 0. 0. 0. 1. 4. 0. 0. 2. 0. 0.
      0. 1. 11. 7. 0. 4. 2. 2. 1. 11. 85. 274. 3. 441. 2. 1. 1. 23. 0.
      3. 0. 2. 0. 0. 0. 6. 2. 0. 0. 1. 0. 0. 0. 0. 2. 0. 0. 0. 1. 0. 1.
      3. 212. 241. 4. 127. 0. 2. 0. 12. 5. 0. 0. 1. 1. 0. 0. 9. 82. 31.
      0. 14. 0. 0. 0. 0. 81. 24. 0. 19. 7. 1. 10. 14.</_>
    <_>
      292. 14. 47. 46. 67. 1. 63. 53. 45. 1. 2. 2. 66. 1. 152. 47. 21.
      0. 1. 0. 1. 0. 2. 0. 65. 1. 3. 1. 213. 1. 158. 31. 37. 1. 4. 2. 2.
      0. 2. 0. 4. 0. 0. 0. 5. 0. 1. 1. 75. 1. 2. 0. 3. 0. 1. 0. 351. 4.
      4. 8. 473. 0. 108. 23. 49. 0. 0. 3. 3. 0. 1. 0. 0. 0. 0. 0. 1. 0.
      1. 0. 1. 0. 0. 0. 0. 0. 0. 1. 1. 0. 0. 0. 0. 0. 2. 0. 73. 0. 1. 1.
      0. 0. 0. 0. 1. 0. 0. 0. 0. 0. 2. 1. 69. 0. 2. 1. 0. 0. 0. 0. 154.
      0. 2. 0. 32. 0. 7. 0. 31. 50. 2. 284. 1. 0. 0. 142. 4. 4. 0. 5. 1.
      2. 3. 56. 1. 0. 0. 1. 0. 0. 0. 1. 6. 2. 0. 7. 3. 2. 1. 12. 3. 3.
      0. 2. 0. 0. 0. 1. 0. 0. 0. 0. 1. 0. 0. 2. 2. 0. 1. 4. 0. 0. 0. 0.
      15. 12. 0. 19. 4. 4. 4. 41. 46. 150. 0. 359. 0. 0. 1. 27. 1. 2. 0.
      5. 0. 1. 1. 8. 1. 0. 0. 0. 0. 0. 0. 0. 2. 1. 0. 4. 0. 0. 0. 0.
      137. 149. 1. 58. 2. 0. 0. 7. 0. 2. 0. 2. 0. 1. 0. 3. 88. 22. 0.
      14. 0. 0. 0. 0. 54. 19. 0. 35. 10. 1. 5. 12.</_>
    <_>
      304. 17. 34. 51. 77. 0. 48. 53. 30. 1. 2. 1. 48. 1. 62. 36. 18. 1.
      0. 0. 4. 0. 1. 1. 61. 0. 2. 2. 107. 0. 78. 12. 43. 1. 3. 0. 5. 0.
      2. 2. 3. 0. 0. 0. 4. 0. 2. 1. 63. 1. 0. 1. 10. 0. 1. 2. 329. 0. 9.
      12. 302. 0. 59. 11. 119. 5. 4. 7. 2. 0. 0. 3. 5. 0. 0. 0. 0. 0. 3.
      1. 0. 0. 0. 0. 1. 0. 0. 0. 1. 0. 0. 0. 3. 0. 1. 1. 71. 1. 1. 2. 3.
      0. 2. 0. 1. 0. 0. 0. 1. 0. 0. 0. 91. 0. 2. 0. 0. 0. 1. 0. 220. 1.
      3. 4. 29. 0. 5. 2. 30. 57. 4. 258. 1. 2. 1. 127. 2. 2. 1. 9. 1. 2.
      1. 43. 0. 0. 0. 0. 0. 0. 0. 0. 2. 1. 0. 8. 5. 4. 1. 20. 4. 2. 0.
      10. 0. 0. 0. 2. 0. 0. 0. 0. 0. 0. 0. 0. 5. 6. 0. 6. 1. 2. 0. 2. 8.
      16. 0. 26. 8. 3. 2. 35. 104. 225. 5. 435. 3. 0. 3. 34. 2. 2. 0. 7.
      1. 0. 1. 11. 1. 0. 0. 0. 0. 0. 0. 0. 2. 4. 0. 4. 1. 0. 0. 1. 104.
      135. 3. 140. 0. 2. 0. 6. 3. 2. 0. 2. 1. 1. 2. 8. 91. 49. 1. 30. 2.
      1. 0. 3. 75. 43. 2. 58. 11. 2. 6. 25.</_>
    <_>
      566. 6. 52. 53. 32. 1. 56. 27. 109. 1. 8. 0. 125. 4. 200. 50. 23.
      0. 1. 0. 0. 0. 2. 0. 152. 0. 2. 0. 334. 0. 228. 17. 75. 1. 2. 1.
      2. 0. 0. 0. 18. 0. 0. 0. 1. 0. 3. 0. 80. 0. 0. 0. 1. 0. 2. 0. 220.
      2. 3. 0. 290. 2. 114. 8. 24. 0. 0. 1. 0. 0. 0. 0. 0. 0. 0. 0. 1.
      0. 0. 0. 0. 0. 0. 0. 0. 0. 0. 0. 2. 0. 0. 0. 2. 0. 1. 0. 78. 2. 1.
      3. 0. 0. 0. 0. 3. 0. 0. 0. 2. 0. 0. 1. 68. 0. 0. 0. 0. 0. 0. 0.
      50. 0. 1. 2. 23. 0. 4. 3. 55. 75. 3. 141. 0. 1. 0. 36. 4. 4. 0. 6.
      0. 2. 4. 35. 0. 0. 0. 0. 0. 0. 0. 0. 4. 2. 0. 3. 2. 1. 0. 10. 3.
      1. 1. 2. 0. 0. 0. 0. 0. 0. 0. 0. 0. 0. 0. 0. 3. 1. 0. 1. 0. 0. 0.
      0. 5. 2. 0. 3. 0. 1. 2. 11. 86. 244. 0. 174. 0. 0. 0. 10. 1. 0. 0.
      2. 0. 0. 2. 5. 2. 0. 0. 0. 0. 0. 0. 0. 3. 0. 0. 2. 2. 0. 0. 1.
      276. 196. 0. 78. 0. 0. 1. 1. 4. 0. 0. 2. 0. 1. 2. 4. 126. 13. 1.
      6. 1. 1. 0. 1. 34. 4. 1. 10. 9. 2. 6. 4.</_>
    <_>
      324. 22. 54. 66. 56. 1. 57. 89. 50. 1. 5. 1. 62. 1. 153. 104. 16.
      0. 1. 0. 2. 0. 1. 1. 84. 0. 3. 2. 187. 0. 150. 29. 45. 0. 4. 0. 1.
      0. 3. 2. 3. 0. 0. 1. 6. 0. 2. 0. 49. 0. 2. 0. 2. 0. 3. 2. 242. 1.
      3. 0. 449. 1. 87. 15. 32. 1. 3. 3. 0. 0. 0. 2. 2. 0. 0. 0. 0. 0.
      1. 0. 0. 0. 0. 0. 0. 0. 0. 0. 0. 0. 0. 1. 1. 0. 0. 0. 81. 2. 3. 2.
      0. 0. 1. 0. 0. 0. 0. 0. 0. 0. 1. 0. 89. 0. 0. 0. 0. 0. 2. 0. 125.
      0. 3. 0. 25. 0. 7. 2. 51. 89. 3. 353. 1. 2. 0. 111. 5. 4. 0. 6. 0.
      3. 0. 48. 4. 0. 0. 0. 0. 0. 0. 0. 1. 2. 1. 4. 4. 2. 2. 13. 1. 4.
      0. 4. 0. 0. 0. 0. 0. 0. 0. 1. 0. 0. 0. 0. 2. 1. 1. 5. 0. 0. 0. 1.
      5. 3. 0. 13. 3. 0. 1. 22. 61. 183. 2. 345. 1. 2. 2. 22. 4. 1. 0.
      3. 0. 0. 0. 6. 3. 0. 0. 1. 0. 0. 0. 0. 0. 1. 0. 0. 2. 0. 0. 2.
      139. 160. 3. 79. 0. 0. 0. 10. 7. 5. 0. 1. 0. 0. 1. 4. 75. 22. 0.
      11. 0. 0. 0. 0. 49. 15. 0. 23. 10. 1. 2. 20.</_>
    <_>
      631. 31. 59. 65. 51. 4. 58. 65. 73. 1. 5. 5. 59. 0. 70. 44. 23. 1.
      2. 1. 0. 0. 0. 1. 114. 0. 1. 3. 180. 0. 97. 15. 46. 0. 4. 2. 2. 0.
      3. 2. 3. 1. 0. 1. 1. 0. 0. 1. 86. 0. 3. 1. 2. 1. 2. 1. 451. 0. 5.
      4. 446. 1. 91. 15. 56. 1. 2. 6. 2. 0. 0. 0. 1. 0. 0. 0. 1. 0. 1.
      2. 0. 0. 0. 0. 0. 0. 0. 0. 5. 0. 0. 0. 0. 0. 0. 0. 49. 0. 3. 4. 4.
      0. 0. 0. 2. 0. 0. 0. 1. 0. 0. 1. 64. 0. 2. 0. 0. 0. 0. 0. 174. 0.
      2. 2. 40. 0. 7. 4. 41. 47. 1. 316. 2. 4. 2. 107. 1. 3. 0. 6. 2. 5.
      1. 46. 1. 1. 0. 0. 0. 0. 0. 1. 9. 1. 1. 7. 1. 4. 3. 18. 5. 3. 2.
      5. 0. 0. 0. 3. 0. 0. 0. 0. 0. 0. 0. 0. 1. 6. 0. 4. 0. 0. 0. 3. 5.
      5. 0. 26. 3. 2. 1. 20. 42. 73. 3. 319. 1. 0. 0. 30. 1. 3. 0. 5. 0.
      0. 2. 11. 4. 0. 0. 3. 0. 0. 0. 1. 1. 0. 0. 6. 0. 0. 0. 3. 67. 28.
      5. 54. 3. 0. 2. 9. 2. 2. 0. 1. 2. 1. 0. 5. 26. 18. 1. 14. 0. 1. 1.
      4. 43. 16. 1. 30. 12. 4. 4. 29.</_>
    <_>
      287. 14. 44. 54. 105. 0. 90. 115. 18. 2. 4. 3. 78. 6. 110. 64. 13.
      0. 2. 1. 2. 0. 2. 1. 46. 2. 1. 3. 147. 1. 98. 34. 28. 0. 2. 4. 2.
      0. 0. 1. 1. 1. 0. 0. 2. 0. 1. 1. 42. 0. 0. 2. 10. 0. 4. 0. 308. 4.
      11. 7. 443. 2. 96. 32. 76. 5. 5. 3. 3. 0. 1. 0. 1. 0. 0. 0. 1. 0.
      0. 0. 0. 0. 0. 0. 0. 0. 0. 0. 3. 0. 0. 0. 4. 0. 0. 0. 49. 2. 1. 4.
      3. 0. 1. 0. 1. 0. 0. 0. 1. 0. 1. 0. 46. 0. 0. 1. 2. 0. 1. 0. 131.
      0. 2. 4. 41. 0. 9. 3. 28. 48. 1. 345. 2. 5. 3. 236. 1. 2. 0. 14.
      1. 2. 1. 77. 1. 2. 0. 0. 0. 0. 0. 2. 5. 8. 0. 12. 3. 1. 2. 44. 1.
      4. 0. 3. 0. 0. 0. 7. 0. 1. 0. 1. 0. 0. 0. 1. 1. 2. 0. 8. 0. 0. 1.
      1. 19. 9. 1. 23. 5. 0. 4. 75. 48. 141. 5. 446. 3. 2. 1. 41. 1. 3.
      0. 7. 2. 1. 0. 8. 0. 0. 1. 3. 0. 0. 0. 0. 0. 1. 0. 6. 0. 0. 1. 8.
      38. 44. 2. 62. 1. 0. 2. 15. 2. 1. 0. 3. 0. 0. 0. 5. 17. 10. 3. 21.
      0. 1. 0. 2. 30. 30. 2. 47. 8. 3. 5. 36.</_>
    <_>
      544. 20. 37. 38. 15. 0. 42. 44. 96. 0. 5. 2. 112. 2. 90. 25. 22.
      0. 1. 1. 0. 0. 1. 0. 137. 0. 2. 0. 253. 1. 151. 11. 93. 1. 3. 0.
      1. 0. 2. 2. 6. 0. 0. 0. 4. 0. 1. 0. 74. 1. 0. 2. 1. 0. 1. 0. 242.
      1. 3. 1. 215. 0. 87. 4. 23. 0. 0. 2. 0. 0. 0. 0. 1. 0. 0. 0. 0. 0.
      0. 0. 0. 0. 0. 0. 0. 0. 0. 0. 0. 0. 0. 0. 0. 0. 1. 0. 126. 0. 2.
      3. 0. 0. 0. 0. 1. 0. 0. 0. 1. 0. 1. 0. 100. 0. 0. 0. 0. 0. 0. 0.
      62. 0. 2. 1. 11. 0. 6. 0. 128. 106. 3. 181. 0. 0. 0. 56. 2. 3. 0.
      0. 2. 0. 4. 15. 0. 0. 0. 0. 0. 0. 1. 0. 1. 0. 0. 1. 1. 0. 0. 7. 7.
      4. 0. 4. 0. 1. 0. 2. 0. 0. 0. 0. 0. 0. 1. 1. 3. 0. 0. 1. 0. 0. 0.
      2. 6. 3. 0. 5. 0. 1. 0. 7. 143. 333. 2. 225. 1. 0. 1. 14. 0. 0. 0.
      1. 0. 0. 1. 5. 2. 1. 1. 0. 0. 0. 0. 0. 2. 0. 0. 1. 0. 0. 0. 0.
      258. 250. 5. 107. 0. 0. 2. 11. 6. 1. 0. 2. 1. 0. 5. 8. 93. 13. 1.
      10. 0. 0. 2. 2. 49. 6. 0. 9. 7. 1. 4. 3.</_>
    <_>
      611. 15. 83. 62. 28. 0. 73. 70. 57. 2. 8. 1. 76. 0. 105. 48. 22.
      0. 2. 1. 0. 0. 2. 0. 82. 1. 4. 3. 213. 0. 98. 17. 73. 1. 2. 3. 0.
      0. 1. 1. 5. 0. 0. 0. 1. 0. 3. 0. 55. 0. 3. 0. 2. 0. 0. 0. 323. 0.
      2. 2. 536. 1. 100. 11. 45. 0. 0. 1. 0. 0. 1. 0. 0. 0. 0. 0. 0. 0.
      0. 0. 0. 0. 0. 0. 0. 0. 0. 0. 1. 0. 0. 0. 0. 0. 0. 0. 68. 0. 1. 2.
      0. 0. 0. 1. 1. 0. 0. 0. 1. 0. 1. 0. 89. 0. 1. 0. 0. 0. 0. 0. 165.
      1. 1. 0. 28. 0. 7. 3. 69. 81. 4. 202. 1. 2. 3. 53. 0. 2. 1. 7. 3.
      0. 1. 37. 1. 3. 0. 0. 0. 0. 0. 1. 2. 1. 0. 4. 1. 0. 1. 11. 10. 2.
      0. 2. 0. 0. 0. 1. 0. 0. 0. 0. 0. 1. 0. 0. 1. 4. 0. 1. 0. 0. 0. 0.
      7. 4. 0. 3. 3. 2. 1. 15. 64. 188. 3. 289. 0. 0. 1. 14. 4. 2. 0. 4.
      0. 1. 2. 5. 3. 2. 0. 0. 0. 0. 0. 0. 0. 1. 0. 0. 1. 0. 0. 2. 118.
      101. 0. 97. 0. 0. 3. 7. 2. 1. 0. 5. 0. 2. 4. 4. 52. 22. 1. 11. 0.
      0. 1. 1. 42. 12. 2. 11. 10. 2. 3. 13.</_>
    <_>
      852. 19. 77. 88. 54. 2. 80. 67. 104. 1. 9. 2. 89. 2. 107. 54. 19.
      0. 0. 0. 1. 0. 3. 1. 129. 0. 1. 4. 181. 1. 92. 21. 71. 0. 1. 0. 3.
      0. 4. 0. 7. 0. 1. 0. 0. 0. 1. 0. 87. 0. 1. 0. 0. 0. 2. 1. 405. 1.
      14. 6. 279. 0. 80. 10. 37. 1. 4. 2. 1. 0. 0. 1. 3. 0. 1. 0. 1. 0.
      0. 0. 1. 0. 0. 0. 0. 0. 0. 0. 1. 0. 0. 0. 0. 0. 0. 1. 63. 2. 2. 2.
      0. 0. 0. 0. 0. 0. 0. 0. 2. 0. 0. 0. 48. 1. 0. 1. 0. 0. 0. 0. 87.
      0. 1. 1. 25. 0. 1. 2. 53. 68. 3. 314. 2. 2. 0. 151. 4. 3. 1. 8. 0.
      5. 2. 62. 0. 0. 0. 2. 0. 0. 0. 1. 2. 2. 0. 1. 3. 2. 0. 16. 2. 3.
      0. 7. 0. 0. 0. 3. 1. 0. 0. 0. 0. 0. 0. 0. 3. 2. 0. 6. 0. 0. 0. 2.
      11. 11. 0. 22. 5. 5. 3. 27. 47. 88. 0. 229. 0. 0. 2. 23. 2. 0. 0.
      4. 0. 1. 0. 4. 0. 0. 0. 2. 0. 0. 0. 0. 6. 0. 0. 4. 0. 0. 2. 3. 59.
      38. 1. 53. 0. 0. 1. 3. 4. 0. 1. 0. 1. 0. 9. 7. 23. 6. 0. 11. 0. 0.
      0. 0. 37. 14. 0. 24. 8. 1. 7. 17.</_>
    <_>
      308. 23. 40. 62. 95. 1. 73. 64. 26. 0. 5. 1. 95. 2. 103. 34. 23.
      1. 1. 0. 0. 0. 1. 0. 62. 1. 3. 3. 194. 1. 87. 28. 34. 2. 3. 3. 3.
      0. 4. 2. 3. 1. 0. 0. 3. 0. 2. 0. 49. 1. 4. 2. 5. 0. 0. 0. 286. 2.
      4. 5. 467. 1. 113. 25. 86. 4. 4. 3. 9. 0. 1. 0. 2. 0. 0. 0. 0. 0.
      0. 2. 0. 0. 0. 0. 0. 0. 0. 0. 2. 0. 0. 0. 0. 0. 0. 0. 43. 2. 2. 1.
      1. 0. 2. 0. 2. 0. 0. 0. 1. 1. 0. 0. 79. 1. 0. 2. 2. 0. 4. 0. 131.
      0. 0. 1. 46. 0. 8. 2. 26. 45. 0. 311. 3. 3. 1. 140. 1. 6. 1. 16.
      1. 0. 1. 62. 1. 0. 0. 4. 0. 0. 0. 0. 3. 3. 3. 11. 2. 1. 1. 39. 2.
      2. 0. 4. 0. 0. 0. 0. 0. 1. 0. 1. 0. 0. 0. 1. 0. 3. 1. 4. 0. 0. 0.
      0. 15. 15. 2. 28. 8. 2. 1. 48. 71. 121. 2. 465. 3. 0. 1. 49. 3. 2.
      0. 7. 0. 0. 1. 8. 0. 0. 0. 2. 0. 0. 0. 0. 2. 2. 0. 2. 2. 0. 0. 5.
      63. 66. 0. 79. 0. 1. 0. 6. 1. 1. 0. 4. 1. 0. 0. 4. 32. 29. 3. 15.
      0. 1. 1. 4. 66. 28. 2. 53. 10. 3. 5. 34.</_>
    <_>
      750. 22. 60. 73. 83. 1. 58. 78. 70. 2. 2. 2. 71. 0. 94. 47. 22. 0.
      2. 1. 0. 0. 2. 0. 95. 3. 1. 3. 123. 0. 50. 15. 48. 0. 2. 1. 1. 0.
      2. 4. 4. 0. 0. 1. 2. 0. 1. 0. 65. 0. 3. 0. 2. 0. 4. 1. 459. 1. 5.
      3. 496. 4. 97. 15. 46. 1. 2. 4. 2. 0. 1. 1. 0. 0. 0. 0. 1. 0. 0.
      0. 1. 0. 0. 0. 0. 0. 0. 0. 3. 0. 0. 0. 0. 0. 0. 1. 41. 1. 1. 3. 1.
      0. 0. 0. 3. 0. 0. 0. 3. 0. 1. 0. 28. 0. 2. 1. 0. 0. 0. 0. 108. 0.
      2. 2. 23. 0. 6. 2. 34. 62. 6. 358. 0. 0. 2. 156. 4. 4. 0. 12. 1.
      0. 2. 63. 0. 0. 0. 1. 0. 0. 0. 1. 3. 1. 0. 6. 3. 0. 1. 21. 1. 2.
      0. 5. 0. 0. 0. 1. 0. 0. 0. 0. 0. 1. 0. 0. 4. 3. 0. 2. 0. 0. 0. 0.
      9. 7. 0. 23. 7. 2. 0. 45. 37. 81. 6. 303. 2. 1. 1. 24. 4. 3. 0. 3.
      0. 0. 0. 7. 1. 0. 0. 0. 0. 0. 0. 0. 2. 0. 0. 2. 1. 0. 2. 4. 41.
      28. 0. 56. 1. 0. 2. 8. 4. 2. 0. 2. 0. 0. 2. 7. 20. 8. 1. 6. 0. 0.
      1. 1. 40. 16. 0. 23. 8. 2. 5. 25.</_>
    <_>
      2507. 5. 51. 44. 22. 0. 32. 12. 196. 0. 5. 2. 128. 1. 278. 13. 21.
      0. 0. 0. 0. 0. 1. 0. 114. 0. 0. 1. 93. 0. 75. 4. 77. 0. 1. 0. 0.
      0. 0. 0. 10. 0. 0. 0. 1. 0. 9. 0. 60. 0. 0. 0. 0. 0. 3. 0. 308. 0.
      5. 4. 65. 0. 73. 2. 11. 0. 0. 1. 0. 0. 0. 0. 0. 0. 0. 0. 0. 0. 0.
      0. 0. 0. 0. 0. 0. 0. 0. 0. 2. 0. 0. 0. 0. 0. 0. 0. 35. 1. 0. 2. 0.
      0. 0. 0. 2. 0. 0. 0. 0. 0. 2. 0. 21. 0. 0. 1. 0. 0. 0. 0. 38. 0.
      0. 0. 10. 0. 9. 0. 43. 28. 1. 95. 0. 0. 0. 19. 1. 1. 0. 6. 0. 4.
      2. 28. 0. 0. 0. 1. 0. 0. 0. 0. 0. 0. 0. 2. 0. 0. 1. 5. 1. 3. 0. 7.
      0. 0. 0. 0. 0. 0. 0. 0. 0. 0. 0. 0. 0. 0. 0. 2. 0. 0. 0. 0. 2. 1.
      0. 8. 0. 1. 0. 10. 24. 11. 0. 7. 0. 0. 0. 1. 0. 0. 0. 0. 1. 0. 1.
      1. 0. 0. 0. 0. 0. 0. 0. 0. 3. 0. 0. 0. 0. 0. 0. 0. 111. 3. 4. 14.
      0. 0. 0. 4. 2. 0. 0. 0. 0. 0. 13. 3. 8. 1. 0. 6. 0. 0. 0. 0. 23.
      1. 0. 6. 3. 0. 3. 4.</_>
    <_>
      1779. 34. 148. 106. 29. 0. 128. 71. 109. 1. 2. 2. 86. 0. 301. 115.
      17. 0. 0. 0. 0. 0. 0. 0. 73. 0. 0. 1. 52. 0. 40. 5. 77. 0. 6. 3.
      0. 0. 3. 3. 1. 0. 0. 0. 0. 0. 7. 0. 58. 0. 4. 0. 1. 0. 3. 0. 119.
      0. 5. 2. 26. 0. 49. 6. 18. 0. 2. 1. 0. 0. 0. 0. 1. 0. 0. 0. 0. 0.
      0. 0. 0. 0. 0. 0. 0. 0. 0. 0. 0. 0. 0. 0. 0. 0. 0. 0. 69. 0. 1. 3.
      0. 0. 0. 0. 1. 0. 0. 0. 1. 0. 3. 0. 40. 0. 1. 0. 0. 0. 0. 0. 20.
      0. 1. 0. 3. 0. 4. 0. 98. 75. 5. 234. 0. 2. 3. 47. 5. 1. 0. 7. 1.
      6. 5. 82. 2. 0. 0. 0. 0. 0. 0. 1. 1. 2. 0. 2. 0. 0. 0. 7. 2. 1. 0.
      4. 0. 0. 0. 0. 0. 0. 0. 1. 0. 0. 0. 0. 1. 0. 0. 2. 0. 0. 0. 0. 5.
      1. 0. 9. 1. 0. 0. 16. 73. 45. 2. 33. 0. 0. 2. 9. 0. 2. 0. 0. 0. 2.
      3. 5. 1. 0. 0. 0. 0. 0. 0. 0. 3. 1. 0. 0. 1. 0. 1. 2. 165. 33. 8.
      42. 0. 0. 3. 11. 3. 1. 0. 0. 2. 0. 21. 18. 41. 3. 1. 3. 0. 0. 0.
      0. 36. 4. 0. 8. 4. 1. 13. 12.</_>
    <_>
      1562. 33. 140. 127. 25. 1. 81. 131. 58. 0. 5. 2. 50. 0. 232. 44.
      25. 2. 0. 0. 0. 0. 1. 0. 34. 0. 2. 2. 30. 1. 30. 5. 70. 1. 3. 1.
      0. 0. 1. 2. 0. 0. 0. 1. 1. 0. 7. 0. 44. 0. 3. 0. 1. 0. 7. 2. 124.
      0. 3. 2. 26. 0. 28. 4. 23. 0. 0. 1. 1. 0. 0. 0. 1. 0. 0. 0. 0. 0.
      1. 0. 0. 0. 0. 0. 0. 0. 0. 0. 0. 0. 0. 0. 0. 0. 0. 0. 80. 4. 0. 6.
      0. 0. 0. 0. 2. 0. 2. 1. 2. 0. 4. 0. 44. 0. 0. 0. 0. 0. 0. 0. 25.
      0. 0. 0. 2. 0. 2. 0. 113. 95. 3. 332. 1. 0. 5. 121. 3. 4. 1. 4. 0.
      6. 11. 63. 1. 1. 0. 0. 0. 0. 0. 1. 3. 1. 0. 0. 1. 1. 0. 5. 4. 1.
      0. 5. 0. 0. 0. 0. 0. 0. 0. 0. 0. 0. 0. 0. 1. 0. 0. 3. 0. 0. 0. 1.
      3. 2. 0. 11. 0. 1. 1. 5. 95. 74. 1. 71. 0. 0. 2. 7. 1. 0. 0. 0. 0.
      0. 3. 12. 0. 0. 0. 0. 0. 0. 0. 0. 8. 0. 0. 0. 1. 0. 1. 0. 296. 82.
      6. 65. 1. 0. 4. 7. 4. 1. 0. 0. 3. 0. 19. 11. 49. 7. 1. 5. 1. 0. 0.
      0. 41. 7. 2. 9. 5. 0. 11. 6.</_>
    <_>
      1419. 34. 113. 61. 14. 0. 95. 45. 88. 0. 4. 0. 88. 2. 271. 81. 37.
      0. 1. 0. 0. 0. 0. 0. 55. 1. 1. 1. 60. 0. 73. 12. 90. 0. 1. 0. 0.
      0. 2. 0. 13. 0. 1. 0. 0. 0. 5. 1. 64. 0. 0. 1. 0. 0. 1. 0. 113. 0.
      2. 2. 40. 0. 35. 4. 23. 0. 0. 0. 0. 0. 0. 0. 3. 0. 0. 0. 0. 0. 0.
      0. 0. 0. 0. 0. 0. 0. 0. 0. 1. 0. 0. 0. 0. 0. 0. 0. 75. 0. 2. 1. 0.
      0. 0. 0. 1. 0. 0. 0. 2. 0. 2. 1. 76. 0. 0. 0. 0. 0. 0. 0. 35. 0.
      0. 0. 16. 0. 7. 1. 155. 97. 6. 140. 0. 2. 2. 30. 6. 2. 0. 4. 3. 1.
      5. 43. 1. 0. 0. 1. 0. 0. 0. 0. 1. 1. 0. 1. 0. 0. 1. 1. 6. 3. 1. 3.
      0. 0. 0. 0. 1. 0. 0. 0. 0. 0. 0. 1. 3. 1. 0. 0. 0. 0. 0. 0. 6. 0.
      0. 7. 0. 1. 0. 5. 139. 105. 2. 55. 0. 0. 1. 9. 2. 0. 0. 0. 0. 1.
      4. 6. 1. 0. 0. 0. 0. 0. 0. 0. 2. 0. 0. 0. 0. 0. 2. 1. 374. 154. 2.
      60. 1. 0. 4. 5. 5. 0. 0. 0. 6. 0. 17. 15. 86. 14. 1. 5. 0. 0. 0.
      0. 53. 9. 1. 4. 3. 0. 14. 7.</_>
    <_>
      1904. 2. 43. 28. 30. 0. 31. 8. 360. 1. 9. 5. 198. 0. 219. 13. 35.
      1. 1. 0. 0. 0. 0. 0. 290. 1. 1. 0. 157. 0. 110. 8. 70. 0. 1. 1. 2.
      0. 0. 0. 8. 0. 0. 0. 4. 0. 3. 2. 63. 1. 1. 0. 2. 0. 3. 0. 476. 0.
      7. 2. 210. 1. 130. 6. 8. 0. 0. 0. 0. 0. 0. 0. 1. 0. 0. 0. 0. 0. 0.
      0. 0. 0. 0. 0. 0. 0. 0. 0. 2. 0. 0. 0. 0. 0. 0. 0. 30. 0. 1. 3. 0.
      0. 0. 0. 5. 0. 0. 0. 4. 0. 4. 0. 17. 0. 1. 1. 0. 0. 0. 0. 47. 0.
      0. 2. 8. 0. 5. 0. 16. 13. 0. 43. 0. 0. 0. 5. 3. 1. 0. 10. 0. 3. 1.
      19. 0. 0. 0. 1. 0. 0. 0. 0. 1. 0. 0. 1. 0. 0. 1. 14. 2. 0. 0. 2.
      0. 0. 0. 0. 0. 0. 0. 1. 0. 0. 0. 0. 0. 0. 0. 0. 0. 0. 0. 0. 0. 0.
      0. 10. 1. 0. 0. 13. 11. 2. 0. 2. 0. 0. 0. 0. 0. 0. 0. 0. 0. 0. 0.
      2. 0. 0. 0. 0. 0. 0. 0. 0. 4. 0. 0. 0. 0. 0. 0. 0. 34. 4. 0. 9. 0.
      0. 0. 0. 1. 0. 0. 0. 0. 1. 2. 2. 5. 0. 0. 2. 0. 0. 0. 0. 30. 0. 0.
      8. 6. 0. 13. 2.</_>
    <_>
      1589. 42. 189. 125. 29. 0. 165. 118. 117. 2. 9. 2. 105. 1. 393.
      162. 31. 1. 4. 2. 0. 0. 2. 1. 44. 0. 0. 0. 50. 0. 93. 7. 57. 0. 2.
      1. 1. 0. 1. 3. 0. 0. 0. 0. 3. 0. 5. 2. 37. 0. 2. 2. 0. 0. 5. 0.
      57. 1. 4. 1. 17. 0. 43. 5. 20. 0. 3. 0. 0. 0. 0. 0. 1. 0. 0. 0. 0.
      0. 0. 0. 0. 0. 0. 0. 0. 0. 0. 0. 0. 0. 0. 0. 0. 0. 0. 0. 43. 1. 4.
      7. 0. 0. 1. 0. 2. 0. 0. 0. 0. 0. 4. 1. 44. 0. 0. 0. 0. 0. 1. 0.
      29. 0. 0. 1. 0. 0. 6. 1. 79. 58. 6. 190. 1. 4. 4. 95. 3. 0. 0. 7.
      6. 5. 7. 104. 1. 1. 0. 1. 0. 0. 0. 0. 1. 1. 0. 1. 0. 0. 0. 10. 2.
      4. 0. 6. 0. 0. 0. 2. 0. 0. 0. 0. 0. 0. 0. 1. 3. 1. 0. 1. 0. 0. 0.
      1. 3. 1. 1. 3. 0. 0. 0. 9. 58. 34. 0. 32. 0. 0. 4. 6. 5. 0. 1. 1.
      0. 1. 3. 9. 1. 0. 0. 0. 0. 0. 0. 0. 5. 0. 0. 0. 1. 0. 3. 2. 169.
      16. 6. 48. 0. 0. 1. 9. 6. 0. 0. 0. 2. 0. 25. 20. 21. 1. 0. 10. 0.
      0. 2. 0. 21. 4. 0. 8. 6. 0. 11. 12.</_>
    <_>
      1267. 30. 123. 83. 29. 0. 141. 120. 133. 1. 5. 3. 134. 0. 480.
      196. 34. 0. 1. 0. 0. 0. 2. 1. 75. 0. 4. 0. 124. 0. 165. 13. 63. 0.
      2. 3. 0. 0. 1. 2. 2. 0. 0. 0. 1. 0. 4. 1. 33. 1. 4. 0. 1. 0. 7. 0.
      130. 0. 7. 3. 39. 1. 74. 12. 15. 0. 0. 1. 0. 0. 0. 1. 0. 0. 0. 0.
      0. 0. 1. 1. 0. 0. 0. 0. 0. 0. 0. 0. 0. 0. 0. 0. 0. 0. 0. 0. 54. 1.
      3. 5. 1. 0. 0. 0. 1. 0. 0. 0. 0. 0. 4. 2. 33. 0. 0. 0. 0. 0. 0. 0.
      21. 0. 0. 1. 1. 0. 4. 1. 84. 44. 8. 154. 0. 0. 3. 53. 0. 1. 0. 8.
      3. 5. 5. 83. 0. 0. 0. 0. 0. 0. 0. 1. 1. 0. 0. 1. 2. 0. 1. 14. 3.
      1. 0. 2. 0. 0. 0. 0. 0. 0. 0. 0. 0. 0. 0. 1. 1. 0. 0. 2. 0. 0. 0.
      0. 2. 1. 1. 11. 0. 1. 0. 6. 64. 46. 1. 31. 0. 0. 1. 12. 3. 1. 1.
      0. 0. 0. 2. 12. 1. 0. 0. 0. 0. 0. 0. 1. 4. 0. 0. 1. 1. 0. 0. 3.
      226. 48. 9. 35. 0. 0. 6. 6. 3. 0. 0. 1. 2. 0. 34. 14. 43. 3. 0. 2.
      0. 0. 0. 0. 29. 4. 2. 4. 4. 0. 13. 6.</_>
    <_>
      1562. 5. 31. 20. 23. 0. 34. 6. 382. 1. 10. 3. 232. 1. 219. 12. 54.
      1. 3. 0. 0. 0. 1. 0. 300. 0. 3. 6. 211. 0. 135. 6. 83. 0. 3. 3. 1.
      0. 2. 1. 17. 1. 1. 2. 0. 0. 10. 2. 78. 0. 6. 0. 3. 0. 3. 0. 413.
      0. 5. 3. 213. 0. 153. 5. 13. 0. 1. 0. 0. 0. 0. 0. 0. 0. 0. 0. 0.
      0. 0. 0. 0. 0. 0. 0. 0. 0. 0. 0. 1. 0. 0. 0. 0. 0. 0. 0. 51. 0. 1.
      5. 0. 0. 0. 0. 4. 1. 0. 1. 2. 0. 3. 0. 51. 0. 1. 0. 0. 0. 3. 0.
      59. 0. 1. 2. 23. 0. 7. 1. 12. 14. 0. 49. 0. 0. 0. 5. 4. 1. 0. 4.
      2. 3. 0. 8. 2. 0. 0. 0. 0. 0. 0. 0. 4. 0. 0. 4. 0. 0. 0. 8. 2. 0.
      0. 1. 0. 0. 0. 0. 0. 0. 0. 0. 0. 0. 0. 0. 0. 0. 0. 1. 0. 0. 0. 0.
      3. 0. 0. 18. 0. 1. 0. 19. 11. 7. 0. 3. 0. 0. 0. 0. 2. 1. 0. 0. 0.
      0. 0. 0. 0. 0. 0. 0. 0. 0. 0. 0. 6. 0. 0. 0. 0. 0. 0. 1. 54. 8. 0.
      12. 0. 0. 0. 0. 1. 1. 0. 0. 2. 1. 3. 0. 35. 1. 0. 0. 0. 0. 0. 0.
      41. 2. 0. 5. 7. 1. 8. 10.</_>
    <_>
      1560. 48. 132. 99. 28. 0. 86. 68. 90. 2. 8. 0. 69. 1. 244. 57. 26.
      0. 0. 0. 1. 0. 1. 0. 62. 0. 2. 2. 34. 0. 50. 6. 70. 1. 3. 1. 1. 0.
      5. 2. 5. 0. 0. 0. 2. 0. 4. 2. 59. 0. 4. 0. 0. 0. 4. 1. 157. 2. 3.
      0. 61. 0. 42. 4. 20. 0. 1. 3. 1. 0. 0. 0. 1. 0. 0. 0. 1. 0. 0. 0.
      0. 0. 0. 0. 0. 0. 0. 0. 0. 0. 0. 0. 0. 0. 0. 0. 56. 1. 5. 4. 1. 0.
      0. 1. 2. 0. 0. 0. 1. 0. 3. 2. 61. 0. 2. 0. 0. 0. 0. 0. 54. 0. 0.
      0. 8. 0. 6. 0. 110. 85. 8. 251. 1. 2. 4. 60. 5. 3. 0. 3. 3. 5. 10.
      51. 0. 1. 0. 0. 0. 0. 0. 0. 0. 0. 0. 1. 3. 0. 1. 3. 5. 1. 0. 5. 0.
      0. 0. 0. 0. 0. 0. 0. 0. 0. 0. 1. 2. 3. 0. 3. 0. 0. 1. 0. 5. 2. 0.
      5. 0. 0. 1. 8. 107. 72. 1. 73. 0. 0. 3. 5. 2. 0. 0. 2. 0. 0. 7.
      10. 2. 1. 0. 0. 0. 0. 0. 0. 2. 1. 0. 3. 1. 0. 0. 1. 234. 82. 7.
      54. 0. 0. 5. 10. 4. 0. 0. 1. 0. 0. 7. 19. 71. 7. 1. 7. 0. 0. 0. 2.
      45. 5. 2. 12. 7. 0. 10. 8.</_>
    <_>
      1654. 28. 151. 99. 24. 0. 118. 95. 93. 3. 5. 1. 79. 3. 256. 108.
      23. 0. 1. 1. 1. 0. 6. 0. 81. 0. 2. 0. 55. 0. 42. 7. 75. 1. 3. 2.
      0. 0. 2. 0. 3. 0. 1. 0. 2. 0. 5. 1. 48. 0. 3. 0. 0. 0. 6. 1. 159.
      0. 7. 3. 32. 0. 51. 10. 22. 0. 1. 1. 0. 0. 1. 0. 0. 0. 0. 0. 1. 0.
      0. 0. 0. 0. 0. 0. 0. 0. 0. 0. 1. 0. 0. 0. 0. 0. 0. 0. 52. 1. 1. 8.
      0. 0. 0. 3. 1. 0. 0. 1. 2. 0. 3. 2. 63. 0. 0. 0. 0. 0. 2. 0. 23.
      0. 0. 1. 4. 0. 6. 1. 107. 91. 5. 281. 0. 0. 0. 83. 5. 4. 0. 2. 0.
      6. 3. 53. 2. 0. 0. 0. 0. 0. 0. 0. 3. 0. 0. 2. 1. 1. 2. 5. 3. 0. 1.
      1. 0. 0. 0. 0. 0. 0. 0. 0. 0. 0. 0. 0. 3. 1. 0. 1. 0. 0. 0. 1. 1.
      1. 0. 11. 0. 0. 1. 14. 55. 58. 4. 62. 1. 0. 1. 7. 1. 0. 0. 0. 0.
      0. 4. 3. 1. 0. 0. 0. 0. 0. 0. 0. 8. 0. 0. 2. 2. 0. 0. 0. 172. 31.
      8. 59. 1. 1. 2. 7. 4. 1. 0. 0. 0. 0. 6. 11. 35. 4. 0. 3. 0. 0. 0.
      0. 43. 5. 1. 10. 5. 0. 13. 10.</_>
    <_>
      1168. 38. 105. 84. 20. 0. 118. 72. 68. 1. 4. 2. 78. 4. 274. 122.
      34. 0. 1. 0. 0. 0. 2. 1. 57. 0. 1. 0. 51. 0. 97. 20. 85. 1. 1. 2.
      4. 0. 1. 2. 2. 0. 0. 0. 1. 0. 7. 2. 56. 0. 1. 1. 1. 0. 4. 0. 96.
      1. 2. 1. 43. 0. 37. 6. 34. 1. 1. 2. 1. 0. 1. 0. 1. 0. 0. 0. 0. 0.
      1. 0. 0. 0. 0. 0. 0. 0. 0. 0. 0. 0. 0. 0. 0. 0. 0. 0. 88. 4. 4. 2.
      0. 0. 3. 2. 3. 0. 0. 0. 0. 0. 5. 0. 56. 0. 0. 0. 0. 0. 0. 0. 20.
      0. 1. 1. 7. 0. 6. 1. 104. 90. 3. 202. 0. 1. 3. 66. 3. 2. 1. 4. 3.
      5. 5. 61. 1. 0. 0. 1. 0. 0. 1. 0. 4. 1. 0. 4. 2. 2. 0. 4. 3. 3. 0.
      3. 0. 0. 0. 0. 0. 0. 0. 0. 0. 0. 0. 2. 1. 0. 0. 4. 0. 0. 0. 2. 6.
      3. 0. 4. 1. 0. 3. 7. 109. 84. 5. 85. 1. 0. 0. 18. 1. 1. 1. 1. 2.
      1. 4. 6. 2. 0. 0. 0. 0. 0. 1. 0. 5. 1. 0. 1. 2. 0. 3. 1. 370. 124.
      7. 83. 1. 0. 3. 21. 9. 2. 0. 2. 3. 0. 17. 15. 101. 10. 4. 10. 0.
      0. 1. 2. 62. 10. 0. 9. 16. 1. 16. 15.</_>
    <_>
      1229. 27. 98. 78. 33. 0. 52. 45. 115. 2. 3. 4. 92. 1. 150. 29. 28.
      0. 0. 0. 1. 0. 1. 0. 159. 0. 1. 2. 208. 0. 101. 14. 94. 0. 7. 5.
      0. 0. 0. 2. 5. 0. 1. 0. 2. 0. 9. 0. 64. 1. 5. 0. 1. 0. 1. 0. 279.
      0. 2. 1. 189. 0. 99. 2. 31. 2. 0. 3. 0. 0. 0. 0. 0. 0. 0. 0. 0. 0.
      0. 0. 0. 0. 0. 0. 0. 0. 0. 0. 2. 0. 0. 0. 0. 0. 0. 0. 80. 3. 2. 2.
      1. 0. 0. 0. 0. 0. 0. 0. 2. 0. 2. 0. 50. 0. 2. 0. 0. 0. 2. 0. 50.
      0. 0. 0. 11. 0. 14. 0. 124. 96. 5. 187. 0. 0. 2. 46. 8. 7. 1. 7.
      1. 2. 2. 38. 1. 0. 0. 0. 0. 0. 0. 0. 8. 2. 0. 4. 0. 0. 1. 9. 3. 1.
      0. 3. 0. 0. 1. 0. 0. 0. 0. 0. 0. 0. 0. 0. 1. 0. 0. 3. 0. 0. 0. 0.
      0. 0. 0. 8. 2. 3. 1. 10. 89. 83. 1. 67. 0. 0. 2. 7. 0. 2. 0. 0. 0.
      1. 0. 9. 4. 0. 0. 0. 0. 0. 0. 0. 1. 1. 0. 1. 0. 0. 1. 0. 221. 73.
      3. 74. 1. 0. 1. 1. 2. 0. 0. 4. 1. 1. 3. 3. 50. 7. 0. 3. 0. 0. 1.
      2. 44. 3. 0. 8. 8. 0. 6. 11.</_>
    <_>
      1109. 22. 95. 75. 22. 0. 91. 48. 118. 1. 0. 0. 89. 0. 216. 54. 26.
      0. 0. 0. 2. 0. 1. 0. 98. 0. 0. 1. 107. 1. 66. 8. 116. 1. 0. 2. 1.
      0. 1. 1. 4. 0. 0. 0. 0. 0. 5. 1. 111. 2. 2. 0. 5. 0. 4. 0. 320. 0.
      3. 2. 174. 0. 44. 3. 34. 2. 1. 3. 0. 0. 0. 0. 1. 0. 0. 0. 0. 0. 0.
      0. 0. 0. 0. 0. 0. 0. 0. 0. 0. 0. 0. 0. 0. 0. 0. 1. 85. 0. 2. 3. 0.
      0. 0. 1. 1. 0. 0. 0. 3. 0. 3. 1. 139. 0. 2. 2. 0. 0. 0. 0. 158. 0.
      1. 2. 10. 0. 4. 1. 69. 81. 1. 220. 2. 0. 2. 54. 3. 4. 1. 5. 0. 5.
      2. 53. 0. 0. 0. 0. 0. 0. 0. 0. 7. 0. 0. 3. 2. 0. 1. 5. 11. 3. 0.
      2. 0. 0. 0. 2. 2. 1. 0. 0. 0. 0. 0. 0. 2. 2. 0. 2. 0. 0. 0. 0. 5.
      5. 1. 9. 3. 0. 1. 15. 57. 85. 3. 115. 0. 0. 1. 7. 1. 3. 1. 2. 0.
      0. 1. 6. 0. 0. 0. 0. 0. 0. 0. 0. 2. 2. 0. 1. 0. 0. 1. 0. 162. 57.
      2. 49. 0. 0. 2. 12. 2. 0. 0. 0. 1. 0. 9. 8. 63. 17. 1. 7. 0. 0. 0.
      0. 64. 7. 1. 13. 3. 0. 8. 14.</_>
    <_>
      646. 16. 25. 23. 18. 0. 21. 10. 45. 0. 2. 0. 49. 0. 57. 21. 27. 1.
      1. 1. 1. 0. 1. 0. 66. 1. 0. 1. 114. 0. 47. 7. 88. 1. 0. 1. 1. 0.
      1. 0. 3. 0. 0. 0. 0. 0. 2. 0. 118. 1. 0. 0. 3. 0. 3. 0. 391. 2. 4.
      2. 225. 0. 58. 2. 39. 0. 1. 2. 2. 0. 1. 0. 1. 0. 0. 0. 0. 0. 0. 0.
      0. 0. 0. 0. 0. 0. 0. 0. 0. 0. 0. 0. 0. 0. 0. 0. 111. 1. 1. 4. 0.
      0. 0. 0. 1. 0. 0. 0. 1. 0. 0. 1. 97. 0. 0. 0. 0. 0. 0. 0. 106. 0.
      0. 1. 18. 0. 4. 1. 99. 113. 1. 191. 1. 0. 1. 10. 4. 3. 1. 1. 1. 2.
      1. 18. 3. 0. 0. 0. 0. 0. 0. 0. 5. 2. 0. 3. 1. 0. 0. 3. 5. 8. 0. 1.
      0. 0. 0. 0. 1. 0. 0. 0. 0. 0. 0. 0. 2. 6. 0. 5. 0. 0. 0. 0. 12. 6.
      0. 21. 2. 0. 3. 8. 167. 295. 1. 208. 0. 0. 0. 9. 2. 2. 0. 2. 0. 0.
      1. 5. 2. 1. 0. 0. 0. 0. 0. 0. 2. 1. 0. 3. 0. 0. 0. 0. 426. 262. 4.
      119. 1. 0. 5. 3. 8. 2. 0. 1. 3. 1. 6. 7. 94. 29. 1. 15. 0. 0. 1.
      0. 69. 21. 0. 22. 15. 2. 10. 16.</_>
    <_>
      406. 15. 23. 25. 16. 0. 17. 34. 23. 2. 3. 1. 21. 1. 60. 32. 17. 1.
      0. 0. 1. 0. 0. 0. 43. 0. 0. 3. 60. 1. 95. 7. 70. 0. 4. 1. 4. 0. 2.
      2. 3. 0. 0. 0. 1. 0. 2. 0. 109. 1. 3. 0. 6. 0. 2. 0. 208. 0. 0. 0.
      119. 0. 30. 5. 47. 0. 1. 1. 0. 0. 1. 0. 2. 0. 0. 0. 1. 0. 3. 0. 1.
      0. 0. 0. 0. 0. 0. 0. 0. 0. 0. 0. 1. 0. 1. 0. 123. 3. 2. 3. 3. 0.
      0. 0. 0. 0. 0. 0. 0. 0. 0. 0. 151. 0. 2. 0. 1. 0. 0. 0. 143. 0. 0.
      1. 21. 0. 7. 0. 71. 110. 0. 92. 1. 1. 5. 17. 1. 3. 0. 4. 1. 3. 3.
      17. 3. 0. 0. 0. 0. 0. 0. 0. 4. 0. 0. 2. 1. 1. 1. 7. 10. 9. 0. 3.
      0. 0. 0. 0. 0. 0. 0. 0. 0. 0. 1. 1. 1. 9. 1. 2. 0. 0. 0. 1. 4. 6.
      0. 6. 3. 3. 2. 5. 145. 373. 1. 335. 0. 0. 1. 17. 1. 3. 1. 1. 0. 2.
      1. 8. 3. 1. 0. 3. 0. 0. 0. 0. 1. 1. 0. 0. 0. 0. 1. 0. 321. 483. 3.
      219. 2. 1. 2. 5. 5. 4. 1. 4. 1. 0. 4. 10. 199. 69. 0. 24. 0. 0. 0.
      4. 115. 31. 0. 24. 19. 5. 7. 14.</_>
    <_>
      272. 16. 21. 20. 13. 0. 22. 29. 22. 2. 1. 2. 41. 0. 150. 68. 12.
      0. 1. 0. 1. 0. 1. 0. 46. 1. 1. 0. 137. 0. 175. 19. 46. 1. 1. 0. 2.
      0. 0. 1. 2. 0. 0. 0. 3. 0. 1. 0. 66. 0. 0. 0. 1. 0. 2. 1. 208. 0.
      0. 0. 247. 0. 54. 7. 35. 4. 1. 0. 0. 0. 0. 1. 0. 0. 0. 0. 0. 0. 0.
      0. 0. 0. 0. 0. 0. 0. 0. 0. 2. 0. 0. 0. 0. 0. 0. 0. 87. 0. 1. 0. 1.
      0. 0. 0. 0. 0. 0. 0. 0. 0. 2. 0. 118. 0. 1. 0. 0. 0. 0. 0. 136. 0.
      0. 0. 24. 0. 12. 2. 56. 77. 1. 158. 0. 2. 1. 17. 3. 2. 0. 5. 1. 1.
      3. 18. 2. 0. 0. 0. 0. 0. 0. 0. 1. 1. 1. 5. 1. 2. 1. 4. 6. 5. 0. 2.
      0. 0. 0. 0. 0. 0. 0. 0. 0. 0. 1. 0. 3. 3. 1. 1. 0. 0. 0. 0. 5. 2.
      1. 7. 0. 0. 1. 9. 100. 343. 4. 306. 1. 0. 2. 13. 1. 0. 0. 0. 2. 0.
      0. 9. 0. 3. 0. 0. 0. 0. 0. 0. 0. 0. 0. 1. 1. 0. 0. 1. 371. 599. 2.
      155. 0. 0. 3. 16. 3. 4. 1. 2. 2. 0. 2. 4. 169. 61. 1. 18. 0. 1. 0.
      0. 73. 19. 1. 14. 10. 0. 4. 13.</_>
    <_>
      166. 15. 39. 39. 49. 1. 53. 64. 32. 1. 2. 2. 72. 3. 135. 82. 24.
      1. 1. 1. 1. 0. 3. 0. 75. 0. 1. 3. 228. 0. 269. 43. 33. 2. 1. 2. 3.
      0. 0. 2. 4. 0. 0. 0. 3. 0. 2. 0. 45. 0. 2. 0. 6. 0. 1. 0. 201. 1.
      3. 4. 359. 2. 119. 11. 58. 1. 3. 5. 2. 0. 2. 1. 0. 0. 0. 0. 2. 0.
      0. 0. 0. 0. 0. 0. 0. 0. 0. 0. 3. 0. 0. 0. 0. 0. 1. 0. 69. 1. 3. 4.
      2. 0. 3. 0. 1. 0. 0. 0. 1. 0. 2. 0. 83. 0. 1. 2. 2. 0. 0. 0. 87.
      1. 0. 1. 45. 0. 14. 2. 26. 64. 3. 206. 3. 3. 4. 87. 5. 3. 0. 8. 1.
      5. 2. 45. 1. 2. 0. 1. 0. 0. 0. 1. 3. 0. 0. 5. 1. 1. 4. 26. 3. 2.
      0. 3. 0. 0. 0. 1. 0. 0. 0. 0. 0. 0. 0. 1. 3. 0. 0. 2. 0. 0. 1. 0.
      6. 4. 1. 8. 4. 1. 3. 30. 66. 251. 4. 371. 0. 0. 2. 27. 1. 3. 0. 9.
      1. 1. 1. 11. 0. 0. 0. 2. 0. 0. 0. 0. 3. 0. 0. 1. 2. 0. 2. 3. 173.
      261. 2. 123. 1. 0. 0. 8. 4. 2. 0. 2. 0. 1. 0. 11. 103. 52. 1. 16.
      0. 1. 0. 2. 73. 28. 1. 17. 11. 1. 8. 29.</_>
    <_>
      306. 20. 52. 66. 46. 0. 68. 67. 44. 2. 3. 2. 93. 1. 230. 79. 25.
      0. 3. 0. 4. 0. 5. 0. 112. 1. 4. 7. 329. 0. 349. 38. 34. 1. 1. 3.
      3. 0. 0. 0. 6. 0. 1. 0. 1. 0. 2. 0. 65. 2. 0. 0. 6. 0. 2. 0. 244.
      3. 1. 1. 388. 2. 135. 6. 42. 3. 4. 4. 0. 0. 0. 2. 1. 0. 0. 0. 3.
      0. 2. 0. 0. 0. 0. 0. 0. 0. 0. 0. 2. 0. 0. 0. 1. 0. 0. 0. 41. 2. 0.
      2. 2. 0. 1. 0. 4. 0. 0. 0. 1. 0. 1. 3. 49. 1. 0. 0. 0. 0. 1. 0.
      63. 0. 0. 1. 38. 0. 4. 2. 33. 61. 3. 244. 1. 0. 0. 90. 2. 4. 0. 3.
      1. 1. 3. 37. 2. 1. 0. 0. 0. 0. 0. 1. 3. 0. 0. 2. 3. 1. 7. 12. 7.
      3. 0. 6. 1. 0. 0. 1. 0. 0. 0. 1. 0. 0. 0. 1. 1. 4. 0. 3. 0. 0. 0.
      1. 6. 3. 1. 4. 2. 1. 7. 12. 45. 198. 3. 253. 0. 1. 1. 25. 1. 4. 0.
      1. 0. 0. 2. 18. 2. 0. 0. 1. 0. 0. 0. 0. 2. 0. 0. 1. 0. 0. 0. 1.
      122. 172. 2. 84. 2. 1. 2. 8. 5. 0. 0. 1. 2. 1. 4. 4. 47. 24. 0.
      14. 1. 0. 0. 1. 45. 10. 1. 12. 14. 1. 5. 21.</_>
    <_>
      269. 18. 32. 61. 30. 0. 55. 70. 30. 3. 2. 1. 74. 3. 123. 44. 28.
      1. 0. 1. 2. 0. 0. 0. 78. 1. 0. 1. 183. 0. 214. 24. 36. 3. 3. 2. 3.
      0. 0. 1. 3. 0. 1. 0. 1. 0. 1. 1. 50. 0. 3. 0. 1. 0. 2. 1. 253. 0.
      3. 2. 242. 1. 80. 3. 39. 1. 6. 3. 2. 0. 2. 1. 0. 0. 0. 0. 0. 0. 0.
      0. 1. 0. 0. 0. 0. 0. 0. 0. 1. 0. 0. 1. 0. 0. 0. 0. 58. 3. 1. 0. 2.
      0. 0. 0. 2. 0. 0. 0. 1. 0. 2. 0. 70. 0. 1. 0. 2. 0. 1. 0. 101. 1.
      1. 1. 25. 0. 7. 1. 46. 75. 2. 205. 0. 0. 0. 70. 1. 1. 2. 10. 1. 3.
      5. 48. 4. 1. 0. 0. 0. 0. 0. 1. 3. 2. 1. 5. 3. 2. 2. 21. 1. 3. 0.
      2. 0. 0. 0. 3. 0. 1. 0. 0. 0. 1. 0. 0. 4. 1. 0. 2. 0. 0. 0. 0. 6.
      7. 0. 4. 6. 1. 2. 15. 75. 274. 1. 365. 0. 0. 0. 23. 3. 5. 0. 3. 1.
      2. 0. 9. 4. 0. 0. 1. 0. 0. 0. 0. 1. 0. 0. 3. 4. 0. 0. 3. 268. 397.
      2. 145. 2. 0. 3. 5. 4. 1. 2. 2. 2. 3. 0. 5. 120. 39. 0. 14. 0. 0.
      2. 3. 58. 23. 0. 15. 8. 0. 7. 27.</_>
    <_>
      260. 13. 51. 78. 54. 0. 101. 99. 36. 2. 3. 3. 90. 1. 142. 63. 12.
      0. 1. 1. 0. 0. 2. 1. 68. 2. 6. 5. 309. 1. 169. 39. 22. 0. 1. 0. 0.
      0. 1. 1. 1. 0. 0. 0. 0. 0. 2. 2. 41. 1. 0. 3. 2. 0. 1. 0. 221. 1.
      5. 6. 523. 1. 121. 13. 39. 0. 0. 1. 1. 0. 1. 2. 2. 0. 0. 0. 0. 0.
      0. 0. 1. 0. 0. 0. 0. 0. 0. 0. 1. 0. 0. 0. 0. 0. 0. 0. 44. 3. 3. 2.
      0. 0. 0. 0. 0. 0. 0. 0. 2. 0. 0. 2. 44. 0. 0. 0. 1. 0. 1. 0. 72.
      0. 0. 0. 17. 0. 9. 1. 20. 49. 2. 430. 1. 2. 0. 209. 6. 3. 0. 7. 2.
      3. 1. 85. 0. 0. 0. 1. 0. 0. 0. 0. 6. 0. 0. 7. 1. 1. 3. 28. 3. 5.
      0. 4. 0. 0. 0. 0. 0. 0. 0. 1. 0. 0. 0. 1. 0. 2. 0. 5. 0. 0. 0. 0.
      4. 5. 1. 16. 6. 5. 1. 31. 58. 106. 0. 295. 0. 1. 2. 29. 4. 2. 0.
      2. 0. 1. 1. 8. 0. 0. 1. 2. 0. 0. 0. 0. 5. 0. 0. 2. 0. 0. 1. 4. 93.
      212. 0. 72. 0. 1. 2. 5. 1. 1. 0. 2. 2. 0. 1. 6. 38. 22. 2. 11. 0.
      0. 0. 2. 42. 15. 0. 21. 4. 1. 5. 16.</_>
    <_>
      258. 23. 20. 44. 23. 2. 33. 31. 41. 0. 4. 3. 61. 2. 100. 41. 20.
      0. 3. 1. 2. 0. 2. 0. 68. 0. 2. 1. 251. 0. 156. 21. 46. 1. 0. 5. 2.
      0. 2. 0. 4. 0. 1. 0. 2. 0. 0. 1. 55. 0. 2. 1. 3. 0. 3. 1. 213. 1.
      0. 1. 355. 0. 98. 8. 36. 3. 0. 3. 0. 0. 0. 0. 0. 0. 0. 0. 0. 0. 0.
      0. 0. 0. 0. 0. 0. 0. 0. 0. 2. 0. 1. 0. 1. 0. 0. 0. 69. 0. 1. 4. 0.
      1. 1. 0. 2. 0. 0. 0. 3. 0. 0. 0. 79. 0. 0. 2. 0. 0. 1. 0. 56. 0.
      1. 1. 14. 0. 3. 0. 50. 89. 3. 169. 3. 1. 2. 83. 2. 4. 0. 6. 2. 1.
      3. 37. 3. 0. 0. 1. 0. 0. 0. 1. 2. 0. 0. 5. 1. 0. 1. 17. 1. 8. 0.
      4. 0. 1. 0. 0. 1. 0. 0. 0. 0. 0. 0. 1. 0. 1. 0. 1. 0. 0. 0. 2. 7.
      3. 1. 8. 5. 1. 0. 14. 85. 369. 5. 390. 0. 1. 1. 31. 5. 3. 0. 1. 0.
      0. 3. 6. 3. 1. 0. 2. 0. 1. 0. 0. 1. 0. 0. 2. 2. 1. 0. 3. 229. 461.
      4. 169. 2. 1. 2. 13. 3. 3. 0. 3. 1. 0. 4. 10. 52. 43. 1. 19. 0. 0.
      1. 3. 32. 26. 1. 15. 9. 3. 7. 8.</_>
    <_>
      269. 22. 53. 81. 50. 1. 81. 124. 55. 1. 4. 0. 88. 0. 215. 92. 17.
      0. 1. 1. 2. 0. 2. 0. 72. 1. 5. 3. 320. 0. 342. 27. 37. 2. 3. 2. 1.
      0. 3. 0. 2. 0. 0. 0. 2. 0. 5. 0. 46. 0. 2. 1. 2. 0. 1. 1. 189. 2.
      3. 3. 340. 0. 147. 13. 33. 2. 3. 1. 3. 0. 0. 0. 1. 0. 0. 0. 1. 0.
      0. 0. 0. 0. 0. 0. 0. 0. 0. 0. 1. 0. 0. 0. 0. 0. 0. 0. 35. 4. 2. 4.
      1. 0. 1. 0. 2. 0. 0. 0. 0. 0. 1. 2. 59. 1. 1. 0. 0. 0. 0. 0. 92.
      0. 0. 0. 13. 0. 8. 2. 39. 83. 5. 324. 1. 0. 2. 138. 3. 4. 2. 9. 3.
      3. 1. 64. 0. 0. 0. 0. 0. 0. 0. 0. 5. 2. 0. 3. 1. 1. 1. 16. 4. 0.
      0. 3. 0. 0. 0. 2. 0. 0. 0. 1. 0. 0. 0. 2. 0. 3. 0. 2. 0. 0. 1. 0.
      6. 2. 0. 6. 0. 0. 1. 23. 56. 192. 1. 372. 0. 0. 2. 25. 1. 0. 0. 0.
      0. 2. 2. 8. 1. 1. 0. 0. 0. 0. 0. 0. 0. 0. 0. 3. 1. 0. 0. 0. 77.
      84. 2. 89. 2. 0. 1. 5. 0. 0. 0. 0. 1. 0. 7. 8. 51. 15. 0. 8. 0. 1.
      0. 3. 35. 8. 0. 17. 5. 0. 6. 21.</_>
    <_>
      264. 19. 34. 53. 54. 1. 70. 62. 38. 1. 2. 3. 82. 0. 151. 48. 27.
      1. 1. 1. 2. 0. 4. 0. 79. 0. 4. 2. 194. 0. 161. 31. 34. 2. 2. 1. 1.
      0. 1. 0. 3. 0. 0. 0. 3. 0. 1. 0. 52. 1. 1. 0. 3. 0. 1. 0. 355. 0.
      3. 5. 546. 1. 112. 14. 43. 1. 0. 4. 2. 1. 3. 3. 0. 0. 0. 0. 0. 0.
      1. 1. 0. 0. 0. 0. 0. 0. 0. 0. 1. 0. 0. 0. 0. 0. 0. 0. 78. 1. 2. 2.
      1. 0. 0. 1. 0. 0. 0. 0. 1. 0. 3. 0. 68. 0. 1. 1. 3. 0. 0. 0. 132.
      0. 1. 2. 32. 1. 10. 2. 28. 39. 1. 267. 4. 2. 0. 116. 0. 7. 0. 9.
      0. 0. 3. 65. 1. 1. 0. 0. 0. 0. 0. 0. 6. 3. 0. 3. 2. 2. 1. 17. 3.
      1. 0. 1. 0. 0. 0. 1. 0. 0. 0. 0. 0. 0. 1. 1. 1. 0. 0. 3. 0. 0. 0.
      1. 12. 8. 0. 15. 3. 0. 4. 30. 67. 154. 0. 258. 0. 0. 3. 19. 4. 1.
      0. 2. 1. 0. 1. 17. 2. 0. 0. 0. 0. 0. 0. 0. 2. 4. 0. 2. 2. 0. 0. 1.
      149. 216. 4. 79. 1. 1. 1. 10. 2. 3. 0. 2. 2. 0. 2. 8. 66. 39. 1.
      5. 0. 0. 0. 1. 63. 27. 4. 29. 8. 5. 9. 16.</_>
    <_>
      346. 17. 46. 50. 75. 1. 54. 55. 33. 0. 2. 8. 48. 0. 85. 42. 22. 2.
      2. 0. 2. 0. 1. 0. 53. 0. 3. 1. 94. 1. 55. 11. 50. 2. 5. 6. 5. 0.
      1. 3. 2. 0. 0. 0. 1. 0. 1. 0. 58. 2. 4. 2. 10. 0. 0. 0. 268. 0. 5.
      4. 240. 0. 47. 18. 107. 0. 5. 4. 2. 0. 0. 0. 5. 0. 0. 0. 1. 0. 0.
      0. 0. 0. 0. 0. 0. 0. 0. 0. 3. 0. 0. 0. 1. 0. 0. 0. 104. 4. 2. 6.
      2. 0. 0. 0. 2. 0. 0. 0. 1. 0. 0. 1. 134. 0. 1. 1. 2. 0. 0. 0. 234.
      1. 2. 0. 33. 2. 8. 0. 35. 67. 4. 235. 3. 2. 0. 103. 2. 8. 0. 8. 2.
      4. 3. 28. 0. 1. 1. 1. 0. 0. 0. 2. 3. 0. 0. 5. 3. 4. 1. 30. 4. 2.
      0. 11. 0. 0. 0. 2. 0. 1. 0. 0. 0. 0. 0. 2. 4. 2. 0. 6. 0. 1. 0. 2.
      13. 16. 0. 28. 11. 5. 3. 34. 89. 196. 6. 462. 1. 1. 2. 36. 1. 6.
      0. 7. 0. 0. 0. 11. 2. 1. 0. 2. 0. 0. 0. 0. 2. 3. 0. 3. 2. 0. 0. 1.
      127. 142. 0. 99. 2. 0. 1. 17. 2. 2. 0. 4. 0. 0. 1. 3. 91. 55. 1.
      31. 1. 2. 0. 3. 108. 33. 3. 60. 17. 2. 3. 31.</_>
    <_>
      400. 19. 38. 55. 29. 1. 48. 32. 70. 2. 5. 3. 93. 0. 232. 61. 25.
      0. 0. 1. 0. 0. 1. 0. 98. 0. 1. 3. 226. 0. 207. 19. 48. 1. 0. 0. 0.
      0. 1. 1. 7. 0. 0. 0. 3. 0. 3. 1. 53. 0. 2. 2. 1. 0. 3. 0. 235. 1.
      3. 2. 224. 0. 111. 7. 26. 2. 3. 3. 1. 0. 0. 0. 0. 0. 0. 0. 1. 0.
      0. 1. 0. 0. 0. 0. 0. 0. 0. 0. 0. 0. 0. 0. 0. 0. 1. 0. 59. 0. 1. 1.
      0. 1. 1. 0. 1. 0. 0. 0. 2. 0. 2. 0. 54. 0. 0. 0. 0. 0. 1. 0. 56.
      0. 0. 0. 17. 0. 12. 0. 69. 97. 2. 168. 0. 1. 3. 36. 4. 2. 0. 3. 3.
      3. 3. 35. 2. 1. 0. 0. 0. 0. 0. 0. 2. 0. 1. 3. 0. 0. 2. 5. 3. 1. 0.
      5. 0. 0. 0. 1. 0. 1. 0. 0. 0. 0. 0. 0. 0. 1. 0. 0. 0. 0. 0. 0. 7.
      3. 1. 4. 0. 0. 0. 14. 91. 436. 3. 354. 0. 0. 2. 17. 0. 3. 0. 0. 1.
      1. 0. 11. 1. 0. 0. 1. 0. 0. 0. 0. 2. 1. 0. 1. 0. 0. 0. 1. 232.
      276. 7. 151. 0. 0. 0. 8. 4. 0. 0. 0. 1. 0. 3. 4. 50. 8. 0. 8. 0.
      0. 0. 0. 50. 11. 0. 10. 6. 1. 8. 14.</_>
    <_>
      381. 22. 34. 57. 27. 0. 41. 52. 45. 0. 4. 0. 64. 0. 148. 34. 23.
      0. 1. 0. 2. 0. 2. 0. 88. 0. 2. 2. 167. 0. 144. 22. 63. 1. 2. 1. 3.
      0. 3. 3. 5. 0. 0. 0. 1. 0. 1. 1. 93. 2. 4. 2. 4. 0. 1. 1. 314. 0.
      6. 2. 299. 0. 70. 11. 46. 0. 1. 2. 1. 0. 1. 0. 0. 0. 0. 0. 0. 0.
      0. 0. 1. 0. 0. 0. 0. 0. 0. 0. 1. 0. 0. 0. 0. 0. 0. 0. 72. 1. 5. 1.
      0. 0. 0. 1. 0. 0. 0. 0. 0. 0. 1. 2. 83. 1. 1. 0. 0. 0. 0. 0. 170.
      0. 2. 3. 32. 1. 4. 1. 60. 91. 3. 416. 1. 0. 0. 97. 4. 5. 0. 7. 0.
      3. 1. 30. 2. 0. 0. 0. 0. 0. 0. 0. 4. 0. 0. 3. 4. 1. 0. 15. 7. 3.
      0. 3. 0. 0. 0. 0. 0. 0. 0. 2. 0. 0. 0. 0. 6. 6. 0. 3. 0. 0. 0. 1.
      5. 4. 0. 12. 2. 2. 0. 16. 67. 170. 0. 380. 0. 0. 0. 26. 5. 1. 0.
      1. 0. 0. 0. 5. 0. 1. 0. 0. 0. 0. 0. 0. 3. 0. 0. 3. 1. 0. 2. 0.
      215. 130. 1. 79. 0. 0. 0. 6. 3. 0. 0. 1. 1. 2. 4. 7. 78. 30. 0. 9.
      0. 0. 1. 0. 76. 16. 1. 23. 9. 1. 8. 14.</_>
    <_>
      469. 14. 30. 51. 53. 0. 56. 60. 49. 2. 1. 2. 76. 0. 168. 78. 17.
      0. 1. 1. 1. 0. 0. 0. 86. 2. 4. 0. 191. 0. 129. 22. 44. 0. 3. 3. 4.
      0. 1. 0. 2. 0. 0. 0. 1. 0. 3. 0. 61. 0. 2. 1. 6. 0. 4. 0. 389. 0.
      7. 3. 499. 0. 137. 17. 65. 1. 1. 3. 3. 0. 0. 1. 2. 0. 0. 0. 1. 0.
      2. 0. 2. 0. 0. 0. 0. 0. 0. 0. 2. 0. 0. 0. 0. 0. 0. 1. 62. 1. 2. 3.
      1. 0. 1. 1. 1. 0. 0. 1. 0. 0. 1. 0. 69. 0. 1. 0. 2. 0. 0. 0. 128.
      2. 1. 1. 43. 0. 9. 3. 34. 43. 3. 300. 0. 2. 1. 144. 1. 3. 0. 13.
      3. 1. 1. 57. 0. 0. 0. 3. 0. 0. 0. 0. 2. 1. 1. 11. 2. 1. 0. 30. 3.
      2. 0. 5. 0. 0. 0. 0. 0. 0. 0. 0. 0. 0. 0. 1. 0. 2. 0. 3. 0. 0. 0.
      2. 9. 9. 0. 17. 2. 2. 5. 25. 44. 108. 4. 338. 1. 0. 0. 31. 1. 0.
      0. 4. 0. 1. 0. 7. 0. 0. 0. 2. 0. 0. 0. 0. 4. 0. 0. 1. 1. 1. 0. 3.
      68. 52. 3. 70. 0. 0. 1. 10. 3. 0. 0. 2. 1. 1. 0. 4. 30. 19. 1. 8.
      0. 0. 1. 2. 60. 21. 0. 27. 8. 4. 9. 21.</_>
    <_>
      210. 15. 26. 58. 91. 0. 57. 80. 24. 0. 2. 2. 52. 1. 68. 44. 15. 0.
      0. 1. 1. 0. 1. 0. 50. 2. 2. 3. 115. 0. 78. 22. 31. 0. 2. 3. 6. 0.
      3. 2. 1. 0. 1. 0. 0. 0. 3. 0. 57. 1. 3. 0. 4. 0. 1. 1. 404. 3. 9.
      2. 422. 2. 85. 27. 81. 1. 6. 4. 1. 0. 1. 1. 0. 0. 0. 0. 1. 0. 2.
      0. 0. 0. 0. 0. 0. 0. 0. 0. 1. 0. 1. 0. 0. 0. 0. 0. 74. 0. 2. 4. 3.
      0. 1. 0. 1. 0. 0. 0. 0. 0. 1. 0. 84. 0. 0. 0. 1. 0. 0. 1. 213. 0.
      2. 1. 29. 0. 3. 1. 26. 55. 1. 361. 4. 2. 1. 181. 4. 4. 0. 5. 1. 2.
      1. 75. 0. 3. 0. 2. 0. 0. 0. 0. 2. 1. 0. 8. 2. 0. 0. 19. 4. 6. 0.
      4. 0. 1. 0. 0. 0. 0. 0. 0. 0. 0. 0. 0. 2. 5. 0. 6. 0. 1. 0. 3. 8.
      8. 2. 26. 6. 3. 1. 32. 76. 190. 0. 437. 2. 0. 1. 41. 3. 3. 0. 5.
      0. 2. 0. 8. 0. 0. 0. 1. 0. 0. 0. 0. 3. 0. 0. 3. 1. 0. 0. 3. 78.
      115. 3. 111. 0. 0. 0. 5. 1. 1. 0. 2. 0. 0. 0. 3. 40. 46. 0. 21. 1.
      0. 1. 0. 65. 32. 0. 40. 13. 4. 5. 30.</_>
    <_>
      753. 14. 42. 47. 22. 0. 42. 13. 100. 3. 7. 1. 106. 1. 154. 29. 25.
      0. 1. 1. 1. 0. 0. 0. 133. 1. 1. 1. 220. 1. 144. 7. 88. 0. 1. 2. 1.
      0. 2. 1. 5. 0. 0. 0. 4. 0. 4. 0. 105. 1. 1. 1. 1. 0. 2. 0. 347. 0.
      5. 3. 170. 1. 102. 3. 35. 0. 0. 1. 0. 0. 1. 0. 0. 0. 0. 0. 0. 0.
      1. 0. 0. 0. 0. 0. 0. 0. 0. 0. 2. 0. 0. 0. 0. 0. 0. 0. 77. 1. 3. 3.
      0. 0. 0. 0. 0. 0. 0. 0. 2. 0. 2. 0. 66. 0. 0. 0. 0. 0. 0. 0. 58.
      0. 1. 0. 7. 0. 6. 2. 85. 125. 1. 151. 1. 0. 0. 29. 6. 2. 0. 3. 1.
      1. 4. 19. 1. 1. 0. 1. 0. 0. 0. 0. 4. 0. 0. 1. 1. 1. 2. 8. 8. 4. 0.
      4. 0. 0. 0. 1. 0. 0. 0. 1. 0. 0. 0. 1. 3. 1. 0. 2. 1. 0. 0. 0. 5.
      3. 0. 7. 1. 0. 2. 7. 120. 304. 4. 188. 0. 1. 2. 6. 2. 2. 0. 1. 2.
      0. 1. 5. 0. 0. 1. 0. 0. 0. 0. 0. 2. 1. 0. 2. 0. 0. 1. 0. 218. 188.
      5. 128. 0. 1. 1. 9. 8. 1. 0. 1. 6. 2. 3. 1. 71. 14. 0. 9. 1. 1. 0.
      0. 50. 10. 1. 9. 6. 0. 7. 5.</_>
    <_>
      492. 11. 31. 52. 42. 1. 33. 44. 62. 2. 0. 1. 61. 1. 53. 56. 16. 1.
      1. 1. 0. 0. 0. 0. 111. 0. 0. 2. 253. 0. 96. 13. 71. 0. 2. 1. 2. 0.
      2. 1. 1. 0. 1. 0. 6. 0. 4. 0. 96. 0. 1. 0. 1. 0. 1. 0. 402. 1. 4.
      3. 438. 0. 120. 9. 46. 0. 2. 1. 1. 0. 1. 0. 1. 0. 0. 0. 1. 0. 0.
      1. 0. 0. 0. 0. 0. 0. 0. 0. 5. 0. 0. 0. 0. 0. 2. 0. 86. 2. 1. 1. 1.
      0. 3. 1. 1. 0. 0. 0. 0. 0. 2. 0. 105. 0. 1. 1. 0. 0. 1. 0. 191. 0.
      0. 0. 23. 0. 9. 2. 59. 87. 1. 206. 0. 1. 1. 48. 3. 0. 0. 4. 1. 1.
      3. 33. 0. 0. 0. 0. 0. 0. 0. 0. 2. 1. 0. 2. 2. 1. 1. 9. 7. 4. 0. 3.
      0. 0. 0. 0. 1. 0. 1. 0. 0. 0. 0. 1. 8. 5. 0. 1. 0. 0. 0. 0. 9. 6.
      0. 6. 3. 0. 0. 15. 60. 193. 1. 327. 0. 1. 2. 15. 2. 2. 0. 2. 1. 0.
      0. 9. 1. 0. 0. 0. 0. 0. 0. 0. 1. 0. 0. 0. 0. 0. 1. 0. 132. 152. 9.
      84. 1. 0. 1. 8. 4. 0. 1. 1. 3. 1. 0. 3. 65. 16. 0. 12. 0. 0. 0. 0.
      75. 24. 1. 24. 6. 6. 5. 5.</_>
    <_>
      704. 22. 57. 76. 42. 1. 54. 46. 54. 0. 3. 1. 63. 0. 89. 45. 28. 1.
      2. 0. 0. 0. 0. 0. 84. 0. 2. 3. 92. 0. 63. 9. 75. 0. 1. 1. 4. 0. 1.
      0. 4. 0. 0. 0. 2. 0. 2. 1. 112. 3. 0. 3. 6. 0. 3. 0. 490. 0. 8. 3.
      253. 1. 69. 14. 73. 2. 2. 4. 2. 0. 0. 0. 3. 0. 0. 0. 2. 0. 0. 0.
      0. 0. 0. 0. 0. 0. 0. 0. 3. 0. 0. 0. 0. 0. 0. 2. 62. 1. 2. 6. 1. 0.
      1. 0. 2. 0. 0. 0. 2. 0. 1. 0. 96. 0. 1. 1. 0. 0. 2. 0. 239. 0. 3.
      2. 32. 0. 11. 1. 56. 90. 3. 339. 2. 0. 1. 96. 4. 3. 0. 10. 2. 0.
      4. 55. 2. 0. 0. 0. 0. 0. 0. 0. 5. 3. 0. 5. 2. 2. 2. 11. 6. 3. 0.
      9. 0. 0. 0. 2. 1. 0. 0. 1. 0. 0. 0. 1. 2. 2. 0. 5. 1. 0. 0. 1. 8.
      5. 1. 14. 1. 7. 3. 28. 49. 108. 4. 308. 0. 0. 0. 25. 3. 4. 0. 2.
      0. 2. 1. 15. 0. 0. 0. 1. 0. 0. 0. 0. 6. 0. 1. 2. 0. 0. 1. 1. 41.
      41. 1. 66. 2. 0. 1. 5. 2. 3. 0. 0. 1. 0. 2. 8. 28. 19. 0. 20. 0.
      0. 0. 1. 64. 19. 1. 33. 11. 0. 9. 23.</_>
    <_>
      319. 9. 44. 80. 122. 3. 82. 83. 32. 2. 6. 3. 79. 1. 82. 63. 19. 2.
      1. 0. 3. 0. 1. 1. 65. 0. 4. 8. 154. 0. 81. 31. 27. 1. 1. 6. 2. 0.
      2. 3. 1. 0. 1. 0. 5. 0. 2. 0. 39. 0. 5. 1. 6. 0. 3. 2. 299. 6. 8.
      5. 398. 1. 85. 32. 97. 2. 3. 9. 6. 0. 2. 3. 4. 0. 0. 1. 1. 0. 0.
      1. 1. 1. 0. 0. 1. 0. 0. 0. 1. 0. 0. 1. 2. 0. 1. 0. 42. 1. 2. 2. 2.
      0. 1. 1. 0. 0. 1. 0. 2. 0. 0. 1. 48. 0. 1. 0. 0. 0. 1. 0. 113. 1.
      2. 5. 44. 0. 9. 6. 28. 50. 2. 386. 3. 4. 3. 188. 2. 3. 1. 18. 1.
      3. 0. 77. 2. 2. 0. 3. 0. 1. 0. 1. 5. 4. 1. 17. 1. 2. 2. 35. 2. 2.
      0. 5. 0. 0. 0. 3. 0. 0. 0. 2. 0. 0. 0. 0. 2. 1. 0. 8. 0. 0. 0. 2.
      11. 8. 0. 37. 8. 4. 6. 54. 48. 109. 3. 477. 1. 1. 4. 40. 1. 4. 0.
      3. 0. 1. 1. 11. 0. 0. 0. 3. 0. 0. 0. 0. 3. 3. 1. 5. 2. 0. 0. 3.
      35. 38. 0. 75. 0. 0. 1. 5. 0. 3. 0. 2. 0. 1. 0. 15. 14. 14. 0. 22.
      0. 0. 0. 3. 39. 25. 2. 63. 9. 5. 8. 42.</_>
    <_>
      609. 16. 58. 73. 86. 0. 58. 55. 54. 1. 8. 7. 54. 4. 94. 33. 18. 1.
      0. 2. 3. 0. 1. 1. 81. 0. 3. 7. 126. 0. 80. 15. 40. 5. 3. 4. 0. 0.
      3. 1. 4. 0. 0. 0. 1. 0. 1. 1. 74. 0. 7. 1. 3. 0. 3. 0. 449. 0. 14.
      9. 493. 2. 98. 18. 71. 1. 1. 1. 1. 0. 1. 1. 1. 0. 0. 0. 1. 0. 1.
      0. 1. 0. 0. 0. 0. 0. 0. 0. 3. 0. 0. 0. 1. 0. 0. 1. 51. 0. 1. 4. 2.
      0. 1. 1. 3. 0. 0. 0. 1. 0. 1. 0. 45. 0. 2. 2. 0. 0. 1. 0. 137. 1.
      1. 4. 41. 0. 4. 2. 42. 54. 0. 315. 6. 1. 1. 145. 4. 5. 0. 12. 2.
      1. 0. 64. 2. 1. 1. 2. 0. 0. 0. 0. 3. 3. 0. 7. 2. 0. 0. 33. 3. 2.
      0. 3. 0. 0. 0. 2. 1. 0. 0. 1. 0. 0. 0. 2. 0. 5. 2. 6. 0. 0. 0. 2.
      11. 7. 0. 15. 2. 2. 1. 51. 62. 98. 0. 259. 2. 0. 2. 25. 2. 2. 0.
      4. 0. 2. 0. 6. 0. 0. 0. 0. 0. 0. 0. 0. 2. 0. 0. 4. 0. 0. 1. 2. 61.
      40. 3. 77. 0. 0. 0. 6. 3. 1. 0. 1. 2. 0. 1. 9. 17. 9. 0. 22. 0. 1.
      0. 2. 73. 21. 1. 34. 10. 1. 7. 16.</_>
    <_>
      568. 11. 58. 61. 23. 0. 87. 56. 120. 2. 7. 4. 182. 1. 294. 64. 12.
      1. 0. 0. 0. 0. 1. 0. 134. 1. 4. 3. 360. 0. 279. 14. 34. 0. 2. 1.
      2. 0. 1. 0. 4. 0. 0. 0. 3. 0. 3. 0. 49. 0. 1. 0. 1. 0. 0. 0. 166.
      1. 3. 0. 293. 0. 145. 11. 17. 0. 3. 2. 0. 0. 2. 1. 0. 0. 0. 0. 0.
      0. 0. 0. 0. 0. 0. 0. 0. 0. 0. 0. 0. 0. 0. 0. 0. 0. 0. 0. 41. 0. 1.
      1. 0. 0. 0. 0. 2. 0. 0. 0. 0. 0. 0. 0. 22. 0. 0. 0. 0. 0. 0. 0.
      36. 0. 0. 0. 8. 0. 6. 1. 82. 91. 8. 387. 0. 1. 0. 74. 4. 2. 0. 4.
      1. 2. 3. 37. 0. 0. 0. 0. 0. 0. 0. 1. 3. 0. 0. 1. 2. 1. 1. 8. 0. 1.
      1. 3. 0. 0. 0. 1. 0. 0. 0. 0. 0. 0. 0. 0. 2. 0. 0. 0. 0. 0. 0. 1.
      3. 0. 0. 10. 1. 1. 0. 10. 61. 192. 0. 287. 1. 0. 2. 22. 3. 1. 0.
      0. 1. 1. 1. 4. 0. 0. 0. 0. 0. 0. 0. 1. 3. 0. 0. 1. 0. 0. 0. 2. 97.
      91. 1. 68. 0. 0. 1. 1. 3. 1. 0. 2. 1. 0. 2. 3. 23. 2. 0. 6. 0. 0.
      0. 0. 23. 3. 0. 7. 6. 0. 0. 7.</_>
    <_>
      647. 11. 96. 118. 66. 0. 106. 82. 78. 1. 11. 4. 95. 0. 129. 52. 5.
      1. 6. 0. 0. 0. 1. 0. 86. 0. 1. 1. 198. 0. 85. 20. 20. 1. 3. 3. 2.
      0. 2. 1. 4. 0. 0. 0. 2. 0. 0. 2. 42. 0. 1. 2. 2. 0. 1. 0. 483. 0.
      10. 6. 622. 0. 73. 13. 28. 0. 0. 3. 1. 0. 2. 0. 2. 0. 0. 0. 0. 0.
      0. 0. 0. 0. 0. 0. 0. 0. 0. 0. 3. 0. 0. 0. 0. 0. 0. 0. 22. 3. 2. 0.
      0. 0. 0. 0. 0. 0. 0. 0. 1. 0. 1. 0. 20. 0. 0. 0. 0. 0. 0. 0. 91.
      0. 0. 1. 16. 0. 4. 0. 49. 62. 4. 427. 2. 2. 1. 147. 1. 6. 0. 8. 0.
      5. 1. 59. 0. 0. 0. 1. 0. 0. 0. 1. 4. 0. 0. 5. 2. 1. 1. 15. 3. 1.
      0. 7. 0. 0. 0. 0. 0. 0. 0. 1. 0. 0. 1. 0. 0. 0. 0. 2. 0. 1. 0. 1.
      3. 2. 0. 18. 0. 1. 1. 25. 36. 82. 1. 289. 0. 1. 2. 18. 0. 0. 0. 2.
      0. 1. 1. 4. 1. 0. 0. 0. 0. 0. 0. 0. 1. 0. 0. 3. 1. 0. 0. 3. 24.
      27. 1. 37. 0. 0. 0. 8. 0. 1. 0. 0. 0. 0. 1. 3. 4. 5. 0. 12. 0. 0.
      0. 1. 15. 3. 0. 11. 4. 0. 2. 17.</_>
    <_>
      2555. 5. 59. 37. 19. 0. 36. 18. 249. 0. 7. 1. 143. 0. 288. 11. 21.
      0. 1. 0. 0. 0. 2. 0. 139. 0. 0. 0. 88. 0. 90. 8. 80. 0. 0. 2. 1.
      0. 1. 0. 7. 0. 0. 0. 4. 0. 2. 0. 48. 0. 0. 0. 2. 0. 1. 0. 280. 0.
      4. 1. 73. 0. 74. 3. 11. 0. 1. 0. 0. 0. 0. 0. 0. 0. 0. 0. 1. 0. 0.
      0. 0. 0. 0. 0. 0. 0. 0. 0. 1. 0. 0. 0. 0. 0. 0. 0. 47. 0. 0. 3. 1.
      0. 0. 0. 2. 0. 0. 0. 1. 0. 1. 0. 21. 0. 1. 2. 0. 0. 0. 0. 20. 0.
      0. 0. 5. 0. 5. 0. 23. 14. 0. 76. 0. 0. 0. 11. 1. 0. 0. 4. 0. 1. 2.
      31. 0. 0. 0. 0. 0. 0. 0. 0. 0. 0. 0. 0. 0. 1. 0. 5. 2. 0. 0. 3. 0.
      0. 0. 0. 0. 0. 0. 0. 0. 0. 0. 0. 0. 0. 0. 0. 0. 0. 0. 0. 0. 0. 0.
      4. 0. 3. 0. 2. 13. 7. 0. 1. 0. 0. 0. 0. 0. 0. 0. 0. 0. 0. 0. 1. 0.
      0. 0. 0. 0. 0. 0. 0. 2. 0. 0. 0. 0. 0. 2. 0. 104. 1. 0. 11. 0. 0.
      0. 0. 9. 0. 0. 0. 0. 0. 1. 0. 20. 2. 1. 1. 0. 0. 0. 0. 29. 0. 0.
      4. 11. 0. 0. 2.</_>
    <_>
      2063. 25. 134. 87. 22. 0. 123. 47. 112. 1. 8. 1. 83. 0. 355. 65.
      19. 0. 2. 0. 0. 0. 0. 1. 55. 0. 0. 4. 31. 0. 50. 5. 46. 0. 4. 3.
      0. 0. 2. 0. 1. 0. 0. 0. 1. 0. 6. 0. 26. 0. 1. 0. 3. 0. 6. 0. 159.
      0. 3. 1. 25. 0. 34. 3. 17. 1. 0. 1. 1. 0. 0. 0. 0. 0. 0. 0. 1. 0.
      0. 0. 0. 0. 0. 0. 0. 0. 0. 0. 0. 0. 0. 0. 0. 0. 1. 0. 39. 0. 3. 6.
      0. 0. 0. 0. 0. 0. 0. 0. 0. 0. 2. 1. 15. 0. 0. 1. 0. 0. 0. 0. 7. 0.
      0. 0. 0. 0. 5. 1. 76. 62. 5. 254. 1. 1. 1. 46. 5. 0. 1. 6. 0. 4.
      3. 69. 0. 0. 0. 0. 0. 0. 0. 0. 1. 0. 0. 4. 1. 0. 0. 7. 1. 1. 0. 0.
      0. 0. 0. 1. 0. 0. 0. 0. 0. 0. 0. 1. 0. 1. 0. 0. 0. 0. 0. 1. 3. 2.
      0. 11. 1. 0. 0. 13. 63. 35. 0. 31. 1. 0. 1. 7. 1. 1. 0. 1. 0. 0.
      3. 4. 0. 0. 0. 0. 0. 0. 0. 0. 2. 0. 0. 0. 1. 0. 1. 0. 219. 26. 0.
      44. 0. 0. 0. 3. 5. 0. 0. 2. 1. 0. 43. 15. 16. 1. 0. 2. 0. 0. 1. 0.
      26. 2. 2. 6. 5. 0. 13. 2.</_>
    <_>
      1626. 46. 174. 121. 24. 0. 112. 110. 54. 0. 3. 1. 34. 3. 284. 79.
      20. 0. 1. 0. 1. 0. 1. 0. 27. 0. 0. 1. 22. 0. 32. 6. 69. 0. 2. 1.
      0. 0. 2. 3. 1. 0. 0. 0. 2. 0. 4. 0. 38. 0. 2. 0. 1. 0. 5. 0. 58.
      1. 3. 1. 20. 0. 23. 2. 21. 0. 2. 2. 0. 0. 0. 0. 0. 0. 0. 0. 0. 0.
      0. 0. 0. 0. 0. 0. 0. 0. 0. 0. 0. 0. 0. 0. 0. 0. 0. 0. 53. 3. 0. 1.
      0. 0. 1. 0. 0. 0. 0. 0. 1. 0. 1. 1. 36. 0. 1. 0. 0. 0. 0. 0. 16.
      0. 0. 1. 6. 0. 6. 0. 157. 105. 11. 347. 1. 1. 1. 115. 1. 2. 0. 6.
      2. 3. 4. 82. 1. 0. 0. 2. 0. 0. 0. 0. 0. 0. 0. 2. 1. 0. 0. 8. 8. 3.
      0. 6. 0. 0. 0. 0. 0. 0. 0. 1. 0. 0. 0. 1. 0. 0. 0. 2. 0. 0. 0. 0.
      2. 0. 1. 3. 0. 0. 0. 6. 83. 82. 7. 77. 0. 0. 2. 21. 2. 0. 1. 0. 0.
      0. 3. 3. 2. 0. 0. 0. 0. 0. 0. 1. 2. 0. 0. 0. 0. 0. 1. 2. 235. 54.
      4. 66. 0. 0. 6. 11. 2. 0. 1. 0. 1. 0. 32. 17. 46. 9. 0. 7. 0. 0.
      0. 1. 32. 3. 0. 1. 3. 0. 7. 4.</_>
    <_>
      1515. 23. 87. 49. 15. 1. 109. 72. 90. 1. 5. 0. 63. 0. 240. 108.
      31. 1. 0. 1. 0. 0. 1. 0. 90. 0. 0. 0. 50. 0. 44. 7. 135. 0. 1. 0.
      0. 0. 0. 1. 7. 0. 0. 0. 2. 0. 3. 0. 101. 0. 0. 0. 0. 0. 2. 0. 305.
      0. 3. 0. 62. 0. 42. 3. 18. 0. 2. 0. 0. 0. 0. 0. 0. 0. 0. 0. 0. 0.
      0. 0. 0. 0. 0. 0. 0. 0. 0. 0. 0. 0. 0. 0. 0. 0. 0. 0. 115. 1. 0.
      1. 0. 0. 0. 1. 3. 0. 0. 0. 2. 0. 1. 0. 103. 1. 0. 0. 0. 0. 0. 0.
      71. 1. 0. 0. 6. 0. 6. 0. 70. 37. 5. 120. 0. 0. 2. 18. 1. 1. 0. 3.
      0. 2. 4. 37. 0. 1. 0. 2. 0. 0. 0. 0. 0. 0. 0. 0. 1. 0. 1. 1. 4. 7.
      0. 6. 0. 0. 0. 0. 0. 0. 0. 0. 0. 1. 0. 1. 2. 0. 0. 2. 0. 0. 0. 0.
      3. 1. 0. 1. 0. 0. 0. 3. 60. 30. 1. 11. 0. 0. 4. 3. 0. 1. 0. 0. 2.
      1. 4. 3. 1. 1. 0. 0. 0. 0. 0. 0. 1. 0. 0. 2. 0. 0. 1. 2. 412. 63.
      7. 22. 0. 0. 3. 6. 6. 0. 0. 1. 5. 2. 44. 17. 124. 8. 0. 13. 1. 0.
      1. 0. 56. 4. 0. 4. 5. 0. 13. 4.</_>
    <_>
      1761. 3. 43. 25. 34. 0. 27. 7. 491. 1. 7. 4. 240. 1. 276. 15. 31.
      0. 0. 0. 0. 0. 0. 0. 315. 0. 3. 2. 239. 0. 144. 7. 50. 0. 1. 0. 1.
      0. 0. 0. 9. 0. 0. 0. 0. 0. 7. 1. 53. 0. 1. 0. 1. 0. 5. 0. 403. 1.
      4. 1. 228. 0. 124. 5. 2. 0. 0. 0. 0. 0. 0. 0. 1. 0. 0. 0. 0. 0. 0.
      0. 0. 0. 0. 0. 0. 0. 0. 0. 0. 0. 0. 0. 0. 0. 0. 0. 30. 2. 1. 3. 0.
      0. 0. 0. 7. 0. 0. 0. 1. 0. 0. 1. 10. 0. 0. 0. 0. 0. 1. 0. 18. 0.
      0. 1. 9. 0. 7. 0. 7. 4. 0. 19. 0. 0. 0. 3. 2. 1. 0. 11. 1. 3. 0.
      19. 0. 0. 0. 0. 0. 0. 0. 0. 1. 1. 0. 3. 1. 2. 0. 13. 0. 0. 0. 0.
      0. 0. 0. 0. 0. 0. 0. 1. 0. 0. 0. 0. 0. 0. 0. 1. 0. 0. 0. 0. 1. 0.
      0. 8. 0. 2. 1. 6. 4. 2. 0. 0. 0. 0. 0. 0. 1. 0. 0. 0. 0. 0. 1. 0.
      0. 0. 0. 0. 0. 0. 0. 0. 4. 0. 0. 0. 1. 0. 0. 0. 26. 2. 0. 2. 0. 0.
      1. 0. 6. 0. 1. 1. 1. 0. 2. 4. 1. 0. 0. 1. 0. 0. 0. 0. 27. 0. 0. 0.
      15. 0. 6. 3.</_>
    <_>
      1616. 45. 198. 121. 33. 0. 157. 180. 64. 1. 10. 4. 82. 2. 334.
      179. 23. 1. 0. 1. 0. 0. 1. 1. 39. 2. 1. 1. 29. 0. 51. 11. 42. 0.
      3. 1. 0. 0. 2. 1. 2. 0. 0. 0. 0. 0. 5. 0. 22. 0. 2. 0. 0. 0. 8. 1.
      61. 0. 0. 3. 17. 0. 29. 4. 12. 0. 0. 0. 0. 0. 1. 0. 0. 0. 0. 0. 0.
      0. 0. 0. 0. 0. 0. 0. 0. 0. 0. 0. 1. 0. 0. 0. 0. 0. 0. 0. 44. 1. 3.
      9. 1. 0. 0. 1. 1. 0. 0. 0. 1. 0. 3. 0. 13. 0. 0. 0. 0. 0. 1. 0. 7.
      0. 0. 1. 5. 0. 3. 0. 100. 80. 10. 254. 0. 1. 5. 94. 3. 0. 0. 4. 1.
      5. 5. 89. 0. 1. 0. 0. 0. 0. 0. 1. 1. 0. 0. 1. 0. 1. 0. 12. 1. 1.
      0. 1. 0. 0. 0. 1. 0. 0. 0. 1. 0. 0. 1. 2. 1. 0. 0. 1. 0. 0. 0. 1.
      5. 1. 0. 8. 0. 0. 0. 11. 78. 61. 4. 59. 0. 0. 4. 15. 0. 0. 0. 1.
      0. 0. 5. 9. 2. 0. 0. 0. 0. 0. 0. 0. 5. 1. 0. 0. 0. 0. 2. 1. 202.
      63. 6. 42. 0. 0. 3. 7. 0. 1. 0. 1. 1. 1. 9. 13. 41. 1. 0. 5. 0. 0.
      0. 0. 16. 2. 0. 8. 4. 0. 6. 7.</_>
    <_>
      1531. 33. 105. 76. 18. 0. 125. 57. 126. 0. 2. 3. 146. 0. 537. 133.
      36. 0. 1. 0. 0. 0. 1. 1. 65. 0. 3. 0. 70. 0. 212. 9. 70. 1. 2. 0.
      0. 0. 4. 1. 3. 0. 0. 0. 5. 0. 6. 0. 47. 0. 1. 1. 2. 0. 6. 0. 136.
      0. 3. 3. 29. 0. 71. 5. 15. 0. 2. 1. 0. 0. 1. 0. 3. 0. 0. 0. 0. 0.
      0. 0. 0. 0. 0. 0. 0. 0. 0. 0. 0. 0. 0. 0. 0. 0. 0. 0. 66. 1. 4. 5.
      0. 0. 0. 1. 3. 0. 0. 0. 1. 0. 3. 1. 27. 0. 0. 0. 0. 0. 0. 0. 22.
      0. 0. 0. 4. 0. 12. 1. 85. 59. 4. 133. 0. 0. 3. 34. 4. 3. 0. 2. 4.
      5. 8. 57. 0. 0. 0. 0. 0. 0. 0. 0. 2. 1. 0. 1. 1. 0. 1. 8. 1. 4. 0.
      1. 0. 0. 0. 1. 0. 0. 0. 0. 0. 0. 0. 2. 1. 0. 0. 1. 0. 0. 0. 0. 0.
      0. 0. 2. 1. 0. 1. 8. 60. 28. 2. 38. 0. 0. 1. 2. 2. 1. 0. 0. 1. 1.
      5. 6. 0. 1. 0. 1. 0. 0. 0. 0. 3. 0. 0. 0. 0. 0. 2. 0. 180. 36. 5.
      35. 0. 0. 1. 8. 5. 0. 1. 1. 3. 0. 22. 20. 39. 1. 0. 5. 0. 0. 0. 1.
      28. 4. 2. 4. 6. 0. 22. 8.</_>
    <_>
      1503. 6. 51. 22. 39. 0. 44. 9. 480. 2. 13. 6. 257. 1. 144. 27. 45.
      0. 0. 1. 0. 0. 2. 0. 377. 0. 4. 0. 262. 1. 172. 15. 49. 0. 1. 0.
      3. 0. 2. 1. 14. 0. 0. 0. 5. 0. 1. 0. 58. 0. 1. 0. 1. 0. 5. 1. 405.
      0. 3. 3. 300. 0. 128. 5. 6. 0. 2. 0. 0. 0. 0. 0. 4. 0. 0. 0. 0. 1.
      0. 0. 0. 0. 0. 0. 0. 0. 0. 0. 2. 0. 0. 0. 1. 0. 0. 0. 32. 0. 1. 1.
      0. 0. 0. 0. 13. 1. 0. 2. 1. 0. 1. 2. 9. 0. 1. 0. 0. 0. 1. 0. 30.
