<?xml version="1.0"?>
<opencv_storage>
<my_svm type_id="opencv-ml-svm">
  <svm_type>C_SVC</svm_type>
  <kernel><type>LINEAR</type></kernel>
  <C>1.</C>
  <term_criteria><epsilon>2.2204460492503131e-16</epsilon>
    <iterations>500</iterations></term_criteria>
  <var_all>128</var_all>
  <var_count>128</var_count>
  <class_count>2</class_count>
  <class_labels type_id="opencv-matrix">
    <rows>1</rows>
    <cols>2</cols>
    <dt>i</dt>
    <data>
      0 1</data></class_labels>
  <sv_total>1</sv_total>
  <support_vectors>
    <_>
      -1.63309844e-04 -2.60478118e-04 6.04518922e-04 9.41050603e-05
      3.12931050e-04 -1.41163313e-04 -4.45051206e-04 -1.02034865e-04
      1.83694734e-04 3.59473925e-05 2.28938261e-05 1.25240418e-04
      -1.49294749e-04 -3.61115206e-04 -2.28799327e-04 -2.84288923e-04
      1.50854277e-04 2.93836183e-05 4.16054419e-04 4.22027195e-04
      -1.24461818e-04 -2.50387122e-04 -3.87377397e-04 1.19876473e-04
      4.58056602e-05 -4.99577254e-05 3.14271922e-04 2.31661106e-04
      5.52588026e-04 -1.54356923e-04 2.27755663e-04 -4.17611504e-04
      2.03028292e-04 -2.17976645e-04 3.88343789e-04 5.45696996e-04
      1.47179409e-04 -3.18335806e-05 -2.94696802e-04 7.27639068e-04
      5.56686391e-05 1.98629670e-04 8.32385209e-04 4.22866317e-04
      1.28669490e-04 -1.86890829e-04 -4.84346907e-04 -1.88070830e-04
      1.54400084e-04 -2.76614650e-04 5.70298405e-04 8.50317825e-04
      -3.35128716e-04 -4.97505243e-04 -6.05555892e-04 9.58076707e-05
      -1.04760722e-04 -9.28553418e-05 3.68274457e-04 4.43183526e-04
      1.40314733e-04 -3.01024265e-04 1.30826273e-04 -4.06553227e-05
      -2.98844505e-04 -3.54674674e-04 1.02423626e-04 2.48349766e-04
      3.53259384e-04 2.51030615e-05 -3.40235303e-04 2.71759520e-04
      -2.82150635e-04 -1.63855890e-04 1.93212953e-04 4.69451450e-04
      9.37209334e-05 -1.49691710e-04 -2.64800095e-04 -3.77823199e-06
      2.87445946e-05 -1.23381076e-04 4.88524442e-04 6.77536184e-04
      -7.59999311e-05 -6.40701561e-04 -7.72493426e-04 6.84615152e-05
      -4.95635832e-05 1.13600203e-04 8.41108034e-04 3.62724270e-04
      -1.53506131e-04 -7.07020983e-04 -5.48817392e-04 3.23008571e-04
      -1.84075965e-04 2.32844341e-05 -4.80693852e-05 -2.97444960e-04
      -2.99802923e-04 -2.37258704e-04 3.47392088e-05 -1.85763216e-04
      -3.58467601e-04 -2.91495584e-04 1.36711606e-04 -7.18585507e-05
      1.91013663e-04 5.52247730e-05 -3.48389935e-04 1.12972579e-04
      1.24961574e-04 -4.21910363e-06 2.92155368e-04 2.60305416e-04
      -2.34814113e-04 -1.75229681e-04 -4.77995171e-04 -8.22925813e-07
      1.60308467e-04 -6.12558724e-05 -2.04297030e-04 -3.95342999e-04
      1.58217135e-05 -2.00895665e-04 -6.54555275e-04 -2.48808146e-06</_></support_vectors>
  <decision_functions>
    <_>
      <sv_count>1</sv_count>
      <rho>8.6700349058917159e-02</rho>
      <alpha>
        1.</alpha>
      <index>
        0</index></_></decision_functions></my_svm>
</opencv_storage>
