<?xml version="1.0"?>
<opencv_storage>
<my_svm type_id="opencv-ml-svm">
  <svm_type>C_SVC</svm_type>
  <kernel><type>LINEAR</type></kernel>
  <C>1.</C>
  <term_criteria><epsilon>2.2204460492503131e-16</epsilon>
    <iterations>500</iterations></term_criteria>
  <var_all>128</var_all>
  <var_count>128</var_count>
  <class_count>2</class_count>
  <class_labels type_id="opencv-matrix">
    <rows>1</rows>
    <cols>2</cols>
    <dt>i</dt>
    <data>
      0 1</data></class_labels>
  <sv_total>1</sv_total>
  <support_vectors>
    <_>
      -7.31942244e-04 5.74459089e-04 4.83940494e-05 -2.42527487e-04
      -3.31979885e-04 3.70645837e-04 5.51439123e-04 1.24704035e-04
      2.03009447e-04 9.34563577e-04 -4.97023750e-04 -4.26274666e-04
      -8.25166935e-05 -2.93990219e-04 -2.03309755e-04 1.30086206e-04
      -3.16341611e-04 -2.29303056e-04 3.13682940e-05 -8.59729043e-05
      -8.86993250e-04 2.94952566e-04 5.30801226e-05 4.26001992e-04
      -3.34055047e-04 5.57053601e-04 5.82678360e-04 -7.74953878e-05
      2.57529464e-04 -5.66357223e-04 -4.16837051e-04 -3.36518890e-04
      4.32362722e-04 8.47904885e-04 2.06049110e-04 2.88700627e-04
      -6.08365750e-04 -4.70795603e-05 -2.49853038e-04 -7.46028381e-04
      2.53552989e-05 2.71910307e-04 1.03639413e-05 -4.52998531e-04
      -3.91876791e-04 -3.51072114e-04 -1.10640400e-03 -3.07591166e-04
      1.34073716e-05 -2.68859440e-04 2.06982455e-04 -3.92374845e-04
      -2.67204799e-04 5.11810882e-04 -8.10600159e-06 -7.67968741e-05
      -7.84833028e-05 6.62188540e-05 -3.28486029e-04 2.91799282e-04
      -3.32837444e-05 -1.66867030e-04 -1.79918701e-04 6.30581562e-05
      1.75605674e-05 1.06482895e-03 3.13784258e-04 2.27319601e-04
      -2.03320378e-04 -3.32474483e-05 -5.49770833e-04 1.72327040e-04
      -3.54222429e-05 3.70877737e-04 4.09485219e-04 8.02508021e-06
      -5.58712694e-04 -5.64304763e-04 -5.83232439e-04 6.44031097e-05
      -1.73261622e-04 8.62591201e-04 5.46598807e-04 -3.92938295e-04
      -4.96142602e-04 5.77994098e-04 -1.50024818e-04 5.55831124e-04
      -4.92411273e-05 7.91528873e-05 2.76937935e-04 4.35845395e-05
      -4.21307428e-04 2.50928279e-04 2.04525713e-04 1.45670841e-04
      5.73485449e-05 1.92666339e-04 3.73009301e-04 3.17509548e-04
      6.64503523e-06 4.91719256e-05 5.46060328e-04 -4.13952075e-04
      -5.95221100e-05 6.04123867e-04 1.08274131e-03 -3.13329743e-04
      -8.91599222e-04 -1.79049021e-05 -5.91551689e-05 5.72093821e-04
      -7.59971619e-04 1.54299749e-04 4.03782033e-04 2.21127557e-04
      1.57715418e-04 3.97210475e-04 -1.96877605e-04 -2.59727647e-04
      -5.68841177e-04 5.96461236e-04 3.69198737e-04 3.19256069e-04
      -1.79441966e-04 -3.95729294e-04 1.42861873e-05 -6.34673983e-04</_></support_vectors>
  <decision_functions>
    <_>
      <sv_count>1</sv_count>
      <rho>1.5643461216157298e-02</rho>
      <alpha>
        1.</alpha>
      <index>
        0</index></_></decision_functions></my_svm>
</opencv_storage>
