<?xml version="1.0"?>
<opencv_storage>
<my_svm type_id="opencv-ml-svm">
  <svm_type>C_SVC</svm_type>
  <kernel><type>LINEAR</type></kernel>
  <C>1.</C>
  <term_criteria><epsilon>2.2204460492503131e-16</epsilon>
    <iterations>500</iterations></term_criteria>
  <var_all>256</var_all>
  <var_count>256</var_count>
  <class_count>2</class_count>
  <class_labels type_id="opencv-matrix">
    <rows>1</rows>
    <cols>2</cols>
    <dt>i</dt>
    <data>
      0 1</data></class_labels>
  <sv_total>1</sv_total>
  <support_vectors>
    <_>
      -4.70876621e-05 2.53461621e-04 -1.77481106e-05 -2.01412156e-04
      -4.00501973e-04 -1.95702451e-04 -3.62244522e-04 1.34574031e-04
      -1.62247816e-04 1.49645013e-04 4.12737500e-05 2.27687167e-04
      1.10364410e-04 -4.91107858e-05 -8.82479129e-04 -2.24458054e-04
      -4.52200882e-04 2.34765961e-04 -3.81604361e-04 -4.91654093e-04
      2.17033128e-04 2.57049542e-04 -1.60667012e-04 -9.68768582e-05
      -1.18992197e-04 -1.13585804e-04 1.09526394e-04 5.22726681e-04
      2.41312722e-04 7.45827274e-05 -2.38588458e-04 2.41761139e-04
      7.01788158e-05 -2.42788083e-04 -1.57892384e-04 -2.02103416e-04
      3.14432138e-04 -2.55262072e-04 -2.11269115e-04 -2.86603376e-04
      -1.07705768e-04 2.78369233e-04 -1.70640342e-05 -1.57191636e-04
      4.35206312e-04 -1.37837633e-04 -6.56682416e-04 2.14411004e-04
      8.74650257e-04 1.64010213e-04 1.53952307e-04 -3.06719478e-04
      -6.40552316e-05 1.70485451e-04 -3.69618465e-05 -1.15000194e-05
      -1.03832499e-04 -2.70191376e-04 -1.83010619e-04 -4.04532795e-04
      2.82338820e-04 -1.29692999e-04 -1.06993357e-04 -2.90967437e-04
      -9.89473629e-05 -2.83647765e-04 -1.42925637e-04 4.88118603e-05
      -3.47953726e-04 -1.29375723e-04 -2.14811414e-04 -4.05029306e-04
      -2.27728015e-04 3.75021744e-04 -1.27465566e-04 -2.33442843e-05
      2.95406615e-04 -3.77476565e-04 -3.36542056e-04 1.75785040e-04
      3.06964881e-04 -6.50312111e-04 2.20498114e-04 -6.38523270e-05
      2.02148265e-04 -4.16568335e-04 -1.77906812e-04 -1.00281424e-04
      -4.07530111e-04 5.61838242e-05 -2.33694329e-04 5.27290278e-04
      6.99298456e-04 -3.55998956e-04 -4.04130667e-04 1.34751361e-04
      2.25808362e-05 5.88560615e-05 -3.78964382e-04 -1.94841588e-04
      -5.29700956e-05 -3.61117534e-04 3.62063322e-04 3.71177593e-04
      3.26204754e-04 -1.00434401e-04 -5.50065131e-04 -1.38593341e-05
      3.31968098e-04 1.84150176e-05 9.87449894e-05 -2.88920302e-04
      -3.00704676e-04 -1.92259307e-04 -1.16380186e-04 2.76206556e-04
      4.22557408e-04 -4.48544415e-05 1.93311920e-04 2.74084276e-04
      1.17733158e-04 4.63947130e-04 -2.52773170e-04 8.64585454e-05
      -1.13933515e-06 2.19729933e-04 -2.18108951e-04 9.98247051e-05
      -1.66717582e-04 -7.24748650e-04 1.10096626e-04 1.86607984e-04
      1.55495014e-04 -1.55346119e-04 -2.18352696e-04 -1.31779772e-04
      -3.44421351e-05 1.82160613e-04 -4.13831149e-04 -8.86721245e-05
      -1.32576271e-04 3.70775451e-05 -5.64630260e-04 -1.48782667e-04
      -2.50338169e-04 2.11503386e-04 -4.83412332e-05 -1.39360607e-04
      -1.23151054e-04 2.62731424e-04 7.77277019e-05 -4.77265712e-05
      -2.98818719e-04 9.17710568e-05 -2.22014802e-04 -8.61970882e-04
      -3.96342912e-05 2.25926160e-05 2.10798302e-04 -3.40820348e-04
      1.21131307e-04 -4.37935902e-04 -3.03262757e-04 -3.78934521e-04
      3.23282904e-04 5.30155967e-06 9.65812869e-05 2.44955765e-04
      -2.95098347e-04 -1.59539850e-04 -5.83967427e-04 -8.17990280e-04
      -5.60141285e-04 4.08930326e-04 -1.12546601e-04 1.03490864e-04
      8.97207065e-05 -2.51385558e-04 -5.89815434e-04 -1.98684313e-04
      -3.25587433e-04 -2.21491318e-05 -1.79266426e-04 6.70082227e-04
      5.15730877e-04 6.45605498e-04 -1.63900149e-05 -5.31915866e-04
      1.01623751e-04 3.82006809e-04 -3.51193157e-04 1.13179631e-04
      -1.57736213e-04 -3.30243725e-04 -2.17563836e-04 1.39163909e-04
      5.37054322e-04 1.27899490e-04 -3.29511327e-04 -3.13050172e-04
      6.33147138e-04 7.39327661e-05 1.25891587e-04 -5.06731776e-05
      -1.92493360e-04 -7.93078107e-06 -6.32016818e-05 4.31373337e-04
      -3.04395158e-04 -1.40829085e-04 1.07435126e-05 2.17052700e-04
      3.49333626e-04 8.76424292e-06 -2.68172269e-04 2.36057283e-04
      -5.35181025e-04 1.87287820e-04 -1.58074283e-04 -5.43517701e-04
      1.65809906e-04 -6.10749994e-05 -2.72165547e-04 1.12247020e-04
      -3.16243066e-04 2.31294645e-04 4.76788293e-04 5.01230315e-05
      6.17952552e-04 5.09725127e-04 5.40292676e-05 -1.13303744e-04
      -4.66775055e-05 -4.59374685e-04 -3.89846624e-04 4.14275972e-04
      -2.24916017e-04 7.89724290e-04 4.61507210e-04 -1.40748933e-04
      2.13666746e-04 6.17183396e-05 -8.38604974e-05 -2.39894798e-04
      1.04104263e-04 1.54841589e-04 3.33662145e-04 2.21659240e-04
      -5.25904063e-04 1.38372561e-04 -1.86642297e-04 5.87178401e-05
      -7.75652552e-06 2.80590291e-04 1.31297435e-04 -1.41194527e-04</_></support_vectors>
  <decision_functions>
    <_>
      <sv_count>1</sv_count>
      <rho>-1.9151455394901554e-01</rho>
      <alpha>
        1.</alpha>
      <index>
        0</index></_></decision_functions></my_svm>
</opencv_storage>
