<?xml version="1.0"?>
<opencv_storage>
<my_svm type_id="opencv-ml-svm">
  <svm_type>C_SVC</svm_type>
  <kernel><type>RBF</type>
    <gamma>1.0000000000000001e-09</gamma></kernel>
  <C>1.</C>
  <term_criteria><epsilon>2.2204460492503131e-16</epsilon>
    <iterations>500</iterations></term_criteria>
  <var_all>256</var_all>
  <var_count>256</var_count>
  <class_count>2</class_count>
  <class_labels type_id="opencv-matrix">
    <rows>1</rows>
    <cols>2</cols>
    <dt>i</dt>
    <data>
      0 1</data></class_labels>
  <sv_total>946</sv_total>
  <support_vectors>
    <_>
      2351. 0. 0. 0. 0. 0. 138. 0. 0. 0. 0. 0. 134. 0. 0. 0. 0. 0. 0. 0.
      0. 0. 0. 0. 0. 0. 0. 0. 0. 0. 0. 0. 8. 0. 0. 0. 0. 0. 0. 0. 0. 0.
      0. 0. 0. 0. 0. 0. 33. 0. 0. 0. 0. 0. 0. 0. 162. 0. 0. 0. 5. 0. 0.
      0. 20. 0. 0. 0. 0. 0. 0. 0. 0. 0. 0. 0. 0. 0. 0. 0. 0. 0. 0. 0. 0.
      0. 0. 0. 0. 0. 0. 0. 0. 0. 0. 0. 173. 0. 0. 0. 0. 0. 0. 0. 0. 0.
      0. 0. 18. 0. 0. 0. 1. 0. 0. 0. 0. 0. 0. 0. 23. 0. 0. 0. 1. 0. 0.
      0. 0. 0. 0. 0. 0. 0. 0. 0. 0. 0. 0. 0. 0. 0. 0. 0. 0. 0. 0. 0. 0.
      0. 0. 0. 0. 0. 0. 0. 0. 0. 0. 0. 0. 0. 0. 0. 0. 0. 0. 0. 0. 0. 0.
      0. 0. 0. 0. 0. 0. 0. 0. 0. 0. 0. 0. 0. 0. 0. 0. 1257. 0. 0. 0.
      146. 191. 0. 0. 0. 0. 0. 18. 0. 0. 0. 0. 0. 0. 0. 0. 0. 0. 0. 0.
      0. 0. 0. 0. 0. 0. 0. 0. 0. 0. 0. 0. 0. 0. 0. 0. 0. 0. 0. 0. 0. 0.
      0. 0. 0. 0. 0. 0. 0. 0. 0. 0. 0. 0. 0. 0. 0. 0. 0. 0. 191. 0. 0.
      0. 18.</_>
    <_>
      1074. 14. 3. 114. 356. 5. 63. 82. 10. 0. 0. 0. 62. 0. 0. 0. 1. 0.
      0. 0. 0. 0. 0. 0. 25. 0. 0. 0. 70. 0. 0. 0. 0. 0. 0. 0. 0. 0. 0.
      0. 0. 0. 0. 0. 0. 0. 0. 0. 5. 0. 0. 0. 1. 0. 0. 0. 134. 0. 0. 0.
      80. 0. 0. 0. 110. 0. 1. 1. 25. 0. 0. 0. 0. 0. 0. 0. 4. 0. 0. 0. 0.
      0. 0. 0. 0. 0. 0. 0. 4. 0. 0. 0. 4. 0. 0. 0. 18. 0. 0. 0. 4. 0. 0.
      0. 0. 0. 0. 0. 3. 0. 0. 0. 0. 0. 0. 0. 0. 0. 0. 0. 23. 0. 0. 0.
      17. 0. 0. 0. 8. 78. 0. 577. 1. 3. 4. 163. 0. 0. 0. 0. 0. 0. 0. 0.
      0. 0. 0. 0. 0. 0. 0. 0. 0. 0. 0. 0. 0. 0. 0. 0. 0. 0. 0. 0. 0. 0.
      0. 0. 0. 0. 0. 0. 0. 0. 0. 0. 0. 0. 0. 0. 0. 0. 0. 0. 0. 0. 0.
      987. 0. 0. 0. 467. 11. 8. 0. 81. 1. 0. 2. 26. 0. 0. 0. 0. 0. 0. 0.
      0. 0. 0. 0. 0. 0. 0. 0. 0. 0. 0. 0. 0. 0. 0. 0. 0. 0. 0. 0. 0. 0.
      0. 0. 0. 0. 0. 0. 0. 0. 0. 0. 0. 0. 0. 0. 0. 0. 0. 0. 0. 0. 0. 0.
      127. 0. 0. 0. 31.</_>
    <_>
      837. 0. 0. 0. 324. 0. 0. 0. 0. 0. 0. 0. 0. 0. 0. 0. 0. 0. 0. 0. 0.
      0. 0. 0. 0. 0. 0. 0. 0. 0. 0. 0. 0. 0. 0. 0. 0. 0. 0. 0. 0. 0. 0.
      0. 0. 0. 0. 0. 0. 0. 0. 0. 0. 0. 0. 0. 38. 0. 0. 15. 3. 0. 0. 6.
      383. 0. 0. 0. 68. 0. 0. 0. 0. 0. 0. 0. 0. 0. 0. 0. 0. 0. 0. 0. 0.
      0. 0. 0. 0. 0. 0. 0. 0. 0. 0. 0. 0. 0. 0. 0. 0. 0. 0. 0. 0. 0. 0.
      0. 0. 0. 0. 0. 0. 0. 0. 0. 0. 0. 0. 0. 14. 0. 1. 1. 0. 0. 0. 0. 0.
      0. 0. 820. 0. 0. 0. 333. 0. 0. 0. 0. 0. 0. 0. 0. 0. 0. 0. 0. 0. 0.
      0. 0. 0. 0. 0. 4. 0. 0. 0. 0. 0. 0. 0. 2. 0. 0. 0. 0. 0. 0. 0. 0.
      0. 0. 0. 0. 0. 0. 0. 12. 0. 0. 0. 2. 8. 7. 0. 825. 0. 6. 0. 358.
      0. 0. 0. 388. 0. 0. 0. 41. 0. 0. 0. 0. 0. 0. 0. 0. 0. 0. 0. 10. 0.
      0. 0. 0. 0. 0. 0. 14. 0. 0. 0. 2. 0. 0. 0. 6. 0. 0. 0. 0. 0. 0. 0.
      0. 0. 0. 0. 2. 0. 0. 0. 5. 0. 0. 0. 1. 1. 7. 0. 266. 0. 2. 0. 76.</_>
    <_>
      1910. 0. 0. 0. 217. 0. 104. 0. 28. 0. 0. 0. 102. 0. 0. 0. 0. 0. 0.
      0. 0. 0. 0. 0. 11. 0. 0. 0. 9. 0. 0. 0. 0. 0. 0. 0. 0. 0. 0. 0. 0.
      0. 0. 0. 0. 0. 0. 0. 0. 0. 0. 0. 0. 0. 0. 0. 515. 0. 0. 0. 165. 0.
      0. 0. 34. 0. 0. 0. 4. 0. 0. 0. 0. 0. 0. 0. 0. 0. 0. 0. 0. 0. 0. 0.
      0. 0. 0. 0. 0. 0. 0. 0. 0. 0. 0. 0. 40. 0. 0. 0. 0. 0. 0. 0. 0. 0.
      0. 0. 8. 0. 0. 0. 0. 0. 0. 0. 0. 0. 0. 0. 66. 0. 0. 0. 11. 0. 0.
      0. 0. 0. 0. 0. 0. 0. 0. 0. 0. 0. 0. 0. 0. 0. 0. 0. 0. 0. 0. 0. 0.
      0. 0. 0. 0. 0. 0. 0. 0. 0. 0. 0. 0. 0. 0. 0. 0. 0. 0. 0. 0. 0. 0.
      0. 0. 0. 0. 0. 0. 0. 0. 0. 0. 0. 0. 0. 0. 0. 0. 1229. 0. 0. 0.
      293. 43. 0. 0. 0. 0. 0. 9. 0. 0. 0. 0. 0. 0. 0. 0. 0. 0. 0. 0. 0.
      0. 0. 0. 0. 0. 0. 0. 0. 0. 0. 0. 0. 0. 0. 0. 0. 0. 0. 0. 0. 0. 0.
      0. 0. 0. 0. 0. 0. 0. 0. 0. 0. 0. 0. 0. 0. 0. 0. 0. 77. 0. 0. 0.
      13.</_>
    <_>
      1205. 6. 0. 5. 233. 0. 21. 3. 11. 0. 0. 0. 18. 0. 0. 0. 6. 0. 0.
      0. 0. 0. 0. 0. 84. 0. 0. 0. 15. 0. 0. 0. 10. 0. 0. 0. 0. 0. 0. 0.
      0. 0. 0. 0. 4. 0. 0. 0. 49. 0. 0. 0. 0. 0. 0. 0. 748. 0. 0. 0.
      219. 0. 0. 0. 246. 0. 0. 0. 17. 0. 4. 0. 0. 0. 0. 0. 0. 0. 0. 0.
      0. 0. 0. 0. 0. 0. 0. 0. 0. 0. 0. 0. 0. 0. 0. 0. 10. 0. 0. 0. 0. 0.
      0. 0. 0. 0. 0. 0. 3. 0. 0. 0. 5. 0. 0. 0. 0. 0. 0. 0. 225. 0. 0.
      0. 21. 0. 0. 0. 3. 8. 0. 54. 1. 0. 0. 10. 0. 0. 0. 0. 0. 0. 0. 0.
      0. 0. 0. 0. 0. 0. 0. 0. 0. 0. 0. 0. 0. 0. 0. 0. 0. 0. 0. 0. 0. 0.
      0. 0. 0. 0. 0. 0. 0. 0. 0. 0. 0. 0. 0. 0. 0. 0. 0. 0. 0. 0. 0.
      1073. 0. 0. 0. 270. 14. 2. 0. 11. 1. 0. 3. 1. 0. 0. 0. 0. 0. 0. 0.
      0. 0. 0. 0. 0. 0. 0. 0. 0. 0. 0. 0. 0. 0. 0. 0. 0. 0. 0. 0. 0. 0.
      0. 0. 0. 0. 0. 0. 0. 0. 0. 0. 0. 0. 0. 0. 0. 0. 0. 0. 0. 0. 0. 0.
      245. 0. 0. 0. 24.</_>
    <_>
      714. 0. 0. 0. 530. 0. 0. 0. 0. 0. 0. 0. 0. 0. 0. 0. 0. 0. 0. 0. 0.
      0. 0. 0. 0. 0. 0. 0. 0. 0. 0. 0. 0. 0. 0. 0. 0. 0. 0. 0. 0. 0. 0.
      0. 0. 0. 0. 0. 0. 0. 0. 0. 0. 0. 0. 0. 54. 6. 6. 45. 8. 0. 4. 52.
      281. 0. 0. 0. 87. 0. 0. 0. 0. 0. 0. 0. 0. 0. 0. 0. 0. 0. 0. 0. 0.
      0. 0. 0. 0. 0. 0. 0. 0. 0. 0. 0. 0. 0. 0. 0. 0. 0. 0. 0. 0. 0. 0.
      0. 0. 0. 0. 0. 0. 0. 0. 0. 0. 0. 0. 0. 33. 0. 0. 4. 2. 0. 0. 2. 0.
      0. 0. 580. 0. 0. 0. 627. 0. 0. 0. 2. 0. 0. 0. 19. 0. 0. 0. 8. 0.
      0. 0. 2. 0. 0. 0. 9. 0. 0. 0. 1. 0. 0. 0. 13. 0. 0. 0. 6. 0. 0. 0.
      0. 0. 0. 0. 0. 0. 0. 0. 19. 0. 0. 0. 6. 11. 32. 0. 560. 2. 6. 0.
      378. 0. 0. 0. 213. 0. 0. 0. 45. 0. 0. 0. 1. 0. 0. 0. 1. 0. 0. 0.
      4. 0. 0. 0. 0. 0. 0. 0. 3. 0. 0. 0. 1. 0. 0. 0. 21. 0. 0. 0. 3. 0.
      0. 0. 0. 0. 0. 0. 0. 0. 0. 0. 34. 0. 0. 0. 1. 6. 54. 0. 295. 0. 1.
      0. 96.</_>
    <_>
      1089. 0. 0. 0. 491. 0. 8. 0. 2. 0. 0. 0. 5. 0. 0. 0. 0. 0. 0. 0.
      0. 0. 0. 0. 16. 0. 0. 0. 9. 0. 0. 0. 0. 0. 0. 0. 0. 0. 0. 0. 0. 0.
      0. 0. 3. 0. 0. 0. 5. 0. 0. 0. 0. 0. 0. 0. 1022. 0. 0. 0. 338. 0.
      0. 0. 48. 0. 0. 0. 27. 0. 4. 0. 0. 0. 0. 0. 0. 0. 0. 0. 0. 0. 0.
      0. 0. 0. 0. 0. 0. 0. 0. 0. 0. 0. 0. 0. 3. 0. 0. 0. 0. 0. 0. 0. 0.
      0. 0. 0. 0. 0. 0. 0. 0. 0. 0. 0. 0. 0. 0. 0. 146. 0. 0. 0. 56. 0.
      0. 0. 0. 0. 0. 0. 0. 0. 0. 0. 0. 0. 0. 0. 0. 0. 0. 0. 0. 0. 0. 0.
      0. 0. 0. 0. 0. 0. 0. 0. 0. 0. 0. 0. 0. 0. 0. 0. 0. 0. 0. 0. 0. 0.
      0. 0. 0. 0. 0. 0. 0. 0. 0. 0. 0. 0. 0. 0. 0. 0. 0. 1081. 0. 0. 0.
      443. 4. 0. 0. 0. 0. 0. 0. 0. 0. 0. 0. 0. 0. 0. 0. 0. 0. 0. 0. 0.
      0. 0. 0. 0. 0. 0. 0. 0. 0. 0. 0. 0. 0. 0. 0. 0. 0. 0. 0. 0. 0. 0.
      0. 0. 0. 0. 0. 0. 0. 0. 0. 0. 0. 0. 0. 0. 0. 0. 0. 60. 0. 0. 0.
      28.</_>
    <_>
      903. 14. 0. 75. 355. 1. 6. 31. 2. 0. 0. 0. 34. 0. 0. 0. 3. 0. 0.
      0. 0. 0. 0. 0. 3. 0. 0. 0. 11. 0. 0. 0. 0. 0. 0. 0. 0. 0. 0. 0. 0.
      0. 0. 0. 0. 0. 0. 0. 5. 0. 0. 0. 0. 0. 0. 0. 165. 0. 0. 0. 63. 0.
      0. 0. 244. 0. 0. 0. 56. 0. 0. 0. 2. 0. 0. 0. 6. 0. 0. 0. 0. 0. 0.
      0. 0. 0. 0. 0. 0. 0. 0. 0. 1. 0. 0. 0. 16. 0. 0. 0. 1. 0. 0. 0. 0.
      0. 0. 0. 1. 0. 0. 0. 17. 0. 0. 0. 0. 0. 0. 0. 116. 0. 0. 0. 12. 0.
      0. 0. 14. 45. 1. 543. 0. 2. 3. 314. 0. 0. 0. 0. 0. 0. 0. 0. 0. 0.
      0. 0. 0. 0. 0. 0. 0. 0. 0. 0. 0. 0. 0. 0. 0. 0. 0. 0. 0. 0. 0. 0.
      0. 0. 0. 0. 0. 0. 0. 0. 0. 0. 0. 0. 0. 0. 0. 0. 0. 0. 0. 816. 0.
      0. 0. 481. 26. 24. 0. 127. 0. 0. 0. 34. 0. 0. 0. 0. 0. 0. 0. 0. 0.
      0. 0. 0. 0. 0. 0. 0. 0. 0. 0. 0. 0. 0. 0. 0. 0. 0. 0. 0. 0. 0. 0.
      0. 0. 0. 0. 0. 0. 0. 0. 0. 0. 0. 0. 0. 0. 0. 0. 0. 0. 0. 0. 284.
      0. 0. 0. 31.</_>
    <_>
      913. 26. 10. 89. 243. 0. 26. 100. 1. 0. 0. 0. 53. 0. 0. 0. 2. 0.
      0. 0. 0. 0. 0. 0. 16. 0. 0. 0. 6. 0. 0. 0. 2. 0. 0. 0. 6. 0. 0. 0.
      0. 0. 0. 0. 0. 0. 0. 0. 66. 0. 0. 0. 6. 0. 0. 0. 185. 0. 0. 0. 24.
      0. 0. 0. 269. 1. 2. 1. 72. 0. 2. 4. 0. 0. 0. 0. 3. 0. 0. 0. 0. 0.
      0. 0. 0. 0. 0. 0. 0. 0. 0. 0. 0. 0. 0. 0. 76. 0. 0. 0. 2. 0. 0. 0.
      2. 0. 0. 0. 5. 0. 0. 0. 2. 0. 0. 0. 0. 0. 0. 0. 50. 0. 0. 0. 3. 0.
      0. 0. 4. 88. 0. 331. 0. 0. 0. 162. 0. 0. 0. 0. 0. 0. 0. 0. 0. 0.
      0. 0. 0. 0. 0. 0. 0. 0. 0. 0. 0. 0. 0. 0. 0. 0. 0. 0. 0. 0. 0. 0.
      0. 0. 0. 0. 0. 0. 0. 0. 0. 0. 0. 0. 0. 0. 0. 0. 0. 0. 0. 860. 0.
      0. 0. 320. 21. 102. 0. 249. 2. 0. 3. 46. 0. 0. 0. 0. 0. 0. 0. 0.
      0. 0. 0. 0. 0. 0. 0. 0. 0. 0. 0. 0. 0. 0. 0. 0. 0. 0. 0. 0. 0. 0.
      0. 0. 0. 0. 0. 0. 0. 0. 0. 0. 0. 0. 0. 0. 0. 0. 0. 0. 0. 0. 0.
      378. 0. 0. 0. 54.</_>
    <_>
      916. 0. 0. 0. 333. 0. 0. 0. 0. 0. 0. 0. 0. 0. 0. 0. 0. 0. 0. 0. 0.
      0. 0. 0. 1. 0. 0. 0. 0. 0. 0. 0. 0. 0. 0. 0. 0. 0. 0. 0. 0. 0. 0.
      0. 0. 0. 0. 0. 8. 0. 0. 0. 0. 0. 0. 0. 925. 0. 0. 0. 342. 0. 0. 0.
      327. 0. 0. 0. 36. 0. 0. 0. 0. 0. 0. 0. 0. 0. 0. 0. 0. 0. 0. 0. 0.
      0. 0. 0. 0. 0. 0. 0. 0. 0. 0. 0. 0. 0. 0. 0. 0. 0. 0. 0. 0. 0. 0.
      0. 0. 0. 0. 0. 0. 0. 0. 0. 0. 0. 0. 0. 358. 0. 0. 0. 30. 0. 0. 0.
      0. 0. 0. 0. 0. 0. 0. 0. 0. 0. 0. 0. 0. 0. 0. 0. 0. 0. 0. 0. 0. 0.
      0. 0. 0. 0. 0. 0. 0. 0. 0. 0. 0. 0. 0. 0. 0. 0. 0. 0. 0. 0. 0. 0.
      0. 0. 0. 0. 0. 0. 0. 0. 0. 0. 0. 0. 0. 0. 0. 831. 0. 0. 0. 404. 0.
      0. 0. 0. 0. 0. 0. 0. 0. 0. 0. 0. 0. 0. 0. 0. 0. 0. 0. 0. 0. 0. 0.
      0. 0. 0. 0. 0. 0. 0. 0. 0. 0. 0. 0. 0. 0. 0. 0. 0. 0. 0. 0. 0. 0.
      0. 0. 0. 0. 0. 0. 0. 0. 0. 0. 0. 0. 0. 0. 324. 0. 0. 0. 53.</_>
    <_>
      601. 0. 0. 0. 306. 0. 0. 0. 0. 0. 0. 0. 0. 0. 0. 0. 0. 0. 0. 0. 0.
      0. 0. 0. 0. 0. 0. 0. 0. 0. 0. 0. 0. 0. 0. 0. 0. 0. 0. 0. 0. 0. 0.
      0. 0. 0. 0. 0. 0. 0. 0. 0. 0. 0. 0. 0. 595. 0. 0. 0. 260. 0. 0. 0.
      626. 0. 0. 0. 79. 0. 0. 0. 0. 0. 0. 0. 0. 0. 0. 0. 0. 0. 0. 0. 0.
      0. 0. 0. 0. 0. 0. 0. 0. 0. 0. 0. 0. 0. 0. 0. 0. 0. 0. 0. 0. 0. 0.
      0. 0. 0. 0. 0. 0. 0. 0. 0. 0. 0. 0. 0. 750. 0. 0. 0. 59. 0. 0. 0.
      0. 0. 0. 0. 0. 0. 0. 0. 0. 0. 0. 0. 0. 0. 0. 0. 0. 0. 0. 0. 0. 0.
      0. 0. 0. 0. 0. 0. 0. 0. 0. 0. 0. 0. 0. 0. 0. 0. 0. 0. 0. 0. 0. 0.
      0. 0. 0. 0. 0. 0. 0. 0. 0. 0. 0. 0. 0. 0. 0. 596. 0. 0. 0. 239. 0.
      0. 0. 0. 0. 0. 0. 0. 0. 0. 0. 0. 0. 0. 0. 0. 0. 0. 0. 0. 0. 0. 0.
      0. 0. 0. 0. 0. 0. 0. 0. 0. 0. 0. 0. 0. 0. 0. 0. 0. 0. 0. 0. 0. 0.
      0. 0. 0. 0. 0. 0. 0. 0. 0. 0. 0. 0. 0. 0. 680. 0. 0. 0. 97.</_>
    <_>
      470. 0. 0. 0. 245. 0. 0. 0. 0. 0. 0. 0. 0. 0. 0. 0. 0. 0. 0. 0. 0.
      0. 0. 0. 0. 0. 0. 0. 0. 0. 0. 0. 0. 0. 0. 0. 0. 0. 0. 0. 0. 0. 0.
      0. 0. 0. 0. 0. 0. 0. 0. 0. 0. 0. 0. 0. 513. 0. 0. 0. 235. 0. 0. 0.
      856. 0. 0. 0. 41. 0. 0. 0. 0. 0. 0. 0. 0. 0. 0. 0. 0. 0. 0. 0. 0.
      0. 0. 0. 0. 0. 0. 0. 0. 0. 0. 0. 0. 0. 0. 0. 0. 0. 0. 0. 0. 0. 0.
      0. 0. 0. 0. 0. 0. 0. 0. 0. 0. 0. 0. 0. 856. 0. 0. 0. 60. 0. 0. 0.
      0. 0. 0. 0. 0. 0. 0. 0. 0. 0. 0. 0. 0. 0. 0. 0. 0. 0. 0. 0. 0. 0.
      0. 0. 0. 0. 0. 0. 0. 0. 0. 0. 0. 0. 0. 0. 0. 0. 0. 0. 0. 0. 0. 0.
      0. 0. 0. 0. 0. 0. 0. 0. 0. 0. 0. 0. 0. 0. 0. 520. 0. 0. 0. 182. 0.
      0. 0. 0. 0. 0. 0. 0. 0. 0. 0. 0. 0. 0. 0. 0. 0. 0. 0. 0. 0. 0. 0.
      0. 0. 0. 0. 0. 0. 0. 0. 0. 0. 0. 0. 0. 0. 0. 0. 0. 0. 0. 0. 0. 0.
      0. 0. 0. 0. 0. 0. 0. 0. 0. 0. 0. 0. 0. 0. 824. 0. 0. 0. 86.</_>
    <_>
      253. 0. 0. 0. 383. 0. 0. 0. 0. 0. 0. 0. 0. 0. 0. 0. 0. 0. 0. 0. 0.
      0. 0. 0. 0. 0. 0. 0. 1. 0. 0. 0. 0. 0. 0. 0. 0. 0. 0. 0. 0. 0. 0.
      0. 0. 0. 0. 0. 0. 0. 0. 0. 0. 0. 0. 0. 251. 0. 0. 0. 417. 0. 0. 0.
      916. 0. 0. 0. 60. 0. 0. 0. 0. 0. 0. 0. 0. 0. 0. 0. 0. 0. 0. 0. 0.
      0. 0. 0. 0. 0. 0. 0. 0. 0. 0. 0. 0. 0. 0. 0. 0. 0. 0. 0. 0. 0. 0.
      0. 0. 0. 0. 0. 0. 0. 0. 0. 0. 0. 0. 0. 935. 0. 0. 0. 60. 0. 0. 0.
      0. 0. 0. 0. 0. 0. 0. 0. 0. 0. 0. 0. 0. 0. 0. 0. 0. 0. 0. 0. 0. 0.
      0. 0. 0. 0. 0. 0. 0. 0. 0. 0. 0. 0. 0. 0. 0. 0. 0. 0. 0. 0. 0. 0.
      0. 0. 0. 0. 0. 0. 0. 0. 0. 0. 0. 0. 0. 0. 0. 279. 0. 0. 0. 398. 0.
      0. 0. 0. 0. 0. 0. 0. 0. 0. 0. 0. 0. 0. 0. 0. 0. 0. 0. 0. 0. 0. 0.
      0. 0. 0. 0. 0. 0. 0. 0. 0. 0. 0. 0. 0. 0. 0. 0. 0. 0. 0. 0. 0. 0.
      0. 0. 0. 0. 0. 0. 0. 0. 0. 0. 0. 0. 0. 0. 842. 0. 0. 0. 93.</_>
    <_>
      385. 0. 0. 0. 697. 0. 0. 0. 0. 0. 0. 0. 0. 0. 0. 0. 0. 0. 0. 0. 0.
      0. 0. 0. 0. 0. 0. 0. 0. 0. 0. 0. 0. 0. 0. 0. 0. 0. 0. 0. 0. 0. 0.
      0. 0. 0. 0. 0. 0. 0. 0. 0. 0. 0. 0. 0. 451. 0. 0. 0. 700. 0. 0. 0.
      452. 0. 0. 0. 78. 0. 0. 0. 0. 0. 0. 0. 0. 0. 0. 0. 0. 0. 0. 0. 0.
      0. 0. 0. 0. 0. 0. 0. 0. 0. 0. 0. 0. 0. 0. 0. 0. 0. 0. 0. 0. 0. 0.
      0. 0. 0. 0. 0. 0. 0. 0. 0. 0. 0. 0. 0. 420. 0. 0. 0. 93. 0. 0. 0.
      0. 0. 0. 0. 0. 0. 0. 0. 0. 0. 0. 0. 0. 0. 0. 0. 0. 0. 0. 0. 0. 0.
      0. 0. 0. 0. 0. 0. 0. 0. 0. 0. 0. 0. 0. 0. 0. 0. 0. 0. 0. 0. 0. 0.
      0. 0. 0. 0. 0. 0. 0. 0. 0. 0. 0. 0. 0. 0. 0. 457. 0. 0. 0. 630. 0.
      0. 0. 0. 0. 0. 0. 0. 0. 0. 0. 0. 0. 0. 0. 0. 0. 0. 0. 0. 0. 0. 0.
      0. 0. 0. 0. 0. 0. 0. 0. 0. 0. 0. 0. 0. 0. 0. 0. 0. 0. 0. 0. 0. 0.
      0. 0. 0. 0. 0. 0. 0. 0. 0. 0. 0. 0. 0. 0. 416. 0. 0. 0. 109.</_>
    <_>
      412. 0. 0. 0. 608. 0. 0. 0. 0. 0. 0. 0. 0. 0. 0. 0. 0. 0. 0. 0. 0.
      0. 0. 0. 0. 0. 0. 0. 0. 0. 0. 0. 0. 0. 0. 0. 0. 0. 0. 0. 0. 0. 0.
      0. 0. 0. 0. 0. 1. 0. 0. 0. 0. 0. 0. 0. 430. 0. 0. 0. 667. 0. 0. 0.
      521. 0. 0. 0. 69. 0. 0. 0. 0. 0. 0. 0. 0. 0. 0. 0. 0. 0. 0. 0. 0.
      0. 0. 0. 0. 0. 0. 0. 0. 0. 0. 0. 0. 0. 0. 0. 0. 0. 0. 0. 0. 0. 0.
      0. 0. 0. 0. 0. 1. 0. 0. 0. 0. 0. 0. 0. 513. 0. 0. 0. 52. 0. 0. 0.
      0. 0. 0. 0. 0. 0. 0. 0. 0. 0. 0. 0. 0. 0. 0. 0. 0. 0. 0. 0. 0. 0.
      0. 0. 0. 0. 0. 0. 0. 0. 0. 0. 0. 0. 0. 0. 0. 0. 0. 0. 0. 0. 0. 0.
      0. 0. 0. 0. 0. 0. 0. 0. 0. 0. 0. 0. 0. 0. 0. 446. 0. 0. 0. 620. 2.
      0. 0. 0. 0. 0. 0. 0. 0. 0. 0. 0. 0. 0. 0. 0. 0. 0. 0. 0. 0. 0. 0.
      0. 0. 0. 0. 0. 0. 0. 0. 0. 0. 0. 0. 0. 0. 0. 0. 0. 0. 0. 0. 0. 0.
      0. 0. 0. 0. 0. 0. 0. 0. 0. 0. 0. 0. 0. 0. 471. 0. 0. 0. 75.</_>
    <_>
      418. 0. 0. 0. 698. 0. 0. 0. 0. 0. 0. 0. 0. 0. 0. 0. 0. 0. 0. 0. 0.
      0. 0. 0. 0. 0. 0. 0. 0. 0. 0. 0. 0. 0. 0. 0. 0. 0. 0. 0. 0. 0. 0.
      0. 0. 0. 0. 0. 0. 0. 0. 0. 0. 0. 0. 0. 445. 0. 0. 0. 702. 0. 0. 0.
      428. 0. 0. 0. 68. 0. 0. 0. 0. 0. 0. 0. 0. 0. 0. 0. 0. 0. 0. 0. 0.
      0. 0. 0. 0. 0. 0. 0. 0. 0. 0. 0. 0. 0. 0. 0. 0. 0. 0. 0. 0. 0. 0.
      0. 0. 0. 0. 0. 0. 0. 0. 0. 0. 0. 0. 0. 437. 0. 0. 0. 80. 0. 0. 0.
      0. 0. 0. 0. 0. 0. 0. 0. 0. 0. 0. 0. 0. 0. 0. 0. 0. 0. 0. 0. 0. 0.
      0. 0. 0. 0. 0. 0. 0. 0. 0. 0. 0. 0. 0. 0. 0. 0. 0. 0. 0. 0. 0. 0.
      0. 0. 0. 0. 0. 0. 0. 0. 0. 0. 0. 0. 0. 0. 0. 429. 0. 0. 0. 693. 0.
      0. 0. 0. 0. 0. 0. 0. 0. 0. 0. 0. 0. 0. 0. 0. 0. 0. 0. 0. 0. 0. 0.
      0. 0. 0. 0. 0. 0. 0. 0. 0. 0. 0. 0. 0. 0. 0. 0. 0. 0. 0. 0. 0. 0.
      0. 0. 0. 0. 0. 0. 0. 0. 0. 0. 0. 0. 0. 0. 392. 0. 0. 0. 98.</_>
    <_>
      403. 0. 0. 0. 554. 0. 0. 0. 0. 0. 0. 0. 0. 0. 0. 0. 0. 0. 0. 0. 0.
      0. 0. 0. 0. 0. 0. 0. 0. 0. 0. 0. 0. 0. 0. 0. 0. 0. 0. 0. 0. 0. 0.
      0. 0. 0. 0. 0. 0. 0. 0. 0. 0. 0. 0. 0. 432. 0. 0. 0. 564. 0. 0. 0.
      608. 0. 0. 0. 47. 0. 0. 0. 0. 0. 0. 0. 0. 0. 0. 0. 0. 0. 0. 0. 0.
      0. 0. 0. 0. 0. 0. 0. 0. 0. 0. 0. 0. 0. 0. 0. 0. 0. 0. 0. 0. 0. 0.
      0. 0. 0. 0. 0. 0. 0. 0. 0. 0. 0. 0. 0. 609. 0. 0. 0. 59. 0. 0. 0.
      0. 0. 0. 0. 0. 0. 0. 0. 0. 0. 0. 0. 0. 0. 0. 0. 0. 0. 0. 0. 0. 0.
      0. 0. 0. 0. 0. 0. 0. 0. 0. 0. 0. 0. 0. 0. 0. 0. 0. 0. 0. 0. 0. 0.
      0. 0. 0. 0. 0. 0. 0. 0. 0. 0. 0. 0. 0. 0. 0. 485. 0. 0. 0. 493. 0.
      0. 0. 0. 0. 0. 0. 0. 0. 0. 0. 0. 0. 0. 0. 0. 0. 0. 0. 0. 0. 0. 0.
      0. 0. 0. 0. 0. 0. 0. 0. 0. 0. 0. 0. 0. 0. 0. 0. 0. 0. 0. 0. 0. 0.
      0. 0. 0. 0. 0. 0. 0. 0. 0. 0. 0. 0. 0. 0. 549. 0. 0. 0. 85.</_>
    <_>
      228. 0. 0. 0. 689. 0. 0. 0. 0. 0. 0. 0. 0. 0. 0. 0. 0. 0. 0. 0. 0.
      0. 0. 0. 0. 0. 0. 0. 0. 0. 0. 0. 0. 0. 0. 0. 0. 0. 0. 0. 0. 0. 0.
      0. 0. 0. 0. 0. 0. 0. 0. 0. 0. 0. 0. 0. 261. 0. 0. 0. 688. 0. 0. 0.
      639. 0. 0. 0. 56. 0. 0. 0. 0. 0. 0. 0. 0. 0. 0. 0. 0. 0. 0. 0. 0.
      0. 0. 0. 0. 0. 0. 0. 0. 0. 0. 0. 0. 0. 0. 0. 0. 0. 0. 0. 0. 0. 0.
      0. 0. 0. 0. 0. 0. 0. 0. 0. 0. 0. 0. 0. 652. 0. 0. 0. 63. 0. 0. 0.
      0. 0. 0. 0. 0. 0. 0. 0. 0. 0. 0. 0. 0. 0. 0. 0. 0. 0. 0. 0. 0. 0.
      0. 0. 0. 0. 0. 0. 0. 0. 0. 0. 0. 0. 0. 0. 0. 0. 0. 0. 0. 0. 0. 0.
      0. 0. 0. 0. 0. 0. 0. 0. 0. 0. 0. 0. 0. 0. 0. 332. 0. 0. 0. 508. 0.
      0. 0. 0. 0. 0. 0. 0. 0. 0. 0. 0. 0. 0. 0. 0. 0. 0. 0. 0. 0. 0. 0.
      0. 0. 0. 0. 0. 0. 0. 0. 0. 0. 0. 0. 0. 0. 0. 0. 0. 0. 0. 0. 0. 0.
      0. 0. 0. 0. 0. 0. 0. 0. 0. 0. 0. 0. 0. 0. 655. 0. 0. 0. 117.</_>
    <_>
      370. 1. 1. 0. 262. 0. 0. 0. 4. 0. 0. 0. 0. 0. 0. 0. 0. 0. 0. 0. 0.
      0. 0. 0. 3. 0. 0. 0. 1. 0. 0. 0. 4. 0. 0. 0. 0. 0. 0. 0. 0. 0. 0.
      0. 0. 0. 0. 0. 7. 0. 0. 0. 0. 0. 0. 0. 322. 5. 3. 8. 259. 0. 11.
      15. 843. 0. 0. 1. 50. 0. 0. 0. 2. 0. 0. 0. 0. 0. 0. 0. 2. 0. 0. 0.
      0. 0. 0. 0. 1. 0. 0. 0. 1. 0. 0. 0. 20. 0. 0. 0. 1. 0. 0. 0. 0. 0.
      0. 0. 0. 0. 0. 0. 45. 1. 0. 0. 1. 0. 0. 0. 636. 0. 2. 0. 53. 0. 1.
      0. 3. 4. 0. 38. 2. 4. 0. 19. 0. 0. 0. 2. 0. 0. 0. 11. 0. 0. 0. 1.
      0. 0. 0. 0. 0. 0. 0. 4. 0. 0. 0. 17. 0. 0. 0. 3. 0. 0. 0. 1. 0. 0.
      0. 0. 0. 0. 0. 0. 0. 4. 0. 12. 0. 0. 0. 0. 2. 2. 0. 346. 0. 2. 2.
      295. 47. 9. 0. 44. 2. 1. 0. 12. 0. 0. 0. 1. 0. 0. 0. 1. 0. 0. 0.
      0. 0. 0. 0. 0. 0. 0. 0. 0. 0. 0. 0. 1. 25. 10. 0. 27. 1. 1. 0. 5.
      2. 0. 0. 0. 0. 0. 0. 2. 42. 26. 0. 133. 0. 0. 0. 1. 82. 14. 3.
      600. 0. 0. 2. 84.</_>
    <_>
      242. 0. 0. 0. 388. 0. 0. 0. 0. 0. 0. 0. 0. 0. 0. 0. 0. 0. 0. 0. 0.
      0. 0. 0. 0. 0. 0. 0. 0. 0. 0. 0. 0. 0. 0. 0. 0. 0. 0. 0. 0. 0. 0.
      0. 0. 0. 0. 0. 1. 0. 0. 0. 0. 0. 0. 0. 308. 0. 0. 0. 385. 0. 0. 0.
      960. 0. 0. 0. 20. 0. 0. 0. 0. 0. 0. 0. 0. 0. 0. 0. 0. 0. 0. 0. 0.
      0. 0. 0. 0. 0. 0. 0. 0. 0. 0. 0. 0. 0. 0. 0. 0. 0. 0. 0. 0. 0. 0.
      0. 0. 0. 0. 0. 19. 0. 0. 0. 0. 0. 0. 0. 910. 0. 0. 0. 41. 0. 0. 0.
      0. 0. 0. 0. 0. 0. 0. 0. 0. 0. 0. 0. 0. 0. 0. 0. 0. 0. 0. 0. 0. 0.
      0. 0. 0. 0. 0. 0. 0. 0. 0. 0. 0. 0. 0. 0. 0. 0. 0. 0. 0. 0. 0. 0.
      0. 0. 0. 0. 0. 0. 0. 0. 0. 0. 0. 0. 0. 0. 0. 422. 0. 0. 0. 397. 2.
      0. 0. 0. 0. 0. 0. 0. 0. 0. 0. 0. 0. 0. 0. 0. 0. 0. 0. 0. 0. 0. 0.
      0. 0. 0. 0. 0. 0. 0. 0. 0. 0. 0. 0. 0. 0. 0. 0. 0. 0. 0. 0. 0. 0.
      0. 0. 0. 0. 0. 0. 0. 0. 0. 0. 0. 0. 0. 0. 716. 0. 0. 0. 77.</_>
    <_>
      409. 0. 0. 0. 685. 0. 0. 0. 0. 0. 0. 0. 0. 0. 0. 0. 0. 0. 0. 0. 0.
      0. 0. 0. 0. 0. 0. 0. 0. 0. 0. 0. 0. 0. 0. 0. 0. 0. 0. 0. 0. 0. 0.
      0. 0. 0. 0. 0. 0. 0. 0. 0. 0. 0. 0. 0. 432. 0. 0. 0. 727. 0. 0. 0.
      472. 0. 0. 0. 46. 0. 0. 0. 0. 0. 0. 0. 0. 0. 0. 0. 0. 0. 0. 0. 0.
      0. 0. 0. 0. 0. 0. 0. 0. 0. 0. 0. 0. 0. 0. 0. 0. 0. 0. 0. 0. 0. 0.
      0. 0. 0. 0. 0. 0. 0. 0. 0. 0. 0. 0. 0. 458. 0. 0. 0. 47. 0. 0. 0.
      0. 0. 0. 0. 0. 0. 0. 0. 0. 0. 0. 0. 0. 0. 0. 0. 0. 0. 0. 0. 0. 0.
      0. 0. 0. 0. 0. 0. 0. 0. 0. 0. 0. 0. 0. 0. 0. 0. 0. 0. 0. 0. 0. 0.
      0. 0. 0. 0. 0. 0. 0. 0. 0. 0. 0. 0. 0. 0. 0. 517. 0. 0. 0. 617. 0.
      0. 0. 0. 0. 0. 0. 0. 0. 0. 0. 0. 0. 0. 0. 0. 0. 0. 0. 0. 0. 0. 0.
      0. 0. 0. 0. 0. 0. 0. 0. 0. 0. 0. 0. 0. 0. 0. 0. 0. 0. 0. 0. 0. 0.
      0. 0. 0. 0. 0. 0. 0. 0. 0. 0. 0. 0. 0. 0. 359. 0. 0. 0. 119.</_>
    <_>
      599. 3. 5. 10. 433. 0. 97. 27. 8. 0. 5. 0. 165. 0. 167. 43. 3. 0.
      0. 1. 1. 0. 0. 0. 27. 1. 1. 4. 129. 0. 104. 44. 10. 0. 0. 0. 1. 0.
      0. 0. 1. 0. 0. 1. 8. 0. 2. 0. 21. 0. 0. 0. 4. 0. 0. 0. 385. 6. 4.
      11. 356. 4. 87. 73. 270. 0. 1. 4. 32. 0. 7. 0. 2. 0. 0. 0. 3. 0.
      4. 0. 0. 0. 0. 0. 0. 0. 0. 0. 1. 0. 0. 0. 1. 0. 0. 1. 9. 0. 0. 0.
      0. 0. 0. 0. 0. 0. 0. 0. 3. 0. 0. 0. 12. 0. 0. 0. 1. 0. 0. 0. 167.
      0. 3. 0. 36. 0. 4. 1. 3. 2. 0. 43. 1. 1. 3. 30. 0. 0. 0. 11. 0. 0.
      2. 21. 0. 0. 0. 3. 0. 0. 0. 0. 0. 0. 0. 9. 0. 0. 0. 47. 0. 0. 0.
      4. 0. 0. 0. 1. 0. 0. 0. 1. 0. 0. 0. 2. 0. 0. 0. 1. 0. 0. 0. 0. 4.
      8. 1. 485. 3. 0. 2. 469. 8. 5. 0. 28. 0. 0. 1. 11. 0. 0. 0. 2. 0.
      1. 0. 3. 1. 0. 0. 0. 0. 0. 0. 0. 0. 0. 0. 1. 0. 0. 0. 3. 2. 0. 0.
      1. 0. 0. 0. 2. 0. 0. 0. 0. 0. 0. 1. 0. 0. 0. 0. 0. 0. 0. 0. 0. 4.
      5. 1. 155. 0. 0. 1. 82.</_>
    <_>
      421. 0. 2. 2. 367. 0. 3. 0. 0. 0. 0. 1. 2. 0. 0. 0. 0. 0. 0. 0. 0.
      0. 0. 0. 1. 0. 0. 0. 1. 0. 0. 0. 0. 0. 0. 0. 1. 0. 0. 0. 0. 0. 0.
      0. 0. 0. 0. 0. 0. 0. 0. 0. 1. 0. 0. 0. 339. 2. 5. 9. 299. 4. 53.
      9. 750. 0. 0. 1. 66. 0. 0. 0. 0. 0. 0. 0. 0. 0. 0. 0. 1. 0. 0. 0.
      0. 0. 0. 0. 1. 0. 0. 0. 0. 0. 0. 0. 0. 0. 0. 0. 0. 0. 0. 0. 1. 0.
      0. 0. 1. 0. 0. 0. 0. 0. 0. 0. 0. 0. 0. 0. 260. 2. 0. 0. 31. 0. 3.
      0. 0. 1. 0. 141. 0. 0. 0. 21. 0. 0. 0. 7. 0. 0. 0. 31. 0. 0. 0. 5.
      0. 0. 0. 0. 0. 0. 0. 21. 0. 0. 0. 61. 0. 0. 0. 16. 0. 0. 0. 0. 0.
      0. 0. 0. 0. 0. 0. 1. 0. 1. 0. 38. 0. 0. 0. 0. 10. 10. 0. 269. 3.
      0. 0. 235. 0. 1. 0. 223. 0. 0. 1. 15. 0. 0. 0. 4. 0. 0. 0. 3. 0.
      0. 0. 1. 0. 0. 0. 0. 0. 0. 0. 2. 0. 0. 0. 3. 0. 0. 0. 205. 0. 0.
      0. 10. 0. 0. 0. 5. 0. 0. 0. 9. 0. 0. 0. 92. 0. 0. 0. 2. 197. 122.
      9. 374. 8. 2. 10. 80.</_>
    <_>
      771. 0. 0. 0. 544. 0. 2. 0. 0. 0. 0. 0. 0. 0. 0. 0. 0. 0. 0. 0. 0.
      0. 0. 0. 1. 0. 0. 0. 1. 0. 0. 0. 0. 0. 0. 0. 0. 0. 0. 0. 0. 0. 0.
      0. 2. 0. 0. 0. 5. 0. 0. 0. 0. 0. 0. 0. 730. 0. 0. 0. 638. 0. 0. 0.
      240. 0. 0. 0. 52. 0. 2. 0. 0. 0. 0. 0. 0. 0. 0. 0. 0. 0. 0. 0. 0.
      0. 0. 0. 0. 0. 0. 0. 0. 0. 0. 0. 0. 0. 0. 0. 0. 0. 0. 0. 0. 0. 0.
      0. 0. 0. 0. 0. 2. 0. 0. 0. 0. 0. 0. 0. 238. 0. 0. 0. 45. 0. 0. 0.
      0. 0. 0. 0. 0. 0. 0. 0. 0. 0. 0. 0. 0. 0. 0. 0. 0. 0. 0. 0. 0. 0.
      0. 0. 0. 0. 0. 0. 0. 0. 0. 0. 0. 0. 0. 0. 0. 0. 0. 0. 0. 0. 0. 0.
      0. 0. 0. 0. 0. 0. 0. 0. 0. 0. 0. 0. 0. 0. 0. 709. 0. 0. 0. 630. 2.
      0. 0. 0. 1. 0. 0. 0. 0. 0. 0. 0. 0. 0. 0. 0. 0. 0. 0. 0. 0. 0. 0.
      0. 0. 0. 0. 0. 0. 0. 0. 0. 0. 0. 0. 0. 0. 0. 0. 0. 0. 0. 0. 0. 0.
      0. 0. 0. 0. 0. 0. 0. 0. 0. 0. 0. 0. 0. 0. 219. 0. 0. 0. 54.</_>
    <_>
      542. 1. 3. 3. 152. 0. 2. 0. 5. 0. 1. 0. 8. 0. 7. 0. 1. 0. 0. 0. 0.
      0. 0. 0. 6. 0. 0. 1. 5. 0. 2. 3. 0. 0. 0. 0. 0. 0. 0. 0. 0. 0. 0.
      0. 0. 0. 0. 0. 0. 0. 0. 0. 1. 0. 0. 0. 513. 2. 6. 6. 186. 0. 10.
      11. 842. 0. 1. 0. 57. 0. 0. 1. 3. 0. 0. 0. 2. 0. 0. 0. 0. 0. 0. 0.
      0. 0. 0. 0. 5. 0. 0. 0. 1. 0. 0. 0. 0. 0. 0. 0. 0. 0. 0. 0. 0. 0.
      0. 0. 0. 0. 0. 0. 1. 0. 0. 0. 0. 0. 0. 0. 763. 2. 3. 3. 58. 0. 1.
      3. 2. 4. 0. 54. 1. 6. 0. 24. 0. 0. 0. 2. 0. 0. 0. 5. 0. 0. 0. 0.
      0. 0. 0. 0. 0. 0. 0. 4. 0. 0. 0. 5. 0. 0. 0. 5. 0. 0. 0. 1. 0. 0.
      0. 0. 0. 0. 0. 1. 0. 0. 0. 15. 0. 0. 0. 4. 0. 3. 2. 547. 0. 0. 0.
      249. 0. 0. 0. 10. 0. 1. 0. 8. 0. 0. 0. 0. 0. 0. 0. 0. 0. 0. 0. 0.
      0. 0. 0. 0. 0. 0. 0. 0. 0. 0. 0. 0. 0. 0. 0. 4. 0. 0. 0. 1. 0. 0.
      0. 0. 0. 0. 0. 0. 0. 0. 0. 17. 0. 0. 0. 1. 7. 2. 0. 572. 0. 0. 0.
      108.</_>
    <_>
      1385. 12. 14. 31. 168. 0. 86. 12. 15. 0. 0. 0. 93. 0. 1. 1. 4. 0.
      0. 0. 0. 0. 0. 0. 67. 0. 0. 1. 19. 0. 1. 0. 14. 0. 0. 0. 3. 0. 1.
      0. 0. 0. 0. 0. 5. 0. 0. 0. 39. 0. 0. 0. 2. 0. 0. 0. 264. 0. 1. 5.
      123. 0. 2. 8. 180. 1. 3. 1. 14. 0. 5. 0. 3. 0. 0. 0. 1. 0. 0. 0.
      1. 0. 0. 0. 0. 0. 0. 0. 3. 0. 0. 0. 0. 0. 0. 0. 61. 0. 0. 0. 2. 0.
      0. 0. 1. 0. 0. 0. 7. 0. 0. 0. 21. 0. 0. 0. 0. 0. 0. 0. 80. 0. 0.
      2. 9. 0. 0. 1. 6. 60. 0. 231. 2. 3. 0. 41. 1. 0. 0. 1. 0. 0. 0. 7.
      0. 0. 0. 1. 0. 0. 0. 0. 0. 0. 0. 2. 0. 0. 0. 1. 1. 0. 0. 0. 0. 0.
      0. 0. 0. 0. 0. 0. 0. 0. 0. 0. 0. 1. 0. 3. 0. 0. 0. 0. 1. 3. 1.
      1019. 0. 0. 0. 266. 42. 16. 1. 92. 0. 1. 7. 10. 0. 0. 0. 0. 0. 0.
      0. 1. 0. 0. 0. 0. 0. 0. 0. 0. 0. 0. 0. 0. 0. 0. 0. 0. 6. 2. 0. 0.
      0. 0. 0. 0. 0. 0. 0. 0. 1. 0. 1. 0. 0. 0. 0. 1. 0. 0. 1. 1. 2. 0.
      0. 249. 0. 0. 0. 30.</_>
    <_>
      443. 0. 0. 0. 711. 0. 0. 0. 0. 0. 0. 0. 0. 0. 0. 0. 0. 0. 0. 0. 0.
      0. 0. 0. 0. 0. 0. 0. 0. 0. 0. 0. 0. 0. 0. 0. 0. 0. 0. 0. 0. 0. 0.
      0. 0. 0. 0. 0. 0. 0. 0. 0. 0. 0. 0. 0. 488. 0. 0. 0. 705. 0. 0. 0.
      347. 0. 0. 0. 111. 0. 0. 0. 0. 0. 0. 0. 0. 0. 0. 0. 0. 0. 0. 0. 0.
      0. 0. 0. 0. 0. 0. 0. 0. 0. 0. 0. 0. 0. 0. 0. 0. 0. 0. 0. 0. 0. 0.
      0. 0. 0. 0. 0. 0. 0. 0. 0. 0. 0. 0. 0. 359. 0. 0. 0. 107. 0. 0. 0.
      0. 0. 0. 1. 0. 0. 0. 0. 0. 0. 0. 0. 0. 0. 0. 0. 0. 0. 0. 0. 0. 0.
      0. 0. 0. 0. 0. 0. 0. 0. 0. 0. 0. 0. 0. 0. 0. 0. 0. 0. 0. 0. 0. 0.
      0. 0. 0. 0. 0. 0. 0. 2. 0. 0. 0. 0. 0. 0. 0. 489. 0. 0. 0. 582. 0.
      0. 0. 0. 0. 0. 0. 0. 0. 0. 0. 0. 0. 0. 0. 0. 0. 0. 0. 0. 0. 0. 0.
      0. 0. 0. 0. 0. 0. 0. 0. 0. 0. 0. 0. 2. 0. 0. 0. 0. 0. 0. 0. 1. 0.
      0. 0. 0. 0. 0. 0. 0. 0. 0. 0. 0. 4. 0. 0. 397. 1. 0. 0. 138.</_>
    <_>
      742. 2. 3. 2. 490. 0. 4. 0. 3. 0. 0. 0. 1. 0. 0. 0. 7. 0. 0. 0. 0.
      0. 0. 0. 4. 0. 0. 0. 2. 0. 0. 1. 27. 0. 0. 0. 2. 0. 0. 0. 0. 0. 0.
      0. 1. 0. 0. 0. 26. 0. 0. 0. 1. 0. 0. 0. 482. 0. 4. 9. 429. 0. 15.
      0. 266. 0. 1. 1. 24. 0. 1. 1. 1. 0. 0. 0. 0. 0. 0. 0. 2. 0. 0. 0.
      0. 0. 0. 0. 1. 0. 0. 0. 0. 0. 0. 0. 89. 0. 0. 0. 3. 0. 0. 0. 2. 0.
      0. 0. 0. 0. 0. 0. 36. 0. 0. 0. 2. 0. 0. 0. 178. 7. 0. 6. 36. 0. 1.
      0. 8. 9. 0. 141. 1. 0. 0. 14. 0. 0. 0. 9. 0. 0. 0. 12. 0. 0. 0. 0.
      0. 0. 0. 0. 0. 0. 0. 11. 0. 0. 0. 2. 4. 1. 0. 5. 0. 0. 0. 0. 0. 0.
      0. 0. 0. 0. 0. 1. 1. 2. 0. 16. 0. 1. 0. 5. 9. 39. 1. 600. 1. 12.
      3. 286. 88. 20. 0. 72. 3. 1. 0. 7. 1. 0. 0. 1. 0. 0. 0. 3. 0. 0.
      0. 0. 0. 0. 0. 0. 1. 0. 0. 2. 0. 0. 0. 1. 13. 1. 0. 6. 0. 0. 0. 1.
      1. 0. 0. 0. 0. 0. 0. 2. 1. 1. 0. 5. 0. 0. 0. 7. 11. 29. 0. 364. 0.
      3. 2. 132.</_>
    <_>
      899. 1. 7. 10. 524. 0. 11. 11. 6. 0. 0. 0. 13. 0. 0. 0. 2. 0. 0.
      0. 0. 0. 0. 0. 5. 0. 0. 0. 9. 0. 0. 0. 5. 0. 0. 0. 1. 0. 0. 0. 0.
      0. 0. 0. 1. 0. 0. 0. 2. 0. 0. 0. 4. 0. 0. 0. 518. 1. 7. 37. 245.
      1. 36. 6. 129. 0. 1. 2. 52. 0. 2. 0. 0. 0. 0. 0. 1. 0. 0. 0. 0. 0.
      0. 0. 0. 0. 0. 0. 1. 0. 0. 0. 0. 0. 0. 0. 2. 0. 0. 0. 0. 0. 0. 0.
      0. 0. 0. 0. 0. 0. 0. 0. 3. 0. 0. 0. 0. 0. 0. 0. 91. 1. 1. 1. 21.
      0. 1. 0. 2. 3. 1. 403. 0. 0. 1. 227. 0. 0. 0. 11. 0. 0. 0. 28. 0.
      0. 0. 3. 0. 0. 0. 0. 0. 0. 0. 25. 0. 0. 0. 17. 0. 0. 0. 5. 0. 0.
      0. 0. 0. 0. 0. 0. 0. 0. 0. 1. 0. 0. 0. 5. 0. 0. 0. 0. 6. 7. 0.
      678. 1. 3. 1. 431. 2. 1. 0. 70. 1. 1. 0. 13. 0. 0. 0. 1. 0. 0. 0.
      1. 0. 0. 0. 0. 0. 0. 0. 0. 0. 0. 0. 2. 0. 0. 0. 0. 0. 0. 0. 20. 0.
      0. 0. 4. 0. 0. 0. 0. 0. 0. 0. 3. 0. 0. 0. 12. 0. 0. 0. 0. 25. 3.
      4. 143. 0. 0. 2. 50.</_>
    <_>
      1135. 14. 0. 130. 229. 0. 15. 40. 0. 0. 0. 0. 34. 0. 0. 0. 1. 0.
      0. 0. 0. 0. 0. 0. 0. 0. 0. 0. 0. 0. 0. 0. 0. 0. 0. 0. 0. 0. 0. 0.
      0. 0. 0. 0. 0. 0. 0. 0. 23. 0. 0. 0. 0. 0. 0. 0. 28. 1. 0. 1. 4.
      0. 0. 0. 238. 1. 0. 0. 24. 0. 0. 0. 0. 0. 0. 0. 2. 0. 0. 0. 0. 0.
      0. 0. 0. 0. 0. 0. 0. 0. 0. 0. 0. 0. 0. 0. 16. 0. 0. 0. 3. 0. 0. 0.
      0. 0. 0. 0. 0. 0. 0. 0. 29. 0. 0. 0. 1. 0. 0. 0. 26. 0. 1. 0. 3.
      0. 0. 0. 0. 100. 0. 760. 0. 0. 1. 183. 0. 0. 0. 3. 0. 0. 0. 0. 0.
      0. 0. 1. 0. 0. 0. 0. 0. 0. 0. 4. 0. 0. 0. 0. 0. 0. 0. 6. 0. 0. 0.
      1. 0. 1. 0. 1. 0. 0. 0. 0. 0. 3. 0. 11. 0. 0. 0. 0. 11. 9. 1. 957.
      2. 2. 0. 293. 7. 15. 0. 160. 0. 0. 0. 16. 0. 0. 0. 4. 0. 0. 0. 0.
      0. 0. 0. 1. 0. 0. 0. 0. 0. 0. 0. 2. 0. 0. 0. 0. 5. 8. 0. 14. 0. 0.
      0. 0. 0. 0. 0. 2. 0. 0. 0. 0. 0. 4. 0. 14. 0. 0. 0. 0. 20. 22. 0.
      217. 2. 2. 0. 24.</_>
    <_>
      560. 0. 0. 0. 448. 0. 0. 0. 0. 0. 0. 0. 0. 0. 0. 0. 0. 0. 0. 0. 0.
      0. 0. 0. 0. 0. 0. 0. 0. 0. 0. 0. 0. 0. 0. 0. 0. 0. 0. 0. 0. 0. 0.
      0. 0. 0. 0. 0. 0. 0. 0. 0. 0. 0. 0. 0. 586. 0. 0. 0. 481. 0. 0. 0.
      543. 0. 0. 0. 61. 0. 0. 0. 0. 0. 0. 0. 0. 0. 0. 0. 0. 0. 0. 0. 0.
      0. 0. 0. 0. 0. 0. 0. 0. 0. 0. 0. 0. 0. 0. 0. 0. 0. 0. 0. 0. 0. 0.
      0. 0. 0. 0. 0. 0. 0. 0. 0. 0. 0. 0. 0. 529. 0. 0. 0. 68. 0. 0. 0.
      0. 0. 0. 0. 0. 0. 0. 0. 0. 0. 0. 0. 0. 0. 0. 0. 0. 0. 0. 0. 0. 0.
      0. 0. 0. 0. 0. 0. 0. 0. 0. 0. 0. 0. 0. 0. 0. 0. 0. 0. 0. 0. 0. 0.
      0. 0. 0. 0. 0. 0. 0. 0. 0. 0. 0. 0. 0. 0. 0. 585. 0. 0. 0. 488. 0.
      0. 0. 0. 0. 0. 0. 0. 0. 0. 0. 0. 0. 0. 0. 0. 0. 0. 0. 0. 0. 0. 0.
      0. 0. 0. 0. 0. 0. 0. 0. 0. 0. 0. 0. 0. 0. 0. 0. 0. 0. 0. 0. 0. 0.
      0. 0. 0. 0. 0. 0. 0. 0. 0. 0. 0. 0. 0. 0. 454. 0. 0. 0. 85.</_>
    <_>
      561. 0. 0. 0. 593. 0. 0. 0. 0. 0. 0. 0. 0. 0. 0. 0. 0. 0. 0. 0. 0.
      0. 0. 0. 0. 0. 0. 0. 0. 0. 0. 0. 0. 0. 0. 0. 0. 0. 0. 0. 0. 0. 0.
      0. 0. 0. 0. 0. 0. 0. 0. 0. 0. 0. 0. 0. 554. 0. 3. 0. 564. 0. 13.
      0. 394. 0. 0. 0. 64. 0. 0. 0. 0. 0. 0. 0. 0. 0. 0. 0. 0. 0. 0. 0.
      0. 0. 0. 0. 0. 0. 0. 0. 0. 0. 0. 0. 0. 0. 0. 0. 0. 0. 0. 0. 0. 0.
      0. 0. 0. 0. 0. 0. 0. 0. 0. 0. 0. 0. 0. 0. 404. 0. 3. 0. 68. 0. 1.
      0. 0. 0. 0. 36. 0. 0. 0. 6. 0. 0. 0. 10. 0. 0. 0. 8. 0. 0. 0. 2.
      0. 0. 0. 1. 0. 0. 0. 7. 0. 0. 0. 8. 0. 0. 0. 3. 0. 0. 0. 3. 0. 0.
      0. 1. 0. 0. 0. 0. 0. 0. 0. 11. 0. 0. 0. 0. 6. 2. 0. 491. 2. 0. 0.
      505. 0. 0. 0. 8. 0. 0. 0. 0. 0. 0. 0. 2. 0. 0. 0. 0. 0. 0. 0. 0.
      0. 0. 0. 0. 0. 0. 0. 0. 0. 0. 0. 0. 0. 0. 0. 13. 0. 0. 0. 1. 0. 0.
      0. 4. 0. 0. 0. 3. 0. 0. 0. 5. 0. 0. 0. 0. 19. 0. 1. 392. 8. 0. 3.
      105.</_>
    <_>
      2180. 2. 0. 6. 41. 0. 172. 2. 6. 0. 0. 0. 167. 0. 0. 0. 4. 0. 0.
      0. 0. 0. 0. 0. 14. 0. 0. 0. 4. 0. 0. 0. 5. 0. 0. 0. 0. 0. 0. 0. 0.
      0. 0. 0. 1. 0. 0. 0. 8. 0. 0. 0. 0. 0. 0. 0. 176. 0. 0. 0. 30. 0.
      0. 0. 13. 0. 0. 0. 0. 0. 1. 0. 0. 0. 0. 0. 0. 0. 0. 0. 0. 0. 0. 0.
      0. 0. 0. 0. 0. 0. 0. 0. 0. 0. 0. 0. 175. 0. 0. 0. 0. 0. 0. 0. 0.
      0. 0. 0. 7. 0. 0. 0. 0. 0. 0. 0. 0. 0. 0. 0. 19. 0. 0. 0. 0. 0. 0.
      0. 1. 4. 0. 36. 0. 0. 0. 8. 0. 0. 0. 0. 0. 0. 0. 0. 0. 0. 0. 0. 0.
      0. 0. 0. 0. 0. 0. 0. 0. 0. 0. 0. 0. 0. 0. 0. 0. 0. 0. 0. 0. 0. 0.
      0. 0. 0. 0. 0. 0. 0. 0. 0. 0. 0. 0. 0. 0. 0. 0. 1201. 0. 0. 0.
      215. 184. 0. 0. 2. 0. 0. 8. 0. 0. 0. 0. 0. 0. 0. 0. 0. 0. 0. 0. 0.
      0. 0. 0. 0. 0. 0. 0. 0. 0. 0. 0. 0. 0. 0. 0. 0. 0. 0. 0. 0. 0. 0.
      0. 0. 0. 0. 0. 0. 0. 0. 0. 0. 0. 0. 0. 0. 0. 0. 0. 188. 0. 0. 0.
      8.</_>
    <_>
      964. 0. 0. 0. 374. 1. 2. 1. 2. 0. 0. 0. 2. 0. 0. 0. 0. 0. 0. 0. 0.
      0. 0. 0. 4. 0. 0. 0. 2. 0. 0. 0. 1. 0. 0. 0. 0. 0. 0. 0. 0. 0. 0.
      0. 0. 0. 0. 0. 3. 0. 0. 0. 0. 0. 0. 0. 908. 0. 0. 0. 381. 0. 0. 0.
      284. 0. 0. 0. 38. 0. 0. 1. 0. 0. 0. 0. 0. 0. 0. 0. 0. 0. 0. 0. 0.
      0. 0. 0. 0. 0. 0. 0. 1. 0. 0. 0. 0. 0. 0. 0. 0. 0. 0. 0. 0. 0. 0.
      0. 0. 0. 0. 0. 0. 0. 0. 0. 0. 0. 0. 0. 268. 0. 0. 0. 38. 0. 0. 0.
      0. 0. 0. 0. 0. 0. 0. 0. 0. 0. 0. 0. 0. 0. 0. 0. 0. 0. 0. 0. 0. 0.
      0. 0. 0. 0. 0. 0. 0. 0. 0. 0. 0. 0. 0. 0. 0. 0. 0. 0. 0. 0. 0. 0.
      0. 0. 0. 0. 0. 0. 0. 0. 0. 0. 0. 0. 0. 0. 0. 929. 0. 0. 0. 383. 1.
      0. 0. 0. 0. 0. 0. 0. 0. 0. 0. 0. 0. 0. 0. 0. 0. 0. 0. 0. 0. 0. 0.
      0. 0. 0. 0. 0. 0. 0. 0. 0. 0. 0. 0. 0. 0. 0. 0. 0. 0. 0. 0. 0. 0.
      0. 0. 0. 0. 0. 0. 0. 0. 0. 0. 0. 0. 0. 0. 262. 0. 0. 0. 38.</_>
    <_>
      1134. 28. 14. 155. 292. 1. 72. 71. 5. 0. 0. 0. 86. 0. 0. 0. 0. 0.
      0. 0. 0. 0. 0. 0. 21. 0. 0. 0. 18. 0. 0. 0. 0. 0. 0. 0. 0. 0. 0.
      0. 0. 0. 0. 0. 0. 0. 0. 0. 3. 0. 0. 0. 1. 0. 0. 0. 41. 0. 0. 0.
      41. 0. 0. 0. 126. 0. 0. 1. 13. 0. 0. 0. 0. 0. 0. 0. 4. 0. 0. 0. 0.
      0. 0. 0. 0. 0. 0. 0. 3. 0. 0. 0. 0. 0. 0. 0. 56. 0. 0. 0. 3. 0. 0.
      0. 1. 0. 0. 0. 8. 0. 0. 0. 1. 0. 0. 0. 0. 0. 0. 0. 12. 0. 0. 0. 2.
      0. 0. 0. 9. 101. 0. 509. 1. 3. 3. 213. 0. 0. 0. 0. 0. 0. 0. 0. 0.
      0. 0. 0. 0. 0. 0. 0. 0. 0. 0. 0. 0. 0. 0. 0. 0. 0. 0. 0. 0. 0. 0.
      0. 0. 0. 0. 0. 0. 0. 0. 0. 0. 0. 0. 0. 0. 0. 0. 0. 0. 0. 0. 1004.
      0. 0. 0. 389. 52. 12. 0. 133. 1. 0. 9. 17. 0. 0. 0. 0. 0. 0. 0. 0.
      0. 0. 0. 0. 0. 0. 0. 0. 0. 0. 0. 0. 0. 0. 0. 0. 0. 0. 0. 0. 0. 0.
      0. 0. 0. 0. 0. 0. 0. 0. 0. 0. 0. 0. 0. 0. 0. 0. 0. 0. 0. 0. 0.
      192. 0. 0. 0. 27.</_>
    <_>
      784. 0. 0. 0. 362. 0. 0. 0. 0. 0. 0. 0. 0. 0. 0. 0. 0. 0. 0. 0. 0.
      0. 0. 0. 0. 0. 0. 0. 0. 0. 0. 0. 0. 0. 0. 0. 0. 0. 0. 0. 0. 0. 0.
      0. 0. 0. 0. 0. 0. 0. 0. 0. 0. 0. 0. 0. 14. 0. 0. 0. 0. 0. 0. 0.
      398. 0. 0. 1. 67. 0. 0. 0. 0. 0. 0. 0. 0. 0. 0. 0. 0. 0. 0. 0. 0.
      0. 0. 0. 0. 0. 0. 0. 0. 0. 0. 0. 0. 0. 0. 0. 0. 0. 0. 0. 0. 0. 0.
      0. 0. 0. 0. 0. 0. 0. 0. 0. 1. 0. 0. 0. 0. 0. 0. 0. 0. 0. 0. 0. 0.
      1. 1. 735. 0. 0. 0. 421. 0. 0. 0. 0. 0. 0. 0. 1. 0. 0. 0. 0. 0. 0.
      0. 0. 0. 0. 0. 0. 0. 0. 0. 0. 0. 0. 0. 0. 0. 0. 0. 0. 0. 0. 0. 0.
      0. 0. 0. 0. 0. 0. 0. 0. 0. 0. 0. 0. 0. 14. 0. 742. 0. 0. 0. 413.
      0. 0. 0. 475. 0. 0. 0. 27. 0. 0. 0. 0. 0. 0. 0. 0. 0. 0. 0. 0. 0.
      0. 0. 1. 0. 0. 0. 0. 0. 0. 0. 0. 0. 0. 0. 1. 0. 0. 0. 0. 0. 0. 0.
      0. 0. 0. 0. 0. 0. 0. 0. 0. 0. 0. 0. 0. 0. 2. 0. 389. 0. 0. 0. 38.</_>
    <_>
      1459. 0. 4. 3. 269. 0. 81. 0. 21. 0. 0. 0. 81. 0. 0. 0. 0. 0. 0.
      0. 0. 0. 0. 0. 13. 0. 0. 0. 1. 0. 0. 0. 15. 0. 0. 0. 0. 0. 0. 0.
      0. 0. 0. 0. 1. 0. 0. 0. 9. 0. 0. 0. 0. 0. 0. 0. 757. 0. 0. 0. 206.
      0. 0. 0. 66. 0. 0. 0. 21. 0. 2. 0. 0. 0. 0. 0. 2. 0. 0. 0. 0. 0.
      0. 0. 0. 0. 0. 0. 0. 0. 0. 0. 0. 0. 0. 0. 27. 0. 0. 0. 0. 0. 0. 0.
      1. 0. 0. 0. 6. 0. 0. 0. 0. 0. 0. 0. 0. 0. 0. 0. 108. 0. 0. 0. 26.
      0. 0. 0. 0. 2. 0. 49. 0. 0. 2. 3. 0. 0. 0. 0. 0. 0. 0. 0. 0. 0. 0.
      0. 0. 0. 0. 0. 0. 0. 0. 0. 0. 0. 0. 0. 0. 0. 0. 0. 0. 0. 0. 0. 0.
      0. 0. 0. 0. 0. 0. 0. 0. 0. 0. 0. 0. 0. 0. 0. 0. 0. 0. 1172. 0. 0.
      0. 321. 29. 0. 0. 5. 1. 0. 6. 0. 0. 0. 0. 0. 0. 0. 0. 0. 0. 0. 0.
      0. 0. 0. 0. 0. 0. 0. 0. 0. 0. 0. 0. 0. 0. 0. 0. 0. 0. 0. 0. 0. 0.
      0. 0. 0. 0. 0. 0. 0. 0. 0. 0. 0. 0. 0. 0. 0. 0. 0. 0. 96. 0. 0. 0.
      23.</_>
    <_>
      1166. 1. 0. 5. 335. 0. 20. 1. 2. 0. 0. 0. 19. 0. 0. 0. 4. 0. 0. 0.
      0. 0. 0. 0. 41. 0. 0. 0. 10. 0. 0. 0. 12. 0. 0. 0. 4. 0. 0. 0. 0.
      0. 0. 0. 1. 0. 0. 0. 27. 0. 0. 0. 0. 0. 0. 0. 791. 0. 0. 0. 306.
      0. 0. 0. 181. 0. 4. 0. 22. 0. 1. 0. 2. 0. 0. 0. 1. 0. 0. 0. 0. 0.
      0. 0. 0. 0. 0. 0. 1. 0. 0. 0. 0. 0. 0. 0. 20. 0. 0. 0. 0. 0. 0. 0.
      1. 0. 0. 0. 0. 0. 0. 0. 0. 0. 0. 0. 0. 0. 0. 0. 172. 0. 0. 0. 31.
      0. 0. 0. 4. 3. 0. 41. 1. 1. 0. 10. 0. 0. 0. 0. 0. 0. 0. 0. 0. 0.
      0. 0. 0. 0. 0. 0. 0. 0. 0. 0. 0. 0. 0. 0. 0. 0. 0. 0. 0. 0. 0. 0.
      0. 0. 0. 0. 0. 0. 0. 0. 0. 0. 0. 0. 0. 0. 0. 0. 0. 0. 0. 1028. 0.
      0. 0. 357. 24. 0. 0. 5. 4. 0. 0. 2. 0. 0. 0. 0. 0. 0. 0. 0. 0. 0.
      0. 0. 0. 0. 0. 0. 0. 0. 0. 0. 0. 0. 0. 0. 0. 0. 0. 0. 0. 0. 0. 0.
      0. 0. 0. 0. 0. 0. 0. 0. 0. 0. 0. 0. 0. 0. 0. 0. 0. 0. 0. 192. 0.
      0. 0. 35.</_>
    <_>
      674. 0. 0. 0. 548. 0. 0. 0. 0. 0. 0. 0. 0. 0. 0. 0. 0. 0. 0. 0. 0.
      0. 0. 0. 0. 0. 0. 0. 0. 0. 0. 0. 0. 0. 0. 0. 0. 0. 0. 0. 0. 0. 0.
      0. 0. 0. 0. 0. 0. 0. 0. 0. 0. 0. 0. 0. 38. 2. 2. 22. 0. 0. 11. 14.
      285. 0. 0. 0. 105. 0. 0. 0. 0. 0. 0. 0. 0. 0. 0. 0. 0. 0. 0. 0. 0.
      0. 0. 0. 0. 0. 0. 0. 0. 0. 0. 0. 0. 0. 0. 0. 0. 0. 0. 0. 0. 0. 0.
      0. 0. 0. 0. 0. 0. 0. 0. 0. 0. 0. 0. 0. 18. 0. 0. 0. 0. 0. 2. 0. 0.
      0. 0. 566. 0. 0. 0. 696. 0. 0. 0. 2. 0. 0. 0. 24. 0. 0. 0. 0. 0.
      0. 0. 0. 0. 0. 0. 2. 0. 0. 0. 0. 0. 0. 0. 5. 0. 0. 0. 3. 0. 0. 0.
      0. 0. 0. 0. 0. 0. 0. 0. 9. 0. 0. 0. 1. 10. 30. 0. 554. 0. 1. 0.
      459. 0. 0. 0. 180. 0. 0. 0. 41. 0. 0. 0. 0. 0. 0. 0. 2. 0. 0. 0.
      1. 0. 0. 0. 0. 0. 0. 0. 2. 0. 0. 0. 0. 0. 0. 0. 62. 0. 0. 0. 4. 0.
      0. 0. 0. 0. 0. 0. 3. 0. 0. 0. 48. 0. 0. 0. 0. 53. 57. 0. 255. 0.
      1. 2. 94.</_>
    <_>
      1093. 0. 0. 0. 492. 0. 0. 0. 3. 0. 0. 0. 0. 0. 0. 0. 0. 0. 0. 0.
      0. 0. 0. 0. 1. 0. 0. 0. 0. 0. 0. 0. 0. 0. 0. 0. 0. 0. 0. 0. 0. 0.
      0. 0. 0. 0. 0. 0. 0. 0. 0. 0. 0. 0. 0. 0. 1040. 0. 0. 0. 351. 0.
      0. 0. 56. 0. 0. 0. 27. 0. 0. 0. 0. 0. 0. 0. 0. 0. 0. 0. 0. 0. 0.
      0. 0. 0. 0. 0. 0. 0. 0. 0. 0. 0. 0. 0. 0. 0. 0. 0. 0. 0. 0. 0. 0.
      0. 0. 0. 0. 0. 0. 0. 0. 0. 0. 0. 0. 0. 0. 0. 143. 0. 0. 0. 70. 0.
      0. 0. 0. 0. 0. 0. 0. 0. 0. 0. 0. 0. 0. 0. 0. 0. 0. 0. 0. 0. 0. 0.
      0. 0. 0. 0. 0. 0. 0. 0. 0. 0. 0. 0. 0. 0. 0. 0. 0. 0. 0. 0. 0. 0.
      0. 0. 0. 0. 0. 0. 0. 0. 0. 0. 0. 0. 0. 0. 0. 0. 0. 1078. 0. 0. 0.
      448. 0. 0. 0. 0. 0. 0. 0. 0. 0. 0. 0. 0. 0. 0. 0. 0. 0. 0. 0. 0.
      0. 0. 0. 0. 0. 0. 0. 0. 0. 0. 0. 0. 0. 0. 0. 0. 0. 0. 0. 0. 0. 0.
      0. 0. 0. 0. 0. 0. 0. 0. 0. 0. 0. 0. 0. 0. 0. 0. 0. 57. 0. 0. 0.
      29.</_>
    <_>
      886. 2. 4. 11. 294. 6. 12. 0. 19. 0. 0. 0. 15. 0. 0. 0. 4. 0. 0.
      0. 0. 0. 0. 0. 16. 0. 0. 0. 10. 0. 0. 0. 19. 0. 0. 0. 0. 0. 0. 0.
      0. 0. 0. 0. 4. 0. 0. 0. 34. 0. 0. 0. 4. 0. 0. 0. 497. 0. 0. 0.
      168. 0. 0. 0. 305. 2. 0. 15. 59. 1. 5. 4. 0. 0. 0. 0. 0. 0. 0. 0.
      2. 0. 0. 0. 0. 0. 0. 0. 1. 0. 0. 0. 0. 0. 0. 0. 39. 0. 0. 0. 7. 0.
      0. 0. 2. 0. 0. 0. 0. 0. 0. 0. 55. 0. 0. 0. 1. 0. 0. 0. 130. 0. 0.
      0. 21. 0. 0. 0. 5. 15. 0. 184. 0. 5. 0. 86. 0. 0. 0. 0. 0. 0. 0.
      0. 0. 0. 0. 0. 0. 0. 0. 0. 0. 0. 0. 0. 0. 0. 0. 0. 0. 0. 0. 0. 0.
      0. 0. 0. 0. 0. 0. 0. 0. 0. 0. 0. 0. 0. 0. 0. 0. 0. 0. 0. 0. 0. 0.
      813. 0. 0. 0. 364. 50. 15. 3. 221. 2. 0. 0. 36. 0. 0. 0. 0. 0. 0.
      0. 0. 0. 0. 0. 0. 0. 0. 0. 0. 0. 0. 0. 0. 0. 0. 0. 0. 0. 0. 0. 0.
      0. 0. 0. 0. 0. 0. 0. 0. 0. 0. 0. 0. 0. 0. 0. 0. 0. 0. 0. 0. 0. 0.
      0. 385. 0. 0. 0. 50.</_>
    <_>
      1086. 11. 5. 52. 331. 0. 79. 61. 14. 0. 0. 0. 83. 0. 0. 0. 8. 0.
      0. 0. 0. 0. 0. 0. 13. 0. 0. 0. 6. 0. 0. 0. 10. 0. 0. 0. 0. 0. 0.
      0. 0. 0. 0. 0. 1. 0. 0. 0. 15. 0. 0. 0. 0. 0. 0. 0. 99. 0. 0. 0.
      63. 0. 0. 0. 181. 0. 0. 0. 52. 0. 3. 0. 0. 0. 0. 0. 1. 0. 0. 0. 0.
      0. 0. 0. 0. 0. 0. 0. 0. 0. 0. 0. 0. 0. 0. 0. 53. 0. 0. 0. 2. 0. 0.
      0. 0. 0. 0. 0. 7. 0. 0. 0. 29. 0. 0. 0. 0. 0. 0. 0. 67. 0. 0. 0.
      20. 0. 0. 0. 29. 56. 0. 411. 0. 0. 0. 254. 0. 0. 0. 0. 0. 0. 0. 0.
      0. 0. 0. 0. 0. 0. 0. 0. 0. 0. 0. 0. 0. 0. 0. 0. 0. 0. 0. 0. 0. 0.
      0. 0. 0. 0. 0. 0. 0. 0. 0. 0. 0. 0. 0. 0. 0. 0. 0. 0. 0. 0. 0.
      879. 0. 0. 0. 458. 49. 30. 0. 52. 4. 0. 6. 33. 0. 0. 0. 0. 0. 0.
      0. 0. 0. 0. 0. 0. 0. 0. 0. 0. 0. 0. 0. 0. 0. 0. 0. 0. 0. 0. 0. 0.
      0. 0. 0. 0. 0. 0. 0. 0. 0. 0. 0. 0. 0. 0. 0. 0. 0. 0. 0. 0. 0. 0.
      0. 228. 0. 0. 0. 47.</_>
    <_>
      742. 35. 9. 101. 270. 0. 5. 111. 0. 0. 0. 0. 61. 0. 0. 0. 0. 0. 0.
      0. 0. 0. 0. 0. 2. 0. 0. 0. 0. 0. 0. 0. 2. 0. 0. 0. 0. 0. 0. 0. 0.
      0. 0. 0. 0. 0. 0. 0. 4. 0. 0. 0. 5. 0. 0. 0. 18. 0. 0. 0. 22. 0.
      0. 0. 344. 1. 1. 12. 61. 0. 0. 2. 0. 0. 0. 0. 7. 0. 0. 0. 0. 0. 0.
      0. 0. 0. 0. 0. 0. 0. 0. 0. 0. 0. 0. 0. 85. 0. 0. 0. 11. 0. 0. 0.
      0. 0. 0. 0. 3. 0. 0. 0. 4. 0. 0. 0. 0. 0. 0. 0. 15. 0. 0. 0. 3. 0.
      0. 0. 9. 142. 0. 451. 1. 0. 0. 205. 0. 0. 0. 0. 0. 0. 0. 0. 0. 0.
      0. 0. 0. 0. 0. 0. 0. 0. 0. 0. 0. 0. 0. 0. 0. 0. 0. 0. 0. 0. 0. 0.
      0. 0. 0. 0. 0. 0. 0. 0. 0. 0. 0. 0. 0. 0. 0. 0. 0. 0. 0. 774. 0.
      0. 0. 344. 6. 155. 0. 299. 0. 0. 0. 72. 0. 0. 0. 0. 0. 0. 0. 0. 0.
      0. 0. 0. 0. 0. 0. 0. 0. 0. 0. 0. 0. 0. 0. 0. 0. 0. 0. 0. 0. 0. 0.
      0. 0. 0. 0. 0. 0. 0. 0. 0. 0. 0. 0. 0. 0. 0. 0. 0. 0. 0. 0. 416.
      0. 0. 0. 78.</_>
    <_>
      855. 0. 0. 0. 287. 0. 0. 0. 0. 0. 0. 0. 0. 0. 0. 0. 0. 0. 0. 0. 0.
      0. 0. 0. 0. 0. 0. 0. 0. 0. 0. 0. 0. 0. 0. 0. 0. 0. 0. 0. 0. 0. 0.
      0. 0. 0. 0. 0. 0. 0. 0. 0. 0. 0. 0. 0. 842. 0. 0. 0. 339. 0. 0. 0.
      401. 0. 0. 0. 69. 0. 0. 0. 0. 0. 0. 0. 0. 0. 0. 0. 0. 0. 0. 0. 0.
      0. 0. 0. 0. 0. 0. 0. 0. 0. 0. 0. 0. 0. 0. 0. 0. 0. 0. 0. 0. 0. 0.
      0. 0. 0. 0. 0. 0. 0. 0. 0. 0. 0. 0. 0. 441. 0. 0. 0. 42. 0. 0. 0.
      0. 0. 0. 0. 0. 0. 0. 0. 0. 0. 0. 0. 0. 0. 0. 0. 0. 0. 0. 0. 0. 0.
      0. 0. 0. 0. 0. 0. 0. 0. 0. 0. 0. 0. 0. 0. 0. 0. 0. 0. 0. 0. 0. 0.
      0. 0. 0. 0. 0. 0. 0. 0. 0. 0. 0. 0. 0. 0. 0. 791. 0. 0. 0. 367. 0.
      0. 0. 0. 0. 0. 0. 0. 0. 0. 0. 0. 0. 0. 0. 0. 0. 0. 0. 0. 0. 0. 0.
      0. 0. 0. 0. 0. 0. 0. 0. 0. 0. 0. 0. 0. 0. 0. 0. 0. 0. 0. 0. 0. 0.
      0. 0. 0. 0. 0. 0. 0. 0. 0. 0. 0. 0. 0. 0. 393. 0. 0. 0. 61.</_>
    <_>
      866. 0. 0. 0. 348. 0. 0. 0. 0. 0. 0. 0. 0. 0. 0. 0. 0. 0. 0. 0. 0.
      0. 0. 0. 0. 0. 0. 0. 0. 0. 0. 0. 0. 0. 0. 0. 0. 0. 0. 0. 0. 0. 0.
      0. 0. 0. 0. 0. 0. 0. 0. 0. 0. 0. 0. 0. 846. 0. 0. 0. 343. 0. 0. 0.
      364. 0. 0. 0. 34. 0. 0. 0. 0. 0. 0. 0. 0. 0. 0. 0. 0. 0. 0. 0. 0.
      0. 0. 0. 0. 0. 0. 0. 0. 0. 0. 0. 0. 0. 0. 0. 0. 0. 0. 0. 0. 0. 0.
      0. 0. 0. 0. 0. 0. 0. 0. 0. 0. 0. 0. 0. 436. 0. 0. 0. 39. 0. 0. 0.
      0. 0. 0. 0. 0. 0. 0. 0. 0. 0. 0. 0. 0. 0. 0. 0. 0. 0. 0. 0. 0. 0.
      0. 0. 0. 0. 0. 0. 0. 0. 0. 0. 0. 0. 0. 0. 0. 0. 0. 0. 0. 0. 0. 0.
      0. 0. 0. 0. 0. 0. 0. 0. 0. 0. 0. 0. 0. 0. 0. 795. 0. 0. 0. 320. 0.
      0. 0. 0. 0. 0. 0. 0. 0. 0. 0. 0. 0. 0. 0. 0. 0. 0. 0. 0. 0. 0. 0.
      0. 0. 0. 0. 0. 0. 0. 0. 0. 0. 0. 0. 0. 0. 0. 0. 0. 0. 0. 0. 0. 0.
      0. 0. 0. 0. 0. 0. 0. 0. 0. 0. 0. 0. 0. 0. 418. 0. 0. 0. 79.</_>
    <_>
      442. 0. 0. 0. 387. 0. 0. 0. 0. 0. 0. 0. 0. 0. 0. 0. 0. 0. 0. 0. 0.
      0. 0. 0. 0. 0. 0. 0. 0. 0. 0. 0. 0. 0. 0. 0. 0. 0. 0. 0. 0. 0. 0.
      0. 0. 0. 0. 0. 0. 0. 0. 0. 0. 0. 0. 0. 477. 0. 0. 0. 320. 0. 0. 0.
      714. 0. 0. 0. 69. 0. 0. 0. 0. 0. 0. 0. 0. 0. 0. 0. 0. 0. 0. 0. 0.
      0. 0. 0. 0. 0. 0. 0. 0. 0. 0. 0. 0. 0. 0. 0. 0. 0. 0. 0. 0. 0. 0.
      0. 0. 0. 0. 0. 0. 0. 0. 0. 0. 0. 0. 0. 788. 0. 0. 0. 79. 0. 0. 0.
      0. 0. 0. 0. 0. 0. 0. 0. 0. 0. 0. 0. 0. 0. 0. 0. 0. 0. 0. 0. 0. 0.
      0. 0. 0. 0. 0. 0. 0. 0. 0. 0. 0. 0. 0. 0. 0. 0. 0. 0. 0. 0. 0. 0.
      0. 0. 0. 0. 0. 0. 0. 0. 0. 0. 0. 0. 0. 0. 0. 478. 0. 0. 0. 335. 0.
      0. 0. 0. 0. 0. 0. 0. 0. 0. 0. 0. 0. 0. 0. 0. 0. 0. 0. 0. 0. 0. 0.
      0. 0. 0. 0. 0. 0. 0. 0. 0. 0. 0. 0. 0. 0. 0. 0. 0. 0. 0. 0. 0. 0.
      0. 0. 0. 0. 0. 0. 0. 0. 0. 0. 0. 0. 0. 0. 702. 0. 0. 0. 97.</_>
    <_>
      330. 0. 0. 0. 92. 0. 0. 0. 0. 0. 0. 0. 0. 0. 0. 0. 0. 0. 0. 0. 0.
      0. 0. 0. 0. 0. 0. 0. 0. 0. 0. 0. 0. 0. 0. 0. 0. 0. 0. 0. 0. 0. 0.
      0. 0. 0. 0. 0. 0. 0. 0. 0. 0. 0. 0. 0. 366. 0. 0. 0. 101. 0. 0. 0.
      1127. 0. 0. 0. 63. 0. 0. 0. 0. 0. 0. 0. 0. 0. 0. 0. 0. 0. 0. 0. 0.
      0. 0. 0. 0. 0. 0. 0. 0. 0. 0. 0. 0. 0. 0. 0. 0. 0. 0. 0. 0. 0. 0.
      0. 0. 0. 0. 0. 0. 0. 0. 0. 0. 0. 0. 0. 1125. 0. 0. 0. 72. 0. 0. 0.
      0. 0. 0. 0. 0. 0. 0. 0. 0. 0. 0. 0. 0. 0. 0. 0. 0. 0. 0. 0. 0. 0.
      0. 0. 0. 0. 0. 0. 0. 0. 0. 0. 0. 0. 0. 0. 0. 0. 0. 0. 0. 0. 0. 0.
      0. 0. 0. 0. 0. 0. 0. 0. 0. 0. 0. 0. 0. 0. 0. 356. 0. 0. 0. 128. 0.
      0. 0. 0. 0. 0. 0. 0. 0. 0. 0. 0. 0. 0. 0. 0. 0. 0. 0. 0. 0. 0. 0.
      0. 0. 0. 0. 0. 0. 0. 0. 0. 0. 0. 0. 0. 0. 0. 0. 0. 0. 0. 0. 0. 0.
      0. 0. 0. 0. 0. 0. 0. 0. 0. 0. 0. 0. 0. 0. 1051. 0. 0. 0. 77.</_>
    <_>
      290. 0. 0. 0. 386. 0. 0. 0. 0. 0. 0. 0. 0. 0. 0. 0. 0. 0. 0. 0. 0.
      0. 0. 0. 0. 0. 0. 0. 0. 0. 0. 0. 0. 0. 0. 0. 0. 0. 0. 0. 0. 0. 0.
      0. 0. 0. 0. 0. 0. 0. 0. 0. 0. 0. 0. 0. 324. 0. 0. 0. 413. 0. 0. 0.
      887. 0. 0. 0. 49. 0. 0. 0. 0. 0. 0. 0. 0. 0. 0. 0. 0. 0. 0. 0. 0.
      0. 0. 0. 0. 0. 0. 0. 0. 0. 0. 0. 0. 0. 0. 0. 0. 0. 0. 0. 0. 0. 0.
      0. 0. 0. 0. 0. 0. 0. 0. 0. 0. 0. 0. 0. 874. 0. 0. 0. 53. 0. 0. 0.
      0. 0. 0. 0. 0. 0. 0. 0. 0. 0. 0. 0. 0. 0. 0. 0. 0. 0. 0. 0. 0. 0.
      0. 0. 0. 0. 0. 0. 0. 0. 0. 0. 0. 0. 0. 0. 0. 0. 0. 0. 0. 0. 0. 0.
      0. 0. 0. 0. 0. 0. 0. 0. 0. 0. 0. 0. 0. 0. 0. 354. 0. 0. 0. 353. 0.
      0. 0. 0. 0. 0. 0. 0. 0. 0. 0. 0. 0. 0. 0. 0. 0. 0. 0. 0. 0. 0. 0.
      0. 0. 0. 0. 0. 0. 0. 0. 0. 0. 0. 0. 0. 0. 0. 0. 0. 0. 0. 0. 0. 0.
      0. 0. 0. 0. 0. 0. 0. 0. 0. 0. 0. 0. 0. 0. 820. 0. 0. 0. 85.</_>
    <_>
      373. 0. 0. 0. 897. 0. 0. 0. 0. 0. 0. 0. 0. 0. 0. 0. 0. 0. 0. 0. 0.
      0. 0. 0. 0. 0. 0. 0. 1. 0. 0. 0. 0. 0. 0. 0. 0. 0. 0. 0. 0. 0. 0.
      0. 0. 0. 0. 0. 0. 0. 0. 0. 0. 0. 0. 0. 368. 0. 0. 0. 971. 0. 0. 0.
      257. 0. 0. 0. 85. 0. 0. 0. 0. 0. 0. 0. 0. 0. 0. 0. 0. 0. 0. 0. 0.
      0. 0. 0. 0. 0. 0. 0. 0. 0. 0. 0. 0. 0. 0. 0. 0. 0. 0. 0. 0. 0. 0.
      0. 0. 0. 0. 0. 0. 0. 0. 0. 0. 0. 0. 0. 246. 0. 0. 0. 78. 0. 0. 0.
      0. 0. 0. 0. 0. 0. 0. 0. 0. 0. 0. 0. 0. 0. 0. 0. 0. 0. 0. 0. 0. 0.
      0. 0. 0. 0. 0. 0. 0. 0. 0. 2. 0. 0. 0. 0. 0. 0. 0. 0. 0. 0. 0. 0.
      0. 0. 0. 0. 0. 0. 0. 0. 0. 0. 0. 0. 0. 0. 0. 398. 0. 0. 0. 885. 0.
      0. 0. 0. 0. 0. 0. 0. 0. 0. 0. 0. 0. 0. 0. 0. 0. 0. 0. 0. 0. 0. 0.
      0. 0. 0. 0. 0. 0. 0. 0. 0. 0. 0. 0. 0. 0. 0. 0. 0. 0. 0. 0. 0. 0.
      0. 0. 0. 0. 0. 0. 0. 0. 0. 0. 0. 0. 0. 0. 214. 0. 0. 0. 113.</_>
    <_>
      391. 0. 0. 0. 630. 0. 0. 0. 0. 0. 0. 0. 0. 0. 0. 0. 0. 0. 0. 0. 0.
      0. 0. 0. 0. 0. 0. 0. 0. 0. 0. 0. 0. 0. 0. 0. 0. 0. 0. 0. 0. 0. 0.
      0. 0. 0. 0. 0. 0. 0. 0. 0. 0. 0. 0. 0. 392. 0. 0. 0. 668. 0. 0. 0.
      513. 0. 0. 0. 78. 0. 0. 0. 0. 0. 0. 0. 0. 0. 0. 0. 0. 0. 0. 0. 0.
      0. 0. 0. 0. 0. 0. 0. 0. 0. 0. 0. 0. 0. 0. 0. 0. 0. 0. 0. 0. 0. 0.
      0. 0. 0. 0. 0. 0. 0. 0. 0. 0. 0. 0. 0. 534. 0. 0. 0. 70. 0. 0. 0.
      0. 0. 0. 0. 0. 0. 0. 0. 0. 0. 0. 0. 0. 0. 0. 0. 0. 0. 0. 0. 0. 0.
      0. 0. 0. 0. 0. 0. 0. 0. 0. 0. 0. 0. 0. 0. 0. 0. 0. 0. 0. 0. 0. 0.
      0. 0. 0. 0. 0. 0. 0. 0. 0. 0. 0. 0. 0. 0. 0. 400. 0. 0. 0. 614. 0.
      0. 0. 0. 0. 0. 0. 0. 0. 0. 0. 0. 0. 0. 0. 0. 0. 0. 0. 0. 0. 0. 0.
      0. 0. 0. 0. 0. 0. 0. 0. 0. 0. 0. 0. 0. 0. 0. 0. 0. 0. 0. 0. 0. 0.
      0. 0. 0. 0. 0. 0. 0. 0. 0. 0. 0. 0. 0. 0. 509. 0. 0. 0. 89.</_>
    <_>
      400. 0. 0. 0. 740. 0. 0. 0. 0. 0. 0. 0. 0. 0. 0. 0. 0. 0. 0. 0. 0.
      0. 0. 0. 0. 0. 0. 0. 0. 0. 0. 0. 0. 0. 0. 0. 0. 0. 0. 0. 0. 0. 0.
      0. 0. 0. 0. 0. 0. 0. 0. 0. 0. 0. 0. 0. 442. 0. 0. 0. 714. 0. 0. 0.
      404. 0. 0. 0. 68. 0. 0. 0. 0. 0. 0. 0. 0. 0. 0. 0. 0. 0. 0. 0. 0.
      0. 0. 0. 0. 0. 0. 0. 0. 0. 0. 0. 0. 0. 0. 0. 0. 0. 0. 0. 0. 0. 0.
      0. 0. 0. 0. 0. 0. 0. 0. 0. 0. 0. 0. 0. 443. 0. 0. 0. 65. 0. 0. 0.
      0. 0. 0. 0. 0. 0. 0. 0. 0. 0. 0. 0. 0. 0. 0. 0. 0. 0. 0. 0. 0. 0.
      0. 0. 0. 0. 0. 0. 0. 0. 0. 0. 0. 0. 0. 0. 0. 0. 0. 0. 0. 0. 0. 0.
      0. 0. 0. 0. 0. 0. 0. 0. 0. 0. 0. 0. 0. 0. 0. 499. 0. 0. 0. 571. 0.
      0. 0. 0. 0. 0. 0. 0. 0. 0. 0. 0. 0. 0. 0. 0. 0. 0. 0. 0. 0. 0. 0.
      0. 0. 0. 0. 0. 0. 0. 0. 0. 0. 0. 0. 0. 0. 0. 0. 0. 0. 0. 0. 0. 0.
      0. 0. 0. 0. 0. 0. 0. 0. 0. 0. 0. 0. 0. 0. 424. 0. 0. 0. 118.</_>
    <_>
      311. 0. 0. 0. 550. 0. 0. 0. 0. 0. 0. 0. 0. 0. 0. 0. 0. 0. 0. 0. 0.
      0. 0. 0. 0. 0. 0. 0. 0. 0. 0. 0. 0. 0. 0. 0. 0. 0. 0. 0. 0. 0. 0.
      0. 0. 0. 0. 0. 1. 0. 0. 0. 0. 0. 0. 0. 326. 0. 0. 0. 511. 0. 0. 0.
      700. 0. 0. 0. 47. 0. 0. 0. 0. 0. 0. 0. 0. 0. 0. 0. 0. 0. 0. 0. 0.
      0. 0. 0. 0. 0. 0. 0. 0. 0. 0. 0. 0. 0. 0. 0. 0. 0. 0. 0. 0. 0. 0.
      0. 0. 0. 0. 0. 8. 0. 0. 0. 0. 0. 0. 0. 762. 0. 0. 0. 55. 0. 0. 0.
      0. 0. 0. 0. 0. 0. 0. 0. 0. 0. 0. 0. 0. 0. 0. 0. 0. 0. 0. 0. 0. 0.
      0. 0. 0. 0. 0. 0. 0. 0. 0. 0. 0. 0. 0. 0. 0. 0. 0. 0. 0. 0. 0. 0.
      0. 0. 0. 0. 0. 0. 0. 0. 0. 0. 0. 0. 0. 0. 0. 379. 0. 0. 0. 381. 4.
      0. 0. 0. 0. 0. 0. 0. 0. 0. 0. 0. 0. 0. 0. 0. 0. 0. 0. 0. 0. 0. 0.
      0. 0. 0. 0. 0. 0. 0. 0. 0. 0. 0. 0. 0. 0. 0. 0. 0. 0. 0. 0. 0. 0.
      0. 0. 0. 0. 0. 0. 2. 0. 0. 0. 0. 1. 0. 0. 778. 0. 0. 0. 72.</_>
    <_>
      349. 0. 0. 0. 609. 0. 0. 0. 0. 0. 0. 0. 0. 0. 0. 0. 0. 0. 0. 0. 0.
      0. 0. 0. 0. 0. 0. 0. 1. 0. 0. 0. 0. 0. 0. 0. 0. 0. 0. 0. 0. 0. 0.
      0. 0. 0. 0. 0. 1. 0. 0. 0. 0. 0. 0. 0. 388. 0. 0. 0. 666. 0. 5. 0.
      578. 0. 0. 0. 76. 0. 0. 0. 0. 0. 0. 0. 0. 0. 0. 0. 0. 0. 0. 0. 0.
      0. 0. 0. 0. 0. 0. 0. 0. 0. 0. 0. 0. 0. 0. 0. 0. 0. 0. 0. 0. 0. 0.
      0. 0. 0. 0. 0. 0. 0. 0. 0. 0. 0. 0. 0. 544. 0. 0. 0. 59. 0. 0. 0.
      0. 0. 0. 0. 0. 0. 0. 0. 0. 0. 0. 0. 0. 0. 0. 0. 0. 0. 0. 0. 0. 0.
      0. 0. 0. 0. 0. 0. 0. 0. 0. 3. 0. 0. 0. 0. 0. 0. 0. 0. 0. 0. 0. 0.
      0. 0. 0. 0. 0. 0. 0. 0. 0. 0. 0. 0. 0. 0. 0. 344. 0. 0. 0. 749. 0.
      0. 0. 0. 0. 0. 0. 0. 0. 0. 0. 0. 0. 0. 0. 0. 0. 0. 0. 0. 0. 0. 0.
      0. 0. 0. 0. 0. 0. 0. 0. 0. 0. 0. 0. 0. 0. 0. 0. 0. 0. 0. 0. 0. 0.
      0. 0. 0. 0. 0. 0. 0. 0. 0. 0. 0. 0. 0. 0. 424. 0. 0. 0. 92.</_>
    <_>
      337. 0. 0. 0. 579. 0. 0. 0. 0. 0. 0. 0. 0. 0. 0. 0. 0. 0. 0. 0. 0.
      0. 0. 0. 0. 0. 0. 0. 0. 0. 0. 0. 0. 0. 0. 0. 0. 0. 0. 0. 0. 0. 0.
      0. 0. 0. 0. 0. 0. 0. 0. 0. 0. 0. 0. 0. 336. 0. 0. 0. 605. 0. 0. 0.
      635. 0. 0. 0. 61. 0. 0. 0. 0. 0. 0. 0. 0. 0. 0. 0. 0. 0. 0. 0. 0.
      0. 0. 0. 0. 0. 0. 0. 0. 0. 0. 0. 0. 0. 0. 0. 0. 0. 0. 0. 0. 0. 0.
      0. 0. 0. 0. 0. 0. 0. 0. 0. 0. 0. 0. 0. 674. 0. 0. 0. 49. 0. 0. 0.
      0. 0. 0. 0. 0. 0. 0. 0. 0. 0. 0. 0. 0. 0. 0. 0. 0. 0. 0. 0. 0. 0.
      0. 0. 0. 0. 0. 0. 0. 0. 0. 0. 0. 0. 0. 0. 0. 0. 0. 0. 0. 0. 0. 0.
      0. 0. 0. 0. 0. 0. 0. 0. 0. 0. 0. 0. 0. 0. 0. 384. 0. 0. 0. 532. 0.
      0. 0. 0. 0. 0. 0. 0. 0. 0. 0. 0. 0. 0. 0. 0. 0. 0. 0. 0. 0. 0. 0.
      0. 0. 0. 0. 0. 0. 0. 0. 0. 0. 0. 0. 0. 0. 0. 0. 0. 0. 0. 0. 0. 0.
      0. 0. 0. 0. 0. 0. 0. 0. 0. 0. 0. 0. 0. 0. 609. 0. 0. 0. 87.</_>
    <_>
      409. 0. 0. 0. 321. 0. 0. 0. 0. 0. 0. 0. 0. 0. 0. 0. 0. 0. 0. 0. 0.
      0. 0. 0. 0. 0. 0. 0. 0. 0. 0. 0. 0. 0. 0. 0. 0. 0. 0. 0. 0. 0. 0.
      0. 0. 0. 0. 0. 0. 0. 0. 0. 0. 0. 0. 0. 447. 0. 0. 0. 380. 0. 0. 0.
      823. 0. 0. 0. 59. 0. 0. 0. 0. 0. 0. 0. 0. 0. 0. 0. 0. 0. 0. 0. 0.
      0. 0. 0. 0. 0. 0. 0. 0. 0. 0. 0. 0. 0. 0. 0. 0. 0. 0. 0. 0. 0. 0.
      0. 0. 0. 0. 0. 0. 0. 0. 0. 0. 0. 0. 0. 784. 0. 0. 0. 53. 0. 0. 0.
      0. 0. 0. 0. 0. 0. 0. 0. 0. 0. 0. 0. 0. 0. 0. 0. 0. 0. 0. 0. 0. 0.
      0. 0. 0. 0. 0. 0. 0. 0. 0. 0. 0. 0. 0. 0. 0. 0. 0. 0. 0. 0. 0. 0.
      0. 0. 0. 0. 0. 0. 0. 0. 0. 0. 0. 0. 0. 0. 0. 519. 0. 0. 0. 402. 0.
      0. 0. 0. 0. 0. 0. 0. 0. 0. 0. 0. 0. 0. 0. 0. 0. 0. 0. 0. 0. 0. 0.
      0. 0. 0. 0. 0. 0. 0. 0. 0. 0. 0. 0. 0. 0. 0. 0. 0. 0. 0. 0. 0. 0.
      0. 0. 0. 0. 0. 0. 0. 0. 0. 0. 0. 0. 0. 0. 559. 0. 0. 0. 132.</_>
    <_>
      459. 0. 7. 12. 361. 0. 57. 18. 4. 0. 2. 1. 55. 0. 47. 34. 3. 0. 0.
      0. 1. 0. 0. 0. 9. 1. 0. 4. 65. 0. 24. 26. 18. 0. 0. 0. 0. 0. 0. 0.
      1. 0. 0. 0. 2. 0. 1. 0. 20. 3. 0. 0. 2. 0. 0. 0. 253. 5. 1. 9.
      266. 4. 48. 44. 462. 1. 1. 4. 50. 0. 2. 0. 4. 0. 0. 0. 1. 0. 1. 1.
      3. 0. 0. 0. 0. 0. 0. 0. 2. 0. 0. 0. 0. 0. 0. 0. 35. 0. 0. 0. 3. 0.
      0. 0. 0. 0. 0. 0. 0. 0. 0. 0. 64. 0. 0. 0. 0. 0. 0. 0. 262. 1. 3.
      1. 34. 0. 5. 0. 12. 20. 0. 76. 4. 4. 0. 49. 0. 0. 0. 5. 0. 0. 0.
      30. 0. 0. 0. 2. 0. 0. 0. 0. 0. 0. 0. 17. 0. 0. 0. 47. 0. 0. 0. 3.
      0. 0. 0. 4. 0. 0. 0. 0. 0. 0. 0. 3. 0. 2. 0. 24. 0. 0. 0. 2. 4. 9.
      1. 365. 2. 2. 7. 317. 98. 15. 1. 89. 1. 2. 0. 12. 0. 0. 0. 2. 0.
      0. 0. 5. 0. 0. 0. 1. 0. 0. 0. 0. 0. 0. 0. 1. 0. 0. 0. 2. 38. 23.
      0. 34. 2. 2. 0. 3. 2. 0. 0. 1. 0. 0. 0. 1. 50. 51. 0. 150. 0. 0.
      0. 1. 69. 25. 2. 302. 1. 0. 1. 83.</_>
    <_>
      428. 0. 2. 2. 529. 0. 3. 0. 1. 0. 0. 0. 1. 0. 0. 0. 0. 0. 0. 0. 1.
      0. 0. 0. 0. 0. 0. 0. 3. 0. 0. 0. 0. 0. 0. 0. 0. 0. 0. 0. 0. 0. 0.
      0. 1. 0. 0. 0. 2. 0. 0. 0. 1. 0. 0. 0. 281. 1. 2. 6. 382. 1. 59.
      13. 581. 0. 0. 0. 66. 0. 1. 0. 0. 0. 0. 0. 0. 0. 0. 0. 0. 0. 0. 0.
      0. 0. 0. 0. 1. 0. 0. 0. 1. 0. 0. 0. 3. 0. 0. 0. 0. 0. 0. 0. 0. 0.
      0. 0. 0. 0. 0. 0. 0. 0. 0. 0. 0. 0. 0. 0. 154. 3. 0. 0. 23. 0. 4.
      0. 0. 1. 0. 179. 0. 0. 0. 38. 0. 0. 0. 19. 0. 0. 0. 54. 0. 0. 0.
      3. 0. 0. 0. 1. 0. 0. 0. 17. 0. 0. 0. 40. 0. 0. 0. 10. 0. 0. 0. 0.
      0. 0. 0. 0. 0. 0. 0. 1. 0. 0. 0. 21. 0. 0. 0. 1. 12. 20. 0. 301.
      6. 1. 10. 336. 0. 2. 0. 282. 0. 0. 0. 16. 0. 0. 0. 6. 0. 0. 0. 15.
      0. 0. 0. 0. 0. 0. 0. 0. 0. 0. 0. 1. 0. 0. 0. 2. 0. 0. 0. 149. 0.
      0. 0. 5. 0. 0. 0. 5. 0. 0. 0. 12. 0. 0. 0. 59. 0. 0. 0. 1. 135.
      104. 4. 347. 6. 0. 11. 99.</_>
    <_>
      527. 0. 0. 0. 243. 0. 0. 0. 0. 0. 0. 0. 0. 0. 0. 0. 0. 0. 0. 0. 0.
      0. 0. 0. 0. 0. 0. 0. 0. 0. 0. 0. 0. 0. 0. 0. 0. 0. 0. 0. 0. 0. 0.
      0. 0. 0. 0. 0. 0. 0. 0. 0. 0. 0. 0. 0. 575. 0. 0. 0. 310. 0. 0. 0.
      796. 0. 0. 0. 43. 0. 0. 0. 0. 0. 0. 0. 0. 0. 0. 0. 0. 0. 0. 0. 0.
      0. 0. 0. 0. 0. 0. 0. 0. 0. 0. 0. 0. 0. 0. 0. 0. 0. 0. 0. 0. 0. 0.
      0. 0. 0. 0. 0. 4. 0. 0. 0. 0. 0. 0. 0. 729. 0. 0. 0. 46. 0. 0. 0.
      0. 0. 0. 0. 0. 0. 0. 0. 0. 0. 0. 0. 0. 0. 0. 0. 0. 0. 0. 0. 0. 0.
      0. 0. 0. 0. 0. 0. 0. 0. 0. 0. 0. 0. 0. 0. 0. 0. 0. 0. 0. 0. 0. 0.
      0. 0. 0. 0. 0. 0. 0. 0. 0. 0. 0. 0. 0. 0. 0. 646. 0. 0. 0. 346. 3.
      0. 0. 0. 0. 0. 0. 0. 0. 0. 0. 0. 0. 0. 0. 0. 0. 0. 0. 0. 0. 0. 0.
      0. 0. 0. 0. 0. 0. 0. 0. 0. 0. 0. 0. 0. 0. 0. 0. 0. 0. 0. 0. 0. 0.
      0. 0. 0. 0. 0. 0. 0. 0. 0. 0. 0. 0. 0. 0. 506. 0. 0. 0. 114.</_>
    <_>
      314. 0. 0. 0. 645. 0. 0. 0. 0. 0. 0. 0. 0. 0. 0. 0. 0. 0. 0. 0. 0.
      0. 0. 0. 0. 0. 0. 0. 0. 0. 0. 0. 0. 0. 0. 0. 0. 0. 0. 0. 0. 0. 0.
      0. 0. 0. 0. 0. 0. 0. 0. 0. 0. 0. 0. 0. 349. 0. 0. 0. 678. 0. 0. 0.
      607. 0. 0. 0. 46. 0. 0. 0. 0. 0. 0. 0. 0. 0. 0. 0. 0. 0. 0. 0. 0.
      0. 0. 0. 0. 0. 0. 0. 0. 0. 0. 0. 0. 0. 0. 0. 0. 0. 0. 0. 0. 0. 0.
      0. 0. 0. 0. 0. 0. 0. 0. 0. 0. 0. 0. 0. 590. 0. 0. 0. 47. 0. 0. 0.
      0. 0. 0. 0. 0. 0. 0. 0. 0. 0. 0. 0. 0. 0. 0. 0. 0. 0. 0. 0. 0. 0.
      0. 0. 0. 0. 0. 0. 0. 0. 0. 0. 0. 0. 0. 0. 0. 0. 0. 0. 0. 0. 0. 0.
      0. 0. 0. 0. 0. 0. 0. 0. 0. 0. 0. 0. 0. 0. 0. 454. 0. 0. 0. 552. 0.
      0. 0. 0. 0. 0. 0. 0. 0. 0. 0. 0. 0. 0. 0. 0. 0. 0. 0. 0. 0. 0. 0.
      0. 0. 0. 0. 0. 0. 0. 0. 0. 0. 0. 0. 0. 0. 0. 0. 0. 0. 0. 0. 0. 0.
      0. 0. 0. 0. 0. 0. 0. 0. 0. 0. 0. 0. 0. 0. 464. 0. 0. 0. 142.</_>
    <_>
      1171. 4. 4. 33. 258. 1. 93. 25. 14. 0. 4. 0. 146. 0. 120. 9. 10.
      0. 0. 0. 1. 0. 0. 1. 58. 0. 5. 2. 68. 0. 98. 36. 14. 0. 0. 0. 3.
      0. 0. 0. 0. 0. 0. 0. 1. 0. 0. 0. 33. 0. 0. 0. 5. 0. 0. 0. 391. 0.
      2. 4. 193. 0. 57. 28. 115. 0. 1. 5. 12. 0. 2. 0. 0. 0. 0. 0. 2. 0.
      0. 0. 1. 0. 0. 0. 0. 0. 0. 0. 1. 0. 0. 0. 0. 0. 0. 0. 32. 0. 0. 0.
      7. 0. 0. 0. 0. 0. 0. 0. 6. 0. 0. 0. 24. 0. 0. 0. 0. 0. 0. 0. 73.
      0. 0. 0. 29. 0. 1. 1. 0. 28. 0. 84. 0. 1. 0. 39. 0. 0. 0. 0. 0. 0.
      0. 7. 0. 0. 0. 0. 0. 0. 0. 0. 0. 0. 0. 1. 0. 0. 0. 9. 0. 0. 0. 1.
      0. 0. 0. 0. 0. 0. 0. 0. 0. 0. 0. 0. 0. 1. 0. 0. 0. 0. 0. 0. 0. 2.
      0. 862. 0. 0. 0. 310. 40. 7. 0. 29. 4. 0. 8. 10. 0. 0. 0. 0. 0. 0.
      0. 0. 0. 0. 0. 0. 0. 0. 0. 0. 0. 0. 0. 0. 0. 0. 0. 1. 2. 0. 0. 0.
      0. 0. 0. 0. 0. 0. 0. 0. 0. 0. 0. 3. 0. 0. 0. 3. 0. 0. 0. 0. 1. 0.
      0. 168. 0. 0. 3. 60.</_>
    <_>
      412. 0. 0. 0. 544. 0. 0. 0. 0. 0. 0. 0. 0. 0. 0. 0. 0. 0. 0. 0. 0.
      0. 0. 0. 0. 0. 0. 0. 0. 0. 0. 0. 0. 0. 0. 0. 0. 0. 0. 0. 0. 0. 0.
      0. 0. 0. 0. 0. 0. 0. 0. 0. 0. 0. 0. 0. 376. 0. 4. 0. 518. 0. 10.
      0. 563. 0. 0. 0. 93. 0. 0. 0. 0. 0. 0. 0. 0. 0. 0. 0. 0. 0. 0. 0.
      0. 0. 0. 0. 0. 0. 0. 0. 0. 0. 0. 0. 0. 0. 0. 0. 0. 0. 0. 0. 0. 0.
      0. 0. 0. 0. 0. 0. 0. 0. 0. 0. 0. 0. 0. 0. 365. 0. 0. 0. 60. 0. 3.
      0. 0. 0. 0. 62. 0. 0. 0. 14. 0. 0. 0. 1. 0. 0. 0. 7. 0. 0. 0. 4.
      0. 0. 0. 0. 0. 0. 0. 7. 0. 0. 0. 11. 0. 0. 0. 4. 0. 0. 0. 0. 0. 0.
      0. 1. 0. 0. 0. 0. 0. 0. 0. 17. 0. 0. 0. 0. 3. 4. 0. 351. 3. 0. 0.
      385. 0. 0. 0. 79. 0. 0. 0. 9. 0. 0. 0. 3. 0. 0. 0. 0. 0. 0. 0. 0.
      0. 0. 0. 0. 0. 0. 0. 0. 0. 0. 0. 0. 0. 0. 0. 111. 0. 0. 0. 3. 0.
      0. 0. 3. 0. 0. 0. 5. 0. 0. 0. 79. 0. 0. 0. 0. 153. 33. 1. 444. 6.
      0. 6. 131.</_>
    <_>
      733. 3. 6. 3. 343. 1. 11. 1. 5. 0. 0. 0. 7. 0. 3. 1. 7. 0. 0. 0.
      0. 0. 0. 0. 18. 1. 0. 4. 4. 0. 0. 1. 19. 1. 0. 1. 0. 0. 0. 0. 1.
      0. 0. 0. 3. 0. 0. 0. 28. 0. 0. 0. 4. 0. 0. 0. 494. 4. 1. 5. 404.
      0. 5. 4. 397. 8. 0. 0. 42. 0. 4. 0. 1. 0. 0. 0. 0. 0. 0. 0. 0. 0.
      0. 0. 0. 0. 0. 0. 2. 0. 0. 0. 0. 0. 0. 0. 83. 0. 0. 0. 1. 0. 0. 0.
      3. 0. 0. 0. 0. 0. 0. 0. 56. 0. 0. 0. 2. 0. 0. 0. 262. 4. 0. 5. 26.
      1. 0. 1. 10. 7. 2. 41. 0. 0. 0. 3. 0. 0. 0. 2. 0. 0. 0. 0. 0. 0.
      0. 0. 0. 0. 0. 0. 0. 0. 0. 2. 0. 0. 0. 0. 4. 1. 0. 1. 0. 0. 0. 0.
      0. 0. 0. 0. 0. 0. 0. 0. 1. 1. 0. 2. 0. 0. 0. 1. 1. 20. 0. 608. 1.
      1. 0. 435. 78. 50. 0. 21. 4. 0. 0. 4. 1. 0. 0. 0. 0. 0. 0. 0. 0.
      0. 0. 1. 0. 0. 0. 0. 0. 0. 0. 0. 0. 0. 0. 0. 40. 4. 2. 8. 1. 0. 0.
      0. 2. 0. 0. 2. 0. 0. 0. 2. 4. 5. 0. 4. 0. 0. 0. 3. 16. 28. 0. 372.
      3. 0. 2. 63.</_>
    <_>
      720. 0. 9. 12. 387. 0. 14. 15. 15. 0. 1. 0. 17. 0. 8. 3. 3. 0. 0.
      0. 2. 0. 0. 0. 16. 0. 0. 1. 16. 0. 4. 0. 1. 0. 0. 0. 1. 0. 0. 0.
      3. 0. 0. 0. 2. 0. 0. 0. 4. 0. 0. 0. 2. 0. 0. 0. 410. 3. 14. 33.
      193. 2. 25. 20. 399. 0. 2. 2. 69. 0. 2. 2. 4. 0. 0. 0. 3. 0. 0. 0.
      1. 0. 0. 0. 0. 0. 0. 0. 0. 0. 0. 0. 1. 0. 0. 0. 1. 0. 0. 0. 0. 0.
      0. 0. 1. 0. 0. 0. 0. 0. 0. 0. 0. 0. 0. 0. 1. 0. 0. 0. 295. 1. 5.
      3. 21. 0. 0. 4. 4. 9. 0. 265. 4. 1. 1. 186. 0. 0. 0. 4. 0. 0. 0.
      17. 0. 0. 0. 1. 0. 0. 0. 0. 1. 0. 0. 15. 0. 0. 0. 17. 0. 0. 0. 18.
      0. 0. 0. 4. 0. 0. 0. 0. 0. 0. 0. 2. 0. 0. 0. 25. 0. 0. 0. 4. 3.
      12. 1. 569. 0. 1. 1. 412. 3. 2. 0. 79. 2. 0. 0. 34. 0. 0. 0. 0. 0.
      0. 0. 1. 0. 0. 0. 0. 0. 0. 0. 1. 0. 0. 0. 0. 0. 0. 0. 0. 0. 0. 0.
      16. 0. 0. 0. 2. 0. 0. 0. 0. 0. 0. 0. 1. 0. 0. 0. 15. 0. 0. 0. 3.
      16. 4. 2. 286. 0. 0. 1. 70.</_>
    <_>
      1427. 13. 6. 100. 140. 0. 145. 30. 1. 0. 0. 0. 172. 0. 0. 0. 2. 0.
      0. 0. 0. 0. 0. 0. 14. 0. 0. 0. 10. 0. 0. 0. 6. 0. 0. 0. 1. 0. 0.
      0. 0. 0. 0. 0. 0. 0. 0. 0. 6. 0. 0. 0. 0. 0. 0. 0. 15. 0. 0. 0.
      18. 0. 0. 0. 138. 0. 0. 0. 15. 0. 0. 0. 0. 0. 0. 0. 7. 0. 0. 0. 2.
      0. 0. 0. 0. 0. 0. 0. 0. 0. 0. 0. 0. 0. 0. 0. 41. 0. 0. 0. 0. 0. 0.
      0. 0. 0. 0. 0. 7. 0. 0. 0. 1. 0. 0. 0. 0. 0. 0. 0. 9. 0. 0. 0. 4.
      0. 0. 0. 7. 112. 0. 527. 0. 2. 0. 99. 0. 0. 0. 0. 0. 0. 0. 0. 0.
      0. 0. 0. 0. 0. 0. 0. 0. 0. 0. 0. 0. 0. 0. 0. 0. 0. 0. 1. 0. 0. 0.
      0. 0. 0. 0. 0. 0. 0. 0. 0. 0. 0. 0. 0. 0. 0. 0. 0. 0. 1. 0. 1058.
      0. 0. 0. 326. 22. 7. 0. 140. 2. 0. 7. 21. 0. 0. 0. 0. 0. 0. 0. 0.
      0. 0. 0. 0. 0. 0. 0. 0. 0. 0. 0. 0. 0. 0. 0. 0. 0. 0. 0. 0. 0. 0.
      0. 0. 0. 0. 0. 0. 0. 0. 0. 0. 0. 0. 0. 1. 0. 0. 0. 0. 0. 0. 0.
      184. 0. 0. 0. 41.</_>
    <_>
      438. 0. 0. 0. 602. 0. 0. 0. 0. 0. 0. 0. 0. 0. 0. 0. 0. 0. 0. 0. 0.
      0. 0. 0. 0. 0. 0. 0. 0. 0. 0. 0. 0. 0. 0. 0. 0. 0. 0. 0. 0. 0. 0.
      0. 0. 0. 0. 0. 0. 0. 0. 0. 0. 0. 0. 0. 468. 0. 0. 0. 633. 0. 0. 0.
      503. 0. 0. 0. 69. 0. 0. 0. 0. 0. 0. 0. 0. 0. 0. 0. 0. 0. 0. 0. 0.
      0. 0. 0. 0. 0. 0. 0. 0. 0. 0. 0. 0. 0. 0. 0. 0. 0. 0. 0. 0. 0. 0.
      0. 0. 0. 0. 0. 0. 0. 0. 0. 0. 0. 0. 0. 486. 0. 0. 0. 77. 0. 0. 0.
      0. 0. 0. 0. 0. 0. 0. 0. 0. 0. 0. 0. 0. 0. 0. 0. 0. 0. 0. 0. 0. 0.
      0. 0. 0. 0. 0. 0. 0. 0. 0. 0. 0. 0. 0. 0. 0. 0. 0. 0. 0. 0. 0. 0.
      0. 0. 0. 0. 0. 0. 0. 0. 0. 0. 0. 0. 0. 0. 0. 480. 0. 0. 0. 581. 0.
      0. 0. 0. 0. 0. 0. 0. 0. 0. 0. 0. 0. 0. 0. 0. 0. 0. 0. 0. 0. 0. 0.
      0. 0. 0. 0. 0. 0. 0. 0. 0. 0. 0. 0. 0. 0. 0. 0. 0. 0. 0. 0. 0. 0.
      0. 0. 0. 0. 0. 0. 0. 0. 0. 0. 0. 0. 0. 0. 466. 0. 0. 0. 85.</_>
    <_>
      567. 0. 1. 2. 472. 0. 0. 1. 0. 0. 0. 0. 1. 0. 0. 0. 0. 0. 0. 0. 0.
      0. 0. 0. 0. 0. 0. 0. 0. 0. 0. 0. 0. 0. 0. 0. 0. 0. 0. 0. 0. 0. 0.
      0. 0. 0. 0. 0. 0. 0. 0. 0. 0. 0. 0. 0. 399. 1. 2. 4. 331. 0. 65.
      8. 482. 0. 0. 0. 88. 0. 0. 0. 0. 0. 0. 0. 0. 0. 0. 0. 0. 0. 0. 0.
      0. 0. 0. 0. 1. 0. 0. 0. 0. 0. 0. 0. 1. 0. 0. 0. 0. 0. 0. 0. 0. 0.
      0. 0. 0. 0. 0. 0. 0. 0. 0. 0. 0. 0. 0. 0. 283. 0. 0. 0. 38. 0. 0.
      0. 0. 0. 0. 206. 0. 1. 0. 86. 0. 0. 0. 12. 0. 0. 0. 57. 0. 0. 0.
      1. 0. 0. 0. 0. 0. 0. 0. 12. 0. 0. 0. 21. 0. 0. 0. 1. 0. 0. 0. 0.
      0. 0. 0. 1. 0. 0. 0. 0. 0. 0. 0. 4. 0. 0. 0. 0. 13. 16. 0. 481. 0.
      0. 2. 321. 0. 6. 0. 208. 0. 0. 0. 12. 0. 0. 0. 0. 0. 0. 0. 2. 0.
      0. 0. 0. 0. 0. 0. 0. 0. 0. 0. 0. 0. 0. 0. 0. 0. 0. 0. 44. 0. 0. 0.
      2. 0. 0. 0. 0. 0. 0. 0. 1. 0. 0. 0. 0. 0. 0. 0. 0. 29. 56. 2. 461.
      0. 0. 1. 82.</_>
    <_>
      2153. 1. 16. 20. 45. 0. 212. 0. 3. 0. 0. 0. 207. 0. 0. 0. 0. 0. 0.
      0. 0. 0. 0. 0. 0. 0. 0. 0. 0. 0. 0. 0. 0. 0. 0. 0. 0. 0. 0. 0. 0.
      0. 0. 0. 0. 0. 0. 0. 0. 0. 0. 0. 0. 0. 0. 0. 33. 0. 0. 0. 9. 0. 0.
      0. 54. 0. 0. 0. 2. 0. 0. 0. 0. 0. 0. 0. 0. 0. 0. 0. 0. 0. 0. 0. 0.
      0. 0. 0. 0. 0. 0. 0. 0. 0. 0. 0. 95. 0. 0. 0. 2. 0. 0. 0. 0. 0. 0.
      0. 10. 0. 0. 0. 0. 0. 0. 0. 0. 0. 0. 0. 6. 0. 0. 0. 0. 0. 0. 0.
      18. 20. 0. 221. 0. 0. 0. 7. 0. 0. 0. 0. 0. 0. 0. 0. 0. 0. 0. 0. 0.
      0. 0. 0. 0. 0. 0. 0. 0. 0. 0. 0. 0. 0. 0. 0. 0. 0. 0. 0. 0. 0. 0.
      0. 0. 0. 0. 0. 0. 0. 0. 0. 0. 0. 0. 0. 0. 0. 0. 1244. 0. 0. 0.
      225. 99. 4. 0. 26. 0. 0. 11. 2. 0. 0. 0. 0. 0. 0. 0. 0. 0. 0. 0.
      0. 0. 0. 0. 0. 0. 0. 0. 0. 0. 0. 0. 0. 0. 0. 0. 0. 0. 0. 0. 0. 0.
      0. 0. 0. 0. 0. 0. 0. 0. 0. 0. 0. 0. 0. 0. 0. 0. 0. 0. 130. 0. 0.
      0. 13.</_>
    <_>
      1055. 0. 0. 4. 328. 0. 2. 1. 3. 0. 0. 0. 0. 0. 0. 0. 0. 0. 0. 0.
      0. 0. 0. 0. 15. 0. 0. 0. 6. 0. 0. 0. 3. 0. 0. 0. 0. 0. 0. 0. 0. 0.
      0. 0. 0. 0. 0. 0. 5. 0. 0. 0. 1. 0. 0. 0. 981. 0. 0. 0. 306. 0. 0.
      0. 241. 0. 1. 1. 50. 0. 1. 1. 0. 0. 0. 0. 0. 0. 0. 0. 0. 0. 0. 0.
      0. 0. 0. 0. 0. 0. 0. 0. 0. 0. 0. 0. 0. 0. 0. 0. 0. 0. 0. 0. 0. 0.
      0. 0. 0. 0. 0. 0. 2. 0. 0. 0. 0. 0. 0. 0. 200. 0. 0. 0. 39. 0. 0.
      0. 0. 3. 0. 16. 0. 0. 0. 5. 0. 0. 0. 0. 0. 0. 0. 0. 0. 0. 0. 0. 0.
      0. 0. 0. 0. 0. 0. 0. 0. 0. 0. 0. 0. 0. 0. 0. 0. 0. 0. 0. 0. 0. 0.
      0. 0. 0. 0. 0. 0. 0. 0. 0. 0. 0. 0. 0. 0. 0. 0. 983. 0. 0. 0. 362.
      2. 0. 0. 3. 1. 0. 0. 0. 0. 0. 0. 0. 0. 0. 0. 0. 0. 0. 0. 0. 0. 0.
      0. 0. 0. 0. 0. 0. 0. 0. 0. 0. 0. 0. 0. 0. 0. 0. 0. 0. 0. 0. 0. 0.
      0. 0. 0. 0. 0. 0. 0. 0. 0. 0. 0. 0. 0. 0. 0. 205. 0. 0. 0. 62.</_>
    <_>
      940. 23. 33. 116. 285. 5. 51. 60. 2. 0. 0. 0. 53. 0. 0. 0. 9. 0.
      0. 0. 1. 0. 0. 0. 26. 0. 0. 0. 38. 0. 0. 0. 2. 0. 0. 0. 0. 0. 0.
      0. 0. 0. 0. 0. 0. 0. 0. 0. 24. 0. 0. 0. 0. 0. 0. 0. 81. 0. 0. 0.
      61. 0. 0. 0. 215. 3. 3. 4. 51. 0. 3. 2. 0. 0. 0. 0. 9. 0. 0. 0. 0.
      0. 0. 0. 0. 0. 0. 0. 5. 0. 0. 0. 5. 0. 0. 0. 52. 0. 0. 0. 3. 0. 0.
      0. 0. 0. 0. 0. 8. 0. 0. 0. 23. 0. 0. 0. 7. 0. 0. 0. 22. 0. 0. 0.
      25. 0. 0. 0. 13. 99. 0. 470. 2. 6. 7. 160. 0. 0. 0. 0. 0. 0. 0. 0.
      0. 0. 0. 0. 0. 0. 0. 0. 0. 0. 0. 0. 0. 0. 0. 0. 0. 0. 0. 0. 0. 0.
      0. 0. 0. 0. 0. 0. 0. 0. 0. 0. 0. 0. 0. 0. 0. 0. 0. 0. 0. 0. 0.
      929. 0. 0. 0. 367. 25. 59. 0. 133. 3. 0. 7. 42. 0. 0. 0. 0. 0. 0.
      0. 0. 0. 0. 0. 0. 0. 0. 0. 0. 0. 0. 0. 0. 0. 0. 0. 0. 0. 0. 0. 0.
      0. 0. 0. 0. 0. 0. 0. 0. 0. 0. 0. 0. 0. 0. 0. 0. 0. 0. 0. 0. 0. 0.
      0. 264. 0. 0. 0. 52.</_>
    <_>
      889. 0. 2. 0. 293. 0. 1. 0. 0. 0. 0. 0. 1. 0. 0. 0. 0. 0. 0. 0. 0.
      0. 0. 0. 0. 0. 0. 0. 0. 0. 0. 0. 6. 0. 0. 0. 0. 0. 0. 0. 0. 0. 0.
      0. 0. 0. 0. 0. 4. 0. 0. 0. 10. 0. 0. 0. 23. 3. 0. 28. 8. 0. 0. 5.
      340. 4. 0. 4. 85. 0. 0. 0. 0. 0. 0. 0. 0. 0. 0. 0. 0. 0. 0. 0. 0.
      0. 0. 0. 0. 0. 0. 0. 0. 0. 0. 0. 3. 0. 0. 0. 1. 0. 0. 0. 0. 0. 0.
      0. 0. 0. 0. 0. 2. 0. 0. 0. 4. 0. 0. 0. 10. 0. 0. 0. 0. 0. 0. 0. 0.
      0. 0. 776. 0. 0. 0. 226. 0. 0. 0. 0. 0. 0. 0. 0. 0. 0. 0. 0. 0. 0.
      0. 1. 0. 0. 0. 0. 0. 0. 0. 0. 0. 0. 0. 0. 0. 0. 0. 0. 0. 0. 0. 0.
      0. 0. 0. 0. 0. 0. 0. 0. 0. 0. 0. 0. 6. 39. 0. 783. 0. 0. 0. 218.
      3. 5. 1. 506. 0. 0. 0. 44. 0. 0. 0. 0. 0. 0. 0. 0. 0. 0. 0. 1. 0.
      0. 0. 0. 0. 0. 0. 0. 0. 0. 0. 0. 0. 0. 0. 20. 0. 0. 0. 3. 0. 0. 0.
      0. 0. 0. 0. 1. 0. 0. 0. 5. 0. 0. 0. 0. 5. 12. 0. 420. 1. 1. 0. 85.</_>
    <_>
      1667. 0. 0. 0. 240. 0. 53. 0. 25. 0. 0. 0. 48. 0. 0. 0. 0. 0. 0.
      0. 0. 0. 0. 0. 20. 0. 0. 0. 4. 0. 0. 0. 0. 0. 0. 0. 0. 0. 0. 0. 0.
      0. 0. 0. 0. 0. 0. 0. 5. 0. 0. 0. 0. 0. 0. 0. 737. 0. 0. 0. 180. 0.
      0. 0. 31. 0. 0. 0. 16. 0. 0. 0. 0. 0. 0. 0. 0. 0. 0. 0. 0. 0. 0.
      0. 0. 0. 0. 0. 0. 0. 0. 0. 0. 0. 0. 0. 68. 0. 0. 0. 0. 0. 0. 0. 1.
      0. 0. 0. 4. 0. 0. 0. 1. 0. 0. 0. 0. 0. 0. 0. 71. 0. 0. 0. 28. 0.
      0. 0. 0. 0. 0. 0. 0. 0. 0. 0. 0. 0. 0. 0. 0. 0. 0. 0. 0. 0. 0. 0.
      0. 0. 0. 0. 0. 0. 0. 0. 0. 0. 0. 0. 0. 0. 0. 0. 0. 0. 0. 0. 0. 0.
      0. 0. 0. 0. 0. 0. 0. 0. 0. 0. 0. 0. 0. 0. 0. 0. 0. 1228. 0. 0. 0.
      257. 72. 0. 0. 0. 1. 0. 4. 0. 0. 0. 0. 0. 0. 0. 0. 0. 0. 0. 0. 0.
      0. 0. 0. 0. 0. 0. 0. 0. 0. 0. 0. 0. 0. 0. 0. 0. 0. 0. 0. 0. 0. 0.
      0. 0. 0. 0. 0. 0. 0. 0. 0. 0. 0. 0. 0. 0. 0. 0. 0. 105. 0. 0. 0.
      22.</_>
    <_>
      1474. 8. 16. 18. 198. 0. 188. 9. 22. 0. 0. 0. 186. 0. 0. 0. 9. 0.
      0. 0. 0. 0. 0. 0. 50. 0. 0. 0. 26. 0. 0. 0. 24. 0. 0. 0. 0. 0. 0.
      0. 0. 0. 0. 0. 8. 0. 0. 0. 18. 0. 0. 0. 0. 0. 0. 0. 287. 0. 0. 0.
      143. 0. 0. 0. 89. 0. 0. 2. 10. 0. 11. 1. 1. 0. 0. 0. 1. 0. 0. 0.
      0. 0. 0. 0. 0. 0. 0. 0. 4. 0. 0. 0. 1. 0. 0. 0. 104. 0. 0. 0. 0.
      0. 0. 0. 1. 0. 0. 0. 13. 0. 0. 0. 3. 0. 0. 0. 0. 0. 0. 0. 57. 0.
      0. 0. 26. 0. 0. 0. 6. 14. 0. 58. 1. 8. 0. 27. 0. 0. 0. 0. 0. 0. 0.
      0. 0. 0. 0. 0. 0. 0. 0. 0. 0. 0. 0. 0. 0. 0. 0. 0. 0. 0. 0. 0. 0.
      0. 0. 0. 0. 0. 0. 0. 0. 0. 0. 0. 0. 0. 0. 0. 0. 0. 0. 0. 0. 0. 0.
      993. 0. 0. 0. 414. 104. 8. 0. 16. 3. 0. 13. 10. 0. 0. 0. 0. 0. 0.
      0. 0. 0. 0. 0. 0. 0. 0. 0. 0. 0. 0. 0. 0. 0. 0. 0. 0. 0. 0. 0. 0.
      0. 0. 0. 0. 0. 0. 0. 0. 0. 0. 0. 0. 0. 0. 0. 0. 0. 0. 0. 0. 0. 0.
      0. 171. 0. 0. 0. 34.</_>
    <_>
      737. 0. 0. 4. 536. 0. 0. 2. 4. 0. 0. 0. 2. 0. 0. 0. 0. 0. 0. 0. 0.
      0. 0. 0. 0. 0. 0. 0. 0. 0. 0. 0. 0. 0. 0. 0. 0. 0. 0. 0. 0. 0. 0.
      0. 0. 0. 0. 0. 0. 0. 0. 0. 0. 0. 0. 0. 70. 9. 0. 14. 3. 0. 0. 28.
      252. 0. 0. 0. 92. 0. 0. 0. 0. 0. 0. 0. 4. 0. 0. 0. 0. 0. 0. 0. 0.
      0. 0. 0. 0. 0. 0. 0. 0. 0. 0. 0. 7. 0. 0. 0. 0. 0. 0. 0. 0. 0. 0.
      0. 0. 0. 0. 0. 0. 0. 0. 0. 0. 0. 0. 0. 18. 0. 0. 3. 1. 0. 0. 2. 7.
      7. 0. 525. 0. 0. 1. 633. 0. 0. 0. 7. 0. 0. 0. 16. 0. 0. 0. 4. 0.
      0. 0. 1. 0. 0. 0. 17. 0. 0. 0. 0. 0. 0. 0. 14. 0. 0. 0. 2. 0. 0.
      0. 0. 0. 0. 0. 0. 0. 0. 0. 19. 0. 0. 0. 2. 0. 44. 0. 563. 0. 1. 0.
      467. 8. 1. 0. 243. 0. 0. 0. 50. 0. 0. 0. 2. 0. 0. 0. 8. 0. 0. 0.
      2. 0. 0. 0. 2. 0. 0. 0. 1. 0. 0. 0. 0. 0. 0. 0. 13. 0. 0. 0. 0. 0.
      0. 0. 0. 0. 0. 0. 0. 0. 0. 0. 7. 0. 0. 0. 0. 1. 18. 0. 326. 0. 0.
      0. 88.</_>
    <_>
      1058. 0. 0. 0. 503. 0. 0. 0. 0. 0. 0. 0. 0. 0. 0. 0. 0. 0. 0. 0.
      0. 0. 0. 0. 0. 0. 0. 0. 0. 0. 0. 0. 0. 0. 0. 0. 0. 0. 0. 0. 0. 0.
      0. 0. 0. 0. 0. 0. 0. 0. 0. 0. 0. 0. 0. 0. 1023. 0. 0. 0. 378. 0.
      0. 0. 73. 0. 0. 0. 30. 0. 0. 0. 0. 0. 0. 0. 0. 0. 0. 0. 0. 0. 0.
      0. 0. 0. 0. 0. 0. 0. 0. 0. 0. 0. 0. 0. 0. 0. 0. 0. 0. 0. 0. 0. 0.
      0. 0. 0. 0. 0. 0. 0. 0. 0. 0. 0. 0. 0. 0. 0. 164. 0. 0. 0. 47. 0.
      0. 0. 0. 0. 0. 0. 0. 0. 0. 0. 0. 0. 0. 0. 0. 0. 0. 0. 0. 0. 0. 0.
      0. 0. 0. 0. 0. 0. 0. 1. 0. 0. 0. 0. 0. 0. 0. 0. 0. 0. 0. 0. 0. 0.
      0. 0. 0. 0. 0. 0. 0. 0. 0. 1. 0. 0. 0. 0. 0. 0. 0. 1054. 0. 0. 0.
      453. 0. 0. 0. 0. 0. 0. 0. 0. 0. 0. 0. 0. 0. 0. 0. 0. 0. 0. 0. 0.
      0. 0. 0. 0. 0. 0. 0. 0. 0. 0. 0. 0. 0. 0. 0. 0. 0. 0. 0. 0. 0. 0.
      0. 0. 0. 0. 0. 0. 0. 0. 0. 0. 0. 0. 0. 0. 0. 0. 0. 71. 0. 0. 0.
      32.</_>
    <_>
      850. 5. 12. 26. 223. 0. 11. 18. 7. 0. 0. 0. 17. 0. 0. 0. 3. 0. 0.
      0. 0. 0. 0. 0. 8. 0. 0. 0. 0. 0. 0. 0. 15. 0. 0. 0. 1. 0. 0. 0. 0.
      0. 0. 0. 2. 0. 0. 0. 13. 0. 0. 0. 2. 0. 0. 0. 475. 0. 0. 0. 134.
      0. 0. 0. 406. 6. 2. 3. 47. 0. 2. 0. 12. 0. 0. 0. 2. 0. 0. 0. 0. 0.
      0. 0. 0. 0. 0. 0. 3. 0. 0. 0. 0. 0. 0. 0. 29. 0. 0. 0. 9. 0. 0. 0.
      2. 0. 0. 0. 1. 0. 0. 0. 24. 0. 0. 0. 1. 0. 0. 0. 185. 0. 0. 0. 30.
      0. 0. 0. 4. 36. 0. 195. 12. 3. 0. 72. 0. 0. 0. 0. 0. 0. 0. 0. 0.
      0. 0. 0. 0. 0. 0. 0. 0. 0. 0. 0. 0. 0. 0. 0. 0. 0. 0. 0. 0. 0. 0.
      0. 0. 0. 0. 0. 0. 0. 0. 0. 0. 0. 0. 0. 0. 0. 0. 0. 0. 0. 0. 835.
      0. 0. 0. 289. 23. 37. 7. 265. 2. 1. 1. 32. 0. 0. 0. 0. 0. 0. 0. 0.
      0. 0. 0. 0. 0. 0. 0. 0. 0. 0. 0. 0. 0. 0. 0. 0. 0. 0. 0. 0. 0. 0.
      0. 0. 0. 0. 0. 0. 0. 0. 0. 0. 0. 0. 0. 0. 0. 0. 0. 0. 0. 0. 0.
      422. 0. 0. 0. 66.</_>
    <_>
      1063. 4. 2. 80. 261. 0. 12. 17. 2. 0. 0. 0. 18. 0. 0. 0. 0. 0. 0.
      0. 0. 0. 0. 0. 2. 0. 0. 0. 0. 0. 0. 0. 2. 0. 0. 0. 3. 0. 0. 0. 0.
      0. 0. 0. 0. 0. 0. 0. 7. 0. 0. 0. 3. 0. 0. 0. 39. 0. 0. 0. 10. 0.
      0. 0. 242. 0. 0. 6. 25. 0. 0. 0. 0. 0. 0. 0. 7. 0. 0. 0. 0. 0. 0.
      0. 0. 0. 0. 0. 0. 0. 0. 0. 0. 0. 0. 0. 41. 0. 0. 0. 5. 0. 0. 0. 0.
      0. 0. 0. 1. 0. 0. 0. 0. 0. 0. 0. 0. 0. 0. 0. 7. 0. 0. 0. 1. 0. 0.
      0. 1. 81. 0. 744. 0. 4. 0. 246. 0. 0. 0. 0. 0. 0. 0. 0. 0. 0. 0.
      0. 0. 0. 0. 0. 0. 0. 0. 0. 0. 0. 0. 0. 0. 0. 0. 0. 0. 0. 0. 0. 0.
      0. 0. 0. 0. 0. 0. 0. 0. 0. 0. 0. 0. 0. 0. 0. 0. 0. 0. 987. 0. 0.
      0. 304. 13. 75. 0. 201. 0. 0. 1. 50. 0. 0. 0. 0. 0. 0. 0. 0. 0. 0.
      0. 0. 0. 0. 0. 0. 0. 0. 0. 0. 0. 0. 0. 0. 0. 0. 0. 0. 0. 0. 0. 0.
      0. 0. 0. 0. 0. 0. 0. 0. 0. 0. 0. 0. 0. 0. 0. 0. 0. 0. 0. 287. 0.
      0. 0. 34.</_>
    <_>
      721. 10. 5. 40. 322. 3. 54. 65. 2. 0. 0. 0. 87. 0. 0. 0. 12. 0. 0.
      0. 1. 0. 0. 0. 14. 0. 0. 0. 20. 0. 0. 0. 5. 0. 0. 0. 0. 0. 0. 0.
      0. 0. 0. 0. 0. 0. 0. 0. 55. 0. 0. 0. 2. 0. 0. 0. 73. 0. 0. 0. 17.
      0. 0. 0. 317. 1. 1. 3. 41. 0. 3. 1. 1. 0. 0. 0. 5. 0. 0. 0. 0. 0.
      0. 0. 0. 0. 0. 0. 3. 0. 0. 0. 3. 0. 0. 0. 132. 0. 0. 0. 12. 0. 0.
      0. 0. 0. 0. 0. 6. 0. 0. 0. 49. 0. 0. 0. 1. 0. 0. 0. 57. 0. 0. 0.
      14. 0. 0. 0. 11. 60. 0. 281. 1. 3. 3. 277. 0. 0. 0. 0. 0. 0. 0. 0.
      0. 0. 0. 0. 0. 0. 0. 0. 0. 0. 0. 0. 0. 0. 0. 0. 0. 0. 0. 0. 0. 0.
      0. 0. 0. 0. 0. 0. 0. 0. 0. 0. 0. 0. 0. 0. 0. 0. 0. 0. 0. 0. 0.
      645. 0. 0. 0. 433. 125. 61. 6. 242. 4. 0. 6. 38. 0. 0. 0. 0. 0. 0.
      0. 0. 0. 0. 0. 0. 0. 0. 0. 0. 0. 0. 0. 0. 0. 0. 0. 0. 0. 0. 0. 0.
      0. 0. 0. 0. 0. 0. 0. 0. 0. 0. 0. 0. 0. 0. 0. 0. 0. 0. 0. 0. 0. 0.
      0. 473. 0. 0. 0. 61.</_>
    <_>
      728. 0. 0. 0. 459. 0. 0. 0. 0. 0. 0. 0. 0. 0. 0. 0. 0. 0. 0. 0. 0.
      0. 0. 0. 0. 0. 0. 0. 0. 0. 0. 0. 0. 0. 0. 0. 0. 0. 0. 0. 0. 0. 0.
      0. 0. 0. 0. 0. 0. 0. 0. 0. 0. 0. 0. 0. 653. 0. 0. 0. 548. 0. 0. 0.
      307. 0. 0. 0. 118. 0. 0. 0. 0. 0. 0. 0. 0. 0. 0. 0. 0. 0. 0. 0. 0.
      0. 0. 0. 0. 0. 0. 0. 0. 0. 0. 0. 0. 0. 0. 0. 0. 0. 0. 0. 0. 0. 0.
      0. 0. 0. 0. 0. 0. 0. 0. 0. 0. 0. 0. 0. 397. 0. 0. 0. 66. 0. 0. 0.
      0. 0. 0. 0. 0. 0. 0. 0. 0. 0. 0. 0. 0. 0. 0. 0. 0. 0. 0. 0. 0. 0.
      0. 0. 0. 0. 0. 0. 0. 0. 0. 0. 0. 0. 0. 0. 0. 0. 0. 0. 0. 0. 0. 0.
      0. 0. 0. 0. 0. 0. 0. 0. 0. 0. 0. 0. 0. 0. 0. 618. 0. 0. 0. 523. 0.
      0. 0. 0. 0. 0. 0. 0. 0. 0. 0. 0. 0. 0. 0. 0. 0. 0. 0. 0. 0. 0. 0.
      0. 0. 0. 0. 0. 0. 0. 0. 0. 0. 0. 0. 0. 0. 0. 0. 0. 0. 0. 0. 0. 0.
      0. 0. 0. 0. 0. 0. 0. 0. 0. 0. 0. 0. 0. 0. 411. 0. 0. 0. 60.</_>
    <_>
      884. 0. 0. 0. 308. 0. 0. 0. 2. 0. 0. 0. 0. 0. 0. 0. 0. 0. 0. 0. 0.
      0. 0. 0. 2. 0. 0. 0. 0. 0. 0. 0. 4. 0. 0. 0. 0. 0. 0. 0. 0. 0. 0.
      0. 1. 0. 0. 0. 2. 0. 0. 0. 0. 0. 0. 0. 846. 0. 0. 0. 375. 0. 0. 0.
      353. 0. 0. 0. 78. 0. 0. 0. 0. 0. 0. 0. 0. 0. 0. 0. 0. 0. 0. 0. 0.
      0. 0. 0. 1. 0. 0. 0. 0. 0. 0. 0. 0. 0. 0. 0. 0. 0. 0. 0. 0. 0. 0.
      0. 0. 0. 0. 0. 1. 0. 0. 0. 0. 0. 0. 0. 351. 0. 0. 0. 63. 0. 0. 0.
      0. 0. 0. 0. 0. 0. 0. 2. 0. 0. 0. 0. 0. 0. 0. 0. 0. 0. 0. 0. 0. 0.
      0. 0. 0. 0. 0. 0. 0. 0. 0. 0. 0. 0. 0. 0. 0. 0. 0. 0. 0. 0. 0. 0.
      0. 0. 0. 0. 0. 0. 0. 0. 0. 0. 0. 0. 0. 0. 0. 814. 0. 0. 0. 379. 1.
      0. 0. 0. 0. 0. 0. 2. 0. 0. 0. 0. 0. 0. 0. 0. 0. 0. 0. 0. 0. 0. 0.
      0. 0. 0. 0. 0. 0. 0. 0. 0. 0. 0. 0. 0. 0. 0. 0. 0. 0. 0. 0. 0. 0.
      0. 0. 0. 0. 0. 0. 0. 0. 0. 0. 0. 0. 0. 0. 328. 0. 0. 0. 91.</_>
    <_>
      552. 0. 0. 0. 300. 0. 0. 0. 0. 0. 0. 0. 0. 0. 0. 0. 0. 0. 0. 0. 0.
      0. 0. 0. 0. 0. 0. 0. 0. 0. 0. 0. 0. 0. 0. 0. 0. 0. 0. 0. 0. 0. 0.
      0. 0. 0. 0. 0. 0. 0. 0. 0. 0. 0. 0. 0. 535. 0. 0. 0. 320. 0. 0. 0.
      687. 0. 0. 0. 73. 0. 0. 0. 0. 0. 0. 0. 0. 0. 0. 0. 0. 0. 0. 0. 0.
      0. 0. 0. 0. 0. 0. 0. 0. 0. 0. 0. 0. 0. 0. 0. 0. 0. 0. 0. 0. 0. 0.
      0. 0. 0. 0. 0. 0. 0. 0. 0. 0. 0. 0. 0. 748. 0. 0. 0. 61. 0. 0. 0.
      0. 0. 0. 0. 0. 0. 0. 0. 0. 0. 0. 0. 0. 0. 0. 0. 0. 0. 0. 0. 0. 0.
      0. 0. 0. 0. 0. 0. 0. 0. 0. 0. 0. 0. 0. 0. 0. 0. 0. 0. 0. 0. 0. 0.
      0. 0. 0. 0. 0. 0. 0. 0. 0. 0. 0. 0. 0. 0. 0. 519. 0. 0. 0. 323. 0.
      0. 0. 0. 0. 0. 0. 0. 0. 0. 0. 0. 0. 0. 0. 0. 0. 0. 0. 0. 0. 0. 0.
      0. 0. 0. 0. 0. 0. 0. 0. 0. 0. 0. 0. 0. 0. 0. 0. 0. 0. 0. 0. 0. 0.
      0. 0. 0. 0. 0. 0. 0. 0. 0. 0. 0. 0. 0. 0. 691. 0. 0. 0. 79.</_>
    <_>
      526. 0. 0. 0. 176. 0. 0. 0. 0. 0. 0. 0. 0. 0. 0. 0. 0. 0. 0. 0. 0.
      0. 0. 0. 0. 0. 0. 0. 0. 0. 0. 0. 0. 0. 0. 0. 0. 0. 0. 0. 0. 0. 0.
      0. 0. 0. 0. 0. 0. 0. 0. 0. 0. 0. 0. 0. 517. 0. 0. 0. 128. 0. 0. 0.
      819. 0. 0. 0. 91. 0. 0. 0. 0. 0. 0. 0. 0. 0. 0. 0. 0. 0. 0. 0. 0.
      0. 0. 0. 0. 0. 0. 0. 0. 0. 0. 0. 0. 0. 0. 0. 0. 0. 0. 0. 0. 0. 0.
      0. 0. 0. 0. 0. 0. 0. 0. 0. 0. 0. 0. 0. 946. 0. 0. 0. 73. 0. 0. 0.
      0. 0. 0. 0. 0. 0. 0. 0. 0. 0. 0. 0. 0. 0. 0. 0. 0. 0. 0. 0. 0. 0.
      0. 0. 0. 0. 0. 0. 0. 0. 0. 0. 0. 0. 0. 0. 0. 0. 0. 0. 0. 0. 0. 0.
      0. 0. 0. 0. 0. 0. 0. 0. 0. 0. 0. 0. 0. 0. 0. 500. 0. 0. 0. 97. 0.
      0. 0. 0. 0. 0. 0. 0. 0. 0. 0. 0. 0. 0. 0. 0. 0. 0. 0. 0. 0. 0. 0.
      0. 0. 0. 0. 0. 0. 0. 0. 0. 0. 0. 0. 0. 0. 0. 0. 0. 0. 0. 0. 0. 0.
      0. 0. 0. 0. 0. 0. 0. 0. 0. 0. 0. 0. 0. 0. 943. 0. 0. 0. 72.</_>
    <_>
      396. 0. 0. 0. 338. 0. 0. 0. 0. 0. 0. 0. 0. 0. 0. 0. 0. 0. 0. 0. 0.
      0. 0. 0. 0. 0. 0. 0. 0. 0. 0. 0. 0. 0. 0. 0. 0. 0. 0. 0. 0. 0. 0.
      0. 0. 0. 0. 0. 0. 0. 0. 0. 0. 0. 0. 0. 407. 0. 0. 0. 329. 0. 0. 0.
      811. 0. 0. 0. 67. 0. 0. 0. 0. 0. 0. 0. 0. 0. 0. 0. 0. 0. 0. 0. 0.
      0. 0. 0. 0. 0. 0. 0. 0. 0. 0. 0. 0. 0. 0. 0. 0. 0. 0. 0. 0. 0. 0.
      0. 0. 0. 0. 0. 0. 0. 0. 0. 0. 0. 0. 0. 864. 0. 0. 0. 64. 0. 0. 0.
      0. 0. 0. 0. 0. 0. 0. 0. 0. 0. 0. 0. 0. 0. 0. 0. 0. 0. 0. 0. 0. 0.
      0. 0. 0. 0. 0. 0. 0. 0. 0. 0. 0. 0. 0. 0. 0. 0. 0. 0. 0. 0. 0. 0.
      0. 0. 0. 0. 0. 0. 0. 0. 0. 0. 0. 0. 0. 0. 0. 465. 0. 0. 0. 195. 0.
      0. 0. 0. 0. 0. 0. 0. 0. 0. 0. 0. 0. 0. 0. 0. 0. 0. 0. 0. 0. 0. 0.
      0. 0. 0. 0. 0. 0. 0. 0. 0. 0. 0. 0. 0. 0. 0. 0. 0. 0. 0. 0. 0. 0.
      0. 0. 0. 0. 0. 0. 0. 0. 0. 0. 0. 0. 0. 0. 828. 0. 0. 0. 124.</_>
    <_>
      355. 0. 0. 0. 584. 0. 0. 0. 0. 0. 0. 0. 0. 0. 0. 0. 0. 0. 0. 0. 0.
      0. 0. 0. 0. 0. 0. 0. 0. 0. 0. 0. 0. 0. 0. 0. 0. 0. 0. 0. 0. 0. 0.
      0. 0. 0. 0. 0. 1. 0. 0. 0. 0. 0. 0. 0. 368. 0. 0. 0. 645. 0. 0. 0.
      585. 0. 0. 0. 87. 0. 0. 0. 0. 0. 0. 0. 0. 0. 0. 0. 0. 0. 0. 0. 0.
      0. 0. 0. 0. 0. 0. 0. 0. 0. 0. 0. 0. 0. 0. 0. 0. 0. 0. 0. 0. 0. 0.
      0. 0. 0. 0. 0. 2. 0. 0. 0. 0. 0. 0. 0. 558. 0. 0. 0. 90. 0. 0. 0.
      0. 0. 0. 0. 0. 0. 0. 0. 0. 0. 0. 0. 0. 0. 0. 0. 0. 0. 0. 0. 0. 0.
      0. 0. 0. 0. 0. 0. 0. 0. 0. 0. 0. 0. 0. 0. 0. 0. 0. 0. 0. 0. 0. 0.
      0. 0. 0. 0. 0. 0. 0. 0. 0. 0. 0. 0. 0. 0. 0. 427. 0. 0. 0. 616. 1.
      0. 0. 0. 0. 0. 0. 0. 0. 0. 0. 0. 0. 0. 0. 0. 0. 0. 0. 0. 0. 0. 0.
      0. 0. 0. 0. 0. 0. 0. 0. 0. 0. 0. 0. 0. 0. 0. 0. 0. 0. 0. 0. 0. 0.
      0. 0. 0. 0. 0. 0. 0. 0. 0. 0. 0. 0. 0. 0. 455. 0. 0. 0. 114.</_>
    <_>
      406. 0. 0. 0. 857. 0. 0. 0. 0. 0. 0. 0. 0. 0. 0. 0. 0. 0. 0. 0. 0.
      0. 0. 0. 0. 0. 0. 0. 0. 0. 0. 0. 0. 0. 0. 0. 0. 0. 0. 0. 0. 0. 0.
      0. 0. 0. 0. 0. 0. 0. 0. 0. 0. 0. 0. 0. 411. 0. 0. 0. 889. 0. 0. 0.
      301. 0. 0. 0. 48. 0. 0. 0. 0. 0. 0. 0. 0. 0. 0. 0. 0. 0. 0. 0. 0.
      0. 0. 0. 0. 0. 0. 0. 0. 0. 0. 0. 0. 0. 0. 0. 0. 0. 0. 0. 0. 0. 0.
      0. 0. 0. 0. 0. 0. 0. 0. 0. 0. 0. 0. 0. 316. 0. 0. 0. 48. 0. 0. 0.
      0. 0. 0. 0. 0. 0. 0. 0. 0. 0. 0. 0. 0. 0. 0. 0. 0. 0. 0. 0. 0. 0.
      0. 0. 0. 0. 0. 0. 0. 0. 0. 0. 0. 0. 0. 0. 0. 0. 0. 0. 0. 0. 0. 0.
      0. 0. 0. 0. 0. 0. 0. 0. 0. 0. 0. 0. 0. 0. 0. 490. 0. 0. 0. 702. 0.
      0. 0. 0. 0. 0. 0. 0. 0. 0. 0. 0. 0. 0. 0. 0. 0. 0. 0. 0. 0. 0. 0.
      0. 0. 0. 0. 0. 0. 0. 0. 0. 0. 0. 0. 0. 0. 0. 0. 0. 0. 0. 0. 0. 0.
      0. 0. 0. 0. 0. 0. 0. 0. 0. 0. 0. 0. 0. 0. 309. 0. 0. 0. 111.</_>
    <_>
      365. 0. 0. 0. 516. 0. 0. 0. 0. 0. 0. 0. 0. 0. 0. 0. 0. 0. 0. 0. 0.
      0. 0. 0. 0. 0. 0. 0. 0. 0. 0. 0. 0. 0. 0. 0. 0. 0. 0. 0. 0. 0. 0.
      0. 0. 0. 0. 0. 3. 0. 0. 0. 0. 0. 0. 0. 374. 0. 0. 0. 513. 0. 0. 0.
      658. 0. 0. 0. 55. 0. 0. 0. 0. 0. 0. 0. 0. 0. 0. 0. 0. 0. 0. 0. 0.
      0. 0. 0. 0. 0. 0. 0. 0. 0. 0. 0. 0. 0. 0. 0. 0. 0. 0. 0. 0. 0. 0.
      0. 0. 0. 0. 0. 30. 0. 0. 0. 0. 0. 0. 0. 685. 0. 0. 0. 55. 0. 0. 0.
      0. 0. 0. 0. 0. 0. 0. 0. 0. 0. 0. 0. 0. 0. 0. 0. 0. 0. 0. 0. 0. 0.
      0. 0. 0. 0. 0. 0. 0. 0. 0. 0. 0. 0. 0. 0. 0. 0. 0. 0. 0. 0. 0. 0.
      0. 0. 0. 0. 0. 0. 0. 0. 0. 0. 0. 0. 0. 0. 0. 384. 0. 0. 0. 463.
      18. 0. 0. 0. 0. 0. 0. 0. 0. 0. 0. 0. 0. 0. 0. 0. 0. 0. 0. 0. 0. 0.
      0. 0. 0. 0. 0. 0. 0. 0. 0. 0. 0. 0. 0. 0. 0. 0. 0. 0. 0. 0. 0. 0.
      0. 0. 0. 0. 0. 0. 0. 3. 0. 0. 0. 0. 4. 0. 0. 674. 0. 0. 0. 88.</_>
    <_>
      386. 0. 0. 0. 715. 0. 0. 0. 0. 0. 0. 0. 0. 0. 0. 0. 0. 0. 0. 0. 0.
      0. 0. 0. 0. 0. 0. 0. 0. 0. 0. 0. 0. 0. 0. 0. 0. 0. 0. 0. 0. 0. 0.
      0. 0. 0. 0. 0. 0. 0. 0. 0. 0. 0. 0. 0. 413. 0. 0. 0. 719. 0. 0. 0.
      449. 0. 0. 0. 62. 0. 0. 0. 0. 0. 0. 0. 0. 0. 0. 0. 0. 0. 0. 0. 0.
      0. 0. 0. 0. 0. 0. 0. 0. 0. 0. 0. 0. 0. 0. 0. 0. 0. 0. 0. 0. 0. 0.
      0. 0. 0. 0. 0. 0. 0. 0. 0. 0. 0. 0. 0. 467. 0. 0. 0. 65. 0. 0. 0.
      0. 0. 0. 0. 0. 0. 0. 0. 0. 0. 0. 0. 0. 0. 0. 0. 0. 0. 0. 0. 0. 0.
      0. 0. 0. 0. 0. 0. 0. 0. 0. 0. 0. 0. 0. 0. 0. 0. 0. 0. 0. 0. 0. 0.
      0. 0. 0. 0. 0. 0. 0. 0. 0. 0. 0. 0. 0. 0. 0. 422. 0. 0. 0. 662. 0.
      0. 0. 0. 0. 0. 0. 0. 0. 0. 0. 0. 0. 0. 0. 0. 0. 0. 0. 0. 0. 0. 0.
      0. 0. 0. 0. 0. 0. 0. 0. 0. 0. 0. 0. 0. 0. 0. 0. 0. 0. 0. 0. 0. 0.
      0. 0. 0. 0. 0. 0. 0. 0. 0. 0. 0. 0. 0. 0. 440. 0. 0. 0. 88.</_>
    <_>
      442. 0. 0. 0. 419. 0. 0. 0. 0. 0. 0. 0. 0. 0. 0. 0. 0. 0. 0. 0. 0.
      0. 0. 0. 0. 0. 0. 0. 0. 0. 0. 0. 0. 0. 0. 0. 0. 0. 0. 0. 0. 0. 0.
      0. 0. 0. 0. 0. 0. 0. 0. 0. 0. 0. 0. 0. 447. 0. 0. 0. 441. 0. 0. 0.
      682. 0. 0. 0. 69. 0. 0. 0. 0. 0. 0. 0. 0. 0. 0. 0. 0. 0. 0. 0. 0.
      0. 0. 0. 0. 0. 0. 0. 0. 0. 0. 0. 0. 0. 0. 0. 0. 0. 0. 0. 0. 0. 0.
      0. 0. 0. 0. 0. 0. 0. 0. 0. 0. 0. 0. 0. 703. 0. 0. 0. 73. 0. 0. 0.
      0. 0. 0. 0. 0. 0. 0. 0. 0. 0. 0. 0. 0. 0. 0. 0. 0. 0. 0. 0. 0. 0.
      0. 0. 0. 0. 0. 0. 0. 0. 0. 0. 0. 0. 0. 0. 0. 0. 0. 0. 0. 0. 0. 0.
      0. 0. 0. 0. 0. 0. 0. 0. 0. 0. 0. 0. 0. 0. 0. 514. 0. 0. 0. 382. 0.
      0. 0. 0. 0. 0. 0. 0. 0. 0. 0. 0. 0. 0. 0. 0. 0. 0. 0. 0. 0. 0. 0.
      0. 0. 0. 0. 0. 0. 0. 0. 0. 0. 0. 0. 0. 0. 0. 0. 0. 0. 0. 0. 0. 0.
      0. 0. 0. 0. 0. 0. 0. 0. 0. 0. 0. 0. 0. 0. 588. 0. 0. 0. 128.</_>
    <_>
      421. 0. 0. 0. 724. 0. 0. 0. 0. 0. 0. 0. 0. 0. 0. 0. 0. 0. 0. 0. 0.
      0. 0. 0. 0. 0. 0. 0. 0. 0. 0. 0. 0. 0. 0. 0. 0. 0. 0. 0. 0. 0. 0.
      0. 0. 0. 0. 0. 0. 0. 0. 0. 0. 0. 0. 0. 456. 0. 0. 0. 738. 0. 0. 0.
      403. 0. 0. 0. 64. 0. 0. 0. 0. 0. 0. 0. 0. 0. 0. 0. 0. 0. 0. 0. 0.
      0. 0. 0. 0. 0. 0. 0. 0. 0. 0. 0. 0. 0. 0. 0. 0. 0. 0. 0. 0. 0. 0.
      0. 0. 0. 0. 0. 0. 0. 0. 0. 0. 0. 0. 0. 409. 0. 0. 0. 61. 0. 0. 0.
      0. 0. 0. 0. 0. 0. 0. 0. 0. 0. 0. 0. 0. 0. 0. 0. 0. 0. 0. 0. 0. 0.
      0. 0. 0. 0. 0. 0. 0. 0. 0. 0. 0. 0. 0. 0. 0. 0. 0. 0. 0. 0. 0. 0.
      0. 0. 0. 0. 0. 0. 0. 0. 0. 0. 0. 0. 0. 0. 0. 496. 0. 0. 0. 564. 0.
      0. 0. 0. 0. 0. 0. 0. 0. 0. 0. 0. 0. 0. 0. 0. 0. 0. 0. 0. 0. 0. 0.
      0. 0. 0. 0. 0. 0. 0. 0. 0. 0. 0. 0. 0. 0. 0. 0. 0. 0. 0. 0. 0. 0.
      0. 0. 0. 0. 0. 0. 0. 0. 0. 0. 0. 0. 0. 0. 431. 0. 0. 0. 121.</_>
    <_>
      365. 0. 2. 7. 310. 0. 3. 1. 2. 0. 0. 0. 9. 0. 8. 1. 1. 0. 0. 0. 0.
      0. 0. 0. 13. 0. 0. 0. 1. 0. 0. 0. 7. 0. 0. 0. 7. 0. 0. 0. 0. 0. 0.
      0. 0. 0. 0. 0. 15. 0. 0. 0. 2. 0. 0. 0. 270. 2. 4. 13. 321. 0. 22.
      13. 700. 0. 5. 1. 68. 0. 0. 0. 4. 0. 0. 0. 4. 0. 0. 0. 0. 0. 0. 0.
      0. 0. 0. 0. 5. 0. 0. 0. 2. 0. 0. 0. 24. 0. 0. 0. 5. 0. 0. 0. 4. 0.
      0. 0. 0. 0. 0. 0. 85. 3. 0. 1. 0. 0. 0. 0. 539. 0. 0. 0. 56. 0. 1.
      4. 3. 4. 0. 23. 3. 6. 0. 28. 0. 0. 0. 4. 0. 0. 0. 12. 0. 0. 0. 4.
      0. 0. 0. 1. 0. 0. 0. 12. 0. 0. 0. 11. 2. 2. 1. 3. 0. 0. 0. 0. 0.
      0. 0. 0. 0. 0. 0. 3. 0. 1. 0. 27. 0. 0. 0. 3. 0. 6. 0. 298. 3. 4.
      1. 340. 95. 7. 1. 36. 6. 0. 0. 7. 0. 0. 0. 5. 0. 0. 0. 2. 0. 0. 0.
      0. 0. 0. 0. 0. 0. 0. 0. 2. 0. 0. 0. 1. 25. 10. 0. 10. 2. 1. 0. 3.
      1. 0. 0. 0. 0. 0. 0. 1. 49. 35. 0. 156. 0. 0. 0. 2. 75. 9. 0. 524.
      4. 0. 2. 102.</_>
    <_>
      486. 0. 0. 1. 425. 0. 0. 0. 0. 0. 0. 0. 0. 0. 0. 0. 0. 0. 0. 0. 0.
      0. 0. 0. 0. 0. 0. 0. 0. 0. 0. 0. 0. 0. 0. 0. 0. 0. 0. 0. 0. 0. 0.
      0. 0. 0. 0. 0. 0. 0. 0. 0. 0. 0. 0. 0. 327. 4. 2. 15. 250. 1. 62.
      27. 634. 0. 0. 0. 64. 0. 0. 0. 1. 0. 0. 0. 0. 0. 0. 0. 0. 0. 0. 0.
      0. 0. 0. 0. 1. 0. 0. 0. 0. 0. 0. 0. 2. 0. 0. 0. 0. 0. 0. 0. 0. 0.
      0. 0. 0. 0. 0. 0. 0. 0. 0. 0. 0. 0. 0. 0. 205. 6. 1. 3. 19. 0. 3.
      0. 0. 2. 0. 197. 0. 0. 0. 81. 0. 0. 0. 10. 0. 0. 0. 39. 0. 0. 0.
      7. 0. 0. 0. 0. 0. 0. 0. 37. 0. 0. 0. 51. 0. 0. 0. 15. 0. 0. 0. 0.
      0. 0. 0. 0. 0. 0. 0. 0. 0. 0. 0. 47. 0. 0. 0. 2. 17. 14. 0. 302.
      0. 1. 4. 300. 0. 3. 0. 267. 0. 0. 0. 33. 0. 0. 0. 0. 0. 0. 0. 4.
      0. 0. 0. 1. 0. 0. 0. 0. 0. 0. 0. 0. 0. 0. 0. 0. 0. 0. 0. 135. 0.
      0. 0. 7. 0. 0. 0. 1. 0. 0. 0. 6. 0. 0. 0. 84. 0. 0. 0. 6. 129. 75.
      3. 375. 6. 0. 6. 82.</_>
    <_>
      334. 0. 0. 0. 311. 0. 0. 0. 0. 0. 0. 0. 0. 0. 0. 0. 0. 0. 0. 0. 0.
      0. 0. 0. 0. 0. 0. 0. 0. 0. 0. 0. 0. 0. 0. 0. 0. 0. 0. 0. 0. 0. 0.
      0. 0. 0. 0. 0. 0. 0. 0. 0. 0. 0. 0. 0. 436. 0. 0. 0. 319. 0. 0. 0.
      896. 0. 0. 0. 71. 0. 0. 0. 0. 0. 0. 0. 0. 0. 0. 0. 0. 0. 0. 0. 0.
      0. 0. 0. 0. 0. 0. 0. 0. 0. 0. 0. 0. 0. 0. 0. 0. 0. 0. 0. 0. 0. 0.
      0. 0. 0. 0. 0. 0. 0. 0. 0. 0. 0. 0. 0. 826. 0. 0. 0. 83. 0. 0. 0.
      0. 0. 0. 0. 0. 0. 0. 0. 0. 0. 0. 0. 0. 0. 0. 0. 0. 0. 0. 0. 0. 0.
      0. 0. 0. 0. 0. 0. 0. 0. 0. 0. 0. 0. 0. 0. 0. 0. 0. 0. 0. 0. 0. 0.
      0. 0. 0. 0. 0. 0. 0. 0. 0. 0. 0. 0. 0. 0. 0. 530. 0. 0. 0. 322. 0.
      0. 0. 0. 0. 0. 0. 0. 0. 0. 0. 0. 0. 0. 0. 0. 0. 0. 0. 0. 0. 0. 0.
      0. 0. 0. 0. 0. 0. 0. 0. 0. 0. 0. 0. 0. 0. 0. 0. 0. 0. 0. 0. 0. 0.
      0. 0. 0. 0. 0. 0. 0. 0. 0. 0. 0. 0. 0. 0. 594. 0. 0. 0. 166.</_>
    <_>
      429. 0. 0. 0. 632. 0. 0. 0. 0. 0. 0. 0. 0. 0. 0. 0. 0. 0. 0. 0. 0.
      0. 0. 0. 0. 0. 0. 0. 0. 0. 0. 0. 0. 0. 0. 0. 0. 0. 0. 0. 0. 0. 0.
      0. 0. 0. 0. 0. 0. 0. 0. 0. 0. 0. 0. 0. 456. 0. 0. 0. 602. 0. 0. 0.
      508. 0. 0. 0. 43. 0. 0. 0. 0. 0. 0. 0. 0. 0. 0. 0. 0. 0. 0. 0. 0.
      0. 0. 0. 0. 0. 0. 0. 0. 0. 0. 0. 0. 0. 0. 0. 0. 0. 0. 0. 0. 0. 0.
      0. 0. 0. 0. 0. 0. 0. 0. 0. 0. 0. 0. 0. 560. 0. 0. 0. 46. 0. 0. 0.
      0. 0. 0. 0. 0. 0. 0. 0. 0. 0. 0. 0. 0. 0. 0. 0. 0. 0. 0. 0. 0. 0.
      0. 0. 0. 0. 0. 0. 0. 0. 0. 0. 0. 0. 0. 0. 0. 0. 0. 0. 0. 0. 0. 0.
      0. 0. 0. 0. 0. 0. 0. 0. 0. 0. 0. 0. 0. 0. 0. 605. 0. 0. 0. 479. 0.
      0. 0. 0. 0. 0. 0. 0. 0. 0. 0. 0. 0. 0. 0. 0. 0. 0. 0. 0. 0. 0. 0.
      0. 0. 0. 0. 0. 0. 0. 0. 0. 0. 0. 0. 0. 0. 0. 0. 0. 0. 0. 0. 0. 0.
      0. 0. 0. 0. 0. 0. 0. 0. 0. 0. 0. 0. 0. 0. 382. 0. 0. 0. 146.</_>
    <_>
      705. 1. 4. 3. 398. 0. 159. 25. 6. 0. 3. 2. 146. 0. 115. 44. 3. 0.
      0. 0. 0. 0. 0. 0. 52. 0. 3. 5. 166. 0. 87. 50. 7. 0. 0. 0. 0. 0.
      0. 0. 0. 0. 0. 0. 4. 0. 5. 0. 31. 0. 0. 1. 0. 0. 0. 0. 522. 1. 3.
      11. 329. 1. 66. 61. 162. 2. 0. 0. 25. 0. 9. 0. 2. 0. 0. 0. 2. 0.
      2. 0. 0. 0. 0. 0. 0. 0. 0. 0. 1. 0. 0. 0. 0. 0. 1. 0. 10. 0. 0. 0.
      3. 0. 0. 0. 0. 0. 0. 0. 2. 0. 0. 0. 13. 0. 0. 0. 1. 0. 0. 0. 122.
      0. 1. 1. 31. 0. 3. 1. 1. 1. 0. 17. 0. 0. 0. 26. 0. 0. 0. 1. 2. 0.
      0. 34. 0. 0. 0. 0. 0. 0. 0. 0. 0. 0. 0. 12. 0. 0. 0. 41. 1. 0. 0.
      0. 0. 0. 0. 0. 0. 0. 0. 0. 0. 0. 0. 0. 0. 1. 0. 3. 0. 0. 0. 0. 0.
      4. 0. 578. 0. 0. 1. 509. 13. 4. 0. 15. 0. 0. 2. 0. 0. 0. 0. 0. 0.
      0. 0. 1. 0. 0. 0. 0. 0. 0. 0. 0. 0. 0. 0. 0. 0. 0. 0. 2. 1. 1. 2.
      1. 0. 0. 0. 0. 0. 0. 0. 0. 0. 0. 0. 0. 0. 0. 0. 3. 0. 0. 0. 0. 3.
      2. 0. 130. 0. 1. 1. 61.</_>
    <_>
      411. 1. 1. 0. 489. 0. 0. 0. 1. 0. 0. 0. 0. 0. 0. 0. 0. 0. 0. 0. 0.
      0. 0. 0. 0. 0. 0. 0. 0. 0. 0. 0. 1. 0. 0. 0. 0. 0. 0. 0. 0. 0. 0.
      0. 0. 0. 0. 0. 0. 0. 0. 0. 0. 0. 0. 0. 343. 6. 2. 7. 359. 0. 40.
      8. 653. 0. 0. 0. 57. 0. 0. 0. 0. 0. 0. 0. 0. 0. 0. 0. 0. 0. 0. 0.
      0. 0. 0. 0. 0. 0. 0. 0. 0. 0. 0. 0. 0. 0. 0. 0. 2. 0. 0. 0. 0. 0.
      0. 0. 0. 0. 0. 0. 0. 0. 0. 0. 0. 0. 0. 0. 264. 0. 1. 0. 31. 0. 3.
      0. 0. 0. 0. 160. 0. 0. 0. 34. 0. 0. 0. 13. 0. 0. 0. 28. 0. 0. 0.
      3. 0. 0. 0. 0. 0. 0. 0. 42. 0. 0. 0. 31. 0. 0. 0. 3. 0. 0. 0. 1.
      0. 0. 0. 0. 0. 0. 0. 0. 0. 0. 0. 21. 0. 0. 0. 0. 17. 16. 0. 288.
      3. 0. 9. 247. 0. 2. 0. 228. 0. 0. 0. 9. 0. 0. 0. 3. 0. 0. 0. 8. 0.
      0. 0. 0. 0. 0. 0. 0. 0. 0. 0. 0. 0. 0. 0. 0. 0. 0. 0. 124. 0. 0.
      0. 6. 0. 0. 0. 1. 0. 0. 0. 6. 0. 0. 0. 80. 0. 0. 0. 0. 121. 105.
      3. 482. 8. 0. 8. 98.</_>
    <_>
      833. 0. 0. 0. 509. 0. 0. 0. 0. 0. 0. 0. 0. 0. 0. 0. 0. 0. 0. 0. 0.
      0. 0. 0. 5. 0. 0. 0. 5. 0. 0. 0. 0. 0. 0. 0. 0. 0. 0. 0. 0. 0. 0.
      0. 0. 0. 0. 0. 1. 0. 0. 0. 0. 0. 0. 0. 819. 0. 0. 0. 595. 0. 0. 0.
      217. 0. 0. 0. 53. 0. 0. 0. 0. 0. 0. 0. 0. 0. 0. 0. 0. 0. 0. 0. 0.
      0. 0. 0. 0. 0. 0. 0. 0. 0. 0. 0. 0. 0. 0. 0. 0. 0. 0. 0. 0. 0. 0.
      0. 0. 0. 0. 0. 0. 0. 0. 0. 0. 0. 0. 0. 203. 0. 0. 0. 36. 0. 0. 0.
      0. 0. 0. 0. 0. 0. 0. 0. 0. 0. 0. 0. 0. 0. 0. 0. 0. 0. 0. 0. 0. 0.
      0. 0. 0. 0. 0. 0. 0. 0. 0. 0. 0. 0. 0. 0. 0. 0. 0. 0. 0. 0. 0. 0.
      0. 0. 0. 0. 0. 0. 0. 0. 0. 0. 0. 0. 0. 0. 0. 779. 0. 0. 0. 594. 0.
      0. 0. 0. 0. 0. 0. 0. 0. 0. 0. 0. 0. 0. 0. 0. 0. 0. 0. 0. 0. 0. 0.
      0. 0. 0. 0. 0. 0. 0. 0. 0. 0. 0. 0. 0. 0. 0. 0. 0. 0. 0. 0. 0. 0.
      0. 0. 0. 0. 0. 0. 0. 0. 0. 0. 0. 0. 0. 0. 197. 0. 0. 0. 42.</_>
    <_>
      568. 2. 8. 22. 164. 3. 14. 12. 17. 1. 2. 0. 17. 0. 8. 1. 3. 0. 0.
      0. 2. 0. 0. 0. 15. 0. 1. 5. 25. 1. 2. 6. 4. 0. 0. 0. 1. 0. 1. 0.
      1. 0. 0. 0. 1. 0. 1. 0. 5. 0. 0. 0. 1. 0. 0. 0. 366. 1. 11. 22.
      125. 5. 44. 33. 776. 2. 1. 0. 69. 0. 4. 2. 3. 0. 0. 0. 0. 0. 0. 0.
      2. 0. 0. 0. 0. 0. 0. 0. 1. 0. 0. 0. 7. 0. 0. 0. 3. 0. 0. 0. 1. 0.
      0. 0. 0. 0. 0. 0. 0. 0. 0. 0. 7. 0. 0. 0. 2. 0. 0. 0. 667. 2. 1.
      5. 48. 0. 5. 2. 1. 7. 1. 93. 3. 3. 0. 55. 0. 0. 0. 1. 0. 0. 0. 24.
      0. 0. 0. 1. 0. 0. 0. 0. 0. 0. 0. 11. 0. 0. 0. 30. 0. 0. 0. 6. 0.
      0. 0. 1. 0. 0. 0. 1. 0. 0. 0. 2. 0. 0. 0. 9. 0. 0. 0. 7. 1. 5. 0.
      464. 2. 3. 0. 258. 4. 5. 0. 42. 0. 1. 0. 16. 0. 0. 0. 1. 0. 0. 0.
      0. 0. 0. 0. 0. 0. 0. 0. 0. 0. 0. 0. 2. 0. 0. 0. 3. 0. 0. 0. 13. 0.
      0. 0. 1. 0. 0. 0. 1. 0. 0. 0. 0. 0. 0. 0. 7. 0. 0. 0. 0. 16. 7. 1.
      536. 0. 0. 0. 112.</_>
    <_>
      1435. 26. 7. 68. 124. 0. 41. 26. 1. 0. 0. 0. 52. 0. 2. 0. 2. 0. 0.
      0. 0. 0. 0. 0. 38. 0. 0. 0. 0. 0. 0. 1. 8. 0. 0. 0. 0. 0. 0. 0. 0.
      0. 0. 0. 0. 0. 1. 0. 34. 0. 0. 0. 5. 0. 0. 0. 350. 0. 0. 3. 56. 0.
      0. 1. 168. 3. 0. 2. 17. 0. 3. 0. 0. 0. 0. 0. 3. 0. 0. 0. 0. 0. 0.
      0. 0. 0. 0. 0. 0. 0. 0. 0. 0. 0. 0. 0. 73. 0. 0. 0. 4. 0. 0. 0. 0.
      0. 0. 0. 22. 0. 0. 0. 2. 0. 0. 0. 0. 0. 0. 0. 52. 0. 0. 0. 8. 0.
      0. 0. 0. 74. 1. 272. 0. 0. 0. 70. 0. 0. 0. 0. 0. 0. 0. 6. 0. 0. 0.
      0. 0. 0. 0. 0. 0. 0. 0. 0. 0. 0. 0. 0. 0. 0. 0. 0. 0. 0. 0. 0. 0.
      0. 0. 0. 0. 0. 0. 0. 0. 0. 0. 1. 0. 0. 0. 0. 3. 3. 0. 1084. 0. 0.
      0. 203. 62. 34. 0. 94. 0. 0. 20. 20. 0. 0. 0. 0. 0. 0. 0. 0. 0. 0.
      0. 0. 0. 0. 0. 0. 0. 0. 0. 0. 0. 0. 0. 0. 0. 0. 0. 0. 0. 0. 0. 0.
      0. 0. 0. 0. 0. 0. 0. 0. 0. 0. 0. 0. 0. 0. 0. 0. 0. 0. 0. 250. 0.
      0. 0. 53.</_>
    <_>
      498. 0. 0. 0. 542. 0. 0. 0. 0. 0. 0. 0. 0. 0. 0. 0. 0. 0. 0. 0. 0.
      0. 0. 0. 0. 0. 0. 0. 0. 0. 0. 0. 0. 0. 0. 0. 0. 0. 0. 0. 0. 0. 0.
      0. 0. 0. 0. 0. 0. 0. 0. 0. 0. 0. 0. 0. 546. 0. 0. 0. 537. 0. 0. 0.
      485. 0. 0. 0. 87. 0. 0. 0. 0. 0. 0. 0. 0. 0. 0. 0. 0. 0. 0. 0. 0.
      0. 0. 0. 0. 0. 0. 0. 0. 0. 0. 0. 0. 0. 0. 0. 0. 0. 0. 0. 0. 0. 0.
      0. 0. 0. 0. 0. 0. 0. 0. 0. 0. 0. 0. 0. 478. 0. 0. 0. 103. 0. 0. 0.
      0. 0. 0. 0. 0. 0. 0. 0. 0. 0. 0. 0. 0. 0. 0. 0. 0. 0. 0. 0. 0. 0.
      0. 0. 0. 0. 0. 0. 0. 0. 0. 0. 0. 0. 0. 0. 0. 0. 0. 0. 0. 0. 0. 0.
      0. 0. 0. 0. 0. 0. 0. 0. 0. 0. 0. 0. 0. 0. 0. 533. 0. 0. 0. 516. 0.
      0. 0. 0. 0. 0. 0. 0. 0. 0. 0. 0. 0. 0. 0. 0. 0. 0. 0. 0. 0. 0. 0.
      0. 0. 0. 0. 0. 0. 0. 0. 0. 0. 0. 0. 0. 0. 0. 0. 0. 0. 0. 0. 0. 0.
      0. 0. 0. 0. 0. 0. 0. 0. 0. 0. 0. 0. 0. 0. 449. 0. 0. 0. 114.</_>
    <_>
      553. 0. 1. 2. 508. 0. 0. 0. 0. 0. 0. 0. 1. 0. 0. 0. 0. 0. 0. 0. 0.
      0. 0. 0. 0. 0. 0. 0. 0. 0. 0. 1. 0. 0. 0. 0. 0. 0. 0. 0. 0. 0. 0.
      0. 0. 0. 0. 0. 0. 0. 0. 0. 0. 0. 0. 0. 230. 3. 4. 14. 174. 0. 122.
      24. 475. 0. 0. 0. 71. 0. 0. 0. 0. 0. 0. 0. 0. 0. 0. 0. 0. 0. 0. 0.
      0. 0. 0. 0. 0. 0. 0. 0. 0. 0. 0. 0. 4. 0. 0. 0. 0. 0. 0. 0. 0. 0.
      0. 0. 0. 0. 0. 0. 0. 0. 0. 0. 0. 0. 0. 0. 72. 0. 0. 0. 20. 0. 1.
      0. 0. 2. 0. 404. 0. 0. 0. 213. 0. 0. 0. 15. 0. 0. 0. 101. 0. 0. 0.
      2. 0. 0. 0. 0. 0. 0. 0. 15. 0. 0. 0. 36. 0. 0. 0. 1. 0. 0. 0. 0.
      0. 0. 0. 0. 0. 0. 0. 0. 0. 0. 0. 3. 0. 0. 0. 0. 11. 12. 0. 377. 1.
      0. 3. 284. 1. 3. 0. 337. 0. 0. 0. 31. 0. 0. 0. 1. 0. 0. 0. 4. 0.
      0. 0. 0. 0. 0. 0. 0. 0. 0. 0. 0. 0. 0. 0. 0. 0. 0. 0. 85. 0. 0. 0.
      3. 0. 0. 0. 1. 0. 0. 0. 6. 0. 0. 0. 26. 0. 0. 0. 0. 95. 33. 3.
      423. 4. 0. 6. 66.</_>
    <_>
      702. 1. 1. 0. 395. 0. 3. 0. 3. 0. 0. 0. 3. 0. 0. 0. 0. 0. 0. 0. 0.
      0. 0. 0. 9. 0. 0. 0. 0. 0. 0. 0. 4. 0. 0. 0. 0. 0. 0. 0. 0. 0. 0.
      0. 0. 0. 0. 0. 19. 0. 0. 2. 3. 0. 0. 0. 644. 0. 1. 0. 376. 0. 3.
      0. 455. 1. 0. 2. 26. 0. 0. 0. 2. 0. 0. 0. 0. 0. 0. 0. 0. 0. 0. 0.
      0. 0. 0. 0. 0. 0. 0. 0. 0. 0. 0. 0. 28. 0. 0. 0. 0. 0. 0. 0. 0. 0.
      0. 0. 0. 0. 0. 0. 33. 0. 0. 0. 1. 0. 0. 0. 430. 0. 1. 0. 21. 0. 3.
      0. 3. 8. 0. 13. 2. 0. 0. 1. 0. 0. 0. 5. 0. 0. 0. 2. 0. 0. 0. 0. 0.
      0. 0. 0. 0. 0. 0. 0. 0. 0. 0. 0. 1. 0. 0. 1. 0. 0. 0. 1. 0. 0. 0.
      0. 0. 0. 0. 2. 2. 3. 0. 3. 0. 0. 0. 0. 1. 6. 0. 708. 0. 1. 0. 352.
      27. 12. 0. 17. 1. 0. 1. 0. 2. 0. 0. 0. 0. 0. 0. 0. 0. 0. 0. 0. 0.
      0. 0. 0. 0. 0. 0. 0. 0. 0. 0. 0. 23. 2. 0. 2. 0. 0. 0. 0. 0. 0. 0.
      0. 1. 0. 0. 0. 4. 6. 0. 4. 0. 0. 0. 0. 5. 12. 0. 398. 0. 0. 0. 84.</_>
    <_>
      777. 1. 5. 36. 563. 1. 56. 33. 17. 0. 0. 0. 57. 0. 0. 0. 4. 0. 0.
      0. 1. 0. 0. 0. 23. 0. 0. 0. 36. 0. 0. 0. 4. 0. 0. 0. 2. 0. 0. 0.
      0. 0. 0. 0. 0. 0. 0. 0. 8. 0. 0. 0. 1. 0. 0. 0. 370. 0. 4. 12.
      242. 2. 9. 10. 137. 0. 2. 1. 38. 0. 0. 0. 0. 0. 0. 0. 1. 0. 0. 0.
      2. 0. 0. 0. 0. 0. 0. 0. 1. 0. 0. 0. 1. 0. 0. 0. 2. 0. 0. 0. 0. 0.
      0. 0. 0. 0. 0. 0. 0. 0. 0. 0. 3. 0. 0. 0. 0. 0. 0. 0. 87. 0. 0. 0.
      23. 0. 2. 2. 2. 7. 1. 334. 0. 1. 0. 286. 0. 0. 0. 6. 0. 0. 0. 9.
      0. 0. 0. 2. 0. 0. 0. 0. 0. 0. 0. 7. 0. 0. 0. 12. 0. 0. 0. 3. 0. 0.
      0. 2. 0. 0. 0. 1. 0. 0. 0. 1. 0. 0. 0. 9. 0. 0. 0. 2. 0. 8. 0.
      719. 0. 2. 3. 552. 1. 0. 0. 80. 0. 1. 0. 19. 0. 0. 0. 0. 0. 0. 0.
      2. 0. 0. 0. 0. 0. 0. 0. 0. 0. 0. 0. 2. 0. 0. 0. 2. 0. 0. 0. 7. 0.
      0. 0. 1. 0. 0. 0. 0. 0. 0. 0. 0. 0. 0. 0. 0. 0. 0. 0. 0. 5. 1. 0.
      173. 0. 0. 0. 49.</_>
    <_>
      2024. 0. 30. 19. 113. 0. 137. 1. 12. 0. 0. 0. 135. 0. 0. 0. 0. 0.
      0. 0. 0. 0. 0. 0. 6. 0. 0. 0. 0. 0. 0. 0. 11. 0. 0. 0. 0. 0. 0. 0.
      0. 0. 0. 0. 0. 0. 0. 0. 5. 0. 0. 0. 0. 0. 0. 0. 52. 0. 0. 0. 31.
      0. 0. 0. 70. 0. 0. 0. 3. 0. 0. 0. 0. 0. 0. 0. 1. 0. 0. 0. 0. 0. 0.
      0. 0. 0. 0. 0. 0. 0. 0. 0. 0. 0. 0. 0. 116. 0. 0. 0. 3. 0. 0. 0.
      0. 0. 0. 0. 3. 0. 0. 0. 0. 0. 0. 0. 0. 0. 0. 0. 9. 0. 0. 0. 3. 0.
      0. 0. 27. 31. 0. 244. 0. 0. 1. 30. 0. 0. 0. 0. 0. 0. 0. 0. 0. 0.
      0. 0. 0. 0. 0. 0. 0. 0. 0. 0. 0. 0. 0. 0. 0. 0. 0. 0. 0. 0. 0. 0.
      0. 0. 0. 0. 0. 0. 0. 0. 0. 0. 0. 0. 0. 0. 0. 0. 0. 0. 0. 1250. 0.
      0. 0. 197. 117. 0. 3. 33. 0. 0. 4. 2. 0. 0. 0. 0. 0. 0. 0. 0. 0.
      0. 0. 0. 0. 0. 0. 0. 0. 0. 0. 0. 0. 0. 0. 0. 0. 0. 0. 0. 0. 0. 0.
      0. 0. 0. 0. 0. 0. 0. 0. 0. 0. 0. 0. 0. 0. 0. 0. 0. 0. 0. 0. 159.
      0. 0. 0. 6.</_>
    <_>
      1133. 0. 0. 2. 318. 4. 20. 4. 16. 0. 0. 0. 24. 0. 0. 0. 0. 0. 0.
      0. 0. 0. 0. 0. 3. 0. 0. 0. 1. 0. 0. 0. 3. 0. 0. 0. 0. 0. 0. 0. 0.
      0. 0. 0. 0. 0. 0. 0. 0. 0. 0. 0. 0. 0. 0. 0. 1004. 0. 0. 0. 287.
      0. 0. 0. 182. 0. 0. 0. 36. 0. 0. 0. 0. 0. 0. 0. 0. 0. 0. 0. 0. 0.
      0. 0. 0. 0. 0. 0. 2. 0. 0. 0. 2. 0. 0. 0. 6. 0. 0. 0. 0. 0. 0. 0.
      0. 0. 0. 0. 0. 0. 0. 0. 0. 0. 0. 0. 0. 0. 0. 0. 176. 0. 0. 0. 32.
      0. 0. 0. 0. 0. 0. 5. 0. 4. 0. 4. 0. 0. 0. 0. 0. 0. 0. 0. 0. 0. 0.
      0. 0. 0. 0. 0. 0. 0. 0. 0. 0. 0. 0. 0. 0. 0. 0. 0. 0. 0. 0. 0. 0.
      0. 0. 0. 0. 0. 0. 0. 0. 0. 0. 0. 0. 0. 0. 0. 0. 0. 0. 1052. 0. 0.
      0. 363. 6. 0. 0. 2. 0. 0. 0. 0. 0. 0. 0. 0. 0. 0. 0. 0. 0. 0. 0.
      0. 0. 0. 0. 0. 0. 0. 0. 0. 0. 0. 0. 0. 0. 0. 0. 0. 0. 0. 0. 0. 0.
      0. 0. 0. 0. 0. 0. 0. 0. 0. 0. 0. 0. 0. 0. 0. 0. 0. 0. 170. 0. 0.
      0. 27.</_>
    <_>
      924. 17. 1. 91. 332. 2. 74. 41. 2. 0. 0. 0. 37. 0. 0. 0. 20. 0. 0.
      0. 0. 0. 0. 0. 59. 0. 0. 0. 94. 0. 0. 0. 0. 0. 0. 0. 0. 0. 0. 0.
      0. 0. 0. 0. 0. 0. 0. 0. 46. 0. 0. 0. 6. 0. 0. 0. 225. 0. 0. 0.
      116. 0. 0. 0. 266. 1. 3. 7. 19. 0. 1. 5. 0. 0. 0. 0. 5. 0. 0. 0.
      0. 0. 0. 0. 0. 0. 0. 0. 1. 0. 0. 0. 1. 0. 0. 0. 4. 0. 0. 0. 0. 0.
      0. 0. 0. 0. 0. 0. 0. 0. 0. 0. 50. 0. 0. 0. 3. 0. 0. 0. 65. 0. 0.
      0. 29. 0. 0. 0. 14. 65. 0. 345. 0. 0. 4. 127. 0. 0. 0. 0. 0. 0. 0.
      0. 0. 0. 0. 0. 0. 0. 0. 0. 0. 0. 0. 0. 0. 0. 0. 0. 0. 0. 0. 0. 0.
      0. 0. 0. 0. 0. 0. 0. 0. 0. 0. 0. 0. 0. 0. 0. 0. 0. 0. 0. 0. 0. 0.
      924. 0. 0. 0. 400. 37. 18. 0. 100. 2. 0. 0. 17. 0. 0. 0. 0. 0. 0.
      0. 0. 0. 0. 0. 0. 0. 0. 0. 0. 0. 0. 0. 0. 0. 0. 0. 0. 0. 0. 0. 0.
      0. 0. 0. 0. 0. 0. 0. 0. 0. 0. 0. 0. 0. 0. 0. 0. 0. 0. 0. 0. 0. 0.
      0. 257. 0. 0. 0. 31.</_>
    <_>
      1100. 0. 0. 0. 231. 0. 0. 0. 0. 0. 0. 0. 0. 0. 0. 0. 0. 0. 0. 0.
      0. 0. 0. 0. 0. 0. 0. 0. 0. 0. 0. 0. 0. 0. 0. 0. 0. 0. 0. 0. 0. 0.
      0. 0. 0. 0. 0. 0. 0. 0. 0. 0. 0. 0. 0. 0. 60. 0. 11. 4. 12. 0. 16.
      0. 240. 0. 0. 0. 41. 0. 0. 0. 0. 0. 0. 0. 0. 0. 0. 0. 0. 0. 0. 0.
      0. 0. 0. 0. 0. 0. 0. 0. 0. 0. 0. 0. 0. 0. 0. 0. 0. 0. 0. 0. 0. 0.
      0. 0. 0. 0. 0. 0. 0. 0. 0. 0. 0. 0. 0. 0. 20. 0. 0. 7. 1. 0. 1. 1.
      0. 0. 0. 1065. 0. 0. 0. 153. 0. 0. 0. 0. 0. 0. 0. 20. 0. 0. 0. 0.
      0. 0. 0. 5. 0. 0. 0. 9. 0. 0. 0. 2. 0. 0. 0. 3. 0. 0. 0. 0. 0. 0.
      0. 0. 0. 0. 0. 0. 0. 0. 0. 15. 0. 0. 0. 3. 11. 13. 0. 960. 0. 3.
      0. 249. 0. 0. 0. 253. 0. 0. 0. 50. 0. 0. 0. 0. 0. 0. 0. 0. 0. 0.
      0. 3. 0. 0. 0. 0. 0. 0. 0. 11. 0. 0. 0. 0. 0. 0. 0. 18. 0. 0. 0.
      2. 0. 0. 0. 0. 0. 0. 0. 0. 0. 0. 0. 10. 0. 0. 0. 0. 11. 11. 0.
      220. 0. 5. 0. 38.</_>
    <_>
      1510. 0. 0. 7. 296. 0. 90. 0. 21. 0. 0. 0. 85. 0. 0. 0. 0. 0. 0.
      0. 0. 0. 0. 0. 14. 0. 0. 0. 4. 0. 0. 0. 0. 0. 0. 0. 0. 0. 0. 0. 0.
      0. 0. 0. 0. 0. 0. 0. 5. 0. 0. 0. 0. 0. 0. 0. 773. 0. 0. 0. 217. 0.
      0. 0. 38. 0. 0. 0. 6. 0. 1. 0. 0. 0. 0. 0. 2. 0. 0. 0. 0. 0. 0. 0.
      0. 0. 0. 0. 0. 0. 0. 0. 0. 0. 0. 0. 10. 0. 0. 0. 0. 0. 0. 0. 2. 0.
      0. 0. 3. 0. 0. 0. 0. 0. 0. 0. 0. 0. 0. 0. 88. 0. 0. 0. 14. 0. 0.
      0. 7. 5. 0. 45. 0. 0. 2. 16. 0. 0. 0. 0. 0. 0. 0. 0. 0. 0. 0. 0.
      0. 0. 0. 0. 0. 0. 0. 0. 0. 0. 0. 0. 0. 0. 0. 0. 0. 0. 0. 0. 0. 0.
      0. 0. 0. 0. 0. 0. 0. 0. 0. 0. 0. 0. 0. 0. 0. 0. 0. 1192. 0. 0. 0.
      364. 10. 0. 0. 0. 2. 0. 3. 0. 0. 0. 0. 0. 0. 0. 0. 0. 0. 0. 0. 0.
      0. 0. 0. 0. 0. 0. 0. 0. 0. 0. 0. 0. 0. 0. 0. 0. 0. 0. 0. 0. 0. 0.
      0. 0. 0. 0. 0. 0. 0. 0. 0. 0. 0. 0. 0. 0. 0. 0. 0. 43. 0. 0. 0.
      13.</_>
    <_>
      1067. 7. 2. 12. 269. 9. 82. 93. 29. 0. 0. 0. 116. 0. 0. 0. 3. 0.
      0. 0. 0. 0. 0. 0. 10. 0. 0. 0. 14. 0. 0. 0. 7. 0. 0. 0. 0. 0. 0.
      0. 0. 0. 0. 0. 11. 0. 0. 0. 5. 0. 0. 0. 0. 0. 0. 0. 536. 0. 0. 0.
      161. 0. 0. 0. 281. 0. 0. 0. 20. 0. 12. 0. 1. 0. 0. 0. 1. 0. 0. 0.
      0. 0. 0. 0. 0. 0. 0. 0. 6. 0. 0. 0. 4. 0. 0. 0. 32. 0. 0. 0. 2. 0.
      0. 0. 1. 0. 0. 0. 4. 0. 0. 0. 6. 0. 0. 0. 0. 0. 0. 0. 285. 0. 0.
      0. 32. 0. 0. 0. 3. 5. 0. 53. 5. 2. 0. 38. 0. 0. 0. 0. 0. 0. 0. 0.
      0. 0. 0. 0. 0. 0. 0. 0. 0. 0. 0. 0. 0. 0. 0. 0. 0. 0. 0. 0. 0. 0.
      0. 0. 0. 0. 0. 0. 0. 0. 0. 0. 0. 0. 0. 0. 0. 0. 0. 0. 0. 0. 0.
      857. 0. 0. 0. 419. 34. 0. 2. 4. 1. 0. 4. 5. 0. 0. 0. 0. 0. 0. 0.
      0. 0. 0. 0. 0. 0. 0. 0. 0. 0. 0. 0. 0. 0. 0. 0. 0. 0. 0. 0. 0. 0.
      0. 0. 0. 0. 0. 0. 0. 0. 0. 0. 0. 0. 0. 0. 0. 0. 0. 0. 0. 0. 0. 0.
      316. 0. 0. 0. 20.</_>
    <_>
      772. 0. 0. 0. 528. 0. 0. 0. 0. 0. 0. 0. 0. 0. 0. 0. 0. 0. 0. 0. 0.
      0. 0. 0. 0. 0. 0. 0. 0. 0. 0. 0. 0. 0. 0. 0. 0. 0. 0. 0. 0. 0. 0.
      0. 0. 0. 0. 0. 0. 0. 0. 0. 0. 0. 0. 0. 20. 26. 0. 60. 9. 0. 0. 31.
      227. 0. 0. 0. 85. 0. 0. 0. 0. 0. 0. 0. 0. 0. 0. 0. 0. 0. 0. 0. 0.
      0. 0. 0. 0. 0. 0. 0. 0. 0. 0. 0. 0. 0. 0. 0. 0. 0. 0. 0. 0. 0. 0.
      0. 0. 0. 0. 0. 0. 0. 0. 0. 0. 0. 0. 0. 10. 0. 0. 0. 1. 0. 0. 0. 0.
      0. 0. 738. 0. 0. 0. 596. 0. 0. 0. 2. 0. 0. 0. 13. 0. 0. 0. 3. 0.
      0. 0. 0. 0. 0. 0. 5. 0. 0. 0. 4. 0. 0. 0. 2. 0. 0. 0. 1. 0. 0. 0.
      0. 0. 0. 0. 0. 0. 0. 0. 7. 0. 0. 0. 0. 0. 73. 0. 645. 0. 0. 0.
      361. 0. 0. 0. 205. 0. 0. 0. 54. 0. 0. 0. 0. 0. 0. 0. 2. 0. 0. 0.
      0. 0. 0. 0. 0. 0. 0. 0. 0. 0. 0. 0. 0. 0. 0. 0. 8. 0. 0. 0. 3. 0.
      0. 0. 0. 0. 0. 0. 0. 0. 0. 0. 5. 0. 0. 0. 0. 0. 68. 0. 232. 0. 0.
      0. 92.</_>
    <_>
      1072. 0. 0. 0. 470. 0. 0. 0. 0. 0. 0. 0. 0. 0. 0. 0. 0. 0. 0. 0.
      0. 0. 0. 0. 0. 0. 0. 0. 0. 0. 0. 0. 0. 0. 0. 0. 0. 0. 0. 0. 0. 0.
      0. 0. 0. 0. 0. 0. 1. 0. 0. 0. 0. 0. 0. 0. 1030. 0. 0. 0. 348. 0.
      4. 0. 93. 0. 0. 0. 28. 0. 0. 0. 0. 0. 0. 0. 0. 0. 0. 0. 0. 0. 0.
      0. 0. 0. 0. 0. 0. 0. 0. 0. 0. 0. 0. 0. 0. 0. 0. 0. 0. 0. 0. 0. 0.
      0. 0. 0. 0. 0. 0. 0. 0. 0. 0. 0. 0. 0. 0. 0. 177. 0. 0. 0. 52. 0.
      0. 0. 0. 0. 0. 0. 0. 0. 0. 0. 0. 0. 0. 1. 0. 0. 0. 0. 0. 0. 0. 0.
      0. 0. 0. 0. 0. 0. 0. 12. 0. 0. 0. 2. 0. 0. 0. 0. 0. 0. 0. 0. 0. 0.
      0. 0. 0. 0. 0. 0. 0. 0. 0. 0. 0. 0. 0. 0. 0. 0. 0. 1059. 0. 0. 0.
      418. 0. 0. 0. 0. 1. 0. 0. 0. 0. 0. 0. 0. 0. 0. 0. 0. 0. 0. 0. 0.
      0. 0. 0. 0. 0. 0. 0. 0. 0. 0. 0. 0. 0. 0. 0. 0. 0. 0. 0. 0. 0. 0.
      0. 0. 0. 0. 0. 0. 0. 0. 0. 0. 0. 0. 0. 0. 0. 0. 0. 84. 0. 0. 0.
      36.</_>
    <_>
      825. 2. 4. 19. 296. 2. 27. 8. 7. 0. 0. 0. 25. 0. 0. 0. 6. 0. 0. 0.
      1. 0. 0. 0. 13. 0. 0. 0. 8. 0. 0. 0. 9. 0. 0. 0. 4. 0. 0. 0. 0. 0.
      0. 0. 4. 0. 0. 0. 26. 0. 0. 0. 3. 0. 0. 0. 469. 0. 0. 0. 189. 0.
      0. 0. 358. 0. 1. 4. 51. 0. 4. 6. 1. 0. 0. 0. 0. 0. 0. 0. 0. 0. 0.
      0. 0. 0. 0. 0. 2. 0. 0. 0. 0. 0. 0. 0. 54. 0. 0. 0. 7. 0. 0. 0. 2.
      0. 0. 0. 2. 0. 0. 0. 25. 0. 0. 0. 1. 0. 0. 0. 129. 0. 0. 0. 30. 0.
      0. 0. 3. 10. 0. 163. 1. 1. 0. 122. 0. 0. 0. 0. 0. 0. 0. 0. 0. 0.
      0. 0. 0. 0. 0. 0. 0. 0. 0. 0. 0. 0. 0. 0. 0. 0. 0. 0. 0. 0. 0. 0.
      0. 0. 0. 0. 0. 0. 0. 0. 0. 0. 0. 0. 0. 0. 0. 0. 0. 0. 0. 776. 0.
      0. 0. 395. 49. 21. 6. 251. 2. 1. 2. 20. 0. 0. 0. 0. 0. 0. 0. 0. 0.
      0. 0. 0. 0. 0. 0. 0. 0. 0. 0. 0. 0. 0. 0. 0. 0. 0. 0. 0. 0. 0. 0.
      0. 0. 0. 0. 0. 0. 0. 0. 0. 0. 0. 0. 0. 0. 0. 0. 0. 0. 0. 0. 369.
      0. 0. 0. 72.</_>
    <_>
      1062. 14. 0. 68. 250. 3. 22. 26. 7. 0. 0. 0. 31. 0. 0. 0. 0. 0. 0.
      0. 0. 0. 0. 0. 5. 0. 0. 0. 0. 0. 0. 0. 11. 0. 0. 0. 0. 0. 0. 0. 0.
      0. 0. 0. 0. 0. 0. 0. 24. 0. 0. 0. 2. 0. 0. 0. 39. 0. 0. 0. 5. 0.
      0. 0. 268. 5. 0. 4. 42. 0. 0. 0. 0. 0. 0. 0. 6. 0. 0. 0. 0. 0. 0.
      0. 0. 0. 0. 0. 4. 0. 0. 0. 0. 0. 0. 0. 46. 0. 0. 0. 4. 0. 0. 0. 1.
      0. 0. 0. 2. 0. 0. 0. 14. 0. 0. 0. 4. 0. 0. 0. 36. 0. 0. 0. 6. 0.
      0. 0. 10. 84. 0. 611. 4. 1. 1. 275. 0. 0. 0. 0. 0. 0. 0. 0. 0. 0.
      0. 0. 0. 0. 0. 0. 0. 0. 0. 0. 0. 0. 0. 0. 0. 0. 0. 0. 0. 0. 0. 0.
      0. 0. 0. 0. 0. 0. 0. 0. 0. 0. 0. 0. 0. 0. 0. 0. 0. 0. 0. 960. 0.
      0. 0. 333. 35. 33. 0. 184. 1. 0. 2. 24. 0. 0. 0. 0. 0. 0. 0. 0. 0.
      0. 0. 0. 0. 0. 0. 0. 0. 0. 0. 0. 0. 0. 0. 0. 0. 0. 0. 0. 0. 0. 0.
      0. 0. 0. 0. 0. 0. 0. 0. 0. 0. 0. 0. 0. 0. 0. 0. 0. 0. 0. 0. 296.
      0. 0. 0. 23.</_>
    <_>
      696. 20. 5. 99. 334. 1. 54. 99. 5. 0. 0. 0. 79. 0. 0. 0. 0. 0. 0.
      0. 0. 0. 0. 0. 4. 0. 0. 0. 18. 0. 0. 0. 5. 0. 0. 0. 0. 0. 0. 0. 0.
      0. 0. 0. 0. 0. 0. 0. 4. 0. 0. 0. 2. 0. 0. 0. 25. 0. 0. 0. 16. 0.
      0. 0. 327. 3. 1. 5. 60. 0. 0. 2. 1. 0. 0. 0. 2. 0. 0. 0. 0. 0. 0.
      0. 1. 0. 0. 0. 2. 0. 0. 0. 0. 0. 0. 0. 116. 0. 0. 0. 4. 0. 0. 0.
      0. 0. 0. 0. 9. 0. 0. 0. 7. 0. 0. 0. 4. 0. 0. 0. 8. 0. 0. 0. 15. 0.
      0. 0. 1. 104. 0. 347. 1. 1. 1. 244. 0. 0. 0. 0. 0. 0. 0. 0. 0. 0.
      0. 0. 0. 0. 0. 0. 0. 0. 0. 0. 0. 0. 0. 0. 0. 0. 0. 0. 0. 0. 0. 0.
      0. 0. 0. 0. 0. 0. 0. 0. 0. 0. 0. 0. 0. 0. 0. 0. 0. 0. 0. 645. 0.
      0. 0. 449. 57. 104. 0. 312. 0. 5. 11. 55. 0. 0. 0. 0. 0. 0. 0. 0.
      0. 0. 0. 0. 0. 0. 0. 0. 0. 0. 0. 0. 0. 0. 0. 0. 0. 0. 0. 0. 0. 0.
      0. 0. 0. 0. 0. 0. 0. 0. 0. 0. 0. 0. 0. 0. 0. 0. 0. 0. 0. 0. 0.
      443. 0. 0. 0. 75.</_>
    <_>
      524. 0. 0. 0. 346. 0. 0. 0. 0. 0. 0. 0. 0. 0. 0. 0. 0. 0. 0. 0. 0.
      0. 0. 0. 0. 0. 0. 0. 0. 0. 0. 0. 0. 0. 0. 0. 0. 0. 0. 0. 0. 0. 0.
      0. 0. 0. 0. 0. 0. 0. 0. 0. 0. 0. 0. 0. 235. 0. 0. 0. 105. 0. 59.
