<?xml version="1.0"?>
<opencv_storage>
<my_svm type_id="opencv-ml-svm">
  <svm_type>C_SVC</svm_type>
  <kernel><type>LINEAR</type></kernel>
  <C>1.</C>
  <term_criteria><epsilon>2.2204460492503131e-16</epsilon>
    <iterations>500</iterations></term_criteria>
  <var_all>200</var_all>
  <var_count>200</var_count>
  <class_count>2</class_count>
  <class_labels type_id="opencv-matrix">
    <rows>1</rows>
    <cols>2</cols>
    <dt>i</dt>
    <data>
      0 1</data></class_labels>
  <sv_total>1</sv_total>
  <support_vectors>
    <_>
      2.43088484e+00 -5.58921278e-01 1.56828415e+00 2.83939075e+00
      2.17252398e+00 -2.44744873e+00 -2.00189614e+00 -2.37495971e+00
      -1.39840508e+00 -1.18062687e+00 -2.15030503e+00 -3.62226129e+00
      2.27505755e+00 3.03198695e-01 1.71145117e+00 -1.86388540e+00
      1.99149922e-01 -1.91742051e+00 -1.16731143e+00 2.72948790e+00
      2.58033538e+00 1.84846520e+00 3.28140706e-01 2.22053909e+00
      2.22369027e+00 1.29257941e+00 -2.02037883e+00 -3.81086564e+00
      -1.45375454e+00 1.25831962e+00 6.19611561e-01 6.72978640e-01
      1.10368097e+00 -1.73471630e+00 -2.26719189e+00 1.80199981e+00
      -2.16348672e+00 -3.48817259e-01 -2.16353679e+00 -1.77592945e+00
      -1.52021778e+00 2.80080414e+00 2.01554462e-01 -8.72192442e-01
      -2.38654733e+00 -1.35710764e+00 -4.66900206e+00 6.48642719e-01
      -1.30310893e+00 -1.70358038e+00 1.34171546e+00 1.10393554e-01
      8.60967994e-01 8.59518945e-01 -3.24031520e+00 1.12711880e-02
      -2.48155022e+00 -1.28784192e+00 -3.06823826e+00 9.30264473e-01
      1.28181601e+00 -6.58550918e-01 1.64495885e+00 9.76608872e-01
      -1.82302463e+00 -3.81378800e-01 2.78931975e+00 1.01421821e+00
      -1.62651193e+00 2.86015058e+00 -1.12453949e+00 -9.94474828e-01
      1.88406289e+00 1.05869877e+00 2.17291188e+00 1.37411988e+00
      -8.88385892e-01 -7.49976635e-01 -1.73406732e+00 1.90845877e-01
      2.24137473e+00 -1.76035547e+00 -8.95453095e-01 5.30232012e-01
      2.16248465e+00 1.00329697e+00 -2.75732696e-01 2.50186396e+00
      -9.50875640e-01 -1.92755055e+00 -2.92680621e+00 9.73456383e-01
      -1.27716482e+00 8.46154571e-01 1.07603848e+00 1.59586871e+00
      -1.43520987e+00 -2.04531074e+00 1.27577198e+00 -3.04457116e+00
      1.92210889e+00 -2.10307264e+00 2.65711784e+00 1.79803228e+00
      1.33292401e+00 -1.94022715e+00 -1.52112913e+00 2.04619288e+00
      -2.43483171e-01 1.94855976e+00 8.01452041e-01 2.24440622e+00
      -1.60750359e-01 -7.23486185e-01 -2.32224727e+00 2.93834019e+00
      -3.41402069e-02 9.08091784e-01 -4.74352598e+00 -5.10285914e-01
      -1.73765790e+00 1.17609000e+00 -1.61307633e+00 1.72410846e+00
      1.65610337e+00 1.63685262e-01 2.31616306e+00 1.55620229e+00
      -1.80078328e+00 -1.13634431e+00 1.47908092e+00 -2.88376272e-01
      2.04908156e+00 1.02992809e+00 1.78958607e+00 1.69089031e+00
      -1.49063337e+00 -1.93186903e+00 1.90711081e+00 -2.43534851e+00
      -1.82390678e+00 5.93550205e-01 7.32880533e-01 -1.58843935e+00
      -1.16295218e+00 1.51787007e+00 -1.33194888e+00 -1.14404464e+00
      -1.07287824e+00 2.70463109e-01 3.48295391e-01 -2.12042689e+00
      -2.66002774e+00 4.94138990e-03 7.57306635e-01 -7.44388163e-01
      9.39685926e-02 -2.14873266e+00 1.00851953e+00 1.54959726e+00
      2.80976319e+00 1.37946534e+00 1.98204803e+00 2.45935738e-01
      -2.88942784e-01 2.47020769e+00 1.94051194e+00 -1.02667058e+00
      -2.13057947e+00 3.83282900e-01 -2.56581306e+00 9.83076930e-01
      1.66769838e+00 2.09341145e+00 -1.70776343e+00 -1.61238933e+00
      1.91847241e+00 1.54232728e+00 -1.50073290e+00 1.72646940e-01
      4.03688580e-01 -1.30858052e+00 1.46123457e+00 2.06899166e+00
      3.93079787e-01 2.09614873e+00 1.65464854e+00 2.85875946e-01
      -5.17169178e-01 3.78421068e-01 2.16541266e+00 -2.56067133e+00
      -3.28832793e+00 4.26420212e-01 -1.71297467e+00 1.50380242e+00
      4.11323428e-01 1.46426964e+00 1.93024099e+00 -5.76562062e-02</_></support_vectors>
  <decision_functions>
    <_>
      <sv_count>1</sv_count>
      <rho>1.9942272995222249e-02</rho>
      <alpha>
        1.</alpha>
      <index>
        0</index></_></decision_functions></my_svm>
</opencv_storage>
