<?xml version="1.0"?>
<opencv_storage>
<my_svm type_id="opencv-ml-svm">
  <svm_type>C_SVC</svm_type>
  <kernel><type>RBF</type>
    <gamma>1.0000000000000001e-09</gamma></kernel>
  <C>1.</C>
  <term_criteria><epsilon>2.2204460492503131e-16</epsilon>
    <iterations>500</iterations></term_criteria>
  <var_all>256</var_all>
  <var_count>256</var_count>
  <class_count>2</class_count>
  <class_labels type_id="opencv-matrix">
    <rows>1</rows>
    <cols>2</cols>
    <dt>i</dt>
    <data>
      0 1</data></class_labels>
  <sv_total>57</sv_total>
  <support_vectors>
    <_>
      19385. 596. 2104. 1521. 449. 10. 2186. 2136. 1604. 22. 89. 38.
      1469. 41. 5629. 2757. 537. 7. 17. 2. 6. 1. 25. 5. 1217. 8. 28. 20.
      954. 6. 1422. 201. 1883. 11. 83. 37. 17. 0. 53. 29. 97. 1. 4. 2.
      43. 0. 96. 15. 1442. 4. 32. 5. 15. 0. 64. 5. 2616. 4. 55. 23. 750.
      1. 754. 127. 420. 4. 18. 14. 4. 0. 11. 6. 21. 0. 1. 0. 4. 0. 8. 7.
      3. 0. 0. 0. 2. 0. 0. 0. 22. 0. 0. 0. 2. 0. 2. 1. 1826. 14. 50. 61.
      7. 0. 9. 16. 42. 3. 5. 4. 25. 3. 59. 26. 1721. 2. 26. 10. 2. 0.
      12. 0. 1098. 3. 16. 10. 154. 1. 138. 12. 1519. 1078. 85. 2460. 15.
      12. 45. 1315. 40. 42. 4. 44. 40. 61. 85. 1154. 27. 5. 3. 7. 0. 0.
      1. 3. 34. 5. 0. 26. 16. 9. 18. 119. 73. 32. 5. 58. 0. 0. 3. 16. 2.
      1. 1. 3. 3. 0. 10. 12. 34. 15. 3. 23. 0. 0. 2. 11. 42. 20. 1. 110.
      10. 11. 16. 133. 1215. 792. 29. 612. 1. 2. 37. 157. 32. 14. 1. 11.
      10. 6. 57. 144. 26. 3. 1. 2. 0. 0. 2. 2. 68. 12. 3. 5. 8. 0. 13.
      15. 4119. 942. 111. 665. 7. 2. 45. 155. 75. 13. 2. 10. 48. 16.
      240. 245. 2118. 174. 14. 110. 1. 1. 21. 16. 943. 81. 17. 123. 126.
      10. 243. 188.</_>
    <_>
      18685. 716. 1912. 1376. 466. 6. 2078. 1861. 1723. 32. 99. 42.
      1686. 39. 6481. 3305. 620. 8. 23. 7. 6. 0. 30. 5. 1230. 7. 36. 20.
      1219. 4. 1905. 239. 1519. 19. 66. 23. 17. 0. 53. 20. 110. 1. 6. 2.
      47. 1. 89. 17. 1194. 4. 23. 2. 11. 0. 66. 7. 2369. 4. 49. 25. 810.
      3. 895. 101. 329. 2. 10. 17. 5. 0. 6. 1. 12. 0. 1. 0. 8. 1. 7. 4.
      5. 0. 0. 0. 1. 0. 1. 0. 15. 0. 0. 1. 2. 0. 2. 1. 1444. 31. 49. 55.
      7. 0. 6. 13. 41. 0. 3. 3. 30. 0. 52. 18. 1259. 1. 19. 11. 3. 0. 6.
      0. 835. 0. 18. 15. 185. 0. 133. 21. 1442. 1167. 96. 2186. 12. 13.
      48. 1081. 49. 23. 2. 48. 40. 65. 102. 1083. 22. 3. 0. 2. 0. 1. 2.
      4. 27. 5. 1. 17. 16. 2. 19. 122. 59. 24. 3. 30. 2. 0. 1. 12. 2. 1.
      0. 3. 3. 0. 6. 7. 24. 11. 0. 10. 0. 0. 1. 5. 53. 35. 4. 82. 5. 4.
      10. 133. 1403. 940. 49. 750. 4. 1. 34. 186. 32. 17. 1. 5. 10. 6.
      59. 150. 31. 2. 1. 0. 1. 0. 0. 3. 56. 11. 2. 9. 8. 0. 22. 8. 4649.
      1330. 110. 808. 6. 2. 58. 174. 88. 11. 6. 13. 43. 19. 260. 270.
      1880. 147. 24. 96. 2. 0. 24. 19. 825. 74. 13. 106. 127. 11. 237.
      177.</_>
    <_>
      19109. 699. 1804. 1325. 408. 5. 2023. 1715. 1637. 24. 77. 38.
      1637. 23. 6999. 3118. 610. 2. 19. 3. 0. 0. 22. 5. 1230. 5. 39. 23.
      1134. 3. 1883. 227. 1460. 14. 42. 30. 22. 0. 52. 23. 96. 0. 5. 1.
      39. 2. 121. 20. 1066. 12. 24. 7. 11. 1. 51. 5. 2342. 3. 52. 27.
      785. 2. 848. 122. 308. 4. 13. 16. 8. 0. 5. 3. 12. 0. 0. 0. 8. 0.
      9. 2. 6. 1. 0. 0. 0. 0. 0. 0. 16. 0. 0. 0. 0. 0. 2. 1. 1421. 25.
      56. 62. 5. 1. 9. 10. 49. 0. 0. 2. 43. 0. 73. 19. 1143. 3. 26. 9.
      5. 0. 13. 0. 720. 2. 9. 9. 153. 1. 151. 15. 1557. 1159. 103. 2208.
      16. 14. 53. 1045. 43. 18. 4. 41. 40. 63. 114. 1044. 21. 9. 1. 4.
      0. 0. 1. 1. 25. 6. 0. 20. 12. 7. 12. 113. 64. 25. 2. 38. 0. 0. 2.
      6. 4. 2. 0. 3. 1. 4. 3. 8. 31. 21. 1. 13. 0. 0. 1. 12. 31. 24. 1.
      73. 9. 8. 13. 106. 1437. 1092. 38. 732. 7. 1. 46. 171. 41. 14. 0.
      15. 11. 5. 70. 147. 29. 4. 2. 1. 0. 0. 1. 1. 57. 6. 3. 6. 8. 0.
      20. 13. 4836. 1504. 139. 759. 5. 3. 76. 181. 88. 16. 5. 10. 46.
      14. 333. 310. 1839. 142. 14. 84. 4. 2. 18. 14. 722. 79. 19. 91.
      124. 14. 261. 179.</_>
    <_>
      19052. 639. 1830. 1312. 373. 6. 2138. 1690. 1645. 25. 68. 40.
      1638. 25. 7510. 3152. 616. 8. 27. 4. 2. 0. 28. 5. 1132. 6. 34. 21.
      1113. 2. 1908. 211. 1446. 24. 67. 28. 12. 0. 45. 17. 93. 0. 2. 3.
      46. 0. 108. 17. 1021. 3. 18. 5. 19. 0. 50. 6. 2221. 6. 43. 13.
      787. 2. 875. 101. 343. 6. 10. 12. 9. 1. 6. 6. 20. 0. 0. 0. 2. 0.
      8. 7. 3. 0. 0. 0. 1. 0. 1. 0. 9. 0. 1. 0. 0. 0. 4. 1. 1381. 31.
      48. 52. 7. 1. 10. 9. 38. 0. 2. 5. 30. 5. 64. 22. 1138. 4. 20. 8.
      1. 0. 12. 3. 732. 0. 10. 11. 159. 0. 143. 12. 1484. 1174. 98.
      2305. 17. 13. 42. 986. 39. 31. 1. 60. 38. 62. 101. 1061. 21. 7. 2.
      10. 0. 0. 1. 2. 22. 2. 1. 29. 20. 6. 17. 138. 73. 19. 3. 43. 1. 1.
      3. 20. 1. 2. 0. 3. 0. 2. 4. 15. 21. 13. 3. 12. 0. 0. 0. 10. 37.
      24. 5. 80. 8. 8. 9. 98. 1451. 1057. 35. 762. 6. 2. 32. 169. 37.
      13. 2. 11. 4. 3. 57. 142. 23. 5. 1. 1. 0. 0. 3. 1. 62. 3. 2. 9.
      10. 0. 15. 8. 4778. 1509. 119. 856. 14. 2. 62. 163. 71. 11. 9. 24.
      51. 9. 287. 276. 1759. 156. 18. 94. 2. 1. 22. 16. 768. 75. 9. 79.
      114. 10. 236. 168.</_>
    <_>
      18129. 710. 1807. 1291. 387. 4. 2092. 1801. 1755. 26. 81. 44.
      1751. 24. 7671. 3111. 632. 9. 17. 4. 6. 0. 32. 4. 1161. 10. 37.
      19. 1166. 2. 1969. 223. 1418. 12. 46. 29. 11. 0. 54. 15. 101. 0.
      3. 1. 44. 0. 130. 14. 1049. 6. 20. 8. 13. 0. 40. 8. 2150. 5. 50.
      19. 767. 1. 881. 115. 327. 5. 12. 10. 4. 0. 11. 2. 15. 0. 0. 0. 4.
      0. 10. 6. 10. 0. 0. 0. 0. 0. 0. 0. 10. 0. 0. 0. 1. 0. 1. 2. 1361.
      17. 43. 54. 6. 0. 11. 10. 44. 1. 1. 4. 34. 0. 73. 16. 1198. 3. 18.
      8. 0. 0. 6. 0. 759. 2. 9. 6. 169. 3. 160. 10. 1480. 1146. 124.
      2183. 14. 15. 51. 1036. 34. 22. 2. 50. 40. 58. 104. 1114. 16. 15.
      1. 7. 0. 0. 1. 2. 26. 7. 1. 26. 15. 10. 10. 116. 74. 30. 4. 43. 0.
      0. 3. 12. 2. 0. 0. 5. 1. 2. 1. 13. 35. 17. 0. 16. 0. 1. 1. 4. 43.
      22. 2. 82. 6. 10. 11. 115. 1513. 1187. 45. 756. 2. 4. 46. 223. 33.
      11. 1. 8. 6. 3. 55. 151. 21. 6. 0. 1. 2. 0. 2. 2. 55. 5. 1. 9. 9.
      0. 18. 13. 4715. 1598. 115. 856. 7. 2. 70. 177. 83. 12. 2. 17. 51.
      15. 316. 265. 1707. 163. 16. 98. 3. 1. 14. 8. 736. 77. 22. 99.
      142. 14. 256. 181.</_>
    <_>
      18210. 653. 1880. 1323. 417. 6. 2176. 1741. 1725. 20. 85. 37.
      1766. 33. 7382. 3106. 641. 6. 13. 6. 6. 0. 20. 5. 1166. 9. 25. 18.
      1180. 4. 1953. 242. 1330. 12. 55. 20. 12. 0. 48. 23. 92. 0. 9. 1.
      42. 1. 125. 18. 1020. 6. 19. 1. 15. 0. 67. 6. 2304. 5. 43. 18.
      796. 2. 879. 107. 326. 6. 13. 14. 9. 0. 6. 0. 11. 0. 0. 2. 4. 0.
      6. 5. 4. 0. 0. 0. 0. 0. 0. 0. 18. 0. 0. 1. 2. 0. 3. 1. 1356. 19.
      58. 59. 4. 1. 10. 15. 36. 1. 2. 2. 31. 2. 69. 22. 1026. 3. 11. 5.
      2. 0. 11. 1. 724. 2. 11. 12. 163. 0. 151. 10. 1519. 1206. 82.
      2207. 11. 18. 39. 1009. 51. 34. 2. 62. 34. 57. 113. 1104. 16. 8.
      0. 8. 1. 0. 0. 3. 18. 6. 4. 24. 22. 8. 17. 150. 51. 26. 3. 47. 0.
      0. 1. 12. 2. 2. 1. 5. 1. 4. 2. 15. 32. 14. 1. 21. 0. 0. 1. 8. 48.
      16. 2. 65. 5. 4. 5. 128. 1578. 1128. 39. 840. 7. 0. 33. 175. 37.
      9. 0. 6. 4. 3. 63. 144. 24. 3. 1. 2. 1. 0. 0. 1. 63. 6. 0. 1. 8.
      0. 18. 10. 4777. 1555. 114. 850. 5. 2. 81. 171. 75. 12. 6. 14. 51.
      11. 289. 279. 1814. 173. 27. 101. 3. 0. 20. 9. 823. 77. 9. 113.
      118. 8. 244. 178.</_>
    <_>
      17056. 706. 1708. 1406. 444. 7. 2144. 1825. 1732. 20. 83. 54.
      1785. 36. 6640. 3016. 611. 8. 17. 10. 8. 0. 26. 5. 1276. 9. 37.
      25. 1204. 2. 1727. 226. 1426. 16. 69. 36. 22. 0. 91. 41. 77. 0. 4.
      0. 39. 0. 129. 26. 1121. 8. 33. 8. 18. 0. 64. 11. 2346. 10. 68.
      32. 821. 1. 927. 128. 390. 3. 31. 24. 7. 0. 6. 6. 29. 0. 1. 0. 7.
      0. 8. 6. 5. 0. 1. 0. 0. 0. 0. 0. 16. 0. 1. 1. 3. 0. 1. 3. 1511.
      17. 87. 66. 4. 0. 15. 15. 40. 1. 2. 4. 27. 2. 69. 27. 1304. 1. 30.
      8. 2. 0. 16. 1. 909. 4. 14. 5. 130. 2. 170. 10. 1605. 1255. 82.
      2318. 16. 25. 57. 1056. 60. 36. 5. 64. 51. 80. 89. 1287. 19. 4. 0.
      11. 0. 1. 1. 1. 25. 9. 3. 30. 16. 14. 12. 159. 63. 32. 4. 70. 1.
      0. 4. 12. 0. 1. 0. 1. 1. 2. 8. 23. 39. 29. 3. 20. 0. 1. 1. 13. 53.
      30. 5. 76. 6. 14. 23. 145. 1549. 1133. 37. 806. 8. 4. 32. 174. 39.
      12. 2. 15. 11. 10. 39. 183. 38. 7. 1. 6. 0. 0. 1. 4. 65. 18. 5.
      13. 10. 2. 16. 13. 4533. 1408. 106. 922. 2. 4. 62. 176. 78. 8. 3.
      15. 40. 12. 243. 263. 1938. 164. 28. 150. 4. 0. 21. 11. 881. 108.
      11. 141. 110. 13. 255. 247.</_>
    <_>
      18526. 714. 1813. 1394. 485. 7. 2035. 1882. 1780. 34. 88. 40.
      1638. 35. 6404. 3088. 578. 7. 20. 10. 4. 0. 27. 3. 1220. 5. 32.
      18. 1092. 2. 1581. 216. 1461. 21. 73. 26. 21. 0. 59. 24. 85. 0. 2.
      3. 41. 0. 101. 18. 1150. 6. 33. 3. 13. 0. 58. 12. 2440. 4. 58. 39.
      810. 0. 827. 120. 390. 6. 14. 20. 6. 0. 8. 4. 18. 0. 0. 2. 4. 0.
      5. 10. 12. 0. 0. 0. 0. 0. 0. 0. 18. 0. 1. 0. 1. 0. 6. 1. 1397. 24.
      64. 53. 8. 0. 13. 13. 37. 0. 6. 3. 25. 1. 54. 25. 1358. 2. 20. 5.
      2. 0. 6. 1. 855. 1. 13. 9. 141. 0. 125. 12. 1607. 1187. 98. 2342.
      21. 22. 49. 1081. 49. 36. 3. 60. 43. 61. 93. 1167. 28. 3. 0. 9. 0.
      0. 0. 1. 34. 4. 2. 25. 15. 8. 19. 145. 86. 33. 6. 53. 1. 1. 2. 11.
      1. 0. 0. 5. 2. 1. 0. 18. 24. 19. 0. 18. 0. 0. 5. 14. 45. 30. 4.
      105. 6. 12. 18. 149. 1579. 1206. 41. 763. 5. 5. 41. 198. 44. 16.
      0. 2. 9. 8. 41. 172. 15. 3. 0. 5. 0. 0. 0. 0. 57. 7. 2. 11. 10. 0.
      20. 12. 4357. 1479. 108. 838. 7. 3. 60. 151. 64. 15. 7. 18. 47. 7.
      272. 263. 1846. 169. 21. 109. 2. 1. 16. 22. 838. 92. 19. 125. 107.
      6. 232. 209.</_>
    <_>
      19438. 592. 1728. 1362. 417. 4. 2131. 1859. 1677. 21. 80. 38.
      1685. 28. 6688. 3215. 538. 5. 12. 4. 4. 0. 30. 5. 1126. 4. 27. 20.
      1009. 3. 1629. 214. 1425. 12. 71. 26. 20. 0. 54. 21. 86. 0. 3. 0.
      30. 0. 123. 24. 1099. 4. 26. 6. 13. 0. 69. 8. 2355. 5. 57. 30.
      662. 1. 781. 105. 333. 5. 20. 23. 7. 0. 9. 3. 20. 0. 1. 1. 2. 0.
      6. 3. 5. 0. 0. 0. 0. 0. 2. 0. 17. 0. 0. 0. 4. 0. 6. 4. 1425. 25.
      50. 64. 6. 2. 21. 10. 52. 1. 3. 2. 28. 0. 62. 24. 1196. 1. 22. 3.
      0. 0. 15. 0. 788. 3. 13. 8. 145. 2. 119. 22. 1636. 1269. 80. 2546.
      14. 18. 38. 983. 47. 26. 2. 60. 43. 71. 95. 1187. 19. 4. 0. 7. 0.
      0. 2. 2. 21. 6. 2. 22. 14. 11. 17. 131. 76. 23. 4. 45. 1. 0. 1.
      12. 0. 1. 0. 2. 1. 2. 2. 16. 30. 19. 0. 23. 1. 3. 2. 6. 44. 27. 2.
      95. 9. 8. 11. 136. 1495. 1090. 53. 822. 3. 3. 29. 167. 43. 15. 1.
      9. 8. 7. 41. 140. 36. 2. 1. 0. 0. 0. 0. 1. 74. 7. 4. 9. 9. 0. 16.
      14. 4422. 1353. 117. 821. 8. 3. 72. 158. 59. 12. 6. 13. 45. 19.
      224. 258. 1860. 186. 25. 100. 1. 0. 22. 10. 800. 80. 15. 114. 117.
      12. 264. 186.</_>
    <_>
      20265. 592. 1883. 1357. 435. 7. 2077. 1894. 1750. 23. 92. 34.
      1605. 29. 6476. 3177. 564. 7. 17. 7. 4. 1. 25. 3. 1142. 3. 39. 20.
      1009. 4. 1437. 208. 1524. 14. 66. 24. 17. 0. 57. 36. 76. 1. 6. 1.
      38. 2. 131. 30. 1054. 4. 36. 5. 16. 0. 64. 6. 2191. 6. 47. 21.
      710. 2. 833. 118. 384. 4. 16. 15. 8. 0. 11. 3. 11. 0. 4. 0. 7. 0.
      12. 5. 4. 0. 0. 0. 0. 0. 0. 0. 18. 1. 1. 0. 2. 0. 3. 0. 1463. 20.
      67. 62. 7. 0. 19. 19. 24. 1. 1. 3. 21. 1. 62. 15. 1319. 5. 23. 18.
      2. 0. 15. 1. 827. 6. 7. 9. 120. 0. 165. 9. 1642. 1152. 94. 2381.
      11. 20. 48. 1037. 38. 25. 1. 51. 24. 65. 95. 1103. 20. 5. 1. 5. 0.
      1. 0. 3. 23. 11. 1. 21. 8. 3. 16. 105. 62. 35. 6. 47. 1. 1. 2. 5.
      2. 0. 0. 2. 1. 2. 8. 25. 43. 14. 1. 18. 1. 0. 3. 11. 63. 32. 5.
      100. 14. 7. 5. 136. 1526. 1066. 52. 721. 3. 2. 40. 143. 31. 13. 2.
      4. 4. 8. 49. 127. 31. 5. 1. 0. 1. 0. 1. 0. 68. 11. 2. 7. 10. 0.
      11. 11. 4352. 1355. 118. 793. 5. 1. 50. 184. 68. 5. 6. 13. 28. 18.
      184. 238. 1789. 119. 27. 111. 5. 1. 23. 16. 757. 118. 14. 117.
      108. 6. 199. 166.</_>
    <_>
      19659. 554. 1911. 1434. 432. 4. 1981. 1932. 1694. 21. 81. 46.
      1580. 46. 6189. 2988. 544. 6. 21. 5. 4. 0. 24. 5. 1261. 6. 25. 17.
      1022. 2. 1395. 226. 1469. 16. 62. 27. 20. 1. 59. 31. 96. 2. 3. 1.
      40. 0. 89. 30. 1159. 7. 46. 4. 16. 0. 77. 13. 2485. 6. 61. 24.
      774. 3. 854. 110. 445. 3. 16. 16. 1. 0. 10. 3. 23. 0. 1. 2. 8. 0.
      5. 4. 4. 0. 0. 0. 0. 0. 0. 0. 16. 1. 0. 0. 2. 0. 2. 2. 1516. 13.
      64. 82. 6. 0. 22. 19. 45. 4. 3. 2. 28. 1. 43. 18. 1294. 2. 21. 8.
      5. 0. 15. 1. 852. 0. 14. 7. 148. 2. 135. 19. 1616. 1250. 104.
      2687. 23. 20. 31. 1046. 44. 40. 4. 56. 43. 60. 103. 1102. 30. 5.
      1. 7. 0. 0. 1. 2. 40. 12. 0. 28. 14. 10. 9. 117. 81. 25. 6. 55. 2.
      0. 2. 11. 2. 1. 1. 2. 3. 4. 5. 25. 46. 18. 2. 20. 1. 1. 3. 12. 61.
      31. 3. 90. 11. 11. 11. 122. 1456. 1058. 41. 726. 7. 5. 29. 181.
      40. 15. 3. 15. 10. 10. 44. 144. 30. 2. 0. 0. 0. 0. 2. 1. 73. 10.
      2. 10. 9. 1. 18. 16. 4164. 1184. 131. 825. 9. 6. 66. 157. 78. 15.
      2. 8. 38. 14. 196. 228. 1828. 171. 20. 130. 3. 0. 22. 19. 874. 95.
      20. 131. 122. 9. 200. 199.</_>
    <_>
      20163. 591. 1922. 1419. 453. 6. 1947. 1856. 1769. 24. 90. 41.
      1582. 40. 5749. 2886. 534. 7. 17. 6. 5. 0. 31. 3. 1245. 4. 34. 18.
      1112. 0. 1523. 219. 1473. 18. 65. 40. 11. 0. 57. 28. 90. 1. 5. 6.
      35. 0. 105. 22. 1115. 2. 39. 5. 21. 0. 71. 11. 2529. 9. 41. 13.
      850. 0. 805. 112. 403. 4. 23. 15. 4. 0. 8. 2. 17. 1. 0. 1. 5. 1.
      8. 6. 4. 0. 0. 0. 1. 0. 0. 0. 13. 0. 1. 1. 2. 0. 0. 2. 1381. 22.
      48. 68. 10. 1. 8. 13. 43. 0. 2. 2. 30. 1. 54. 24. 1324. 5. 28. 3.
      5. 0. 10. 1. 911. 3. 10. 9. 153. 1. 153. 8. 1616. 1277. 94. 2730.
      8. 21. 40. 1117. 52. 34. 1. 63. 42. 56. 81. 1060. 17. 6. 1. 8. 1.
      0. 1. 2. 32. 7. 2. 32. 23. 9. 9. 136. 79. 27. 3. 63. 1. 0. 3. 12.
      3. 2. 1. 4. 2. 2. 5. 17. 25. 17. 2. 27. 0. 0. 0. 4. 48. 27. 1. 69.
      12. 9. 14. 128. 1438. 1110. 42. 789. 2. 0. 39. 159. 35. 16. 4. 14.
      3. 5. 54. 116. 32. 3. 0. 0. 0. 0. 1. 0. 58. 6. 3. 12. 8. 0. 10.
      19. 4156. 1214. 124. 792. 7. 4. 67. 181. 60. 13. 2. 12. 39. 10.
      179. 252. 1794. 189. 24. 113. 1. 2. 12. 19. 797. 96. 22. 120. 119.
      13. 233. 191.</_>
    <_>
      19626. 595. 1898. 1426. 483. 2. 1916. 1853. 1773. 26. 95. 38.
      1568. 23. 6104. 2893. 507. 12. 20. 4. 6. 0. 24. 4. 1335. 5. 36.
      19. 1102. 3. 1463. 219. 1500. 16. 58. 32. 14. 0. 53. 30. 80. 0. 3.
      0. 37. 0. 91. 20. 1136. 4. 33. 4. 14. 1. 54. 11. 2682. 3. 60. 34.
      828. 2. 890. 148. 390. 5. 17. 17. 3. 0. 5. 6. 20. 0. 2. 0. 6. 0.
      5. 3. 6. 0. 1. 0. 0. 0. 0. 0. 14. 0. 0. 0. 0. 0. 3. 0. 1417. 19.
      58. 79. 4. 0. 14. 15. 30. 1. 3. 4. 23. 0. 49. 24. 1317. 4. 18. 6.
      3. 0. 15. 1. 871. 1. 8. 7. 144. 0. 125. 8. 1693. 1177. 99. 2776.
      13. 16. 53. 1154. 57. 26. 4. 56. 41. 53. 75. 1102. 23. 5. 1. 5. 0.
      0. 2. 2. 16. 4. 1. 27. 12. 5. 17. 117. 89. 25. 6. 53. 0. 0. 2. 11.
      2. 1. 1. 2. 1. 2. 5. 24. 31. 21. 1. 28. 1. 2. 3. 10. 46. 19. 4.
      113. 11. 9. 11. 141. 1518. 985. 41. 736. 5. 4. 31. 154. 39. 11. 0.
      6. 7. 6. 39. 139. 14. 2. 0. 1. 1. 0. 1. 0. 51. 7. 2. 8. 8. 0. 10.
      20. 4261. 1304. 94. 747. 8. 3. 58. 153. 84. 10. 5. 17. 40. 9. 200.
      221. 1839. 162. 20. 105. 1. 2. 18. 22. 788. 102. 29. 129. 117. 7.
      199. 154.</_>
    <_>
      18969. 569. 1892. 1442. 487. 7. 2005. 1867. 1786. 21. 117. 42.
      1719. 26. 6010. 2842. 569. 5. 22. 9. 9. 0. 23. 3. 1327. 9. 34. 23.
      1253. 5. 1693. 251. 1496. 13. 54. 36. 20. 0. 61. 20. 88. 0. 3. 6.
      43. 0. 98. 22. 1091. 1. 29. 9. 17. 0. 49. 9. 2511. 9. 66. 29. 916.
      4. 869. 129. 379. 6. 16. 14. 8. 0. 9. 1. 11. 0. 2. 1. 2. 0. 6. 4.
      2. 0. 0. 0. 1. 0. 1. 0. 25. 0. 0. 1. 2. 0. 1. 3. 1555. 15. 51. 60.
      5. 0. 4. 8. 31. 2. 3. 0. 34. 1. 48. 21. 1396. 4. 20. 4. 4. 0. 13.
      1. 836. 1. 10. 11. 159. 2. 134. 16. 1584. 1235. 97. 2547. 13. 12.
      42. 1107. 47. 29. 2. 55. 44. 53. 77. 1094. 21. 5. 0. 8. 0. 0. 2.
      0. 23. 5. 4. 34. 9. 9. 11. 117. 75. 30. 4. 64. 0. 0. 3. 10. 5. 0.
      0. 3. 1. 3. 1. 17. 35. 8. 0. 28. 0. 0. 3. 11. 42. 25. 9. 88. 9.
      14. 6. 139. 1390. 978. 36. 785. 4. 0. 39. 171. 39. 12. 0. 7. 10.
      6. 46. 103. 25. 3. 1. 0. 0. 0. 0. 3. 52. 6. 2. 7. 8. 0. 8. 8.
      4597. 1213. 103. 773. 6. 1. 55. 138. 75. 9. 3. 13. 41. 15. 170.
      225. 2098. 161. 20. 111. 4. 0. 10. 16. 825. 79. 14. 115. 110. 6.
      212. 184.</_>
    <_>
      19288. 614. 1887. 1392. 469. 5. 1983. 1855. 1782. 25. 88. 29.
      1612. 29. 5810. 2699. 608. 7. 20. 5. 1. 0. 23. 4. 1279. 7. 30. 22.
      1111. 0. 1517. 199. 1607. 14. 69. 33. 16. 0. 69. 27. 95. 0. 3. 2.
      43. 0. 103. 24. 1215. 4. 32. 1. 16. 0. 56. 10. 2562. 5. 44. 27.
      870. 3. 889. 119. 443. 2. 16. 12. 3. 0. 8. 1. 23. 0. 0. 0. 5. 1.
      6. 3. 6. 0. 0. 0. 0. 0. 0. 0. 22. 0. 0. 0. 3. 0. 1. 0. 1510. 18.
      57. 53. 7. 0. 19. 16. 30. 1. 2. 0. 36. 2. 63. 26. 1443. 3. 30. 15.
      4. 0. 12. 0. 974. 3. 10. 10. 156. 0. 155. 14. 1531. 1159. 96.
      2632. 17. 19. 30. 1044. 39. 30. 2. 62. 48. 62. 72. 1092. 19. 4. 1.
      6. 1. 0. 0. 2. 37. 3. 0. 26. 12. 16. 11. 104. 72. 31. 2. 47. 0. 1.
      2. 7. 2. 1. 1. 2. 2. 2. 3. 16. 32. 12. 1. 25. 0. 1. 4. 12. 50. 22.
      6. 101. 10. 9. 8. 128. 1408. 931. 33. 738. 6. 0. 36. 172. 48. 15.
      1. 7. 7. 7. 42. 96. 33. 5. 0. 0. 1. 0. 2. 1. 59. 11. 3. 3. 5. 0.
      18. 19. 4511. 1238. 118. 778. 2. 2. 53. 184. 62. 8. 4. 10. 34. 21.
      215. 253. 2079. 182. 18. 113. 4. 2. 17. 10. 908. 109. 22. 129.
      109. 12. 265. 198.</_>
    <_>
      18229. 651. 1934. 1509. 488. 6. 2021. 2054. 1722. 27. 96. 38.
      1710. 27. 5500. 2671. 639. 15. 21. 3. 4. 1. 28. 3. 1339. 5. 43.
      19. 1221. 1. 1516. 229. 1588. 18. 57. 18. 20. 0. 59. 24. 88. 1. 5.
      1. 50. 1. 110. 23. 1280. 8. 27. 8. 15. 1. 72. 14. 2603. 7. 59. 25.
      950. 5. 884. 115. 418. 5. 11. 17. 5. 2. 6. 0. 9. 0. 0. 0. 9. 0. 8.
      3. 11. 0. 0. 0. 1. 0. 0. 0. 20. 0. 0. 1. 2. 0. 3. 0. 1629. 28. 62.
      72. 9. 1. 10. 12. 42. 0. 1. 1. 34. 3. 55. 20. 1519. 5. 25. 11. 3.
      0. 10. 1. 1043. 3. 9. 13. 183. 1. 182. 14. 1415. 1193. 101. 2364.
      14. 19. 52. 1234. 41. 39. 1. 51. 46. 62. 80. 1186. 20. 10. 2. 10.
      0. 0. 0. 3. 39. 9. 2. 23. 10. 6. 12. 116. 86. 21. 4. 64. 0. 0. 2.
      13. 3. 1. 1. 6. 3. 2. 7. 16. 36. 21. 1. 28. 2. 1. 2. 12. 49. 26.
      4. 126. 6. 9. 5. 146. 1357. 924. 41. 810. 10. 3. 28. 223. 41. 12.
      1. 11. 2. 2. 39. 135. 27. 6. 0. 2. 0. 0. 3. 0. 55. 7. 2. 11. 9. 0.
      13. 18. 4358. 1239. 119. 772. 9. 1. 57. 173. 81. 7. 5. 10. 44. 18.
      274. 259. 2053. 194. 13. 99. 2. 2. 21. 19. 932. 91. 16. 141. 146.
      9. 263. 228.</_>
    <_>
      18292. 592. 1992. 1595. 438. 7. 2066. 2243. 1822. 21. 102. 36.
      1770. 30. 5317. 2771. 597. 4. 23. 4. 3. 0. 27. 3. 1400. 2. 37. 31.
      1353. 5. 1579. 219. 1481. 22. 74. 33. 16. 0. 61. 30. 84. 1. 5. 0.
      45. 0. 109. 21. 1331. 5. 33. 6. 16. 0. 65. 9. 2831. 4. 64. 28.
      974. 5. 910. 140. 395. 6. 13. 23. 4. 0. 4. 5. 12. 1. 0. 0. 1. 0.
      8. 3. 6. 0. 1. 1. 0. 0. 0. 0. 23. 0. 0. 1. 0. 0. 3. 1. 1459. 23.
      51. 54. 4. 0. 18. 12. 43. 0. 3. 2. 28. 2. 50. 17. 1563. 2. 21. 12.
      3. 0. 11. 0. 1055. 6. 21. 14. 227. 1. 168. 19. 1441. 1208. 90.
      2816. 15. 15. 35. 1406. 63. 22. 1. 65. 34. 50. 80. 1194. 16. 9. 1.
      7. 0. 0. 0. 2. 26. 8. 1. 25. 13. 15. 12. 106. 58. 20. 6. 67. 1. 0.
      1. 14. 3. 1. 0. 3. 4. 2. 10. 14. 34. 19. 1. 35. 0. 1. 2. 8. 44.
      29. 3. 98. 9. 13. 13. 151. 1288. 933. 35. 741. 3. 7. 42. 170. 29.
      18. 1. 11. 12. 7. 40. 130. 23. 2. 0. 2. 1. 0. 0. 0. 56. 9. 4. 10.
      10. 0. 14. 17. 3873. 1082. 108. 737. 3. 3. 65. 145. 77. 10. 2. 15.
      39. 15. 175. 235. 1897. 161. 27. 108. 4. 1. 26. 8. 876. 82. 18.
      148. 148. 15. 207. 199.</_>
    <_>
      18398. 531. 1820. 1526. 506. 6. 2018. 2248. 1739. 23. 86. 45.
      1710. 24. 5431. 2753. 538. 5. 19. 6. 5. 0. 29. 1. 1486. 6. 41. 34.
      1322. 3. 1634. 226. 1540. 16. 81. 37. 15. 0. 60. 31. 106. 0. 1. 2.
      50. 1. 84. 22. 1296. 3. 35. 6. 21. 0. 84. 7. 2819. 7. 73. 40.
      1066. 2. 939. 141. 408. 3. 17. 22. 7. 0. 3. 4. 23. 1. 1. 1. 5. 0.
      4. 5. 10. 0. 0. 0. 0. 0. 0. 0. 28. 0. 1. 0. 0. 0. 8. 3. 1436. 23.
      50. 68. 7. 0. 12. 9. 36. 1. 2. 3. 28. 2. 51. 23. 1573. 1. 32. 11.
      4. 0. 10. 0. 1136. 1. 13. 12. 205. 2. 155. 20. 1415. 1144. 71.
      2746. 17. 20. 36. 1556. 41. 36. 2. 59. 45. 72. 72. 1240. 19. 6. 1.
      10. 0. 0. 2. 2. 33. 6. 0. 34. 16. 8. 11. 149. 82. 27. 4. 63. 1. 1.
      4. 13. 2. 2. 0. 4. 2. 2. 6. 14. 30. 19. 1. 32. 0. 0. 2. 14. 53.
      22. 3. 152. 7. 8. 11. 190. 1239. 962. 27. 843. 5. 1. 29. 182. 38.
      12. 0. 13. 7. 7. 53. 110. 32. 2. 0. 2. 0. 0. 0. 0. 55. 10. 3. 10.
      10. 0. 21. 7. 3701. 1027. 88. 739. 6. 3. 41. 128. 73. 8. 5. 25.
      38. 8. 216. 229. 1758. 147. 18. 111. 2. 0. 16. 14. 926. 104. 9.
      135. 138. 19. 219. 193.</_>
    <_>
      16426. 590. 1717. 1533. 515. 8. 1930. 2353. 1723. 26. 104. 47.
      1752. 42. 5470. 2701. 628. 6. 29. 7. 3. 0. 34. 5. 1406. 6. 45. 16.
      1303. 5. 1606. 240. 1474. 16. 93. 41. 23. 0. 58. 37. 76. 1. 6. 1.
      38. 2. 107. 43. 1306. 4. 45. 7. 27. 1. 96. 14. 2774. 10. 69. 32.
      1111. 1. 1080. 182. 439. 6. 19. 22. 4. 0. 7. 7. 22. 0. 2. 1. 3. 0.
      10. 4. 7. 0. 0. 0. 0. 0. 0. 1. 24. 0. 0. 1. 5. 0. 2. 1. 1524. 26.
      72. 80. 5. 0. 18. 27. 40. 3. 2. 4. 34. 2. 56. 18. 1667. 6. 37. 9.
      2. 0. 14. 2. 1252. 4. 19. 21. 187. 2. 188. 25. 1448. 1168. 67.
      2596. 21. 18. 40. 1604. 66. 45. 5. 59. 46. 89. 102. 1354. 27. 8.
      1. 8. 0. 0. 2. 5. 50. 7. 0. 26. 21. 9. 8. 151. 70. 33. 4. 66. 1.
      0. 1. 22. 2. 3. 2. 3. 0. 3. 4. 15. 26. 22. 1. 29. 0. 3. 3. 17. 59.
      22. 8. 77. 6. 11. 12. 156. 1397. 1014. 40. 843. 8. 2. 17. 177. 46.
      15. 4. 6. 13. 10. 47. 157. 29. 1. 1. 1. 0. 0. 0. 2. 96. 6. 2. 10.
      7. 1. 21. 28. 3963. 1128. 100. 878. 8. 2. 48. 171. 76. 13. 4. 16.
      41. 9. 133. 224. 1856. 170. 24. 137. 3. 1. 21. 19. 1059. 101. 21.
      149. 147. 15. 224. 270.</_>
    <_>
      17733. 558. 1776. 1554. 534. 3. 1975. 2313. 1628. 25. 92. 49.
      1574. 31. 5093. 2673. 597. 5. 26. 6. 7. 1. 34. 6. 1341. 1. 37. 30.
      1358. 3. 1535. 237. 1514. 19. 81. 37. 19. 0. 52. 31. 73. 0. 4. 2.
      33. 1. 103. 30. 1352. 7. 47. 8. 21. 0. 65. 10. 2839. 11. 87. 36.
      999. 2. 908. 165. 467. 6. 23. 22. 3. 0. 4. 9. 21. 0. 2. 0. 3. 0.
      9. 4. 8. 0. 0. 0. 0. 0. 0. 0. 23. 0. 0. 0. 2. 0. 4. 1. 1444. 21.
      56. 64. 6. 0. 11. 12. 50. 1. 2. 2. 28. 2. 46. 17. 1672. 2. 25. 12.
      5. 0. 11. 1. 1254. 2. 14. 14. 188. 2. 171. 21. 1632. 1289. 80.
      3036. 14. 26. 41. 1476. 55. 30. 3. 59. 38. 69. 88. 1271. 18. 4. 1.
      10. 1. 0. 1. 5. 32. 7. 1. 34. 22. 4. 13. 137. 79. 22. 4. 68. 0. 0.
      1. 16. 4. 2. 1. 6. 1. 1. 6. 21. 30. 19. 1. 31. 0. 1. 1. 12. 63.
      26. 8. 118. 9. 5. 17. 185. 1356. 1067. 38. 893. 4. 3. 28. 191. 36.
      15. 4. 9. 5. 13. 55. 116. 32. 4. 1. 1. 1. 0. 0. 2. 63. 9. 4. 12.
      5. 2. 18. 18. 3761. 1175. 79. 751. 8. 2. 47. 165. 70. 16. 4. 14.
      38. 15. 188. 206. 1600. 174. 20. 109. 5. 2. 11. 11. 974. 122. 20.
      139. 154. 18. 200. 232.</_>
    <_>
      19268. 523. 2004. 1525. 551. 5. 2074. 2267. 1675. 28. 95. 37.
      1565. 44. 5224. 2672. 527. 6. 21. 4. 3. 0. 37. 5. 1288. 8. 38. 21.
      1196. 2. 1455. 217. 1761. 9. 97. 34. 15. 0. 52. 38. 78. 0. 3. 0.
      43. 0. 94. 30. 1357. 4. 43. 7. 10. 0. 76. 7. 2747. 11. 61. 23.
      872. 5. 880. 151. 448. 5. 15. 14. 6. 0. 5. 5. 12. 0. 4. 0. 5. 0.
      9. 4. 9. 0. 1. 2. 0. 0. 0. 0. 28. 0. 3. 1. 1. 0. 6. 1. 1556. 16.
      46. 71. 4. 0. 8. 13. 34. 0. 2. 1. 19. 0. 44. 16. 1560. 1. 24. 8.
      0. 0. 7. 0. 1110. 4. 15. 15. 159. 1. 181. 14. 1572. 1130. 95.
      2689. 16. 17. 36. 1262. 55. 27. 1. 62. 40. 87. 68. 1274. 24. 6. 1.
      8. 0. 0. 1. 2. 32. 7. 1. 21. 11. 9. 11. 143. 82. 22. 4. 68. 1. 0.
      2. 10. 2. 0. 0. 1. 0. 2. 5. 22. 25. 14. 0. 23. 0. 1. 3. 11. 64.
      32. 5. 116. 8. 7. 15. 183. 1358. 885. 33. 720. 4. 0. 33. 149. 28.
      19. 1. 11. 8. 9. 39. 109. 26. 2. 0. 2. 0. 0. 0. 1. 82. 4. 3. 12.
      11. 0. 15. 18. 3874. 1055. 79. 772. 7. 4. 39. 140. 70. 9. 2. 16.
      43. 15. 146. 213. 1754. 155. 16. 111. 2. 1. 13. 8. 952. 102. 18.
      149. 116. 14. 214. 215.</_>
    <_>
      19674. 545. 1840. 1421. 479. 8. 1936. 1967. 1723. 33. 97. 46.
      1592. 41. 5206. 2609. 551. 9. 20. 9. 4. 0. 33. 4. 1298. 4. 31. 26.
      1094. 5. 1452. 194. 1716. 17. 80. 44. 17. 0. 58. 26. 86. 1. 4. 1.
      35. 1. 93. 13. 1492. 4. 30. 9. 16. 0. 68. 9. 2842. 6. 66. 23. 834.
      0. 879. 134. 479. 0. 13. 26. 4. 0. 6. 4. 18. 0. 0. 0. 5. 0. 4. 8.
      9. 0. 0. 0. 1. 0. 0. 0. 22. 0. 0. 1. 3. 0. 3. 4. 1615. 25. 62. 67.
      7. 0. 10. 14. 46. 0. 3. 1. 29. 1. 46. 15. 1636. 3. 29. 12. 4. 0.
      8. 0. 1227. 1. 13. 14. 161. 0. 151. 24. 1554. 1118. 69. 2461. 14.
      15. 35. 1139. 44. 41. 1. 71. 34. 82. 100. 1197. 18. 3. 0. 9. 0. 0.
      2. 2. 46. 6. 2. 41. 21. 10. 15. 137. 92. 38. 3. 69. 0. 0. 2. 18.
      4. 0. 0. 2. 0. 1. 6. 22. 29. 22. 1. 29. 1. 2. 4. 16. 56. 31. 4.
      145. 12. 12. 12. 162. 1388. 868. 34. 667. 8. 2. 29. 119. 40. 15.
      0. 7. 16. 2. 46. 141. 27. 7. 0. 0. 0. 0. 1. 2. 82. 6. 2. 8. 11. 0.
      19. 12. 4031. 1145. 94. 793. 6. 0. 49. 129. 73. 10. 5. 21. 51. 8.
      161. 216. 1641. 167. 22. 161. 6. 1. 17. 13. 1090. 111. 15. 135.
      112. 10. 205. 220.</_>
    <_>
      19315. 609. 1840. 1436. 472. 7. 2082. 1791. 1707. 27. 89. 32.
      1728. 38. 5677. 2707. 632. 2. 19. 7. 8. 0. 30. 6. 1190. 6. 46. 23.
      1080. 2. 1496. 221. 1759. 11. 98. 31. 18. 0. 58. 18. 80. 0. 8. 1.
      33. 1. 113. 20. 1287. 5. 30. 9. 18. 0. 73. 15. 2381. 5. 94. 36.
      677. 3. 908. 172. 456. 6. 16. 22. 6. 0. 10. 7. 23. 1. 2. 1. 6. 0.
      6. 4. 16. 0. 0. 0. 0. 0. 1. 0. 15. 0. 1. 0. 3. 0. 6. 5. 1696. 26.
      48. 58. 11. 0. 10. 16. 41. 3. 3. 3. 31. 2. 60. 31. 1625. 2. 16. 6.
      2. 0. 9. 0. 1028. 7. 19. 12. 136. 0. 167. 20. 1584. 1087. 82.
      2476. 12. 29. 41. 1000. 71. 33. 3. 62. 36. 81. 92. 1133. 17. 3. 2.
      5. 0. 1. 2. 0. 30. 6. 1. 25. 20. 6. 13. 132. 72. 30. 5. 59. 0. 0.
      1. 11. 5. 0. 0. 0. 2. 2. 7. 19. 37. 22. 0. 29. 1. 0. 3. 10. 60.
      29. 1. 122. 10. 7. 16. 187. 1424. 926. 39. 666. 4. 2. 33. 123. 28.
      15. 1. 10. 12. 10. 47. 142. 24. 2. 1. 2. 0. 0. 1. 0. 84. 7. 3. 9.
      10. 0. 17. 18. 4355. 1106. 104. 765. 4. 1. 58. 140. 78. 6. 7. 10.
      45. 14. 242. 239. 1877. 154. 16. 131. 8. 0. 15. 17. 963. 114. 24.
      175. 121. 16. 241. 222.</_>
    <_>
      18346. 611. 1771. 1370. 482. 4. 2032. 1870. 1672. 28. 104. 56.
      1651. 41. 5598. 2779. 652. 5. 22. 6. 12. 0. 26. 6. 1301. 7. 36.
      27. 1082. 3. 1587. 253. 1773. 22. 91. 40. 21. 0. 87. 27. 97. 0. 4.
      2. 38. 0. 109. 30. 1448. 7. 40. 16. 16. 0. 85. 10. 2443. 3. 68.
      28. 871. 2. 868. 154. 494. 6. 26. 23. 8. 1. 6. 2. 17. 0. 0. 0. 3.
      0. 11. 4. 5. 0. 0. 1. 0. 0. 0. 0. 25. 0. 1. 1. 3. 0. 7. 1. 1720.
      30. 76. 76. 7. 0. 16. 16. 47. 0. 4. 2. 28. 2. 63. 25. 1604. 4. 40.
      8. 7. 0. 12. 0. 1112. 1. 18. 14. 186. 4. 165. 19. 1534. 1117. 77.
      2226. 20. 21. 39. 1101. 59. 49. 3. 55. 53. 65. 93. 1127. 28. 6. 0.
      5. 0. 1. 2. 1. 37. 13. 2. 24. 26. 11. 20. 132. 91. 32. 3. 65. 2.
      0. 4. 21. 7. 3. 0. 3. 1. 0. 2. 29. 42. 24. 0. 34. 0. 0. 0. 16. 62.
      29. 2. 128. 10. 8. 13. 162. 1444. 867. 30. 714. 4. 2. 28. 134. 63.
      25. 4. 10. 12. 10. 54. 137. 19. 3. 1. 0. 0. 0. 1. 2. 73. 9. 0. 13.
      8. 0. 16. 13. 4238. 1221. 101. 724. 10. 3. 66. 141. 84. 9. 10. 9.
      54. 18. 229. 258. 1972. 193. 17. 145. 4. 2. 22. 12. 1007. 120. 29.
      175. 136. 14. 266. 232.</_>
    <_>
      18920. 671. 1779. 1549. 727. 12. 1733. 1859. 1659. 35. 94. 58.
      1540. 43. 3930. 1712. 708. 17. 29. 9. 7. 0. 38. 8. 1338. 6. 42.
      34. 1096. 5. 1130. 229. 1643. 24. 98. 71. 26. 0. 68. 41. 96. 5. 3.
      3. 32. 1. 80. 29. 1464. 9. 77. 15. 29. 0. 105. 15. 2880. 12. 87.
      52. 935. 2. 881. 186. 669. 11. 27. 35. 14. 0. 6. 7. 28. 0. 1. 2.
      11. 0. 10. 5. 14. 0. 1. 0. 1. 0. 0. 0. 42. 0. 0. 0. 3. 0. 7. 5.
      1509. 36. 76. 96. 10. 0. 13. 14. 50. 0. 2. 4. 40. 5. 62. 29. 1555.
      5. 34. 18. 3. 0. 17. 2. 1380. 8. 18. 26. 226. 1. 147. 32. 1575.
      1276. 76. 3303. 29. 40. 53. 1518. 103. 55. 4. 96. 41. 89. 104.
      1187. 29. 9. 1. 13. 0. 1. 3. 6. 56. 9. 2. 55. 44. 16. 15. 208. 94.
      43. 6. 94. 1. 1. 4. 22. 2. 2. 1. 6. 2. 2. 9. 29. 32. 33. 4. 53. 3.
      4. 3. 22. 77. 39. 8. 256. 19. 30. 21. 300. 1368. 960. 36. 933. 7.
      4. 44. 183. 58. 33. 5. 19. 14. 10. 58. 182. 30. 5. 0. 2. 1. 0. 2.
      2. 99. 8. 4. 22. 22. 0. 27. 23. 3272. 965. 81. 800. 9. 5. 59. 165.
      110. 15. 2. 22. 44. 17. 220. 263. 1188. 202. 24. 169. 3. 0. 19.
      25. 1043. 159. 34. 278. 185. 25. 272. 371.</_>
    <_>
      18485. 691. 1862. 1692. 709. 12. 1869. 1887. 1692. 32. 95. 62.
      1464. 38. 3744. 1747. 646. 8. 33. 11. 11. 0. 23. 4. 1425. 9. 35.
      42. 1136. 7. 1095. 208. 1660. 32. 98. 62. 28. 0. 75. 47. 89. 3. 6.
      1. 34. 1. 89. 23. 1555. 7. 67. 14. 25. 0. 90. 18. 3252. 9. 109.
      47. 1008. 3. 924. 218. 641. 4. 22. 27. 9. 1. 7. 6. 29. 0. 0. 3.
      10. 0. 12. 4. 7. 0. 2. 1. 0. 0. 0. 0. 26. 0. 1. 3. 2. 0. 4. 2.
      1569. 39. 75. 81. 7. 1. 16. 16. 60. 1. 3. 1. 33. 3. 53. 25. 1498.
      4. 41. 13. 4. 0. 16. 0. 1375. 7. 14. 13. 186. 2. 160. 21. 1444.
      1288. 121. 3408. 41. 32. 47. 1659. 78. 51. 2. 106. 60. 84. 108.
      1183. 28. 9. 2. 9. 0. 0. 1. 2. 68. 15. 6. 62. 23. 13. 22. 183. 65.
      48. 3. 79. 1. 1. 2. 11. 1. 2. 0. 9. 3. 0. 4. 31. 37. 40. 3. 28. 0.
      0. 3. 23. 87. 46. 6. 201. 20. 17. 27. 280. 1233. 960. 50. 981. 10.
      4. 42. 231. 74. 30. 2. 20. 25. 15. 56. 160. 43. 6. 0. 6. 0. 0. 2.
      4. 84. 17. 3. 11. 13. 0. 17. 31. 3108. 846. 89. 881. 11. 5. 51.
      170. 102. 22. 5. 30. 48. 17. 212. 262. 1281. 133. 19. 162. 6. 1.
      24. 21. 1121. 168. 36. 263. 183. 24. 253. 303.</_>
    <_>
      18414. 783. 1778. 1643. 824. 15. 1629. 1555. 1621. 48. 110. 58.
      1386. 46. 2784. 1311. 818. 11. 37. 14. 16. 0. 44. 6. 1434. 18. 43.
      40. 1114. 4. 948. 250. 1790. 33. 125. 83. 44. 0. 79. 51. 102. 2.
      5. 4. 49. 2. 104. 35. 1671. 14. 83. 21. 50. 0. 123. 16. 3241. 12.
      108. 66. 983. 4. 949. 206. 813. 13. 34. 41. 10. 1. 11. 10. 34. 1.
      3. 2. 6. 0. 19. 6. 21. 1. 1. 0. 1. 0. 2. 0. 40. 0. 3. 3. 7. 1. 3.
      2. 1529. 41. 79. 125. 19. 0. 12. 18. 56. 3. 2. 6. 43. 6. 80. 35.
      1553. 4. 50. 31. 15. 0. 18. 0. 1477. 7. 36. 31. 225. 0. 210. 38.
      1512. 1332. 86. 3347. 42. 35. 50. 1467. 113. 61. 4. 111. 81. 124.
      99. 1175. 29. 9. 4. 11. 1. 0. 3. 6. 76. 16. 5. 70. 39. 17. 26.
      238. 80. 35. 3. 118. 2. 1. 2. 31. 4. 3. 0. 9. 4. 7. 12. 37. 49.
      38. 5. 72. 0. 5. 4. 25. 117. 60. 6. 328. 23. 36. 25. 352. 1313.
      922. 49. 953. 9. 2. 48. 234. 73. 40. 4. 23. 22. 20. 62. 193. 41.
      6. 0. 6. 2. 0. 2. 4. 131. 14. 4. 26. 19. 0. 32. 31. 2799. 856.
      120. 875. 12. 7. 71. 197. 110. 27. 6. 37. 69. 30. 228. 311. 1140.
      163. 28. 183. 7. 1. 34. 26. 1129. 209. 38. 341. 194. 32. 369. 437.</_>
    <_>
      18837. 901. 1723. 1615. 789. 12. 1523. 1325. 1458. 50. 72. 58.
      1235. 53. 2624. 1108. 855. 19. 39. 11. 21. 0. 41. 5. 1380. 16. 45.
      26. 942. 3. 860. 187. 1718. 34. 147. 89. 54. 0. 80. 45. 92. 2. 3.
      2. 54. 2. 115. 34. 1526. 15. 68. 16. 41. 1. 134. 17. 2983. 20. 92.
      58. 1015. 6. 878. 182. 844. 21. 31. 44. 17. 1. 17. 8. 39. 1. 4. 2.
      12. 0. 19. 11. 22. 0. 1. 1. 1. 0. 2. 0. 46. 0. 1. 4. 5. 1. 3. 2.
      1521. 46. 80. 129. 13. 1. 20. 17. 54. 3. 5. 6. 56. 8. 91. 41.
      1463. 3. 44. 27. 15. 0. 25. 1. 1385. 11. 32. 30. 254. 6. 191. 50.
      1549. 1365. 110. 3414. 45. 40. 48. 1399. 124. 74. 3. 108. 75. 159.
      123. 1095. 35. 15. 6. 12. 0. 1. 3. 13. 74. 22. 5. 59. 37. 12. 28.
      224. 84. 44. 3. 112. 3. 1. 3. 31. 5. 4. 0. 8. 2. 0. 5. 30. 52. 40.
      7. 76. 1. 3. 2. 34. 110. 61. 9. 333. 29. 35. 34. 350. 1405. 1009.
      60. 1160. 19. 3. 66. 334. 79. 37. 3. 25. 21. 22. 62. 226. 49. 6.
      1. 10. 0. 1. 5. 6. 131. 14. 5. 30. 23. 2. 37. 31. 2970. 1000. 139.
      936. 22. 7. 89. 211. 131. 29. 10. 49. 81. 40. 309. 400. 1155. 177.
      35. 187. 10. 1. 45. 35. 1024. 224. 33. 389. 211. 31. 427. 527.</_>
    <_>
      14653. 759. 1101. 764. 406. 26. 1415. 1206. 1369. 61. 73. 39.
      1614. 86. 5978. 3732. 963. 16. 29. 11. 11. 1. 48. 14. 1287. 11.
      46. 26. 1730. 6. 2547. 358. 1602. 40. 65. 26. 20. 1. 96. 36. 70.
      2. 5. 1. 44. 2. 158. 61. 1276. 11. 33. 3. 21. 0. 67. 9. 1690. 14.
      36. 22. 1106. 6. 1160. 163. 431. 8. 19. 21. 4. 0. 18. 4. 22. 1. 0.
      0. 6. 5. 17. 18. 17. 0. 1. 0. 0. 0. 1. 0. 18. 0. 0. 1. 4. 0. 12.
      8. 2022. 54. 86. 71. 7. 1. 25. 30. 36. 5. 6. 3. 50. 4. 113. 64.
      1795. 11. 48. 7. 8. 0. 30. 0. 843. 4. 14. 5. 245. 3. 258. 45.
      1147. 675. 52. 744. 14. 20. 26. 410. 46. 23. 1. 28. 46. 71. 101.
      894. 55. 5. 1. 7. 2. 0. 0. 4. 37. 18. 1. 22. 21. 11. 27. 118. 73.
      29. 1. 30. 0. 1. 1. 17. 5. 2. 1. 5. 1. 1. 5. 26. 48. 18. 2. 15. 0.
      1. 0. 10. 47. 26. 6. 69. 11. 15. 16. 143. 1220. 562. 21. 242. 7.
      3. 39. 108. 44. 19. 1. 10. 14. 7. 62. 151. 73. 9. 3. 5. 1. 0. 6.
      1. 74. 6. 0. 8. 12. 1. 31. 31. 7453. 1465. 147. 620. 16. 11. 84.
      178. 133. 24. 7. 17. 80. 23. 438. 478. 4464. 352. 63. 150. 13. 5.
      68. 35. 1188. 148. 27. 130. 226. 22. 516. 383.</_>
    <_>
      16668. 644. 1086. 723. 290. 15. 1375. 1037. 1400. 37. 63. 39.
      1541. 62. 7271. 3433. 899. 19. 23. 7. 9. 0. 37. 7. 1193. 14. 28.
      26. 1750. 12. 2683. 312. 1489. 19. 41. 17. 21. 0. 89. 22. 90. 2.
      3. 1. 36. 2. 153. 36. 1119. 7. 16. 7. 10. 1. 52. 4. 1873. 7. 35.
      16. 1118. 2. 1116. 116. 341. 5. 18. 15. 8. 0. 10. 1. 14. 1. 1. 0.
      9. 3. 14. 8. 14. 0. 2. 0. 0. 0. 1. 0. 16. 0. 1. 0. 2. 1. 4. 2.
      1715. 30. 68. 46. 7. 0. 25. 17. 51. 0. 2. 1. 55. 2. 112. 53. 1397.
      4. 26. 8. 7. 0. 16. 1. 673. 3. 15. 11. 201. 1. 219. 20. 1115. 631.
      59. 998. 8. 11. 21. 402. 31. 20. 3. 37. 51. 53. 111. 819. 38. 15.
      0. 11. 2. 0. 0. 5. 17. 9. 1. 20. 13. 13. 26. 95. 79. 28. 3. 35. 1.
      1. 2. 7. 1. 1. 2. 2. 3. 2. 1. 24. 41. 21. 0. 12. 1. 0. 1. 4. 37.
      26. 2. 51. 11. 9. 13. 105. 1247. 545. 25. 302. 5. 2. 34. 104. 53.
      13. 2. 7. 6. 9. 66. 123. 57. 6. 1. 0. 0. 0. 5. 1. 69. 6. 1. 5. 7.
      0. 23. 16. 8187. 1486. 137. 611. 13. 8. 98. 154. 106. 11. 8. 11.
      66. 20. 456. 421. 3915. 284. 35. 122. 14. 2. 31. 25. 994. 90. 22.
      99. 175. 21. 461. 264.</_>
    <_>
      17654. 623. 1110. 755. 260. 15. 1420. 997. 1411. 47. 68. 32. 1641.
      50. 7706. 3339. 735. 19. 16. 8. 8. 1. 28. 8. 1230. 6. 22. 9. 1650.
      3. 2828. 247. 1448. 15. 44. 23. 17. 0. 47. 11. 80. 3. 4. 2. 43. 0.
      155. 38. 1080. 6. 15. 2. 16. 1. 37. 2. 2021. 5. 25. 14. 984. 3.
      1060. 76. 241. 6. 9. 8. 2. 0. 4. 1. 10. 0. 0. 0. 6. 1. 14. 5. 9.
      0. 0. 0. 0. 0. 0. 0. 12. 0. 2. 0. 3. 0. 7. 1. 1728. 24. 48. 45. 3.
      1. 19. 11. 40. 1. 4. 1. 36. 3. 100. 42. 1135. 4. 25. 3. 0. 0. 13.
      1. 680. 3. 6. 5. 165. 3. 186. 21. 1174. 717. 53. 1122. 7. 8. 41.
      391. 29. 11. 0. 37. 34. 44. 85. 767. 33. 8. 2. 2. 0. 0. 0. 1. 29.
      8. 3. 17. 6. 3. 20. 100. 59. 25. 3. 25. 2. 0. 1. 11. 1. 0. 0. 0.
      2. 5. 5. 19. 31. 15. 0. 12. 1. 0. 1. 2. 23. 18. 1. 47. 8. 1. 8.
      65. 1412. 528. 21. 290. 0. 0. 40. 100. 32. 5. 2. 6. 7. 6. 59. 131.
      42. 6. 2. 2. 0. 0. 3. 1. 40. 7. 0. 3. 9. 0. 28. 22. 8662. 1647.
      133. 620. 5. 4. 89. 130. 104. 17. 2. 13. 74. 17. 562. 383. 3227.
      206. 35. 89. 3. 3. 43. 20. 893. 65. 13. 63. 149. 17. 392. 201.</_>
    <_>
      17532. 559. 1042. 719. 271. 9. 1326. 875. 1556. 35. 70. 25. 1844.
      33. 7715. 2951. 753. 11. 23. 4. 8. 0. 33. 5. 1286. 6. 31. 14.
      1815. 6. 3436. 285. 1338. 18. 47. 15. 10. 0. 43. 16. 87. 2. 2. 0.
      49. 4. 155. 35. 977. 3. 17. 4. 11. 0. 49. 6. 2095. 4. 32. 13.
      1085. 1. 1083. 103. 226. 6. 9. 9. 6. 0. 8. 2. 17. 1. 1. 1. 3. 0.
      12. 8. 9. 0. 0. 1. 0. 0. 0. 0. 16. 0. 1. 4. 2. 1. 3. 2. 1609. 29.
      44. 44. 8. 0. 14. 10. 55. 3. 3. 1. 45. 0. 100. 50. 1126. 5. 17. 6.
      3. 0. 12. 0. 725. 2. 8. 5. 192. 3. 210. 18. 1129. 718. 72. 1114.
      11. 8. 23. 403. 33. 15. 0. 34. 32. 48. 72. 694. 33. 9. 0. 9. 1. 0.
      3. 0. 11. 8. 0. 11. 18. 6. 16. 82. 56. 25. 2. 36. 3. 0. 5. 5. 3.
      3. 0. 2. 1. 3. 5. 11. 34. 11. 0. 6. 0. 0. 2. 3. 33. 8. 4. 35. 4.
      8. 11. 67. 1397. 599. 21. 347. 6. 3. 34. 89. 39. 6. 1. 2. 6. 7.
      54. 124. 44. 3. 2. 1. 0. 0. 4. 2. 54. 6. 1. 4. 4. 0. 16. 14. 8703.
      1728. 132. 619. 8. 2. 89. 124. 98. 21. 4. 14. 76. 30. 412. 338.
      3118. 184. 26. 111. 5. 0. 42. 11. 755. 80. 17. 53. 164. 13. 419.
      186.</_>
    <_>
      18228. 539. 1010. 672. 262. 7. 1176. 749. 1682. 23. 57. 23. 1885.
      41. 7075. 2470. 748. 13. 13. 9. 7. 0. 25. 3. 1411. 6. 27. 20.
      2062. 4. 3673. 268. 1335. 13. 36. 19. 11. 0. 49. 15. 102. 2. 2. 0.
      48. 1. 142. 37. 992. 2. 24. 6. 11. 1. 48. 2. 2388. 7. 39. 22.
      1165. 2. 1160. 89. 233. 2. 8. 7. 2. 0. 3. 1. 9. 0. 1. 0. 6. 0. 8.
      6. 3. 0. 0. 0. 0. 0. 1. 0. 8. 0. 0. 0. 2. 0. 5. 1. 1531. 20. 36.
      35. 4. 0. 13. 3. 42. 0. 2. 2. 47. 1. 92. 48. 970. 5. 19. 6. 0. 0.
      5. 0. 668. 4. 9. 3. 193. 1. 206. 17. 1157. 729. 54. 1269. 8. 9.
      34. 412. 27. 13. 0. 37. 27. 47. 92. 602. 26. 9. 0. 3. 0. 0. 2. 2.
      9. 8. 0. 9. 6. 6. 16. 74. 67. 23. 0. 26. 0. 0. 5. 4. 1. 1. 0. 3.
      5. 1. 3. 17. 37. 20. 1. 10. 0. 1. 1. 6. 24. 20. 5. 57. 6. 11. 6.
      70. 1430. 632. 31. 359. 5. 3. 39. 91. 32. 9. 1. 5. 13. 3. 73. 130.
      36. 4. 0. 2. 0. 0. 2. 1. 48. 9. 0. 7. 10. 0. 21. 13. 8728. 1849.
      114. 635. 6. 4. 91. 120. 83. 11. 6. 7. 52. 22. 478. 352. 2749.
      201. 24. 79. 7. 2. 28. 13. 803. 72. 6. 66. 170. 8. 404. 185.</_>
    <_>
      18442. 545. 959. 618. 264. 6. 1162. 680. 1692. 19. 74. 26. 1856.
      33. 7401. 2263. 766. 9. 16. 7. 1. 0. 32. 1. 1268. 5. 39. 16. 1837.
      4. 3505. 238. 1379. 17. 43. 8. 13. 0. 44. 9. 74. 2. 6. 3. 44. 0.
      132. 22. 986. 6. 12. 1. 14. 1. 42. 7. 2146. 5. 40. 16. 1196. 3.
      1086. 98. 253. 7. 9. 9. 8. 0. 8. 1. 10. 0. 2. 0. 7. 0. 8. 7. 4. 0.
      0. 0. 0. 0. 1. 0. 15. 0. 0. 0. 1. 1. 6. 0. 1472. 19. 50. 41. 1. 1.
      10. 4. 41. 1. 2. 2. 46. 2. 94. 21. 975. 3. 14. 9. 3. 0. 4. 0. 715.
      0. 7. 7. 183. 2. 171. 23. 1319. 753. 71. 1192. 7. 11. 27. 420. 41.
      12. 0. 32. 26. 39. 80. 593. 18. 6. 2. 7. 1. 2. 0. 2. 14. 7. 0. 13.
      11. 4. 13. 90. 72. 29. 2. 35. 3. 0. 2. 8. 1. 1. 0. 8. 1. 1. 3. 10.
      32. 18. 0. 10. 0. 0. 1. 2. 28. 17. 5. 43. 4. 5. 15. 65. 1660. 715.
      23. 367. 4. 2. 40. 101. 24. 11. 2. 3. 3. 1. 59. 98. 33. 5. 1. 1.
      0. 0. 1. 1. 46. 5. 1. 3. 8. 0. 17. 9. 9055. 2273. 133. 695. 11. 5.
      100. 132. 91. 10. 4. 11. 63. 17. 387. 350. 2544. 185. 18. 87. 4.
      0. 24. 19. 686. 70. 14. 57. 139. 12. 380. 175.</_>
    <_>
      17282. 651. 1086. 777. 286. 11. 1197. 770. 1717. 26. 60. 29. 1898.
      43. 7101. 1935. 740. 12. 18. 1. 6. 0. 26. 2. 1398. 13. 23. 19.
      1913. 2. 3622. 198. 1365. 14. 36. 16. 14. 0. 58. 16. 92. 0. 2. 3.
      58. 2. 147. 19. 986. 7. 19. 2. 5. 0. 48. 11. 2015. 7. 46. 19.
      1109. 1. 1232. 89. 323. 4. 12. 7. 7. 0. 5. 3. 11. 0. 0. 0. 9. 2.
      8. 3. 10. 0. 0. 0. 0. 0. 0. 0. 2. 0. 1. 0. 1. 0. 7. 2. 1488. 37.
      60. 47. 5. 0. 13. 10. 44. 1. 2. 0. 48. 0. 91. 35. 1018. 2. 13. 4.
      0. 0. 12. 0. 615. 5. 12. 6. 185. 5. 212. 22. 1335. 877. 72. 1252.
      12. 10. 34. 468. 35. 15. 1. 39. 40. 36. 75. 638. 18. 10. 0. 2. 0.
      1. 2. 3. 19. 6. 1. 20. 13. 7. 20. 100. 67. 26. 5. 31. 2. 0. 2. 6.
      5. 0. 0. 2. 0. 2. 6. 15. 32. 32. 1. 15. 1. 0. 1. 3. 32. 29. 3. 67.
      6. 3. 12. 90. 1655. 807. 35. 423. 14. 3. 37. 144. 38. 12. 0. 7. 6.
      6. 59. 131. 36. 5. 2. 0. 0. 0. 2. 0. 54. 4. 4. 5. 5. 0. 24. 13.
      8585. 2379. 154. 808. 9. 6. 101. 154. 111. 12. 2. 14. 71. 26. 474.
      345. 2441. 226. 29. 107. 5. 0. 36. 12. 824. 75. 7. 109. 153. 8.
      371. 197.</_>
    <_>
      18464. 594. 1033. 652. 296. 1. 1133. 701. 1831. 23. 61. 27. 1932.
      28. 6902. 1841. 676. 13. 22. 9. 6. 0. 32. 2. 1364. 5. 23. 18.
      1903. 7. 4071. 236. 1369. 22. 52. 17. 5. 0. 44. 14. 104. 2. 1. 2.
      35. 3. 122. 26. 902. 5. 15. 4. 13. 0. 45. 5. 2212. 3. 40. 22.
      1150. 2. 1118. 89. 286. 3. 8. 8. 10. 0. 1. 1. 7. 0. 0. 0. 8. 1. 9.
      3. 5. 0. 0. 0. 0. 0. 0. 0. 11. 0. 1. 0. 3. 0. 4. 2. 1506. 31. 35.
      50. 6. 0. 14. 7. 45. 0. 2. 2. 46. 1. 78. 30. 786. 1. 12. 4. 1. 0.
      5. 0. 622. 0. 9. 7. 169. 3. 180. 21. 1450. 814. 56. 1083. 15. 5.
      35. 315. 39. 19. 1. 34. 32. 46. 69. 537. 23. 7. 1. 8. 0. 0. 0. 3.
      14. 6. 1. 8. 8. 6. 15. 82. 58. 23. 1. 31. 0. 0. 2. 3. 7. 2. 0. 6.
      4. 1. 5. 18. 27. 19. 1. 9. 0. 3. 3. 7. 41. 14. 2. 50. 4. 15. 6.
      73. 1746. 903. 38. 391. 2. 1. 31. 86. 36. 11. 3. 2. 10. 4. 59. 90.
      26. 1. 2. 1. 0. 0. 0. 3. 49. 8. 4. 3. 5. 0. 21. 11. 8704. 2499.
      138. 750. 9. 4. 103. 137. 95. 14. 4. 14. 73. 24. 544. 315. 2229.
      202. 29. 86. 2. 2. 25. 11. 734. 93. 10. 76. 137. 11. 354. 213.</_>
    <_>
      14728. 817. 1096. 876. 335. 6. 1342. 1238. 1333. 56. 64. 24. 1398.
      60. 6335. 3635. 944. 21. 42. 11. 11. 0. 36. 10. 1284. 14. 21. 23.
      1805. 9. 3027. 347. 1266. 31. 64. 27. 7. 0. 51. 19. 98. 4. 3. 2.
      56. 5. 160. 53. 1080. 6. 28. 7. 23. 0. 60. 7. 2085. 4. 46. 22.
      1340. 6. 1111. 122. 317. 6. 12. 12. 13. 0. 9. 4. 12. 0. 0. 0. 13.
      1. 23. 9. 15. 0. 0. 0. 0. 0. 2. 0. 17. 0. 1. 0. 5. 0. 6. 4. 1543.
      36. 49. 56. 7. 0. 23. 9. 58. 0. 1. 2. 42. 0. 110. 54. 1309. 10.
      19. 6. 4. 0. 12. 1. 822. 3. 12. 11. 256. 5. 285. 34. 1118. 845.
      61. 1188. 18. 18. 47. 643. 45. 24. 4. 34. 47. 56. 86. 826. 43. 12.
      2. 10. 0. 0. 1. 4. 21. 10. 1. 12. 18. 11. 27. 113. 72. 35. 1. 30.
      0. 0. 1. 7. 3. 1. 0. 6. 4. 0. 7. 31. 36. 24. 0. 17. 2. 1. 3. 6.
      37. 18. 4. 48. 8. 16. 11. 104. 1330. 836. 53. 467. 4. 2. 38. 181.
      53. 15. 2. 9. 10. 4. 66. 155. 55. 3. 1. 2. 0. 0. 2. 2. 55. 11. 3.
      7. 5. 0. 35. 25. 7736. 1834. 161. 751. 9. 8. 119. 202. 105. 19. 6.
      14. 74. 35. 478. 431. 3709. 302. 46. 127. 8. 5. 43. 30. 925. 105.
      20. 102. 195. 20. 484. 335.</_>
    <_>
      19096. 537. 1021. 648. 307. 7. 1134. 656. 1823. 15. 78. 26. 1995.
      23. 6962. 1611. 620. 13. 11. 3. 8. 0. 22. 5. 1364. 6. 30. 15.
      1982. 10. 3729. 243. 1553. 16. 37. 18. 16. 0. 36. 10. 84. 2. 6. 1.
      56. 0. 136. 16. 1021. 6. 11. 2. 18. 0. 53. 6. 2165. 4. 33. 15.
      1207. 2. 1147. 72. 317. 7. 6. 9. 5. 0. 5. 3. 12. 0. 1. 0. 6. 0.
      14. 1. 12. 1. 0. 0. 0. 0. 0. 0. 12. 0. 0. 2. 1. 0. 4. 1. 1499. 23.
      36. 50. 4. 0. 11. 3. 43. 1. 1. 3. 32. 1. 83. 36. 860. 3. 14. 4. 0.
      0. 5. 1. 710. 1. 9. 4. 168. 2. 187. 14. 1520. 854. 66. 1202. 10.
      17. 30. 396. 30. 15. 3. 39. 37. 54. 64. 585. 18. 6. 0. 5. 0. 0. 0.
      0. 8. 6. 0. 13. 14. 5. 8. 78. 66. 29. 2. 35. 0. 2. 0. 6. 5. 0. 1.
      2. 2. 2. 10. 16. 36. 13. 2. 15. 1. 0. 2. 1. 29. 20. 1. 53. 9. 4.
      11. 73. 1704. 923. 33. 433. 5. 0. 29. 86. 46. 12. 2. 4. 11. 4. 54.
      76. 30. 4. 0. 0. 0. 0. 2. 0. 46. 10. 0. 6. 5. 0. 22. 12. 8337.
      2359. 120. 825. 12. 4. 69. 124. 108. 10. 1. 10. 78. 21. 428. 279.
      2046. 197. 21. 89. 1. 0. 28. 15. 695. 80. 5. 72. 114. 10. 350.
      174.</_>
    <_>
      15508. 797. 1116. 914. 312. 18. 1357. 1270. 1399. 34. 61. 42.
      1541. 51. 6548. 3434. 838. 22. 21. 8. 6. 0. 40. 9. 1279. 11. 25.
      25. 1617. 12. 3064. 267. 1227. 28. 50. 17. 18. 0. 48. 21. 76. 3.
      5. 0. 45. 1. 155. 39. 1046. 5. 13. 4. 12. 0. 50. 4. 1914. 10. 39.
      20. 1202. 2. 1080. 94. 286. 8. 15. 10. 6. 0. 7. 8. 13. 0. 1. 1. 5.
      0. 21. 11. 13. 1. 0. 0. 0. 0. 0. 0. 17. 0. 0. 1. 5. 0. 3. 4. 1421.
      34. 56. 46. 7. 0. 14. 10. 50. 1. 1. 2. 50. 0. 118. 52. 1270. 7.
      21. 8. 1. 0. 11. 1. 829. 3. 12. 5. 211. 5. 228. 23. 1212. 859. 73.
      1360. 12. 20. 50. 686. 35. 24. 4. 36. 42. 57. 102. 862. 32. 9. 3.
      9. 0. 0. 1. 3. 13. 9. 1. 12. 18. 6. 23. 110. 68. 26. 3. 29. 1. 2.
      2. 13. 4. 0. 0. 0. 3. 0. 10. 28. 32. 19. 3. 19. 2. 0. 5. 5. 39.
      17. 1. 23. 11. 5. 20. 85. 1371. 910. 34. 540. 8. 1. 39. 181. 46.
      16. 1. 7. 9. 7. 78. 193. 48. 7. 2. 1. 0. 0. 3. 1. 46. 15. 0. 11.
      7. 0. 36. 22. 7798. 2080. 140. 721. 17. 10. 96. 176. 115. 17. 2.
      11. 92. 28. 491. 446. 3405. 272. 39. 105. 6. 1. 53. 32. 853. 109.
      12. 83. 147. 19. 494. 273.</_>
    <_>
      19774. 518. 1041. 691. 247. 2. 1202. 629. 1701. 17. 60. 18. 1922.
      21. 7087. 1660. 665. 8. 14. 3. 3. 0. 27. 4. 1280. 5. 26. 24. 1890.
      5. 3510. 226. 1395. 14. 41. 16. 7. 0. 43. 13. 93. 2. 3. 3. 49. 0.
      136. 10. 936. 5. 18. 2. 8. 0. 59. 4. 2316. 6. 29. 8. 1107. 0.
      1105. 71. 281. 3. 7. 7. 6. 0. 5. 2. 11. 0. 1. 0. 4. 0. 12. 3. 1.
      0. 0. 0. 0. 0. 0. 0. 12. 0. 0. 0. 2. 0. 5. 0. 1487. 25. 33. 50. 5.
      0. 9. 9. 49. 2. 1. 0. 47. 0. 74. 24. 805. 2. 16. 10. 1. 0. 5. 0.
      682. 2. 4. 6. 166. 0. 162. 20. 1536. 869. 70. 1256. 8. 9. 31. 409.
      21. 13. 0. 33. 36. 48. 80. 631. 12. 6. 1. 4. 0. 0. 0. 2. 22. 2. 1.
      7. 7. 5. 12. 83. 65. 31. 3. 28. 0. 1. 5. 3. 5. 1. 2. 1. 2. 3. 3.
      6. 16. 16. 0. 12. 1. 0. 2. 3. 38. 11. 2. 67. 5. 5. 21. 77. 1739.
      824. 36. 438. 5. 1. 46. 87. 38. 9. 2. 5. 8. 4. 52. 110. 33. 2. 0.
      1. 0. 0. 0. 0. 44. 3. 2. 3. 5. 0. 18. 12. 8639. 2445. 96. 815. 8.
      2. 74. 110. 105. 11. 7. 9. 80. 19. 461. 267. 1838. 190. 15. 83. 5.
      1. 28. 10. 683. 82. 16. 70. 128. 9. 291. 138.</_>
    <_>
      15869. 770. 1095. 870. 271. 9. 1376. 1249. 1338. 40. 52. 38. 1545.
      46. 6680. 3435. 828. 10. 21. 7. 2. 0. 50. 6. 1182. 7. 23. 16.
      1631. 7. 2793. 291. 1260. 23. 46. 23. 13. 0. 67. 21. 84. 3. 3. 1.
      51. 0. 156. 32. 1016. 6. 18. 3. 16. 0. 59. 7. 2030. 8. 36. 11.
      1160. 1. 1020. 104. 276. 8. 13. 16. 11. 0. 6. 6. 13. 0. 1. 0. 4.
      0. 16. 13. 11. 0. 0. 0. 0. 0. 0. 0. 15. 0. 0. 0. 4. 0. 3. 1. 1460.
      30. 51. 52. 13. 1. 20. 10. 50. 1. 3. 3. 47. 1. 98. 50. 1160. 6.
      23. 9. 3. 0. 13. 1. 710. 1. 10. 6. 217. 3. 225. 26. 1190. 831. 83.
      1360. 18. 10. 50. 694. 28. 21. 0. 30. 45. 70. 87. 893. 39. 4. 1.
      7. 0. 0. 2. 8. 22. 8. 0. 8. 7. 10. 26. 108. 74. 28. 4. 20. 1. 2.
      1. 5. 3. 0. 0. 3. 3. 3. 4. 15. 28. 17. 1. 15. 3. 0. 1. 5. 29. 18.
      3. 36. 8. 5. 21. 79. 1489. 800. 30. 479. 7. 3. 52. 177. 40. 12. 3.
      12. 15. 6. 81. 172. 48. 6. 0. 2. 0. 0. 4. 3. 54. 11. 5. 7. 7. 0.
      37. 22. 8240. 2307. 149. 795. 8. 4. 93. 205. 99. 15. 10. 10. 83.
      36. 513. 417. 3191. 272. 33. 84. 7. 1. 42. 15. 832. 90. 19. 91.
      168. 17. 424. 244.</_>
    <_>
      19250. 553. 1098. 678. 272. 4. 1184. 732. 1755. 22. 62. 18. 1980.
      34. 7421. 1711. 675. 9. 11. 3. 3. 0. 22. 0. 1288. 3. 21. 16. 1841.
      6. 3646. 201. 1598. 11. 41. 12. 17. 0. 41. 16. 85. 3. 4. 0. 59. 2.
      142. 8. 1004. 4. 18. 1. 16. 0. 42. 4. 2255. 5. 41. 19. 962. 2.
      1083. 74. 274. 3. 7. 7. 5. 0. 2. 0. 11. 0. 0. 1. 2. 0. 13. 1. 10.
      0. 0. 0. 0. 0. 0. 0. 13. 0. 0. 0. 1. 0. 4. 2. 1571. 26. 51. 51. 8.
      1. 8. 7. 36. 1. 3. 3. 47. 2. 79. 21. 948. 1. 10. 7. 0. 0. 11. 0.
      694. 0. 7. 2. 148. 1. 165. 9. 1434. 792. 71. 1231. 7. 3. 21. 382.
      32. 19. 1. 32. 37. 55. 85. 570. 24. 4. 0. 5. 0. 0. 0. 2. 21. 1. 1.
      14. 11. 6. 11. 74. 78. 29. 2. 32. 0. 0. 5. 2. 1. 1. 0. 2. 2. 4. 5.
      11. 27. 16. 0. 12. 0. 0. 1. 5. 22. 14. 4. 52. 5. 8. 12. 67. 1778.
      893. 42. 366. 3. 1. 35. 83. 32. 10. 1. 5. 13. 7. 41. 111. 32. 4.
      0. 1. 0. 0. 3. 1. 58. 7. 2. 2. 7. 0. 16. 7. 8342. 2380. 127. 731.
      6. 5. 75. 124. 112. 14. 1. 11. 71. 27. 462. 257. 1947. 193. 17.
      81. 4. 3. 26. 12. 683. 67. 11. 61. 127. 13. 319. 151.</_>
    <_>
      16106. 775. 1129. 895. 324. 10. 1338. 1224. 1404. 27. 62. 29.
      1572. 44. 6179. 3079. 792. 19. 19. 4. 6. 0. 25. 2. 1273. 10. 23.
      28. 1758. 8. 2958. 275. 1416. 17. 52. 15. 16. 0. 53. 22. 71. 2. 7.
      2. 53. 1. 136. 22. 1080. 2. 19. 5. 22. 0. 42. 6. 2391. 5. 33. 18.
      1318. 5. 1043. 96. 308. 5. 8. 13. 11. 0. 5. 5. 16. 0. 1. 2. 6. 1.
      18. 8. 9. 0. 0. 0. 0. 0. 1. 0. 22. 1. 0. 1. 3. 0. 3. 3. 1458. 31.
      62. 46. 14. 1. 18. 10. 42. 1. 2. 2. 44. 2. 96. 48. 1215. 2. 14. 9.
      2. 0. 15. 0. 902. 0. 15. 3. 233. 1. 202. 19. 1131. 800. 60. 1385.
      12. 8. 37. 768. 46. 30. 0. 37. 39. 63. 84. 814. 43. 15. 0. 8. 0.
      0. 0. 1. 23. 4. 2. 20. 11. 8. 13. 87. 61. 28. 2. 41. 1. 0. 8. 8.
      2. 2. 1. 5. 1. 5. 6. 18. 23. 16. 0. 17. 2. 0. 2. 8. 23. 17. 2. 37.
      11. 6. 14. 97. 1416. 832. 43. 463. 4. 2. 32. 153. 37. 12. 1. 5. 5.
      10. 47. 156. 43. 4. 0. 1. 0. 0. 2. 0. 51. 13. 2. 4. 7. 0. 28. 22.
      8073. 2268. 145. 732. 6. 5. 87. 168. 102. 21. 2. 5. 64. 25. 445.
      386. 3182. 247. 25. 106. 7. 2. 39. 20. 766. 96. 17. 87. 176. 20.
      426. 264.</_>
    <_>
      16695. 715. 1109. 846. 292. 12. 1184. 1128. 1364. 44. 56. 34.
      1593. 50. 6444. 2697. 847. 16. 20. 9. 7. 0. 41. 2. 1296. 14. 26.
      17. 1772. 6. 3101. 288. 1206. 18. 53. 14. 18. 1. 51. 17. 83. 2. 1.
      2. 57. 2. 148. 31. 1005. 12. 18. 2. 16. 0. 56. 5. 2268. 4. 33. 10.
      1361. 2. 1050. 103. 281. 7. 18. 19. 6. 0. 7. 2. 19. 0. 0. 1. 8. 1.
      12. 10. 10. 1. 0. 0. 0. 0. 0. 0. 15. 0. 0. 1. 1. 0. 7. 2. 1415.
      34. 56. 44. 5. 0. 23. 10. 37. 2. 6. 2. 48. 6. 103. 50. 1175. 4.
      21. 7. 2. 0. 6. 2. 814. 7. 7. 8. 255. 1. 253. 19. 1158. 861. 74.
      1438. 13. 18. 43. 668. 37. 19. 4. 29. 43. 42. 116. 724. 39. 15. 0.
      10. 0. 0. 1. 4. 25. 6. 1. 13. 7. 5. 16. 97. 53. 29. 1. 29. 0. 0.
      6. 11. 5. 2. 1. 3. 4. 1. 3. 25. 24. 21. 0. 12. 0. 0. 1. 7. 35. 17.
      1. 31. 9. 14. 16. 80. 1388. 839. 34. 467. 1. 1. 45. 147. 38. 10.
      1. 5. 9. 5. 62. 179. 47. 5. 2. 2. 0. 0. 3. 1. 53. 5. 1. 5. 3. 0.
      20. 24. 8152. 2294. 155. 724. 15. 4. 97. 197. 113. 13. 3. 17. 92.
      35. 520. 378. 2972. 260. 29. 121. 6. 0. 48. 21. 806. 95. 20. 89.
      183. 11. 442. 243.</_>
    <_>
      16479. 745. 1072. 851. 305. 6. 1236. 998. 1395. 32. 75. 35. 1576.
      47. 6399. 2420. 887. 16. 25. 2. 4. 0. 49. 3. 1316. 6. 25. 25.
      1967. 9. 3123. 268. 1250. 23. 45. 22. 17. 1. 61. 16. 106. 1. 3. 0.
      61. 2. 161. 29. 1001. 7. 19. 3. 13. 0. 50. 8. 2393. 4. 39. 17.
      1269. 5. 1180. 101. 269. 8. 22. 10. 7. 0. 7. 4. 23. 0. 0. 0. 6. 1.
      17. 4. 8. 0. 0. 1. 0. 0. 1. 0. 18. 0. 0. 0. 2. 1. 6. 2. 1458. 42.
      58. 56. 6. 0. 16. 12. 41. 2. 4. 2. 46. 6. 103. 33. 1040. 4. 22.
      10. 3. 0. 9. 1. 782. 3. 9. 7. 240. 2. 238. 25. 1096. 892. 75.
      1500. 12. 15. 46. 690. 40. 13. 2. 44. 38. 58. 97. 765. 31. 16. 1.
      5. 0. 0. 2. 2. 17. 8. 3. 11. 14. 13. 18. 109. 56. 22. 1. 31. 1. 0.
      5. 9. 2. 0. 0. 2. 2. 2. 4. 20. 23. 15. 0. 9. 0. 0. 1. 4. 26. 19.
      2. 44. 11. 3. 26. 102. 1362. 822. 36. 546. 7. 1. 30. 160. 38. 14.
      2. 5. 11. 10. 72. 168. 43. 7. 1. 2. 1. 0. 1. 2. 62. 7. 1. 4. 11.
      0. 17. 26. 8246. 2446. 145. 806. 12. 11. 122. 161. 112. 28. 4. 12.
      95. 21. 479. 416. 2773. 241. 31. 99. 10. 3. 37. 21. 813. 85. 25.
      85. 154. 15. 435. 261.</_>
    <_>
      17478. 727. 1034. 919. 310. 10. 1121. 961. 1392. 28. 49. 39. 1541.
      38. 6286. 2089. 828. 11. 30. 14. 3. 0. 30. 5. 1297. 5. 40. 18.
      1808. 6. 3364. 273. 1244. 25. 45. 18. 13. 0. 48. 9. 67. 1. 5. 1.
      42. 1. 143. 35. 990. 8. 15. 10. 10. 0. 45. 1. 2474. 10. 31. 14.
      1256. 2. 1122. 119. 305. 8. 4. 10. 6. 0. 10. 2. 10. 0. 1. 0. 8. 0.
      9. 2. 9. 0. 0. 0. 0. 0. 0. 0. 9. 0. 0. 0. 2. 0. 4. 0. 1348. 32.
      46. 51. 8. 0. 13. 10. 49. 2. 4. 2. 52. 1. 104. 26. 936. 5. 15. 2.
      6. 0. 7. 0. 719. 4. 10. 6. 210. 3. 239. 22. 1159. 987. 65. 1611.
      11. 11. 44. 737. 44. 15. 1. 23. 41. 53. 102. 705. 26. 10. 1. 6. 1.
      1. 1. 2. 13. 9. 0. 15. 17. 10. 9. 89. 62. 25. 2. 38. 0. 0. 5. 6.
      1. 1. 0. 3. 3. 3. 4. 18. 40. 19. 1. 17. 0. 1. 2. 10. 25. 22. 4.
      54. 8. 6. 11. 77. 1408. 927. 45. 575. 4. 2. 52. 173. 50. 11. 2. 5.
      9. 5. 83. 136. 29. 7. 0. 2. 0. 0. 2. 1. 57. 6. 1. 10. 5. 0. 31.
      14. 8141. 2574. 158. 831. 11. 6. 98. 210. 130. 13. 9. 10. 92. 26.
      636. 439. 2287. 256. 24. 110. 8. 2. 31. 15. 764. 87. 14. 94. 171.
      14. 442. 217.</_>
    <_>
      15628. 990. 999. 950. 293. 19. 1256. 1211. 1162. 60. 63. 35. 1240.
      85. 5517. 3579. 1043. 24. 37. 12. 6. 0. 39. 7. 1114. 17. 28. 23.
      1196. 10. 2178. 326. 1206. 41. 56. 29. 21. 0. 66. 30. 71. 3. 4. 2.
      41. 2. 197. 80. 1069. 10. 21. 10. 6. 0. 61. 6. 1880. 13. 22. 13.
      791. 2. 972. 135. 309. 14. 5. 12. 5. 1. 14. 7. 20. 1. 2. 0. 7. 1.
      20. 12. 12. 1. 0. 0. 2. 0. 1. 0. 20. 0. 0. 0. 3. 0. 9. 2. 1409.
      48. 74. 66. 13. 0. 31. 14. 56. 4. 5. 3. 58. 5. 130. 66. 1350. 5.
      31. 7. 10. 0. 19. 1. 740. 5. 7. 8. 234. 7. 315. 45. 1058. 929. 63.
      1440. 13. 16. 45. 725. 40. 26. 2. 36. 55. 70. 113. 906. 62. 26. 1.
      10. 1. 2. 2. 4. 25. 7. 4. 11. 22. 9. 25. 104. 57. 23. 2. 37. 1. 1.
      5. 7. 1. 2. 0. 4. 2. 1. 7. 26. 51. 19. 2. 15. 1. 2. 2. 7. 29. 20.
      4. 32. 10. 10. 13. 94. 1285. 884. 60. 537. 3. 5. 49. 214. 53. 12.
      4. 6. 9. 9. 81. 192. 81. 11. 4. 2. 0. 0. 7. 3. 69. 14. 3. 8. 12.
      1. 33. 22. 7662. 2188. 209. 805. 18. 8. 169. 332. 137. 32. 10. 13.
      99. 44. 639. 629. 4340. 346. 86. 115. 18. 3. 78. 41. 941. 106. 29.
      101. 242. 26. 645. 372.</_>
    <_>
      16857. 823. 1062. 941. 336. 8. 1198. 1011. 1498. 36. 61. 33. 1676.
      35. 6283. 2061. 928. 15. 32. 10. 7. 0. 27. 9. 1369. 9. 26. 16.
      1811. 8. 3578. 266. 1245. 23. 30. 12. 14. 0. 55. 20. 101. 2. 8. 2.
      44. 1. 182. 30. 1061. 16. 19. 5. 13. 0. 60. 3. 2083. 7. 37. 17.
      1220. 1. 1094. 85. 270. 10. 17. 14. 5. 0. 4. 3. 18. 0. 0. 0. 4. 1.
      18. 6. 6. 0. 0. 0. 0. 0. 0. 0. 15. 0. 1. 2. 2. 0. 6. 3. 1310. 30.
      50. 52. 8. 0. 14. 12. 46. 2. 3. 1. 58. 2. 109. 27. 833. 3. 16. 9.
      3. 0. 9. 0. 715. 2. 10. 7. 223. 1. 246. 31. 1105. 906. 88. 1543.
      12. 11. 37. 748. 33. 18. 4. 38. 47. 51. 106. 737. 42. 7. 2. 10. 0.
      0. 0. 1. 22. 2. 0. 14. 16. 9. 20. 103. 63. 26. 4. 29. 2. 0. 6. 7.
      6. 0. 1. 1. 3. 1. 3. 22. 15. 18. 0. 17. 1. 1. 1. 5. 25. 14. 3. 44.
      5. 9. 17. 78. 1404. 1036. 42. 595. 7. 4. 48. 191. 43. 12. 2. 12.
      4. 10. 86. 153. 44. 10. 1. 2. 0. 0. 2. 3. 43. 4. 1. 6. 4. 0. 23.
      17. 8006. 2910. 133. 801. 10. 2. 122. 168. 141. 22. 7. 11. 95. 31.
      629. 460. 2260. 253. 34. 83. 6. 2. 42. 25. 741. 58. 13. 72. 190.
      13. 458. 225.</_>
    <_>
      15140. 1078. 1051. 906. 322. 9. 1295. 1300. 1268. 66. 64. 41.
      1294. 88. 5309. 3223. 1188. 29. 47. 8. 17. 1. 42. 6. 1219. 27. 26.
      19. 1425. 13. 2336. 298. 1207. 29. 49. 17. 13. 0. 78. 29. 92. 4.
      5. 2. 52. 1. 180. 76. 1126. 17. 24. 9. 20. 0. 61. 9. 1747. 5. 41.
      19. 921. 3. 978. 117. 289. 9. 16. 12. 4. 0. 8. 6. 18. 0. 2. 1. 6.
      1. 20. 12. 20. 0. 2. 0. 0. 0. 2. 0. 22. 0. 3. 1. 3. 0. 11. 3.
      1434. 49. 68. 64. 11. 0. 24. 17. 50. 1. 7. 1. 62. 3. 128. 82.
      1283. 5. 22. 11. 6. 0. 20. 0. 792. 2. 13. 8. 268. 6. 314. 51.
      1056. 911. 82. 1411. 21. 13. 40. 786. 35. 21. 4. 25. 50. 68. 130.
      889. 76. 18. 3. 9. 0. 0. 1. 4. 23. 5. 1. 14. 20. 9. 36. 86. 68.
      26. 2. 36. 4. 0. 6. 11. 4. 1. 0. 1. 1. 4. 4. 29. 34. 16. 1. 19. 0.
      2. 2. 9. 26. 20. 1. 42. 8. 14. 14. 99. 1249. 946. 40. 560. 8. 7.
      43. 216. 51. 20. 1. 10. 13. 9. 95. 215. 84. 13. 3. 2. 0. 0. 11. 8.
      61. 11. 2. 9. 4. 2. 36. 32. 7373. 2327. 194. 772. 15. 6. 166. 271.
      157. 32. 9. 15. 105. 41. 612. 640. 4360. 373. 68. 123. 17. 4. 75.
      45. 928. 93. 32. 99. 255. 27. 637. 406.</_>
    <_>
      15929. 832. 1028. 854. 314. 12. 1237. 1037. 1442. 21. 52. 27.
      1701. 44. 6472. 1885. 966. 18. 27. 9. 14. 1. 48. 3. 1321. 7. 30.
      7. 1895. 9. 3893. 298. 1063. 31. 56. 16. 18. 1. 59. 16. 87. 1. 5.
      0. 62. 2. 125. 29. 973. 4. 20. 5. 19. 1. 49. 6. 2027. 8. 29. 16.
      1247. 3. 1152. 92. 297. 9. 18. 9. 4. 0. 7. 4. 11. 0. 1. 1. 4. 0.
      10. 5. 8. 0. 1. 0. 0. 0. 1. 0. 13. 0. 0. 2. 3. 0. 10. 3. 1228. 49.
      56. 47. 11. 0. 11. 11. 58. 2. 3. 2. 56. 3. 111. 44. 816. 7. 21. 9.
      5. 0. 4. 0. 663. 2. 11. 9. 243. 1. 219. 26. 1049. 966. 75. 1545.
      17. 10. 40. 705. 48. 19. 1. 33. 60. 50. 121. 737. 27. 8. 0. 3. 0.
      1. 1. 3. 24. 6. 2. 15. 15. 7. 24. 103. 44. 22. 5. 26. 0. 1. 1. 8.
      1. 0. 0. 6. 1. 1. 6. 14. 33. 17. 2. 13. 0. 0. 4. 6. 31. 23. 2. 67.
      15. 8. 20. 93. 1365. 1152. 46. 627. 8. 4. 59. 201. 58. 16. 3. 8.
      18. 7. 98. 180. 39. 5. 1. 1. 0. 0. 3. 3. 59. 7. 0. 5. 10. 1. 24.
      16. 7871. 3300. 145. 858. 20. 4. 122. 202. 156. 25. 10. 20. 119.
      31. 701. 492. 2174. 302. 22. 98. 8. 0. 34. 24. 723. 94. 18. 110.
      220. 26. 557. 249.</_>
    <_>
      11262. 588. 1257. 1635. 725. 24. 1485. 3311. 992. 32. 71. 41.
      1033. 43. 2868. 2903. 527. 12. 20. 12. 5. 1. 31. 12. 1003. 9. 38.
      52. 878. 6. 919. 267. 1272. 21. 99. 88. 29. 0. 53. 75. 59. 1. 2.
      4. 25. 1. 69. 47. 1460. 14. 92. 34. 17. 0. 62. 31. 2558. 12. 89.
      58. 757. 4. 736. 232. 653. 3. 26. 38. 17. 1. 6. 11. 47. 1. 2. 5.
      13. 2. 12. 7. 18. 0. 0. 0. 1. 0. 1. 0. 52. 2. 1. 0. 5. 0. 3. 6.
      1630. 28. 69. 76. 9. 0. 18. 18. 37. 1. 0. 2. 27. 1. 37. 23. 3614.
      15. 70. 18. 13. 0. 20. 5. 2752. 8. 54. 30. 211. 2. 187. 34. 1162.
      1221. 69. 3473. 42. 69. 40. 3315. 81. 61. 4. 96. 67. 85. 70. 1684.
      35. 11. 3. 11. 0. 0. 2. 9. 50. 14. 1. 57. 33. 18. 16. 205. 82. 37.
      4. 102. 3. 0. 5. 65. 5. 1. 1. 3. 4. 4. 9. 36. 48. 36. 3. 52. 3. 2.
      8. 35. 69. 48. 3. 126. 22. 14. 20. 333. 1338. 1054. 32. 1034. 10.
      4. 26. 320. 59. 27. 2. 31. 16. 19. 36. 186. 50. 2. 5. 6. 2. 1. 4.
      3. 75. 13. 4. 17. 6. 0. 21. 33. 3519. 1229. 87. 965. 15. 9. 34.
      237. 85. 17. 7. 17. 43. 9. 96. 220. 3663. 326. 29. 214. 8. 1. 23.
      36. 1834. 215. 56. 286. 173. 32. 226. 409.</_>
    <_>
      9950. 589. 934. 1285. 847. 65. 1248. 3076. 947. 28. 63. 54. 1073.
      42. 2060. 2669. 591. 19. 34. 16. 14. 1. 27. 21. 1066. 13. 49. 43.
      885. 6. 798. 339. 964. 48. 119. 116. 49. 3. 82. 89. 53. 7. 8. 9.
      39. 2. 63. 52. 1345. 16. 92. 50. 54. 3. 82. 52. 2468. 22. 120. 56.
      1095. 9. 801. 358. 884. 21. 56. 43. 16. 2. 22. 14. 76. 1. 8. 5.
      21. 2. 11. 16. 53. 0. 2. 4. 0. 0. 1. 1. 105. 0. 4. 2. 13. 1. 7.
      10. 1470. 45. 89. 101. 20. 1. 20. 28. 49. 1. 1. 2. 30. 0. 44. 29.
      3491. 18. 118. 53. 15. 0. 33. 11. 3405. 23. 114. 60. 379. 12. 260.
      91. 1147. 1248. 68. 2901. 79. 106. 55. 3347. 111. 71. 0. 89. 101.
      99. 59. 1617. 42. 11. 4. 19. 2. 1. 3. 30. 79. 18. 2. 50. 30. 28.
      25. 265. 81. 66. 7. 131. 8. 7. 4. 139. 2. 3. 0. 7. 4. 4. 4. 69.
      64. 51. 5. 76. 5. 4. 5. 66. 90. 48. 3. 163. 53. 33. 17. 395. 1324.
      1123. 44. 1282. 16. 23. 25. 383. 95. 41. 1. 40. 30. 32. 25. 193.
      61. 8. 3. 8. 0. 1. 3. 4. 94. 23. 1. 23. 21. 3. 27. 57. 2835. 1226.
      77. 971. 17. 14. 39. 292. 67. 36. 9. 22. 36. 18. 89. 253. 3772.
      448. 63. 417. 15. 8. 29. 103. 1907. 288. 78. 457. 221. 64. 285.
      665.</_>
    <_>
      9705. 559. 956. 1246. 927. 46. 1202. 3068. 926. 32. 75. 48. 1066.
      64. 2028. 2509. 569. 18. 47. 15. 19. 2. 29. 19. 1083. 12. 57. 48.
      1017. 11. 838. 368. 967. 36. 87. 133. 54. 3. 79. 106. 44. 3. 5. 3.
      41. 4. 69. 54. 1321. 18. 102. 37. 46. 1. 86. 54. 2854. 25. 122.
      102. 1078. 11. 872. 409. 990. 18. 38. 62. 25. 3. 16. 25. 81. 0. 7.
      5. 21. 2. 17. 12. 57. 0. 0. 1. 2. 0. 3. 0. 108. 1. 4. 3. 22. 3.
      11. 5. 1426. 35. 80. 83. 18. 1. 17. 32. 41. 2. 3. 4. 29. 2. 37.
      29. 3416. 13. 115. 65. 22. 1. 37. 12. 3869. 14. 118. 55. 411. 4.
      273. 81. 1089. 1221. 67. 2937. 80. 105. 56. 3653. 85. 73. 7. 87.
      75. 102. 69. 1589. 39. 16. 3. 16. 1. 2. 2. 19. 66. 21. 3. 53. 43.
      25. 26. 258. 72. 49. 13. 130. 3. 7. 6. 120. 4. 4. 1. 8. 3. 7. 5.
      48. 52. 62. 6. 79. 5. 9. 3. 57. 93. 69. 9. 198. 41. 31. 28. 481.
      1218. 1125. 35. 1383. 18. 15. 38. 430. 65. 43. 2. 36. 21. 19. 33.
      201. 50. 12. 2. 9. 2. 0. 3. 6. 100. 26. 2. 34. 17. 1. 28. 50.
      2602. 1182. 70. 975. 21. 11. 38. 251. 74. 27. 5. 29. 45. 26. 85.
      211. 3256. 434. 54. 374. 12. 7. 20. 109. 1871. 296. 66. 495. 209.
      62. 223. 671.</_>
    <_>
      9371. 565. 929. 1322. 1019. 51. 1274. 2823. 924. 36. 76. 53. 1115.
      49. 2049. 2240. 546. 18. 37. 16. 24. 1. 43. 19. 1142. 19. 51. 51.
      1095. 7. 978. 416. 906. 32. 95. 100. 56. 0. 71. 71. 69. 2. 11. 9.
      34. 4. 48. 39. 1265. 17. 80. 45. 47. 2. 64. 40. 3309. 32. 134. 79.
      1508. 7. 912. 404. 1025. 18. 57. 59. 28. 2. 17. 20. 82. 1. 4. 2.
      29. 0. 23. 9. 48. 1. 0. 4. 0. 0. 2. 0. 96. 1. 6. 1. 8. 0. 7. 10.
      1346. 30. 74. 81. 24. 1. 16. 26. 50. 2. 7. 3. 27. 2. 33. 26. 3193.
      20. 84. 47. 30. 1. 20. 12. 3795. 20. 119. 56. 456. 11. 248. 73.
      1023. 1156. 47. 3394. 78. 111. 46. 3762. 84. 68. 4. 112. 77. 67.
      52. 1520. 44. 14. 7. 22. 0. 2. 2. 12. 56. 31. 4. 72. 41. 16. 21.
      348. 73. 43. 7. 156. 4. 6. 6. 116. 6. 2. 0. 9. 3. 3. 2. 65. 49.
      39. 7. 90. 5. 7. 4. 82. 124. 67. 8. 184. 36. 26. 20. 516. 1225.
      1133. 42. 1548. 35. 14. 26. 450. 62. 34. 3. 42. 24. 16. 37. 187.
      46. 15. 2. 16. 0. 0. 4. 9. 76. 24. 4. 37. 20. 3. 19. 60. 2358.
      1122. 67. 939. 13. 15. 43. 266. 69. 25. 4. 29. 37. 24. 101. 229.
      2906. 425. 53. 382. 16. 9. 22. 88. 1766. 317. 55. 530. 231. 64.
      246. 682.</_>
    <_>
      9545. 506. 947. 1232. 1074. 26. 1264. 2515. 856. 24. 76. 59. 1176.
      29. 2163. 1988. 478. 17. 34. 15. 14. 1. 34. 16. 1068. 15. 46. 49.
      1220. 14. 1132. 433. 938. 38. 68. 79. 38. 1. 62. 52. 64. 5. 7. 3.
      38. 3. 64. 29. 1354. 15. 74. 40. 54. 1. 60. 30. 3754. 21. 156.
      112. 1791. 8. 901. 395. 1114. 17. 48. 49. 32. 2. 20. 16. 65. 1. 3.
      5. 25. 1. 15. 9. 30. 0. 2. 0. 0. 0. 1. 2. 72. 0. 1. 3. 18. 3. 10.
      10. 1363. 31. 49. 69. 15. 1. 22. 9. 43. 3. 2. 2. 47. 1. 32. 18.
      2795. 13. 64. 22. 13. 0. 23. 8. 3855. 18. 66. 67. 465. 4. 177. 51.
      957. 1148. 63. 3697. 63. 67. 45. 3665. 59. 65. 3. 107. 51. 71. 66.
      1473. 41. 13. 2. 30. 1. 0. 3. 17. 62. 30. 2. 71. 46. 19. 30. 327.
      73. 61. 5. 150. 7. 2. 2. 76. 4. 4. 1. 10. 1. 3. 3. 40. 55. 53. 3.
      109. 4. 4. 1. 49. 120. 85. 7. 281. 41. 47. 29. 575. 1158. 1266.
      47. 1850. 29. 11. 38. 480. 50. 38. 3. 36. 22. 14. 41. 218. 45. 12.
      1. 9. 0. 1. 1. 1. 61. 20. 4. 52. 10. 1. 12. 45. 2347. 1207. 57.
      999. 20. 11. 29. 222. 60. 32. 6. 26. 32. 20. 79. 197. 2839. 468.
      39. 310. 16. 7. 24. 62. 1583. 310. 48. 573. 220. 62. 217. 608.</_>
    <_>
      9197. 478. 873. 1264. 1169. 28. 1254. 2181. 858. 39. 64. 68. 1119.
      42. 1770. 1612. 608. 23. 41. 22. 34. 0. 28. 10. 1072. 21. 50. 67.
      1265. 15. 1060. 393. 912. 40. 63. 73. 74. 1. 55. 51. 62. 2. 4. 3.
      34. 3. 64. 38. 1395. 28. 64. 52. 53. 0. 67. 27. 3873. 49. 160.
      124. 1963. 15. 1002. 340. 1229. 25. 59. 59. 69. 4. 24. 25. 60. 1.
      7. 7. 37. 1. 27. 12. 40. 2. 1. 1. 0. 0. 2. 0. 61. 2. 3. 3. 22. 3.
      10. 10. 1394. 35. 60. 77. 27. 2. 19. 28. 69. 3. 6. 3. 44. 2. 43.
      18. 2439. 18. 61. 23. 21. 1. 30. 2. 3563. 21. 83. 56. 594. 5. 212.
      51. 859. 1178. 72. 3784. 72. 77. 66. 3225. 67. 64. 11. 119. 55.
      79. 56. 1397. 40. 18. 2. 44. 2. 3. 3. 29. 64. 32. 5. 101. 32. 19.
      27. 356. 77. 62. 5. 159. 8. 7. 2. 95. 6. 2. 1. 8. 1. 2. 2. 47. 71.
      75. 7. 129. 3. 4. 3. 53. 159. 117. 15. 376. 53. 53. 40. 679. 1286.
      1282. 53. 2122. 39. 23. 34. 545. 40. 37. 3. 58. 26. 17. 31. 252.
      49. 19. 2. 19. 0. 0. 2. 10. 76. 24. 6. 51. 20. 3. 14. 68. 2251.
      1329. 65. 1056. 29. 15. 37. 249. 78. 27. 4. 37. 40. 20. 97. 261.
      2321. 438. 31. 415. 11. 9. 27. 80. 1623. 402. 51. 698. 270. 63.
      297. 695.</_>
    <_>
      9826. 510. 943. 1305. 1051. 20. 1239. 2250. 867. 28. 57. 62. 1065.
      30. 1739. 1647. 477. 10. 34. 12. 14. 1. 22. 8. 1095. 19. 45. 42.
      1375. 6. 1110. 372. 956. 33. 70. 68. 42. 1. 38. 29. 60. 0. 3. 4.
      36. 3. 43. 28. 1455. 25. 46. 27. 47. 0. 46. 22. 4311. 27. 151. 97.
      2078. 9. 939. 312. 1131. 18. 44. 51. 42. 0. 26. 7. 55. 0. 2. 3.
      28. 1. 18. 8. 26. 0. 1. 2. 2. 1. 1. 1. 65. 0. 5. 3. 17. 0. 12. 2.
      1494. 25. 41. 52. 20. 0. 11. 18. 38. 2. 3. 1. 38. 2. 24. 17. 2478.
      15. 39. 17. 18. 0. 9. 1. 3890. 14. 52. 49. 521. 4. 169. 47. 924.
      1146. 64. 4278. 79. 55. 53. 3375. 48. 65. 3. 114. 41. 58. 48.
      1310. 30. 24. 5. 26. 0. 0. 2. 17. 57. 18. 4. 89. 32. 18. 25. 333.
      84. 64. 6. 156. 7. 5. 3. 52. 6. 3. 0. 11. 2. 2. 4. 39. 67. 56. 6.
      115. 4. 3. 3. 53. 120. 76. 7. 328. 45. 29. 24. 568. 1236. 1391.
      41. 2205. 27. 21. 33. 486. 45. 25. 1. 59. 20. 11. 32. 170. 45. 11.
      2. 7. 0. 0. 2. 7. 57. 12. 6. 33. 11. 2. 11. 36. 2524. 1377. 58.
      1057. 15. 11. 28. 204. 49. 30. 8. 30. 31. 18. 74. 188. 2336. 468.
      29. 341. 9. 6. 15. 46. 1541. 363. 35. 571. 187. 61. 196. 540.</_></support_vectors>
  <decision_functions>
    <_>
      <sv_count>57</sv_count>
      <rho>7.1121058914720692e-01</rho>
      <alpha>
        1. 1. 1. 1. 1. 1. 1. 1. 1. 1. 1. 9.0029089715004118e-01 1. 1. 1.
        1. 1. 1. 1. 1. 1. 1. 1. 1. 1. 1. 1. 1. -1. -1. -1. -1. -1. -1.
        -1. -1. -1.7012215461643405e-02 -1. -1. -1. -1. -1. -1. -1. -1.
        -1. -1. -1. -1. -1. -1. -1. -1. -1. -1. -8.8327868168839774e-01
        -1.</alpha>
      <index>
        0 1 2 3 4 5 6 7 8 9 10 11 12 13 14 15 16 17 18 19 20 21 22 23 24
        25 26 27 28 29 30 31 32 33 34 35 36 37 38 39 40 41 42 43 44 45
        46 47 48 49 50 51 52 53 54 55 56</index></_></decision_functions></my_svm>
</opencv_storage>
